0.350684,-0.491901,-0.349365,-0.0531063,0.441919,0.0943625,0.487014,0.430226,-0.28434,0.124715,-0.345985,0.256007,-0.324322,-0.182796,-0.0436459,0.44553,0.188821,-0.167919,-0.306136,0.452532,-0.144733,-0.0821536,0.21738,-0.498929,-0.222001,0.0867112,0.482984,0.157131,-0.448954,-0.47342,-0.0180123,0.279443,-0.388489,0.411835,-0.0188523,0.327664,-0.0501036,-0.103856,-0.382156,0.339339,-0.239203,0.00376405,0.40224,0.131334,-0.487975,-0.400479,-0.314847,-0.327579,0.463372,-0.12508,-0.0186841,-0.108773,-0.102352,0.144499,0.170706,0.203545,0.0194515,-0.242094,0.24516,-0.251338,0.304245,0.427166,0.446418,0.112387,-0.0713046,-0.0895382,-0.0657487,0.0925466,-0.334328,0.154858,0.216133,-0.302988,-0.171009,0.360375,-0.332027,-0.0447674,-0.0297673,0.370136,0.0883216,-0.39132,0.301594,0.394412,0.314778,0.00821992,0.172656,0.414725,0.430132,-0.483317,0.0101355,-0.366351,-0.0704452,-0.28774,-0.39726,-0.32654,0.427429,0.341272,-0.164889,0.367484,-0.282117,-0.0507975,0.371826,-0.396288,-0.0117971,-0.393569,0.363431,-0.159688,-0.250032,0.0170801,-0.443585,0.154131,-0.366968,-0.394025,-0.128078,0.025464,-0.0185215,0.489012,0.497296,-0.0444069,-0.368288,0.404139,-0.106298,-0.252305,0.189538,-0.477334,0.321028,0.446761,0.0597714,0.186155,-0.0879601,0.116563,-0.469352,-0.0749792,0.353304,0.336697,-0.347353,0.171363,0.490827,0.153305,-0.203902,-0.433574,0.0765139,0.483746,-0.211799,-0.242483,0.429736,-0.424309,0.444315,-0.127777,0.210441,-0.462801,-0.183956,-0.215531,-0.0698234,0.370075,-0.139012,-0.385275,0.172593,0.294158,-0.0392679,-0.212855,-0.357842,0.106882,0.289672,0.258564,0.21648,-0.130487,0.103278,-0.331027,-0.0910146,0.338345,0.334926,-0.286219,0.388619,0.454509,-0.138732,-0.304598,0.202676,0.0647221,-0.295565,0.399486,-0.199337,-0.0348325,0.491124,0.200128,0.123894,-0.401141,0.487453,0.190073,-0.306035,0.254247,-0.347252,-0.342948,-0.493553,0.429072,-0.448723,-0.116404,0.486877,0.0338674,0.413685,-0.257898,0.0674427,-0.292591,0.411779,-0.102036,-0.276994,0.477778,-0.153173,0.2901,-0.332132,0.435694,0.401767,-0.199003,-0.374688,0.109109,0.108138,0.214524,0.37412,0.057756,-0.2961,-0.249524,-0.163377,-0.470262,-0.143341,0.343657,-0.463172,-0.38836,0.0410743,-0.285616,-0.283519,0.317723,-0.0573973,-0.0644739,-0.0679122,0.412291,-0.0532686,0.491787,0.0458915,-0.289062,0.333016,-0.0209282,0.213368,0.166926,0.393583,-0.121906,-0.248364,-0.135126,-0.221613,-0.114736,-0.42657,-0.1083,-0.371599,-0.154189,0.0921344,0.489995,0.316994,-0.112946,-0.294265,-0.316405,-0.0597338,0.372742,-0.33677,-0.192668,0.185722,-0.130984,0.281283,0.415863,0.106058,0.138012,0.224701,0.230031,0.356405,-0.111437,-0.430073,-0.0723027,0.416664,-0.395592,-0.0960343,-0.097781,-0.09738,-0.183869,-0.299111,-0.205355,0.352827,-0.47523,0.367881,0.219441,0.237873,0.429347,-0.150095,0.316942,0.492747,0.391901,0.205487,0.211321,-0.373406,-0.0186562,0.302526,-0.496467,-0.0168963,-0.206357,0.357747,-0.406946,0.376569,0.0112441,0.116596,0.487064,0.0606825,0.0183498,-0.246666,0.456155,-0.139017,-0.340323,0.0733517,0.172077,-0.0570972,0.151932,-0.185986,0.21582,0.467875,-0.313982,-0.140868,0.18331,0.138167,0.242749,0.205963,0.287489,0.444933,0.055561,-0.281018,-0.350288,0.253276,0.0898116,-0.080622,0.12926,0.459498,0.277751,0.0612566,0.185299,-0.307874,0.138081,0.369777,-0.412569,-0.275904,0.125391,-0.0631583,0.414474,0.256861,0.204089,0.220688,-0.114058,0.463761,-0.338204,-0.104143,0.327663,-0.138871,0.281055,-0.171843,-0.243983,-0.0262015,0.233468,0.237108,0.293835,0.0742508,-0.334606,-0.15691,-0.0825593,-0.238858,-0.149104,0.284941,-0.247963,-0.395674,-0.0989608,0.215807,0.453903,-0.0530279,0.277022,0.145702,-0.198282,0.336542,0.0953782,-0.418683,0.114724,-0.226963,0.281506,-0.319807,-0.321903,0.331244,-0.211341,0.104167,-0.226596,-0.00900665,-0.291287,-0.159428,-0.324193,0.357242,-0.209982,-0.22321,0.275173,-0.459239,-0.126141,0.273845,0.0828469,0.389875,-0.0426033,-0.321328,-0.203043,0.498211,0.245056,-0.180999,0.28336,0.32388,0.213132,-0.163433,0.461159,0.116716,0.107505,-0.156899,-0.0537394,-0.451988,-0.150822,0.324374,-0.392471,0.313123,0.281576,0.263036,0.098101,0.0819291,0.215103,-0.377748,0.456341,0.238781,0.0763594,0.415183,-0.386355,0.455583,0.249105,-0.43154,0.111874,-0.164231,-0.207088,-0.0541971,0.00482427,0.385148,-0.183629,-0.370124,-0.189266,0.253617,0.217626,-0.201911,0.185789,-0.367125,0.110981,-0.390981,-0.176855,-0.0967644,0.0939371,-0.244871,0.130025,0.0362868,0.228653,-0.170084,0.143849,0.34268,-0.177103,-0.318421,-0.149684,0.0320041,0.0826799,0.457832,-0.420822,-0.0619482,0.188151,0.476264,-0.496455,-0.185143,-0.453936,-0.280038,0.0581388,-0.0753023,0.47621,0.20143,0.00658842,0.111292,0.220879,0.220807,0.17892,0.0912399,0.372972,-0.346167,0.347833,0.439018,0.178256,-0.102063,0.18135,-0.471411,-0.00207278,0.0529757,0.363266,-0.324714,-0.151866,-0.476092,0.3548,-0.0435721,0.458683,0.0241453,-0.316668,0.217002,-0.0206223,-0.0153982,0.402364,-0.110566,-0.400072,-0.0977939,0.0483059,-0.0232581,0.210075,-0.477655,0.0150783,0.207786,0.257299,-0.300328,0.122359,-0.46387,0.4465,-0.0702331,-0.411487,-0.307112,-0.330479,0.256587,-0.33359,-0.148439,0.287547,-0.00533348,0.32722,-0.440241,0.126125,-0.0314796,-0.0666194,-0.344305,0.288759,-0.318235,0.175197,0.0674248,0.145486,0.140232,-0.13311,-0.3403,0.0774231,-0.124391,0.314548,-0.341003,0.00980726,-0.36541,0.0268693,-0.275583,-0.214769,0.381823,0.317793,0.248507,-0.199036,0.204948,0.298099,-0.472933,0.218028,0.0120807,-0.105574,0.106453,0.155314,-0.421077,-0.41187,-0.147313,-0.0471443,-0.432599,-0.215412,0.183223,0.367611,0.407336,-0.0656465,-0.230157,-0.384033,-0.276519,-0.264523,-0.111588,0.250233,-0.483924,-0.457732,-0.475525,0.137978,0.279625,0.455336,0.0558956,0.11028,-0.244608,0.227702,0.121001,-0.470282,-0.254908,-0.109553,-0.395299,-0.443393,-0.251209,-0.0810441,0.33553,0.14567,0.333337,0.473322,-0.307381,0.0758973,0.0157867,-0.311288,-0.413049,-0.491869,0.371451,0.26688,-0.0444969,0.14506,0.0638138,-0.364699,0.460576,0.24178,-0.429957,0.244074,0.430418,-0.445081,-0.0330981,-0.301549,-0.0225153,-0.0239334,0.153162,-0.451447,-0.213451,0.420781,0.140501,0.161642,0.371178,0.272238,0.223082,0.30314,0.005429,-0.044674,0.23355,-0.477733,0.212805,-0.453144,0.343557,-0.429809,0.0954642,0.261283,0.00412162,-0.437154,-0.187603,-0.181662,0.164307,-0.165884,-0.307402,0.386456,-0.318207,0.356232,-0.476003,0.158488,-0.0499178,-0.489761,0.179483,-0.43423,0.118853,-0.00834177,-0.193038,-0.0884856,0.167305,0.0338504,0.337652,0.168638,0.199278,-0.283203,0.42528,0.170377,-0.203616,0.488778,-0.299939,0.138387,0.12816,-0.300454,-0.316658,-0.0856927,0.256345,0.157086,-0.0613483,0.408314,0.236265,-0.386603,-0.181725,0.101519,0.279251,0.119649,0.251339,-0.288134,0.254272,-0.347307,0.14246,-0.318229,-0.340919,-0.0680329,-0.423965,-0.121401,0.368499,0.493406,-0.240706,0.425441,-0.250797,0.307295,-0.245719,0.219576,0.0369865,0.145734,0.497683,0.312069,0.27385,0.307807,-0.103679,-0.0614731,-0.00720555,-0.293285,-0.402377,-0.406515,-0.443213,0.471732,-0.152718,0.282761,0.170048,0.0959797,-0.149454,-0.179532,-0.310661,-0.34917,-0.405687,0.37385,-0.222331,-0.436617,0.0788134,0.371389,0.214839,0.322782,-0.212119,0.0860403,0.248641,-0.00231787,0.17921,-0.465443,-0.0504496,-0.30669,-0.145493,0.448608,0.305985,0.0108733,-0.163351,-0.222511,0.157313,-0.271,-0.0797644,-0.140406,0.39118,0.0183711,0.102162,-0.468888,-0.22211,-0.241917,-0.148569,0.0101601,-0.478895,-0.261068,0.256894,0.101704,-0.42026,0.32046,0.172772,-0.317142,-0.207387,-0.120892,-0.147352,0.102634,-0.130049,-0.212378,-0.100297,0.491766,-0.0310769,-0.385726,0.403379,-0.247406,-0.429126,-0.111338,-0.461778,-0.361974,0.0672619,0.276076,-0.404039,0.265941,-0.389771,0.399096,0.49114,0.02812,0.341798,-0.259863,-0.333109,-0.0691094,-0.105266,0.131513,0.441003,-0.126397,-0.186662,0.346226,0.15706,-0.0356489,-0.466765,0.483431,0.25839,-0.368994,-0.160161,0.0603458,0.275957,0.179527,0.022144,0.456274,-0.184667,0.0155472,0.309896,0.0849403,0.403066,0.493052,-0.310457,-0.43263,-0.364891,0.0240112,-0.0626579,-0.0416476,-0.0707628,0.0203328,0.441824,-0.48219,0.317641,-0.0345905,-0.444975,0.427907,-0.482186,0.405754,0.313912,-0.0795948,0.182459,-0.416822,0.125154,0.0546482,0.449217,-0.270638,0.0414308,-0.302553,0.439664,0.0720933,0.230751,0.345368,0.497379,0.414204,0.430138,-0.17839,-0.344163,-0.351787,0.178528,-0.330936,-0.376405,-0.0851614,-0.401418,0.42272,0.0833239,0.245693,-0.396156,-0.145981,-0.437818,-0.253172,0.363666,0.323534,0.404601,0.117613,0.289678,0.27245,0.450642,0.0551606,0.0448981,-0.0734065,0.0966277,0.0254252,-0.141309,0.323143,0.0411459,-0.0711054,0.429494,0.126968,0.00473133,0.366264,-0.0366701,0.343925,-0.439653,-0.357429,0.345377,0.402669,-0.343474,-0.248174,0.0675602,-0.178558,0.0269809,0.262682,-0.3626,-0.472261,0.142233,-0.436328,0.264157,-0.301217,0.296093,0.498761,-0.212251,-0.0244414,-0.0889726,0.24491,-0.22463,0.466477,-0.0841623,-0.407429,0.000598344,0.388004,0.0307474,-0.194047,-0.291152,0.24913,0.339784,0.16655,-0.280766,0.336546,-0.0206757,-0.305901,0.188522,-0.19721,-0.238517,0.292494,0.237199,0.454179,0.431837,-0.347131,0.17176,0.478165,-0.201011,-0.46954,-0.347523,-0.0203478,-0.430848,-0.37047,-0.408095,-0.354824,0.122901,0.258158,0.369733,0.138937,-0.0328643,-0.309399,-0.143664,0.427763,-0.226828,0.404298,0.414848,0.364827,-0.316181,0.430579,-0.0810542,-0.148329,0.16119,0.214043,0.378506,-0.0686251,0.0393265,-0.354772,-0.320492,0.494589,0.296469,0.161856,0.385373,-0.177904,0.0970009,-0.39351,-0.234097,-0.221862,0.102487,0.416148,0.363586,0.373301,0.234558,-0.473256,0.392108,-0.4815,0.255959,-0.0840535,-0.476789,-0.0968013,-0.487567,-0.490604,-0.426653,-0.098766,-0.139548,0.493894,0.460825,0.230365,-0.146841,0.360393,-0.424324,-0.378158,0.297089,0.337395,-0.203077,-0.00974582,-0.13009,0.418072,-0.157188,0.246433,0.0621976,0.00667098,0.412832,-0.149543,0.253454,-0.187707,-0.167786,0.25793,-0.33163,-0.0298895,-0.490641,-0.209685,-0.299704,-0.327468,0.446343,0.0534778,-0.133754,-0.257062,-0.169913,0.0662998,-0.0321907,-0.101824,-0.260999,0.157182,0.0379277,0.121392,0.472329,0.402995,-0.114059,0.143921,-0.147219,0.259517,0.206627,-0.0172573,0.451293,0.289458,0.185165,0.250164,0.131854,0.20262,-0.409144,-0.273596,-0.0331755,0.341267,0.204224,-0.396438,0.197011,0.450649,-0.251397,0.171677,-0.16746,-0.357058,0.0396359,-0.364561,-0.368333,-0.414751,-0.167057,-0.139304,-0.481344,-0.165654,0.00442938,-0.386682,0.187319,-0.434934,-0.211987,-0.489311,-0.240996,-0.442508,-0.00790109,0.3483,-0.00539704,-0.139432,0.0100574,-0.456169,-0.365744,0.448595,-0.308767,-0.226607,0.322405,-0.270934,-0.348684,-0.154309,-0.223915,0.0187028,-0.300927,0.178421,0.423769,-0.0937984,0.398824,-0.111303,0.480566,0.40608,0.0107944,-0.00451335,0.34707,0.331934,0.089861,-0.25307,-0.21687,0.0860273,0.0157064,-0.429147,0.345302,0.262132,-0.488427,0.00534303,0.163666,-0.372466,-0.431934,0.267026,-0.452464,0.167109,-0.172351,-0.303461,-0.0371573,-0.0295922,-0.409164,0.114619,0.269213,-0.488392,-0.288773,0.00520734,-0.0626445,0.06659,-0.132265,0.039693,-0.305287,-0.337143,-0.2935,0.398321,0.0616063,-0.42501,0.331497,0.452925,-0.43627,0.0983448,-0.0571852,0.241933,-0.0327816,0.0252087,0.0422057,-0.00345593,-0.326252,-0.424541,-0.216216,0.270148,0.501471,-0.120519,-0.298648,0.0276321,-0.0651793,-0.434092,-0.0131743,0.329749,0.276494,-0.259571,0.412009,0.182006,0.119687,-0.278519,0.378969,0.201703,0.178953,-0.212408,0.312108,-0.00992165,0.00710494,0.204341,-0.246357,0.327157,-0.0667275,0.251176,0.11357,-0.172633,-0.10305,-0.116501,0.212915,0.170255,0.452989,-0.0448383,0.397054,0.292942,-0.418694,-0.107473,-0.147282,-0.303388,-0.449054,0.18501,0.299481,0.161143,-0.131598,-0.329794,-0.421379,0.423899,-0.187642,-0.116095,-0.00366513,-0.299409,-0.0814039,0.504182,-0.392999,-0.40512,-0.340641,-0.366226,0.38922,0.32542,0.39034,-0.123753,0.354316,-0.403178,-0.492119,-0.0563523,-0.4062,0.15162,-0.128105,0.153347,-0.209343,-0.334813,0.171021,-0.234058,-0.465759,0.0467026,-0.37185,0.38801,0.134491,-0.435189,0.387407,0.206726,0.211398,-0.0439351,-0.364007,-0.384386,-0.3303,-0.42894,0.484557,0.2629,0.460218,0.477675,-0.403336,-0.0229524,0.319629,-0.0624251,-0.33824,-0.125196,0.0458989,0.370589,-0.426966,0.173697,0.233019,-0.205782,0.24172,0.379858,0.134843,0.166648,-0.121614,0.475871,0.222811,0.0865112,-0.309374,0.210741,0.383767,0.0135919,0.13852,-0.160853,0.24588,-0.430275,-0.480524,0.142678,-0.280688,-0.262059,0.343884,0.406182,0.474696,0.120576,-0.0980724,-0.447204,-0.457279,-0.00740791,-0.337464,-0.337566,0.104828,-0.483796,-0.199052,-0.224876,-0.442466,-0.0378742,0.194108,-0.322097,-0.452202,-0.0864286,0.03909,-0.336234,0.0947961,-0.494849,-0.355959,-0.209667,-0.0567139,0.235435,-0.245235,-0.43537,-0.0857836,-0.477819,0.0618167,0.123225,0.297803,-0.231175,-0.469315,0.0725947,0.348441,0.00457209,-0.160556,0.427625,0.3218,-0.15874,-0.34709,0.221068,0.12313,-0.408403,0.386259,-0.292104,-0.242986,0.135978,-0.348261,-0.217258,-0.321801,0.329847,0.255048,-0.240332,-0.463024,-0.0057646,0.341203,0.49454,-0.215702,0.279354,-0.310463,-0.155644,0.366599,0.343673,0.0867462,-0.437333,-0.0238162,0.36883,0.333379,0.278489,0.49308,0.428741,-0.15529,-0.0340128,0.191703,-0.463638,-0.242552,-0.461555,0.252272,-0.49786,-0.0391621,0.319875,-0.0497117,0.105084,0.162014,0.393948,0.135874,-0.492509,-0.281306,0.0761118,0.465936,-0.0803724,0.0152126,-0.0732301,0.0194905,0.091315,-0.145072,-0.161155,0.423928,0.30929,0.291878,0.489492,0.085631,0.447806,0.168239,-0.30027,-0.213905,0.405289,-0.285848,-0.44111,-0.438651,-0.293566,0.27824,-0.035812,-0.353831,0.111148,0.0555511,-0.00400636,-0.317817,0.0676078,0.0395575,0.31258,-0.488595,0.431724,0.431153,0.300315,0.205358,-0.0614465,-0.305221,-0.199757,0.439877,-0.263489,0.409361,0.0204562,0.41534,0.221895,0.465784,-0.175592,0.156171,-0.456305,0.0582742,0.361592,0.000622173,-0.415861,-0.319104,0.345604,0.01619,0.368358,0.0748609,0.00759828,0.165366,-0.00603076,0.359939,-0.358508,-0.271661,-0.0803923,-0.421503,0.319815,0.366625,0.0662623,-0.237175,-0.422133,-0.201754,-0.287348,0.457505,0.411866,-0.306797,-0.0245126,0.353672,0.228193,0.460622,0.0997482,-0.209397,-0.349599,-0.246429,-0.214897,0.360297,-0.199672,0.407398,-0.135063,-0.116693,0.0310497,0.404281,0.153934,0.47074,0.0136263,0.101477,-0.480478,0.430701,-0.307966,-0.0573201,-0.179706,-0.410409,0.0504205,-0.404156,0.483032,0.111304,-0.0789561,0.213276,0.3118,0.142285,0.254299,-0.295333,0.447111,-0.281957,0.253738,-0.359389,-0.168012,-0.49312,0.234189,-0.496454,-0.470931,0.131264,-0.118223,0.0251392,0.0708669,-0.2059,-0.464551,-0.454741,-0.392834,-0.139116,0.34115,-0.0150214,0.106273,0.205197,-0.159989,-0.236848,-0.255435,0.105638,0.0800357,0.012479,-0.174568,0.312546,0.309406,-0.40369,0.451252,0.30749,0.190537,-0.243424,0.321846,0.261996,0.211842,0.407244,-0.182335,-0.113818,-0.426719,0.292457,-0.18607,0.0221486,0.401643,-0.471686,-0.249436,0.126018,0.249772,0.0724243,0.221332,-0.0182185,-0.0785545,-0.343671,0.496589,-0.0106182,0.200692,0.483534,-0.152111,-0.299985,-0.143035,0.123695,-0.197579,-0.475418,-0.299741,0.287215,0.255899,0.214265,0.164824,0.233837,-0.400433,-0.270913,-0.0650362,0.0281544,-0.246226,-0.03839,0.333773,0.408537,0.132223,-0.159267,0.172979,-0.240171,0.138269,-0.151696,0.145423,-0.199514,-0.273388,0.471358,0.438713,-0.491646,-0.0301912,0.10137,0.0487895,-0.414151,-0.0343694,-0.422562,0.016222,0.288455,0.138209,0.322777,0.489128,0.21452,0.218418,0.285966,0.329661,0.279608,-0.395262,0.385763,0.412906,-0.449096,-0.301493,-0.471373,0.36816,-0.0657362,-0.421905,0.0540849,-0.0368694,0.0582061,0.309274,-0.0241736,0.357478,-0.419941,-0.382945,0.0353651,-0.0625848,-0.441469,0.304833,-0.158117,-0.261462,0.242509,0.404678,0.257631,-0.303835,-0.451468,0.395062,0.0929153,0.41737,-0.48198,-0.0236471,-0.0237985,-0.0657458,-0.409383,-0.342057,0.451938,0.340431,-0.479602,0.289705,-0.381507,-0.218267,0.133262,-0.440446,0.242952,0.379117,-0.351235,-0.388408,-0.450415,0.193169,0.459847,0.120626,0.287704,-0.228809,-0.387801,-0.0757802,0.389219,0.0833932,-0.041489,-0.391117,0.154564,0.173225,-0.0604998,-0.255127,-0.404783,-0.292586,-0.364399,-0.143552,-0.379437,-0.470355,-0.0492781,0.0744613,-0.07299,-0.155163,-0.112426,-0.00169809,0.39032,0.407867,0.024013,0.341508,0.476632,0.259642,0.461502,0.334344,-0.0671818,-0.131783,-0.472873,-0.222586,0.421251,0.243844,0.305903,-0.379709,-0.146092,0.465144,0.31609,0.0986436,0.0564618,-0.230878,0.369752,0.388597,0.396933,-0.215364,0.05278,-0.121173,0.344901,-0.312716,-0.145472,0.137345,0.138685,-0.0549132,-0.40144,0.100752,0.263814,-0.213595,0.437968,0.182826,-0.334445,-0.485656,-0.107192,-0.241186,-0.399237,0.381762,0.273457,-0.38966,-0.188955,0.107987,-0.259714,-0.408544,-0.333316,-0.478357,0.463213,0.414118,0.117346,-0.0836622,-0.205384,-0.13285,0.358277,0.25196,0.437913,0.251194,-0.235241,0.0254863,-0.226229,-0.139413,0.0545581,-0.270584,0.299994,0.419593,-0.189208,-0.030791,0.468492,0.159723,0.00526086,-0.124119,0.383595,-0.349467,-0.113447,-0.378032,-0.0292444,-0.0562353,0.253109,0.280482,-0.49553,-0.394224,0.275101,-0.397946,-0.247519,-0.345805,-0.32272,-0.194585,0.422514,0.361353,0.249921,-0.253202,0.252547,-0.367447,0.290007,0.254366,-0.282291,-0.454895,-0.241312,0.349305,-0.25165,-0.459093,-0.217756,0.0373049,0.424372,0.287755,-0.482721,-0.197657,0.201319,-0.0399983,0.0374075,-0.309119,-0.413569,0.493032,0.0399466,0.00337533,-0.495128,0.323386,0.048293,0.325834,-0.071474,-0.390017,0.174698,-0.372553,-0.392226,0.0866529,0.240942,0.412799,0.12001,-0.34754,-0.195153,-0.0955199,0.10091,0.428266,0.184692,0.202562,0.379004,-0.247767,-0.158161,-0.152504,0.479573,0.0724497,-0.325707,0.0424088,0.125955,-0.18727,-0.385912,-0.289011,-0.0378304,0.314407,0.204445,0.184319,0.475843,-0.230417,0.0547952,0.0764818,0.444984,-0.0517922,-0.198526,0.116667,0.265797,-0.231684,0.346079,0.336016,0.263748,0.0239625,-0.0331289,-0.250873,-0.301439,0.381432,-0.183121,0.266583,-0.0944013,-0.449892,-0.277114,0.245541,-0.0701385,0.375422,0.0449156,-0.26887,0.128342,0.26557,0.000340189,-0.303432,-0.14256,-0.202479,0.158958,0.32843,0.174389,-0.306997,-0.0384874,-0.223874,0.0882016,-0.114856,0.03057,0.364076,0.338771,0.135013,-0.134937,-0.203734,0.220143,0.187564,-0.182318,-0.410208,0.0468331,-0.447124,-0.39502,-0.21411,0.109899,-0.484447,-0.388391,0.311507,-0.269791,0.341671,0.0129509,-0.324965,-0.130306,-0.0119991,-0.251799,0.0217926,-0.350018,0.383765,-0.0355174,-0.0268505,0.154883,0.125466,0.225458,0.145146,0.476781,-0.272432,0.0423338,-0.438247,0.356281,0.0782317,0.35428,-0.190387,0.374493,0.124039,-0.164783,0.502313,-0.121444,0.275678,-0.231224,0.0757461,-0.252067,0.0317696,-0.121036,0.340344,0.263002,0.376287,0.0146897,0.278325,-0.313056,-0.0278274,-0.200176,-0.353788,0.49592,-0.226201,-0.296067,0.253803,-0.121305,-0.084387,-0.219407,-0.292876,-0.380347,-0.0268114,-0.138537,0.345131,0.502815,0.392602,-0.263706,-0.386202,0.103059,-0.142896,0.329155,-0.146852,-0.130943,-0.368988,0.430352,-0.468273,-0.318073,-0.426328,-0.36699,0.260495,0.0389546,-0.444298,0.211913,0.436916,0.484848,-0.244576,-0.223791,0.425958,0.350789,0.0125933,0.212544,0.244673,-0.319252,0.355529,0.0198802,0.177,0.0732462,-0.373914,-0.48379,0.302088,-0.236122,-0.139397,0.468807,0.349643,0.280036,-0.484847,-0.0595448,-0.369246,-0.272966,-0.186745,-0.0883666,0.245334,0.420432,0.092314,-0.289797,-0.0448431,0.179161,0.243312,0.490227,-0.284625,0.0441902,0.415187,0.237588,0.480186,0.0495656,0.280573,0.243146,0.0382612,0.18746,0.451515,-0.457882,-0.405992,0.115674,0.486223,0.446616,0.38732,-0.0431319,0.196634,0.0268429,0.330597,0.408114,-0.0776877,0.335153,-0.0415497,-0.18226,-0.401481,-0.375189,-0.329986,-0.0290022,0.2825,-0.295853,-0.428233,0.100355,0.0483582,-0.0221965,-0.110878,-0.174289,0.13782,0.184503,-0.0114277,-0.305373,-0.32589,0.153052,0.397067,0.287675,0.0813596,0.0882503,0.0913258,-0.0777479,0.0873587,0.490566,0.00787018,-0.145206,0.478454,0.190453,0.124703,-0.299181,0.503808,-0.288789,-0.448333,0.403719,0.15578,0.351523,-0.0640725,0.169381,0.261915,-0.352826,0.336234,-0.0649129,0.107252,-0.232988,-0.162536,0.229929,-0.460197,0.0294767,-0.288915,-0.449921,-0.356574,-0.0796144,0.0633422,0.42405,-0.0888484,0.370056,0.148747,-0.163246,0.371764,-0.243964,0.279749,-0.269356,-0.151839,-0.3398,0.295408,0.163399,-0.398492,0.0820971,-0.186528,-0.168789,-0.424923,0.0671284,-0.308912,-0.299437,-0.0299972,0.39822,-0.137209,0.450802,-0.379243,-0.115946,-0.244677,-0.238563,-0.119336,0.47682,0.0770663,-0.032696,-0.0379576,-0.111052,-0.336939,0.413742,-0.194544,-0.0959187,0.252603,-0.0343952,0.0240895,-0.411889,0.260277,0.0280011,-0.449634,-0.292931,0.374687,-0.398959,-0.300334,0.462602,-0.446416,0.293516,-0.271176,-0.246173,0.0922102,-0.349218,-0.222308,0.362571,-0.288662,0.202976,0.0256551,-0.411388,0.193581,-0.0319697,-0.087688,-0.00676717,-0.241671,0.425531,0.00780858,-0.179623,0.207781,-0.478271,-0.343626,0.352404,-0.373775,0.339964,0.237311,0.407158,-0.35589,0.197857,-0.267428,-0.192802,-0.392432,0.0971423,-0.142827,-0.067982,-0.395625,-0.332595,0.165991,0.414036,-0.474762,-0.239198,0.259518,0.289085,0.416851,0.214835,0.45612,0.19464,-0.145827,-0.310159,-0.3972,-0.350127,-0.0707241,-0.0255673,-0.454359,-0.11215,-0.285628,-0.151811,0.0211501,-0.477112,0.411981,-0.436263,-0.0646207,-0.273007,-0.319727,-0.210057,0.0706507,-0.477507,0.0995603,0.201853,-0.135986,0.180931,0.226987,-0.0780202,0.395293,0.283629,0.46678,-0.426066,0.31743,-0.284704,0.101922,-0.49415,0.0799053,0.347089,0.393189,-0.361336,0.429,-0.333474,-0.0348901,0.290239,0.194597,-0.0722149,-0.0831291,-0.0207259,0.270024,-0.445169,-0.260537,-0.214481,0.447778,-0.387323,-0.100435,-0.177304,0.0049835,-0.189319,0.181692,-0.359319,0.0789359,-0.210084,-0.454005,0.0761023,-0.0577483,-0.079708,0.281904,0.392393,0.223159,0.143975,0.0301443,-0.221889,-0.37505,0.0593722,0.322726,0.0186341,0.282345,-0.277037,-0.250898,0.317761,-0.236176,0.350294,-0.198807,0.340382,-0.287899,-0.191585,-0.432277,0.243182,0.497956,-0.361976,0.385847,0.351729,0.254527,0.239679,-0.128078,0.485805,-0.119194,-0.100357,0.158171,-0.248982,-0.0893761,-0.250834,-0.25794,0.48414,-0.326167,-0.427301,-0.325387,0.270905,-0.293395,0.49797,-0.291282,-0.206232,-0.282987,-0.179356,-0.212975,0.479083,-0.309375,-0.457933,-0.235679,-0.120115,-0.459765,0.490394,0.478813,-0.493494,0.0351295,-0.329399,-0.339493,0.325788,-0.0125401,0.148977,0.418947,0.403295,-0.400484,0.243055,0.303435,-0.00569269,-0.329065,0.355275,0.190601,-0.383051,-0.102119,0.261865,-0.0433187,0.196242,-0.445401,0.0332672,-0.498068,-0.302851,-0.172704,0.255815,0.194977,-0.130304,0.104484,0.196003,-0.134974,-0.355503,0.183037,-0.429135,0.436401,0.0389345,-0.335289,-0.16822,0.258114,-0.267476,-0.312927,0.0185206,-0.452403,0.0420467,-0.425758,0.0786874,0.292868,-0.477147,0.0359122,-0.370312,0.260216,0.446804,0.235716,0.284321,0.14914,0.285789,0.42789,0.460622,-0.337571,-0.388713,-0.223084,0.0551765,0.458552,0.491152,0.333082,-0.221586,-0.036663,-0.179306,0.488772,0.311613,0.413589,0.0304176,0.497593,0.382652,0.206933,-0.19231,-0.390089,-0.10117,-0.300401,0.450597,-0.319448,0.342905,0.347202,0.486189,0.467277,0.412779,0.0527097,-0.24995,-0.462791,0.206426,0.253683,0.0475471,-0.34833,-0.450666,0.261404,0.268521,0.314269,-0.381723,-0.106924,-0.447603,-0.125261,0.246872,0.0537943,0.13512,-0.184824,-0.342297,0.381867,-0.474377,-0.124481,-0.167519,0.148835,0.420934,-0.210855,-0.490475,-0.0719843,0.0530872,0.0948906,0.385997,-0.370929,0.185385,0.248911,-0.372709,0.0279976,-0.0991784,0.0907669,0.0289245,-0.458678,0.100116,-0.216174,0.164906,0.237182,0.373642,0.459355,0.0369404,-0.445825,0.224425,-0.443603,0.213245,0.25256,-0.151017,-0.497078,-0.23364,-0.323293,-0.0173777,-0.367655,-0.417714,-0.304589,0.125562,0.072387,0.213156,-0.416947,-0.383298,-0.471571,0.0174054,-0.257027,-0.142216,0.462587,0.414395,0.0734779,-0.411016,0.293996,-0.498816,0.0864505,-0.491936,0.0554434,0.0445312,0.144746,-0.0364764,-0.230189,0.138233,0.19713,-0.138527,0.472003,-0.399732,0.338128,0.281057,-0.431372,0.171972,-0.103851,-0.119742,-0.464595,0.250339,-0.439142,-0.0827747,-0.179215,-0.366253,-0.179121,-0.319749,-0.426186,-0.341926,-0.424708,-0.338143,-0.144368,-0.216447,0.00470883,0.225851,0.121432,0.216667,-0.10488,0.311622,-0.393329,0.0961439,-0.21816,0.207442,-0.177603,-0.0884435,0.444012,0.401219,0.106517,0.0284131,0.204298,0.450834,-0.114857,0.193517,0.0215104,0.463897,0.138052,0.0569761,-0.32814,0.100993,0.0338154,-0.144713,-0.445711,-0.0221751,0.339731,-0.335318,0.305275,-0.145851,-0.0410818,-0.351716,0.304033,0.143043,0.427892,0.052377,-0.198416,0.173014,0.0220864,-0.0283925,0.307472,0.0542861,-0.446557,0.0943343,-0.486466,-0.45206,-0.186669,0.258769,0.367158,0.0874482,-0.27894,-0.304521,-0.00477538,-0.236751,-0.0348867,0.0880656,-0.0869628,-0.323233,-0.375013,0.130735,-0.282048,0.295424,0.335543,-0.0620559,0.315198,0.116488,0.16543,-0.199056,0.0188421,0.249895,-0.292843,-0.332513,0.259866,0.17239,-0.333732,0.299618,0.234143,0.115632,0.389744,0.197786,-0.430308,0.368467,0.266191,0.496157,-0.00723829,0.0311586,0.263633,0.200263,-0.0778125,0.333359,0.425914,-0.259573,0.434632,0.0938541,0.218219,0.0894904,-0.424157,-0.415494,0.0896871,-0.345726,0.0426148,0.075263,0.317345,-0.215686,-0.0956369,-0.0859193,0.301752,-0.0264789,-0.23828,0.371569,0.199288,0.362392,0.22164,-0.199539,-0.197659,0.151778,0.179513,0.0580195,-0.116715,-0.28859,-0.383952,-0.176957,-0.323228,0.129785,-0.0242075,-0.104597,-0.0389777,0.27622,0.240883,0.205853,-0.325221,-0.381901,0.222032,-0.0509808,-0.322322,0.219515,0.394276,-0.0162813,0.447528,-0.18624,-0.170978,0.0420836,-0.488631,-0.0604782,0.248077,-0.283279,-0.173899,-0.228222,-0.156901,-0.47593,0.420989,0.126156,0.0998295,-0.188677,0.331375,-0.429911,0.156642,0.390521,0.108473,0.236932,-0.0345729,-0.482584,-0.0960508,0.321982,-0.0987336,-0.205323,-0.319768,0.0437216,-0.1958,-0.0918371,-0.401235,0.398308,-0.0527311,0.343342,-0.0471691,-0.427539,-0.325874,0.122728,0.246629,0.122187,0.28709,0.0654837,0.215857,-0.386417,0.110664,-0.114743,0.1512,0.0886642,-0.468446,-0.272699,0.156979,-0.0144873,-0.498867,-0.0402571,0.223155,-0.298945,-0.390424,-0.48415,-0.316065,-0.448169,-0.00613594,0.364564,0.26174,-0.0336667,-0.0251223,-0.219824,0.331709,-0.399464,-0.103559,-0.162529,0.345069,-0.161638,-0.190007,-0.0508806,0.476189,-0.277227,0.217901,-0.450325,-0.11698,0.39694,-0.169863,0.330498,-0.166204,-0.247588,-0.241484,0.0148201,0.349055,0.215778,-0.0554368,-0.271721,0.233137,-0.181236,0.307357,0.193998,-0.262034,0.130321,0.447117,-0.313852,-0.169279,-0.23551,-0.143688,0.346627,-0.381606,-0.318789,-0.0200374,-0.244285,0.0737573,0.153028,-0.460559,0.474324,-0.317209,0.083935,-0.0718941,0.0935214,0.251827,0.342227,0.406665,0.0558861,-0.162853,0.213526,0.31516,-0.0663913,0.401893,-0.335925,0.440791,0.193229,-0.248332,-0.365602,0.0414307,0.316372,-0.172587,-0.198889,-0.266315,0.0235428,-0.152181,0.0972089,0.3957,-0.0520424,0.0193788,-0.159669,-0.193039,0.396188,0.0869062,-0.268081,-0.309033,0.0169842,0.402002,-0.0140242,0.35829,-0.262568,0.0189635,0.0698113,-0.0857047,0.438772,0.203397,-0.371352,-0.439286,-0.490563,-0.446171,-0.07834,-0.254419,0.301839,-0.207704,0.0712411,-0.458422,0.28398,0.109942,-0.0560609,-0.204499,0.224398,-0.260712,-0.221149,0.127574,0.447954,0.490445,0.481519,0.46721,0.32137,-0.082269,0.177614,0.161259,-0.25004,-0.413626,0.342378,-0.0917752,0.0202303,-0.0398014,-0.279479,0.0214056,-0.0748991,0.315601,-0.4293,0.167984,-0.0324145,-0.137828,0.287646,0.113473,0.292362,0.343766,-0.479365,-0.0741853,0.337385,0.296522,0.226808,-0.494649,-0.0180548,-0.300844,-0.442562,-0.267829,-0.266589,-0.165334,-0.425403,-0.49295,0.00290874,-0.0277479,-0.419947,-0.0724211,-0.399828,0.258546,-0.075683,-0.138899,-0.350972,-0.179383,-0.479283,0.478383,0.111417,0.107375,0.170187,0.282412,-0.215835,-0.0406601,0.184883,-0.298059,0.053474,0.191332,0.471671,0.206696,0.130938,-0.38896,0.0800252,-0.18139,0.32863,0.35406,-0.419463,0.0959541,-0.12171,-0.372773,-0.342026,0.0265722,0.291167,-0.100321,0.413619,0.502593,-0.1023,0.216874,-0.425277,0.290839,-0.227188,0.287942,-0.104496,-0.313889,-0.0731423,0.104356,0.161043,0.165691,0.415206,-0.25408,0.0595648,-0.219824,-0.0906927,-0.0368778,0.396948,0.113204,0.052172,-0.115166,-0.246486,0.242235,-0.359434,0.321087,0.215363,-0.345542,-0.0723541,0.431361,-0.226278,-0.204416,0.408055,-0.482119,-0.0166526,-0.48867,-0.17922,0.366739,-0.180506,-0.0149036,-0.0313694,-0.0132903,-0.18901,-0.201549,0.302957,0.453498,0.247774,-0.139552,-0.261059,0.0346243,0.339177,-0.371779,0.383413,-0.195557,-0.215486,0.476903,-0.303468,-0.0956938,-0.325189,0.280274,0.438058,0.0912364,0.42924,0.00803813,-0.00475375,-0.12008,0.473296,-0.487535,0.098982,0.438511,-0.25357,0.306671,0.178139,0.357056,-0.136306,-0.102634,-0.419542,0.201466,-0.190936,-0.403202,0.232112,0.187268,0.0651194,0.443189,-0.3646,-0.180283,0.185618,-0.456915,0.01821,0.136305,-0.439145,0.0190667,-0.24474,0.106296,0.0434213,0.425534,-0.356832,0.28334,0.0905786,-0.0551205,-0.0133604,0.120437,0.115454,-0.298681,0.301856,-0.274777,-0.138272,-0.126866,-0.476393,0.490991,-0.414428,-0.410096,-0.364303,-0.130417,-0.294874,-0.486455,0.45738,-0.151913,0.39779,-0.235133,-0.203683,0.161382,0.314005,0.056331,0.202439,-0.211343,-0.337425,-0.436839,-0.295775,0.158487,0.47911,-0.0882241,-0.363924,-0.343694,-0.0201671,-0.423601,-0.102479,-0.314734,-0.218545,0.269,0.342418,0.498378,-0.369957,-0.0453025,-0.149074,0.212769,-0.0792357,-0.0300664,-0.35475,-0.235195,0.378612,-0.187909,0.342363,0.170536,0.0763248,-0.311598,-0.0453938,0.244443,-0.151385,-0.342578,-0.0774691,0.482178,-0.184758,0.404272,0.366677,-0.212757,0.354903,0.239151,0.468079,0.123194,0.208594,0.426406,0.280416,0.286574,0.336518,-0.0908854,0.456924,-0.421141,-0.426513,0.0917765,-0.104179,0.0652695,-0.301212,0.396828,0.0116229,0.119152,0.462669,0.157921,-0.169655,-0.232114,-0.129465,0.0525987,-0.0775806,0.331697,-0.302359,0.354842,0.0481832,-0.272875,0.298095,-0.412173,0.38789,0.0418372,-0.393844,0.28789,0.294094,-0.182511,0.0985302,0.476523,-0.155478,-0.48234,0.0196208,0.24399,0.447393,0.277169,-0.296893,0.182294,0.034162,-0.0496698,-0.298163,-0.122025,0.475126,0.462249,-0.00938083,-0.185252,0.494938,-0.268756,0.10279,0.108063,-0.0581204,0.309387,-0.255462,0.349276,-0.499861,0.474239,-0.194073,0.219702,0.294701,-0.355434,0.382615,-0.126479,0.389727,-0.408331,0.0505856,-0.277037,0.0513521,0.305277,-0.324189,-0.203117,-0.0316791,-0.216434,0.228011,-0.358081,-0.336338,-0.381233,0.402809,0.471206,-0.250355,-0.0392163,0.255447,-0.251177,-0.229432,-0.135803,-0.334368,0.139403,-0.13,0.401624,-0.0639821,0.231712,-0.341683,0.14501,-0.336068,-0.194281,0.175377,0.191091,-0.448694,-0.323046,0.0720094,0.00200049,-0.359835,-0.389676,0.230716,0.183734,-0.347073,-0.0191751,0.416521,-0.209899,0.159276,0.00634546,-0.312082,-0.466244,-0.224405,-0.069194,-0.160217,0.369068,-0.106945,0.0486232,-0.0799296,0.193465,0.285905,0.339483,-0.202177,0.203551,-0.233116,0.255688,0.022194,0.0921955,-0.244609,-0.279929,0.330669,-0.296325,0.00215715,-0.203759,-0.119917,-0.203762,0.0883885,-0.432688,0.448243,-0.290253,0.0407295,-0.179604,0.276119,0.297601,0.215654,0.219506,-0.0545918,0.039623,0.35598,0.296174,0.396438,-0.207757,0.144611,-0.122127,0.17617,-0.3092,-0.196489,0.0723711,-0.223725,-0.428411,-0.0725315,-0.313836,-0.0208701,-0.354177,0.208941,-0.0130335,-0.238483,0.0373379,-0.343837,0.488409,0.326723,-0.292807,0.291436,0.0465116,-0.144394,-0.361993,-0.461171,0.33236,0.0796457,-0.0791728,-0.0699057,0.20573,-0.0629951,-0.331725,-0.448337,-0.0511492,-0.151422,0.122299,-0.0828507,-0.209234,0.26066,-0.277173,0.0657759,-0.305378,-0.131401,0.275529,-0.258351,0.411821,-0.239914,0.373455,0.135941,-0.000203165,-0.189073,0.0984385,0.156216,0.059588,0.297637,-0.236369,0.00505268,0.260502,0.429678,0.374201,0.109188,0.20244,-0.141021,0.217829,0.365572,0.312419,0.294562,-0.42871,-0.439572,0.0473225,-0.167529,0.334794,0.0709858,-0.0416015,-0.479247,0.252095,-0.273233,0.399413,0.0536336,-0.36279,0.472562,-0.20063,-0.278965,0.199377,0.386981,-0.181195,0.349095,-0.0603896,-0.204054,0.0576788,0.0877857,0.178964,-0.323,-0.00449371,-0.111631,0.145052,0.0135611,0.140907,0.366804,-0.301833,-0.320541,-0.175707,-0.197646,0.224605,-0.448461,0.1129,0.0531375,0.14877,0.386353,-0.158311,0.222645,0.0962985,0.481025,0.0231173,-0.0747397,-0.152453,0.3869,0.0839089,0.346862,-0.201974,-0.156948,-0.282798,-0.225595,0.420341,0.141586,0.383529,-0.390778,0.369178,0.0819873,0.10918,-0.283693,0.452647,-0.202837,0.15484,0.420691,0.396789,-0.00740192,-0.0194695,-0.382639,0.259682,-0.250041,-0.33077,-0.478928,-0.252068,-0.0378166,-0.329992,0.320623,-0.318244,0.273802,-0.323267,0.127972,0.405434,0.295356,0.166491,0.362173,-0.170858,-0.229658,-0.105936,-0.209343,0.202441,0.293384,0.161336,0.45975,-0.460505,0.204416,0.477094,-0.101012,0.307949,-0.198261,-0.087403,0.00924211,-0.200501,-0.379148,-0.349811,-0.0163253,0.385742,0.178428,0.312948,0.0131933,-0.299371,0.492798,-0.337087,0.171298,0.394671,-0.453091,-0.211894,-0.385018,-0.00356747,0.043463,-0.247644,-0.305991,0.0066857,0.103926,-0.0255303,0.257072,-0.200025,-0.486708,0.143827,-0.2949,-0.312176,-0.337639,-0.181433,0.299308,0.206007,0.4126,0.243228,-0.489359,-0.305931,-0.172335,0.475869,-0.394046,0.200165,0.285769,0.0592038,-0.386938,-0.00757664,0.319854,-0.354993,-0.152395,0.343097,0.0862381,0.167429,-0.0824003,-0.310244,0.450193,-0.0088504,0.473283,-0.00470629,-0.0268866,-0.0225492,0.383009,0.285609,0.137043,-0.121446,-0.0142604,0.185064,-0.32395,-0.228307,-0.384239,-0.360929,0.091832,-0.10676,0.487992,-0.366345,0.0337973,0.113272,-0.360149,-0.369581,0.455408,0.329164,-0.389756,-0.485277,0.00431203,-0.275883,-0.282645,0.50924,0.270772,-0.435194,0.366171,-0.347121,-0.145382,-0.0743391,-0.0351756,0.318114,0.109332,-0.183773,-0.41097,-0.177901,-0.167517,-0.0784432,-0.323723,-0.230383,-0.407646,0.297131,-0.235947,0.0220069,-0.0915942,0.216626,0.223678,0.239464,-0.28652,-0.00354018,0.300488,-0.3439,0.173049,0.170785,0.0533349,0.163683,0.203259,0.0451955,-0.0924008,-0.22596,0.34015,-0.0462907,0.239145,-0.397037,0.0358022,-0.476756,0.0307711,0.25156,0.0159899,0.425978,0.460068,-0.298351,0.0607208,-0.345121,-0.2581,0.248959,-0.432499,0.182428,0.0722147,0.0742854,-0.345253,0.138034,-0.366954,-0.259209,0.221898,0.402608,-0.00138468,0.284458,0.134247,-0.0837373,-0.160888,0.10566,0.140088,-0.441821,0.0846001,0.157404,0.456327,-0.255266,0.0688758,0.44327,-0.074565,0.16393,0.479926,-0.393672,-0.207361,-0.368806,-0.139508,0.356142,-0.372637,0.13392,0.481834,0.441478,-0.215594,0.264232,0.339202,0.441002,0.0440894,0.228405,-0.00984336,0.0353418,0.318175,0.33029,0.417782,-0.481625,-0.233385,0.0521357,-0.381501,0.0150133,0.367755,0.237306,0.315699,0.299784,-0.478044,0.395086,0.353408,0.304365,-0.0136082,-0.136481,-0.477942,-0.257352,-0.0164655,-0.0337695,-0.249677,0.497757,-0.327174,0.145807,0.386063,-0.439341,0.227586,-0.0222787,-0.192382,-0.222362,-0.138831,-0.412185,0.21393,-0.188991,-0.208878,0.457437,-0.375919,0.382275,0.409361,-0.13178,-0.455689,0.328406,-0.495498,-0.017349,-0.389461,-0.0467311,-0.00789607,-0.355027,0.130419,-0.431354,-0.307703,0.355655,0.382185,0.255521,0.409454,0.0572276,0.0563736,0.489611,-0.43258,0.0766687,0.216268,-0.445882,0.0689703,-0.258721,-0.147614,0.228087,-0.307252,-0.209824,-0.41389,-0.0576291,-0.454261,0.0101156,0.0941966,0.392708,-0.251768,0.465667,0.183055,0.463744,-0.215851,0.176033,-0.392953,0.143779,-0.107552,-0.288294,-0.289336,-0.111614,-0.204074,-0.39426,-0.132146,-0.0759773,-0.357592,-0.262264,-0.322531,-0.451639,-0.00545263,0.257718,-0.488061,0.466596,0.479191,-0.462223,0.41189,-0.192801,0.165858,-0.463958,-0.357579,-0.0665531,0.359863,0.0395361,-0.282557,-0.230333,0.441064,0.442845,0.313443,0.287339,-0.225892,-0.0399265,0.242532,-0.0050062,-0.45388,0.0649707,0.493254,0.28202,-0.475563,0.208865,0.373881,-0.224686,0.217058,-0.00907282,-0.342414,0.0519892,0.0707167,-0.293617,0.278968,0.0397133,0.238292,0.217434,0.313094,-0.379451,0.157653,-0.116145,0.119361,-0.384274,0.417724,-0.243616,-0.471629,0.368228,-0.0590255,-0.438277,-0.35503,0.169984,0.448612,0.263739,0.145769,-0.486713,-0.334044,0.271559,0.159873,0.0457964,0.0188004,-0.4238,-0.0345992,-0.431722,-0.41491,-0.436083,-0.239531,-0.339634,0.0231267,0.137402,0.463341,0.0686024,0.421675,0.396815,0.0816677,-0.216155,-0.468561,-0.161796,-0.211782,0.0887869,0.0945782,0.0263809,0.148774,0.425977,0.483471,0.311361,0.459349,-0.0893905,-0.0855929,0.0268136,-0.290395,0.377627,-0.28273,-0.47128,0.130125,0.116585,0.209821,-0.00448025,-0.377616,-0.314645,-0.109648,-0.393723,0.0835249,0.242655,-0.418846,0.0924511,-0.165988,0.162609,-0.387701,-0.133154,-0.148039,0.01779,0.3485,0.24583,0.267472,0.0554425,-0.396738,-0.132921,-0.413753,0.0896543,-0.120792,0.336788,0.284993,-0.330242,0.254522,-0.0538512,-0.27492,0.0826757,-0.431868,0.0670901,-0.0863107,0.409951,0.408326,0.0134178,-0.0866312,0.414763,-0.441887,0.123357,-0.219352,-0.0149002,-0.222488,0.107861,-0.176347,0.460212,0.368672,-0.295391,-0.382403,0.363251,-0.364729,-0.498445,-0.361611,0.0637374,-0.18932,-0.154927,-0.386206,0.0267504,-0.188524,0.168304,-0.136849,0.0667594,-0.119434,0.170496,0.492368,0.0131906,-0.0187818,0.251819,-0.403115,-0.141066,0.431866,-0.0498819,0.014369,-0.115717,0.224853,-0.124347,0.133247,-0.400383,-0.496457,0.476357,-0.377245,0.350854,0.241049,0.166245,-0.465359,0.46586,-0.0420438,-0.399171,0.309835,-0.231429,-0.404404,0.012845,-0.407018,-0.275857,0.280131,0.432517,-0.0732109,0.326098,0.0554076,0.465254,-0.0149236,-0.205336,-0.290526,0.438965,-0.0474385,0.166566,0.09722,0.140843,0.207918,-0.218413,0.280403,-0.328297,-0.0659724,0.296207,-0.268296,0.293284,-0.0361705,0.0384357,0.26287,-0.108962,-0.122863,0.079658,0.431023,-0.452019,0.160439,-0.385183,0.451212,0.375118,-0.339371,0.397862,0.439217,0.364243,-0.15527,0.272354,0.126087,0.25167,0.319511,-0.027676,0.448743,-0.177355,0.309204,0.128447,-0.119608,-0.124338,0.471936,-0.347344,0.185067,-0.146416,0.466749,-0.386222,-0.0419256,0.189453,0.37272,0.115887,-0.181316,-0.277155,0.416574,-0.369797,-0.28496,-0.186304,-0.382302,0.467242,-0.0733454,-0.21409,-0.443407,-0.10417,-0.00639881,0.341119,0.132528,0.474824,0.278482,0.124395,0.219263,-0.152486,0.181421,-0.293,0.488714,0.000405293,-0.101012,0.428104,0.166241,-0.0735845,0.448167,-0.211839,0.316988,0.383281,-0.181112,0.49403,0.133647,-0.348443,0.0963758,0.185584,0.207144,0.197112,0.270037,0.363946,-0.00430597,0.40753,-0.114537,0.367783,-0.271228,0.293904,-0.33972,-0.337171,-0.305462,0.0417986,0.401869,-0.444047,0.341703,0.218883,-0.30016,-0.0333374,-0.101543,0.354687,-0.301446,-0.440967,-0.101783,-0.102321,-0.11929,-0.305996,-0.226589,0.269374,-0.106637,-0.208166,-0.286454,0.192085,-0.0112378,0.361776,-0.0310276,0.317365,0.41796,0.484464,0.15344,-0.0246904,-0.479181,0.328739,-0.183447,-0.264911,-0.400041,-0.271856,-0.304263,0.295733,0.478957,-0.239647,-0.0701855,-0.0794407,-0.398064,0.474054,-0.320366,0.0440795,-0.311323,-0.424103,0.129387,0.384659,-0.290424,0.457614,-0.0638041,0.112311,-0.459232,-0.296832,0.264547,-0.389064,0.24748,0.066439,0.18168,0.194237,-0.288669,-0.0686101,-0.247173,0.352855,0.274767,-0.251286,-0.197278,-0.426749,0.00160293,-0.0750463,-0.338739,0.0731293,-0.412326,-0.317814,-0.282411,0.464665,0.258157,-0.363345,0.389937,-0.384419,-0.226703,-0.484113,-0.334223,-0.374961,0.485765,-0.173948,-0.000995581,0.150959,0.231155,0.471861,0.0888944,0.367976,0.193867,0.313354,0.415607,0.168729,0.334016,-0.431551,-0.0665318,0.364905,-0.284669,0.065989,-0.33951,-0.18076,0.0367018,0.0274716,-0.0388719,0.163678,-0.024712,-0.298801,-0.473899,0.389218,0.333267,0.315786,-0.38351,0.10149,-0.477941,-0.391051,0.180096,0.358389,0.19411,0.317961,0.275727,0.0430621,-0.167103,-0.197759,-0.473331,-0.205449,0.092327,0.27411,-0.316101,-0.0149981,-0.268369,0.462964,-0.263279,-0.111252,0.382431,0.24344,0.42384,-0.216653,0.338984,0.208906,0.0637593,0.22577,-0.467409,0.181618,-0.203286,-0.362464,-0.0574526,0.136699,0.373438,0.127097,-0.166974,-0.277501,-0.48499,0.268845,0.313677,0.145588,0.118748,0.282366,-0.101373,-0.1426,-0.130722,0.180219,0.120528,0.026046,-0.109954,-0.340642,0.484274,-0.225688,0.091496,0.069596,-0.0253763,-0.19827,-0.082108,-0.252796,0.00776652,-0.253196,0.471231,0.179209,0.433825,-0.12787,0.413253,0.21827,-0.331887,-0.117865,-0.12112,-0.0921838,0.309873,-0.142021,0.0347642,0.223206,-0.460806,0.168741,0.373038,-0.110985,-0.0168205,0.09847,-0.395278,-0.391691,0.110238,0.362445,-0.221152,-0.120608,0.412535,0.23576,0.338118,-0.0593651,-0.207922,-0.290463,0.286426,0.310641,0.106668,0.0203393,-0.142769,-0.128238,0.231328,-0.280652,0.15634,0.390155,0.0943341,-0.158923,-0.42044,0.442103,-0.485845,0.439561,-0.353399,0.247037,-0.243684,-0.252964,0.0367057,0.379988,-0.131096,-0.0277118,-0.229676,0.30559,-0.4554,-0.457346,-0.44451,0.323333,-0.299758,-0.172016,0.115168,0.383955,0.490351,-0.0547416,-0.494101,-0.00168838,0.447297,-0.270449,0.415699,0.473801,-0.195068,0.424242,0.135591,0.0145001,0.405047,0.219018,-0.110207,0.0634923,0.292858,0.121453,-0.232737,-0.428507,0.242903,0.081945,-0.377984,0.0635131,-0.00927918,-0.353344,0.34649,0.214561,-0.401046,0.324157,0.484514,-0.236039,0.165074,-0.440176,-0.444602,0.225954,0.38498,-0.100297,0.0371777,0.141055,0.0131465,0.116152,0.359049,0.236201,-0.289584,0.108058,0.272024,0.467449,-0.105865,0.0479872,0.390938,-0.0904331,-0.276551,0.182163,0.309146,0.0535757,0.247216,0.151332,0.177812,-0.231434,0.46127,-0.274355,-0.165166,0.159697,0.00747707,-0.239049,-0.142227,-0.418335,0.3101,-0.243262,0.477243,0.287472,-0.00920023,0.076851,-0.150355,-0.219884,0.134465,-0.14907,-0.228463,-0.0967328,-0.0916369,-0.25537,-0.429585,0.415587,0.0932553,0.488483,-0.0611453,0.406105,0.421971,0.0831284,-0.363097,-0.37891,0.130395,0.176275,0.0326503,0.470851,-0.163579,-0.0748696,0.386496,0.3935,-0.199316,0.105587,-0.279284,0.410919,-0.251566,0.162957,-0.413175,-0.112818,0.241867,-0.114796,-0.0657666,-0.253751,0.343518,-0.00592168,0.205032,0.501396,0.235291,0.371557,0.445259,0.475798,-0.303723,-0.0838768,-0.159129,-0.216502,-0.246904,-0.0220717,-0.234163,-0.205579,-0.210631,-0.120518,0.108022,0.217049,-0.411755,-0.438291,0.231868,-0.135981,0.209758,-0.358321,-0.313373,0.150437,-0.100216,0.379207,-0.151649,-0.435623,0.438785,-0.0508823,0.14552,-0.311805,-0.0661237,-0.220982,0.338788,0.00317477,0.0876391,-0.138888,-0.156568,0.292112,-0.0351348,0.103704,-0.241173,-0.179021,-0.0259075,0.415235,-0.116605,0.330917,-0.414167,-0.39992,0.446591,0.342075,0.121824,-0.115274,-0.205252,-0.335838,0.377101,-0.416683,-0.00902487,0.245972,0.495458,-0.0422792,0.142854,-0.170372,0.378519,0.200304,-0.38403,0.0123443,-0.421222,-0.479771,0.328585,-0.0790756,-0.439055,-0.333025,0.088631,-0.466717,0.0879593,-0.110281,-0.00695515,0.410081,-0.230424,-0.453857,-0.0485199,-0.00935429,0.203171,-0.395789,0.429122,-0.489383,0.375176,-0.256384,-0.322535,0.467443,0.415958,-0.141477,-0.227978,-0.0676401,0.0748869,-0.34142,-0.263169,-0.390056,0.198072,-0.168924,-0.158261,-0.242832,0.245414,-0.0096289,0.0529784,-0.318598,-0.0535243,-0.397695,-0.0058728,0.209961,0.350603,-0.295063,0.0249277,-0.451103,-0.426195,0.0969717,0.0546509,0.21501,0.209645,-0.126925,-0.173288,0.242404,0.462747,-0.433681,0.156292,-0.068535,0.412216,0.319789,-0.448968,0.493142,0.444482,0.338359,0.377415,0.462232,0.0147271,-0.270928,0.0883588,-0.386925,0.171437,0.203759,-0.238222,0.488597,-0.466256,-0.238556,0.146024,-0.323856,0.349212,-0.353022,0.0210096,-0.347109,-0.240481,0.0920113,0.455817,-0.0593753,-0.421408,-0.309046,-0.178144,-0.35156,0.49456,-0.375092,-0.35911,-0.0147991,0.421412,0.0182811,0.431526,-0.169768,0.0545755,-0.489982,0.0549164,0.00715011,0.142822,-0.141409,0.394784,-0.0534384,-0.312999,-0.0198551,-0.306258,0.290326,-0.143126,0.416977,-0.348596,0.1213,-0.103223,-0.301569,-0.00333258,-0.270221,0.0389268,-0.00473387,-0.174954,0.223826,-0.134475,0.341268,0.30437,0.24837,0.131816,0.19369,0.245383,0.202259,-0.0839116,-0.0629037,-0.250883,-0.226095,0.0829901,-0.0174849,-0.207289,0.355909,0.41932,-0.136323,0.325875,-0.157791,-0.122002,-0.188256,-0.353034,-0.480697,-0.144232,0.113455,0.278333,-0.00146815,-0.11832,0.386444,-0.239348,-0.191651,0.363463,0.0607593,0.201701,-0.0948164,-0.489483,-0.387,0.489408,0.0591286,-0.243702,-0.397746,-0.261995,0.388922,-0.475332,0.299267,0.247615,-0.121705,-0.0669289,0.0911561,0.456863,-0.422428,-0.48471,0.0831397,-0.441504,0.48325,-0.427504,0.487047,-0.314026,-0.181589,0.269431,-0.272929,0.160029,-0.49293,0.253184,-0.367733,0.219112,-0.0336482,0.18427,0.420518,0.402372,0.385711,-0.278507,-0.144803,-0.00473596,0.206346,-0.295481,0.252501,0.0158015,-0.0695934,0.349992,0.343874,-0.413712,0.321091,-0.205841,-0.194246,0.424139,0.230911,-0.471303,0.0403016,-0.0124209,-0.33477,-0.308681,-0.131797,-0.401676,0.0542946,0.189099,-0.400286,0.342637,0.169773,0.12627,0.130773,0.452235,0.018163,0.138963,-0.477092,0.303075,0.099841,-0.03999,0.355404,0.114393,0.328995,0.0312544,0.247743,-0.118672,0.199421,0.0871938,0.0610205,-0.0167778,0.483793,-0.481656,-0.291516,-0.366073,0.498367,-0.287354,-0.449407,0.365958,-0.0836024,-0.101725,-0.040352,-0.474454,0.247978,-0.398715,0.0265766,0.0849252,0.275087,0.479615,-0.139641,0.0465552,0.493812,0.126633,-0.327517,0.100794,-0.321344,0.0701317,-0.138854,0.312359,-0.0996824,0.0873662,-0.385481,-0.0411733,-0.214603,-0.381074,0.362476,-0.49676,0.303451,0.193313,-0.242662,-0.284806,0.212226,-0.499268,-0.0322352,-0.129857,-0.137391,0.202199,-0.104756,-0.135056,0.250391,-0.245186,-0.0279479,0.0753311,-0.489889,-0.0234145,-0.454396,-0.372315,-0.349697,0.158489,-0.0519664,-0.482993,0.490296,-0.336163,-0.134369,0.182001,0.00146961,0.49374,-0.430253,-0.0468142,-0.361303,0.262321,-0.381565,-0.319182,0.167166,-0.115596,0.0700005,-0.341997,-0.278529,0.171815,0.385862,-0.232236,-0.0887282,-0.243812,-0.421155,0.363433,0.287558,0.407179,0.257139,0.375184,-0.0682119,-0.436002,0.0981109,-0.258944,-0.107496,0.0645597,0.00140257,-0.288008,0.107264,0.0155987,-0.409444,0.0510302,0.106747,-0.193079,0.296593,0.302433,0.314345,-0.0680723,0.240303,-0.479239,-0.473953,0.172229,0.443166,-0.427427,-0.15235,-0.0816803,0.165115,0.49838,-0.193353,0.0424206,-0.201339,0.322602,-0.0565137,-0.0129854,-0.375785,0.443241,-0.282483,-0.397768,0.141895,-0.450301,-0.370219,-0.115641,-0.437547,0.432199,0.0744346,-0.113547,-0.287135,0.0464932,0.123733,0.234322,0.129349,0.0524329,-0.245499,-0.339539,-0.273192,0.0876839,-0.297846,-0.29567,-0.195816,-0.387831,-0.444981,-0.0380411,-0.285517,-0.0469795,0.0805186,0.33282,-0.0244988,0.0244181,-0.0064073,-0.0313771,-0.420561,0.170766,0.412591,0.199886,-0.0201576,-0.00518786,-0.152072,0.103437,0.269223,-0.426266,-0.424121,0.21647,0.492549,0.423842,0.397557,0.14836,-0.305005,0.203936,-0.359379,0.408307,0.150197,0.21209,-0.00572641,-0.0983774,0.445539,0.362198,0.467813,0.17931,0.448056,-0.153501,-0.152386,-0.266479,-0.425007,0.286862,-0.270988,-0.13479,-0.0580133,-0.20598,-0.0298258,0.084763,-0.268751,0.0386948,-0.0778748,0.271457,-0.233685,-0.498493,-0.471944,0.0872266,0.278048,-0.337104,-0.269242,0.420009,0.408177,0.151942,0.217497,0.289388,0.116225,0.13658,-0.490076,0.103505,-0.0731371,0.277545,0.344096,0.206671,0.309034,-0.150749,0.214799,-0.322022,-0.485642,0.377358,0.454666,-0.179522,0.410117,-0.188752,0.222451,-0.102858,-0.0445934,0.162675,0.293729,0.0170183,-0.148337,-0.168855,-0.0175379,-0.175345,-0.348691,-0.432084,-0.372074,-0.499414,-0.30518,0.359755,0.0977757,-0.0993138,0.182073,0.0207904,-0.140797,-0.476864,0.0138062,-0.131903,-0.487424,0.0927898,-0.266457,-0.0898398,-0.0455453,-0.121396,0.239916,-0.183542,0.24568,0.00230989,0.373594,-0.34667,-0.146256,0.0892265,-0.362416,0.333875,0.393926,0.428375,0.468448,-0.367036,0.485171,-0.217703,-0.407774,0.0892495,0.199774,-0.315323,0.4758,-0.470495,-0.318497,-0.470734,-0.036054,-0.277434,-0.0285522,-0.0742683,-0.36699,0.09682,-0.351594,-0.0773413,0.442896,0.451445,0.480208,0.15484,-0.413868,0.138665,-0.25742,-0.230978,-0.183677,0.0139758,-0.0540933,-0.151188,0.474964,0.431048,0.493115,0.0786424,-0.0519337,0.350912,0.224383,-0.0436032,-0.0501607,-0.0821313,-0.377416,-0.395094,0.389815,-0.05943,-0.0192707,-0.356625,-0.00262645,0.124015,-0.018134,0.280427,-0.496826,-0.270003,0.305986,0.0476065,0.450233,0.222609,-0.0876989,0.0334215,0.194653,0.0733634,-0.268881,0.389872,-0.124987,-0.482627,-0.221356,-0.138849,-0.00998418,-0.0337003,-0.358842,-0.0961721,-0.0355455,0.148068,0.0198113,0.0853997,0.385776,-0.00384344,0.396175,-0.386002,0.310451,0.22222,-0.158026,0.493066,-0.0220454,0.0190216,0.259547,-0.46257,-0.35528,-0.483372,0.181516,-0.156619,0.145803,-0.187777,-0.428409,-0.354704,-0.450122,-0.465782,-0.0460947,-0.198159,-0.493492,-0.498928,-0.274459,-0.33622,-0.406859,-0.334382,-0.281258,0.0811162,-0.475904,-0.0841824,-0.103615,0.125279,-0.329345,-0.295309,-0.388921,-0.0703499,0.436012,-0.318455,0.0964119,-0.336731,-0.299468,0.435567,0.151008,-0.435082,-0.228362,-0.512423,0.164241,-0.0245054,0.0104154,-0.141238,-0.321927,-0.418586,0.464901,0.0162886,0.219501,-0.124318,0.292001,0.126918,-0.292641,-0.486783,-0.0682591,0.12529,-0.387921,-0.311754,0.214986,0.0483433,-0.0490398,0.273168,0.307828,-0.426304,0.278339,0.0128748,0.0174628,0.42638,-0.223846,0.275871,0.0790601,-0.260966,-0.182358,0.169007,-0.303374,0.0780922,0.442446,0.333649,0.0434202,0.255038,-0.117982,-0.457193,0.170523,0.281224,-0.166232,0.012466,0.179594,-0.206646,0.0128618,0.425624,-0.11533,-0.210753,-0.124483,0.400257,-0.274542,0.0658287,0.21511,0.020357,-0.00397829,-0.242864,0.257143,0.37268,0.489791,-0.351987,0.359901,0.0435146,0.2193,0.403548,-0.340708,-0.476442,-0.277059,-0.106128,0.301887,0.44501,-0.318468,-0.35235,0.477181,-0.42966,0.162414,0.362249,-0.101572,-0.179059,0.270935,0.402863,0.102696,-0.02603,0.0641609,-0.379003,-0.236335,-0.192481,-0.326176,0.485312,-0.426875,0.184498,0.15242,0.0803618,-0.0195898,-0.0751759,0.381684,-0.295869,0.12597,-0.010273,0.340871,0.118271,0.101276,0.288864,-0.313754,0.0545405,0.0187316,-0.207658,0.028553,0.242455,0.450003,0.484245,-0.0778814,0.0166008,-0.150081,-0.0903808,-0.226403,0.355024,-0.376862,0.0855486,-0.357912,0.109598,0.107421,-0.429625,0.264531,-0.488024,0.360414,0.482074,-0.256603,0.210526,-0.247135,0.235929,-0.283648,0.236193,-0.00751014,-0.0403147,-0.119679,-0.336046,-0.304176,0.228534,0.0268378,-0.346593,-0.290712,0.141281,0.27093,-0.027507,0.155952,-0.291002,0.142636,-0.0650778,-0.456745,-0.246068,-0.019361,0.0325415,0.218983,-0.216183,-0.244533,0.334777,-0.177723,-0.293129,0.00821972,0.015531,-0.0276722,-0.29822,0.140283,-0.122547,0.241137,0.294576,-0.494599,-0.330456,-0.430285,0.103895,0.0851529,-0.0492643,0.364109,-0.489366,0.479477,-0.174503,-0.0994125,-0.319076,-0.131035,0.0984149,0.297298,-0.00563548,-0.053429,-0.473246,-0.384615,0.145911,-0.019112,-0.456928,0.440888,-0.0840679,-0.0491902,0.199721,0.393437,0.287851,-0.392248,0.300304,-0.486604,0.260634,-0.286676,0.120502,-0.0866745,-0.34987,0.39788,0.0377953,-0.246675,-0.329454,0.0956708,0.122551,-0.424527,-0.25509,-0.0454031,0.47626,-0.349923,-0.379075,0.0325883,0.26291,0.0759319,-0.118352,-0.139416,0.4706,-0.33224,-0.334019,0.242622,-0.0128582,-0.399312,0.11872,0.168895,-0.483801,0.27578,0.26563,0.167183,0.0250513,0.36257,-0.158176,-0.366188,-0.0275071,0.374696,-0.37067,-0.0944067,0.0583256,0.359103,0.464748,-0.381523,0.0292834,-0.221605,-0.075959,-0.00312568,-0.185419,0.426524,-0.298869,-0.365422,-0.21238,-0.487855,-0.49983,-0.312343,0.302944,0.371308,0.0945058,-0.218322,-0.318055,0.0286754,0.45508,0.468426,-0.363089,-0.0740113,0.171167,0.232198,0.089357,0.226576,0.42377,-0.261065,-0.49088,-0.0324527,-0.277615,0.19094,-0.162249,-0.188724,-0.420053,0.0225562,0.0162284,0.0416381,-0.225876,-0.33348,0.208773,-0.36726,-0.302326,-0.252251,0.306285,-0.255288,-0.131369,0.267381,-0.131583,0.255729,-0.441644,0.349753,-0.0185876,-0.483124,0.344124,-0.495819,-0.0197326,-0.281104,-0.23702,0.0761667,-0.213529,-0.393437,0.337181,0.103715,-0.343795,-0.0992238,-0.0739804,-0.0630373,0.460698,-0.486243,-0.463024,-0.406224,-0.0231333,-0.0755216,0.427208,0.151721,0.315184,0.0137127,0.165399,0.324667,0.26252,-0.141909,0.357657,-0.0862595,0.284408,-0.419982,-0.218953,-0.429586,-0.411602,0.00236291,0.467112,0.319568,-0.357763,-0.161308,0.476724,0.420135,0.0886085,-0.425648,-0.255954,-0.331799,0.0834417,0.0765144,0.456487,-0.164146,-0.318393,0.284873,0.412568,0.308044,-0.21617,-0.248358,-0.230941,0.406381,0.16277,-0.102575,0.364419,-0.361886,0.197841,-0.297726,-0.238071,0.352801,-0.393772,-0.222486,-0.369988,-0.170721,0.027091,0.200337,-0.343344,0.149126,-0.488081,-0.451501,0.475296,-0.0957531,-0.212009,-0.118974,0.192095,0.149408,0.173735,0.124759,-0.0632732,-0.255152,-0.367217,-0.490714,0.252275,-0.2966,0.45846,-0.148875,-0.279347,0.192366,0.166479,0.0390469,-0.181321,-0.0285816,-0.353391,0.127633,-0.335541,0.347942,-0.33903,-0.479945,-0.319566,0.362502,0.0273021,-0.352245,-0.170365,-0.450755,-0.216362,-0.117193,-0.395195,-0.405099,0.330334,0.133528,-0.00526001,-0.0473362,-0.0145944,-0.191315,0.150543,0.242758,-0.106175,0.310493,0.207111,-0.406876,0.347194,0.413542,-0.458007,0.381006,0.157331,-0.101454,-0.241701,0.471954,0.210277,0.0923864,0.160507,-0.133214,0.498306,-0.269824,0.342295,0.329317,0.2804,0.0527118,-0.421415,-0.390194,0.338624,0.222321,-0.461517,0.250834,-0.394394,-0.331691,-0.0645762,-0.21466,0.11632,0.110534,0.310677,-0.276191,0.452054,0.109591,0.488766,-0.251242,-0.202559,0.128606,-0.120424,-0.130674,0.497105,0.00823218,-0.34351,0.329884,-0.448811,0.089488,-0.26058,0.292766,-0.315404,-0.00149586,0.00526972,0.100886,0.127706,0.482722,-0.333213,-0.253599,0.252947,0.0536527,-0.103392,-0.169602,0.164211,-0.416981,-0.0212859,-0.11429,-0.162872,0.277327,0.391615,-0.436147,0.174697,0.37869,0.270539,-0.326484,0.0190709,-0.0914031,-0.258949,0.0586524,-0.403591,0.246262,-0.332307,-0.321937,0.384698,0.481678,0.452522,0.330302,-0.439338,-0.179881,-0.0400019,-0.31644,0.472187,0.4171,0.3628,-0.0217946,-0.218364,0.0378747,-0.308334,0.00998549,-0.48814,0.101411,0.279597,-0.310907,-0.0938382,-0.02482,0.221846,0.450571,-0.235206,0.299293,-0.180212,0.320116,-0.424304,0.140216,-0.32596,-0.411891,-0.163252,0.225437,-0.319794,-0.187287,0.210525,0.402281,-0.480466,-0.451454,0.319737,0.38507,-0.193024,0.216692,-0.467284,-0.18256,-0.0797628,-0.356442,-0.177763,-0.209871,0.0659756,0.407426,-0.200661,-0.0825614,-0.0976195,-0.345242,0.286746,-0.00654517,-0.422928,-0.15223,-0.188631,0.34034,0.415163,0.440845,0.244083,-0.239205,0.208537,0.391183,0.148128,0.430363,-0.226882,-0.390011,0.508659,-0.15785,0.325817,0.0424503,-0.329311,0.00310491,0.0174446,0.0276315,0.471831,0.316717,-0.468758,-0.415063,-0.439593,-0.0349326,0.198651,-0.414931,0.0331278,-0.445917,0.276048,-0.414528,0.393987,0.255928,-0.25662,0.0246928,0.178967,-0.355937,0.264808,0.226143,-0.485629,-0.0604535,0.369366,-0.190474,0.30634,0.188558,-0.354669,-0.0891562,-0.295322,-0.0516417,-0.410019,0.371841,-0.156676,0.0544713,-0.0644717,0.309074,-0.26871,-0.148427,0.207834,-0.36915,-0.299295,0.0132992,-0.113932,0.365561,-0.424203,0.353577,-0.150393,0.167286,0.4738,0.0190899,0.443659,0.454175,-0.414298,-0.348445,-0.0783149,-0.321702,0.460455,0.397945,-0.285357,-0.449692,-0.359084,-0.332864,0.398911,0.285178,-0.0837489,-0.336567,0.106209,-0.425367,-0.235731,-0.276564,-0.305301,-0.363822,-0.226508,0.0381622,-0.0562739,-0.422466,-0.0864804,0.307459,-0.258837,0.450803,0.228453,-0.282201,0.0763404,0.315573,0.373559,0.19287,0.448372,-0.344296,0.255377,-0.444473,0.235793,-0.154938,-0.490292,0.146649,0.0437628,-0.334578,-0.394756,0.481898,0.339115,-0.291024,0.0553434,0.468825,0.347207,0.313934,0.415053,0.434592,-0.290565,0.199795,-0.0693232,-0.325632,-0.21904,-0.411932,0.3053,0.109567,-0.0870696,-0.193122,-0.0946235,-0.268757,0.432653,0.263555,-0.212905,0.411375,0.47724,0.0865552,-0.494595,-0.435931,0.326828,0.322243,0.0824026,-0.0803363,-0.381049,0.389105,-0.0224034,0.0149178,-0.00202462,-0.00811272,0.0483074,0.16017,0.0236958,-0.19453,0.413693,-0.180204,0.348764,-0.0432517,0.345744,-0.0494506,-0.399174,0.230279,0.338913,0.119012,-0.206324,-0.433158,-0.466806,0.113464,-0.402171,0.0777079,0.0774803,-0.337583,-0.0990233,-0.267251,0.438991,-0.290122,-0.00781827,-0.338371,0.434532,-0.0957007,0.234492,0.0235904,0.0870931,-0.00482253,-0.451868,0.49981,0.322487,-0.42387,0.375193,0.446115,-0.233903,-0.478562,-0.301672,0.169681,-0.486842,0.305429,0.439639,-0.14594,-0.257781,-0.48164,-0.466775,0.132543,0.24591,0.501394,0.475829,-0.21012,0.389685,-0.393847,-0.327487,-0.335721,-0.211341,-0.297549,0.234481,0.370833,-0.205516,0.33609,-0.0215182,-0.477852,-0.230317,0.103208,-0.0454532,-0.179619,0.314894,0.407341,0.0643753,0.155568,-0.301619,0.0473926,0.178397,-0.104711,0.112688,0.129273,-0.432497,-0.195935,-0.311039,0.00196149,0.186044,0.464275,0.296005,-0.326115,0.173099,0.450643,-0.177678,-0.0530832,0.214065,-0.0238955,0.469665,-0.360343,-0.447911,0.285197,0.300471,-0.37824,-0.336345,-0.226046,0.440548,0.140494,0.319718,0.312211,0.145496,0.0975367,-0.0646045,0.413647,-0.0365425,0.418804,0.101295,-0.429985,-0.366123,0.463452,0.308484,0.213004,0.177222,0.101478,0.132414,-0.272876,0.0705061,-0.0371599,-0.286341,-0.107238,0.172195,0.201559,-0.0868881,0.3593,-0.446363,0.073696,-0.391636,0.436927,0.498605,-0.0790908,0.194251,-0.415374,-0.292589,-0.400671,0.041902,-0.463634,-0.410446,0.339396,-0.191266,0.36934,0.426403,-0.393927,0.179928,0.104169,0.336684,0.353011,0.253524,-0.189328,-0.194462,0.185767,-0.449566,-0.269629,0.16565,-0.208316,0.412042,-0.311599,0.0539585,-0.259527,0.0084656,0.46382,0.325449,-0.177572,0.197062,-0.39038,0.149247,0.284429,-0.441994,-0.35262,0.340694,0.191035,-0.0946973,-0.470011,0.259617,-0.392393,-0.29106,0.00116035,0.361775,0.23311,0.161454,-0.395386,0.0522561,0.445011,-0.105748,-0.465447,-0.0296274,0.326155,0.398899,0.271908,0.0890635,-0.431527,-0.353893,0.198832,0.118698,-0.112583,-0.0990209,0.221041,-0.331378,0.321543,-0.052072,0.231266,0.14808,-0.424994,0.177328,0.0311202,0.478573,-0.384867,0.297613,0.447382,-0.0709633,0.0187267,-0.486545,0.3102,0.226109,-0.34424,0.444172,-0.227512,-0.501042,0.407704,-0.23988,-0.0597581,-0.459118,0.43635,0.173463,-0.331466,0.0535289,-0.480129,0.480691,-0.103166,-0.159243,0.346343,0.181879,0.234289,0.480912,-0.367076,0.492049,-0.431404,0.139434,0.463269,-0.388981,0.206153,0.21342,0.455572,0.179804,0.468969,0.336355,0.483897,-0.446264,-0.13479,0.160973,-0.111915,-0.405698,0.196465,-0.121804,0.427384,-0.203738,0.413827,0.358845,0.4771,-0.235446,0.38788,0.227747,0.226525,0.431051,0.0953091,0.484834,-0.241798,-0.418897,0.500096,-0.042459,-0.338083,0.0917291,-0.0101565,0.0723854,-0.139811,0.210683,0.345589,0.210898,0.472943,-0.0169451,-0.432556,0.252925,0.253921,-0.0438782,0.307411,0.168733,-0.341452,0.179508,0.124012,-0.101102,-0.0629126,0.0872541,0.0024954,-0.0477494,-0.011709,-0.257384,0.169265,0.069421,-0.245378,0.304283,0.351317,-0.0506866,-0.369127,0.239503,0.322316,0.0991503,0.304257,0.254853,0.0783274,-0.312354,0.233283,0.400993,-0.188503,-0.27888,-0.364134,-0.2008,0.254668,0.416576,0.401554,-0.137142,0.283194,0.214772,0.137482,-0.241178,0.1288,0.0202056,-0.0364008,-0.100594,-0.19444,0.23415,0.485556,-0.313487,0.210563,-0.491053,-0.441198,-0.0644355,0.09053,-0.376454,-0.399259,0.455245,0.148912,0.375857,0.0164373,0.357524,0.283464,0.459281,-0.0551644,-0.183054,-0.483847,-0.131026,-0.0366911,0.208673,-0.357239,0.471552,0.269839,0.300043,-0.120183,0.34193,-0.207246,-0.00526983,-0.392325,-0.287429,0.148983,-0.227819,0.0376186,-0.307954,0.0313233,0.0642703,-0.360481,-0.219517,-0.141332,-0.290496,0.0967961,0.498516,-0.386277,-0.0721177,-0.410639,0.256873,-0.36628,0.324583,0.250458,-0.134871,-0.193187,0.3265,0.479524,0.355067,-0.469351,-0.320587,-0.438403,0.109981,-0.360248,-0.193519,-0.206654,-0.286713,0.368408,0.302202,0.341204,0.265518,-0.209616,-0.0817793,-0.345701,0.300226,0.344961,0.223157,-0.447591,-0.109784,-0.483589,0.272945,0.433108,-0.434738,0.454482,-0.118121,-0.00694307,0.178433,-0.297868,0.250134,-0.0242728,-0.182028,-0.461122,0.271688,-0.266557,0.240443,-0.11958,-0.130702,0.291849,-0.398464,0.366343,-0.00265046,0.237004,-0.0286968,-0.451458,-0.254851,-0.42844,0.350789,0.359094,-0.0712358,-0.250308,-0.25436,-0.111634,-0.166215,0.117745,-0.373223,-0.0970208,-0.338498,0.153139,-0.230239,-0.0382071,-0.46796,0.00636475,0.289845,0.400057,0.103057,-0.0149745,-0.0760238,-0.447468,0.103536,0.156216,-0.176807,0.00439773,0.426168,-0.195365,0.102549,-0.136492,0.464014,0.488754,-0.274567,0.224406,0.156934,-0.154253,-0.363463,-0.253666,-0.499625,0.240568,-0.182119,-0.390469,-0.383291,0.299838,0.316515,0.306677,-0.0478659,0.324718,-0.239485,0.447003,0.0806584,-0.475714,0.261262,0.281371,0.0406075,0.211774,0.175861,0.322571,-0.117911,0.465892,0.484208,-0.471934,-0.476986,-0.149001,-0.154359,0.201852,0.413552,-0.444614,-0.116328,0.298917,0.201605,-0.0716526,0.311625,-0.0923036,-0.289215,0.443697,0.275478,0.102973,0.466867,-0.449312,-0.447207,0.0553179,-0.326368,-0.330991,-0.452531,0.175841,-0.449324,-0.064609,0.152289,0.32971,0.263999,-0.0956099,0.4868,0.253014,-0.0802291,0.051009,-0.189162,-0.224674,0.0182735,-0.299623,0.167716,-0.0445301,-0.489571,-0.495533,0.315191,0.00805815,0.212429,0.398346,0.449546,-0.3285,0.0586838,-0.162302,-0.362839,0.485449,0.405883,0.119095,-0.489465,0.155264,-0.258219,-0.45017,-0.24143,-0.283398,0.417287,-0.0564104,-0.469337,-0.47428,0.245964,0.418496,0.436153,0.0364769,-0.216538,0.0850261,0.213109,0.439688,0.0366769,0.475213,-0.017376,0.0878762,0.348748,0.470699,-0.419158,0.235279,0.326205,-0.340123,-0.461692,0.215057,0.408684,0.12639,-0.38674,0.0966645,0.149975,-0.213032,0.296627,0.371194,0.457361,0.045831,-0.110177,-0.149183,-0.262236,0.231278,-0.213431,0.442597,-0.0973958,0.467171,0.195333,0.194693,0.317821,-0.169153,-0.0191915,0.116269,0.025146,0.156094,-0.0182688,0.1348,-0.00214523,0.00192226,-0.129307,-0.448091,0.231288,-0.483281,-0.0199367,0.47556,-0.478274,-0.225529,0.472207,-0.190647,-0.0399259,0.321459,-0.00505407,0.220956,0.277353,0.231336,0.0212789,0.39601,0.0112382,0.203511,-0.299854,-0.401671,0.269746,0.140729,-0.16206,-0.0467937,0.243731,0.237747,-0.128246,-0.0995941,0.348609,0.328822,-0.408543,0.39801,0.0586212,0.397956,0.331908,-0.00957316,-0.294356,-0.104191,-0.229318,-0.419712,-0.454086,-0.317433,-0.328597,0.332971,0.164693,0.0443151,0.213825,-0.258202,-0.469728,0.0823127,-0.145232,-0.328374,-0.420805,-0.10118,-0.252137,0.0857618,0.182153,0.107806,0.0322852,0.42224,0.175339,0.270104,0.486811,-0.323993,-0.0867314,-0.181819,-0.192282,-0.104321,0.319748,0.479768,0.269598,-0.282033,0.279367,0.144035,0.300163,0.379182,-0.180261,-0.319101,0.229162,0.0715026,-0.446467,0.11028,-0.3748,-0.441368,-0.342333,0.494075,-0.425345,0.168406,-0.454495,-0.428016,0.273973,0.285743,0.494201,-0.237572,-0.469813,-0.495567,0.138679,0.419633,-0.454367,-0.383236,0.0985271,-0.238375,0.126639,0.488192,0.433669,-0.389386,0.168397,0.374326,-0.00744236,0.489968,-0.0885457,0.231884,-0.384597,-0.0576415,-0.353638,0.0688726,-0.197205,-0.361016,-0.389277,-0.094711,-0.202708,-0.0207308,0.339197,-0.1868,-0.363279,0.334561,-0.359648,0.497114,-0.487558,-0.103202,-0.0080318,0.438998,-0.311679,-0.017959,-0.285782,-0.487315,0.225367,0.0217276,0.220168,0.377215,0.146013,-0.29555,0.0354008,-0.303258,0.00643404,-0.0974675,0.424292,-0.262384,-0.0331219,0.389762,0.139413,0.125547,-0.368499,0.0931291,-0.165529,-0.451811,0.281792,0.177842,0.134185,-0.171255,-0.215862,0.217091,-0.461976,0.450865,-0.30119,-0.447887,0.206352,0.398517,-0.19131,-0.335746,-0.00697997,0.212656,0.0676678,0.113737,0.351582,-0.0482146,-0.0408896,0.408212,0.236959,-0.365922,-0.415132,0.0161906,-0.0743462,-0.0962624,-0.33623,-0.32418,0.0453262,0.392862,0.340814,-0.462976,0.138844,0.197148,0.181637,-0.468224,0.308911,0.0378274,-0.466854,-0.356621,-0.266127,0.392918,0.35158,-0.4298,0.480748,0.0639637,0.14981,-0.47753,-0.151886,0.345144,-0.0223138,0.283038,-0.32654,-0.0381209,0.262092,-0.336348,-0.00172533,-0.330031,-0.412809,-0.213815,-0.187169,0.0353448,-0.379534,-0.416323,0.431817,-0.326837,-0.273783,-0.309833,-0.0467361,0.42739,-0.368871,-0.363999,-0.419545,-0.198161,0.156572,0.23252,0.053089,0.123641,-0.217288,-0.170555,0.0368084,-0.0883861,0.364779,0.409979,-0.260515,-0.392008,-0.266338,-0.046831,-0.207873,-0.37048,-0.288913,-0.32819,0.338358,0.123055,0.435177,-0.441033,0.0566616,0.244575,-0.205178,-0.444634,0.125794,0.374121,-0.175286,-0.00635724,-0.399832,0.418836,-0.241762,-0.255516,0.258113,0.298126,0.350557,0.142504,0.0119932,0.197727,-0.017171,-0.396445,-0.471219,0.260624,0.439906,-0.16954,0.104396,0.0785651,0.320605,-0.0959184,0.174195,-0.0670952,-0.42252,-0.303572,-0.394105,0.445692,0.215542,-0.0680374,0.120189,-0.205005,-0.367395,0.367409,0.171291,0.363144,0.364495,0.440909,0.286614,0.142578,-0.0591731,-0.314183,-0.16993,-0.0101915,-0.214692,-0.162496,0.395019,0.21429,0.458022,-0.386129,-0.335187,-0.186112,-0.456138,0.170519,-0.0133575,0.229036,-0.143423,-0.132518,-0.333667,-0.0827724,0.320282,-0.216595,0.305398,0.228089,-0.031538,0.166869,0.0695541,-0.33829,0.246182,-0.139698,-0.328639,0.127024,0.410946,-0.411835,0.222445,-0.130263,-0.0899766,-0.401049,-0.417728,0.462548,-0.282029,0.202723,-0.0505368,0.352487,-0.365669,-0.286869,0.305718,-0.0990808,-0.276978,0.263329,0.25905,-0.0107072,0.0918979,0.0644776,-0.195659,0.358893,0.14157,0.278919,0.427503,0.231445,0.16863,0.0861972,-0.338946,0.0983486,-0.471134,-0.42907,-0.362836,0.39407,0.474505,-0.218154,-0.241324,-0.342633,0.405213,-0.0213673,-0.459189,0.497918,0.12277,0.460728,0.391352,-0.407387,0.115209,0.0349812,0.442426,-0.178194,0.0772279,0.0921917,-0.322806,0.425444,-0.00539954,0.316507,0.14484,-0.13723,0.279893,-0.317018,0.210016,0.239326,-0.102024,0.0018958,0.348219,-0.254697,0.021469,0.13465,-0.33142,-0.334509,-0.232622,-0.0152425,0.0284162,0.331573,-0.158916,0.220535,0.40211,-0.0739104,0.329232,-0.270235,-0.430019,0.057708,-0.405919,0.469632,0.4946,-0.097142,0.434175,0.296859,-0.485518,-0.281693,-0.27472,-0.411319,-0.398678,-0.268657,-0.0426844,-0.440392,-0.302704,0.283854,0.0704551,-0.0906972,-0.0868635,-0.310671,0.0745654,0.38103,0.145429,0.024999,0.3418,-0.258964,0.229793,0.414073,-0.309277,0.356658,-0.14693,0.109525,0.274784,-0.32026,-0.145589,-0.412954,-0.207142,-0.483704,-0.4004,0.477541,0.0278323,0.28664,-0.0195048,0.29558,0.363338,-0.224466,0.310629,-0.282342,0.14677,-0.148684,0.401984,-0.0623425,-0.249431,0.492157,-0.186627,0.128187,0.0352191,0.433968,-0.311351,0.0893239,-0.321593,0.149395,-0.391287,-0.159936,0.308632,0.500227,0.111912,-0.321343,-0.256395,-0.368534,0.16042,-0.110541,-0.170391,0.43567,-0.277845,-0.012241,-0.42972,-0.0709792,0.435016,0.188641,0.119938,0.354671,0.269081,0.248345,0.362071,-0.129831,0.0653646,0.0424996,0.171073,-0.0338382,-0.293311,0.10206,0.264451,-0.358538,-0.28112,0.0659487,-0.0929339,-0.232222,-0.117739,-0.00933849,-0.320596,0.396862,-0.463564,-0.00790325,0.315605,0.246094,-0.166978,0.110968,0.219959,-0.0176909,-0.391655,0.245475,0.248935,-0.496795,0.306426,0.163097,0.00765382,-0.118687,-0.11163,0.151525,-0.2479,0.306726,-0.144356,0.0599009,0.412527,0.187152,0.320267,-0.450256,0.419498,-0.488752,-0.062318,-0.148282,0.0285705,0.267673,0.234392,0.371834,-0.375004,0.392941,-0.0630005,0.484947,0.394165,-0.414879,-0.460555,0.029067,0.458364,-0.287238,0.383654,-0.356969,-0.285544,-0.0311009,0.167875,0.118991,-0.0845827,0.413726,-0.481969,0.099715,0.44286,-0.417465,-0.0793981,-0.142672,0.339765,-0.249315,0.083645,-0.309518,-0.3455,0.291691,0.397489,-0.42887,0.471508,0.27256,0.131926,-0.451143,-0.441885,-0.217079,0.243197,-0.0100594,0.42431,0.212079,-0.38966,-0.35078,0.447351,0.430383,0.18162,-0.160583,0.0306683,-0.303287,0.257265,-0.364605,0.326782,0.00216547,0.474696,-0.198863,0.335495,0.301702,0.396815,0.439285,-0.447834,0.387437,0.025169,0.224907,0.266284,-0.32735,-0.246156,-0.0507577,-0.0201617,0.23998,-0.281296,-0.449517,0.306095,-0.0486068,-0.141846,-0.234576,-0.326626,0.225417,-0.392684,0.473325,0.0609052,-0.36145,-0.249718,-0.2381,0.0551498,0.333301,-0.183434,-0.348811,-0.321325,-0.309522,0.101531,0.278371,-0.242543,-0.165836,0.233381,-0.269387,-0.0491845,0.346287,-0.173604,-0.266723,-0.296028,0.329034,-0.0298255,0.117161,-0.195928,0.166527,-0.406163,0.0823685,0.0404826,-0.0202193,-0.0673141,-0.265333,-0.104387,-0.241891,-0.315081,-0.134732,0.46644,-0.181006,-0.174182,-0.181985,-0.420632,-0.478181,-0.231645,0.325471,0.0144565,-0.190904,-0.0179429,0.412847,-0.454681,-0.325968,-0.149032,0.397681,-0.413727,0.156753,0.222767,0.25031,0.157158,-0.0378692,-0.0693246,-0.481332,0.0178501,-0.181397,0.10603,-0.370448,-0.461997,-0.176681,-0.260765,0.263296,0.087976,0.306434,-0.203997,-0.00971197,-0.498629,0.0140847,-0.106398,0.0332415,-0.0549313,0.307021,0.294661,0.0344845,0.0958444,0.333782,-0.281059,-0.153554,0.204678,-0.494097,-0.330049,-0.160028,0.351752,0.266574,0.130861,0.212868,-0.215236,0.328366,-0.0728808,-0.398272,0.173916,-0.410888,0.249427,0.0777218,0.137746,0.483764,-0.128232,0.496547,-0.176569,-0.492807,0.350226,0.138029,0.233939,0.225978,-0.391778,0.126873,-0.300627,-0.376142,-0.427715,0.46529,-0.085497,-0.260977,0.49434,-0.34365,0.256539,-0.448862,0.261596,0.272901,0.182634,0.0383824,-0.384382,0.0181403,0.470928,0.0528638,-0.025996,-0.0910276,0.141624,-0.424231,0.481328,-0.364772,-0.329497,0.431698,-0.475977,0.171879,0.232972,0.374664,0.275317,0.0383026,-0.430596,-0.228136,-0.461975,-0.117775,-0.292015,0.150965,0.0544743,-0.258999,0.462892,-0.17879,0.363059,0.0279513,0.345925,-0.00336089,0.464155,0.305046,-0.191626,-0.109979,-0.427632,-0.180731,0.355289,-0.296714,-0.0613779,0.0800395,0.425557,-0.212266,-0.114443,0.28981,-0.384762,0.474339,0.133918,-0.418593,-0.395675,0.0609434,-0.142296,0.257475,0.489566,-0.191773,0.421212,0.335062,0.464287,0.297601,-0.327109,0.126912,-0.0924761,-0.24452,0.326381,0.13145,0.125977,0.33849,-0.390565,0.434944,-0.471085,0.321563,-0.0934375,0.461703,-0.120989,-0.217685,-0.159406,-0.394714,-0.434767,-0.328042,0.0753923,0.346255,0.412181,0.0170834,-0.182398,-0.265168,0.373393,-0.458987,-0.227706,0.166058,0.304493,-0.150518,0.0334365,-0.36916,-0.3544,-0.480644,0.421387,-0.120597,-0.464724,0.436169,-0.0269,-0.280588,-0.0328152,-0.482324,-0.19458,0.281145,0.391973,-0.149487,0.261307,0.409097,0.407172,0.120772,-0.30441,0.466286,0.494128,0.0135232,-0.191529,0.0824164,0.100423,-0.255859,-0.313864,-0.319754,0.487935,-0.0475332,0.165053,0.0424196,-0.144223,-0.251987,0.224824,-0.438972,0.165585,0.298158,0.126727,0.164633,-0.088055,-0.391756,-0.227593,-0.227161,-0.251299,0.390043,0.286671,0.285372,-0.192418,-0.163985,0.36873,0.111227,0.089557,-0.34489,0.142109,0.020931,0.160228,0.242837,-0.0787064,0.227196,0.205521,0.484051,-0.0481084,0.241049,-0.414213,-0.323446,0.0196294,-0.389508,0.218117,-0.397802,0.425598,-0.13463,0.324216,-0.0644694,-0.454346,-0.220648,0.29956,0.0887275,-0.165421,0.249995,-0.164143,0.434036,-0.484896,-0.216147,-0.286086,0.29598,0.155299,0.483121,-0.226689,0.0198537,-0.131426,0.190719,-0.132042,-0.158782,0.0219951,0.469608,0.173265,-0.283727,0.185188,0.277646,0.379681,0.367139,0.285267,-0.00863111,-0.256809,-0.201725,-0.018207,0.0722158,-0.434855,-0.168346,0.0960227,0.218885,0.424101,-0.38256,-0.392764,-0.12825,0.11787,-0.370103,0.435739,-0.465121,0.46496,-0.201457,0.216046,-0.034344,-0.40223,-0.168592,0.0646056,0.287245,-0.330898,0.0346536,0.447038,0.310328,-0.0733984,-0.150769,0.0529056,0.000635954,-0.230058,-0.363012,0.235362,0.371793,0.374802,0.244323,0.391747,0.221816,0.108508,0.270189,0.178955,-0.163709,0.109403,0.109701,-0.0228553,0.35466,-0.28818,0.149928,0.386438,0.247556,0.147377,0.152583,0.284292,0.0571399,-0.152421,-0.469349,0.511191,-0.112733,0.332109,0.441099,0.42777,-0.262635,-0.435222,0.47127,0.0376824,-0.413846,0.187638,0.00820615,-0.486746,-0.397708,-0.467824,0.346187,0.302073,0.426078,-0.461476,-0.447364,-0.36032,0.400063,0.108892,-0.0206328,-0.155969,0.286631,0.487747,0.218782,-0.407247,-0.124523,-0.364844,-0.103398,0.423153,-0.414751,0.137972,0.202435,0.0648251,-0.315194,-0.275147,0.0281858,0.272526,0.419969,0.27139,0.39338,-0.00388361,0.51083,0.421387,-0.324282,-0.408309,0.117954,0.106756,-0.368153,-0.157794,-0.325184,0.291676,-0.384501,-0.200016,0.479244,-0.296464,-0.15298,0.444723,-0.402181,-0.423885,-0.112991,0.297131,0.327851,-0.294001,0.119464,0.0783023,-0.361331,-0.0122874,-0.440993,0.045971,-0.425368,-0.113769,0.454246,0.215063,0.460258,-0.139243,-0.499363,-0.375286,-0.0473429,-0.0289149,-0.221782,0.0840705,0.168447,0.126222,-0.246612,0.272334,0.0675211,-0.208947,-0.179681,0.202576,0.0296594,-0.488376,-0.272077,0.0213735,-0.222427,-0.124908,0.35129,0.156786,0.393319,0.329479,-0.464413,-0.000207578,-0.144691,0.269275,-0.318366,0.475939,-0.276382,-0.149211,-0.467363,-0.43788,-0.295458,0.4947,0.387951,0.490221,-0.173137,-0.429894,-0.135719,0.126686,0.13651,0.327127,0.250892,0.499523,-0.328875,0.44289,0.476248,-0.132611,-0.306576,-0.0243245,-0.138995,0.116919,-0.383286,-0.276988,-0.238403,0.0857732,-0.332599,-0.340781,0.44426,-0.380431,-0.465863,-0.0699926,-0.231056,0.398954,-0.296468,0.0116415,-0.0410205,0.445043,0.243652,-0.238305,-0.455515,0.41428,-0.193104,0.409079,-0.147465,-0.120991,-0.409957,0.164776,-0.41588,-0.02263,0.297918,0.0315874,-0.268499,-0.470899,-0.00772514,0.184213,0.263465,0.487346,-0.238777,0.143701,-0.483006,0.00338998,-0.238287,0.416746,0.308588,-0.20826,0.287736,-0.239381,0.0575617,0.358494,-0.240297,-0.158362,0.417655,-0.401375,-0.414619,0.322702,-0.00513603,-0.151622,0.157348,-0.24534,-0.378692,0.291351,-0.335139,-0.330009,-0.383632,-0.425821,0.339201,0.0154291,0.0913533,0.132794,0.0714533,0.327444,-0.0534194,0.496069,-0.465652,-0.315881,-0.0887046,-0.438501,-0.171377,-0.0595395,-0.481275,0.0221188,0.446357,-0.112015,-0.0838524,-0.480266,-0.0491561,-0.115203,-0.105594,0.363334,-0.224569,0.117673,0.392496,0.201845,-0.146094,0.084314,-0.18435,-0.0202058,0.360396,0.283778,-0.259022,-0.31985,0.244117,-0.307408,-0.43685,0.0951052,0.36698,0.262608,-0.113942,-0.0377485,0.241368,0.286931,0.0129741,-0.247075,0.0542386,-0.502653,-0.311966,-0.153375,-0.0136091,-0.075381,-0.197353,0.0486643,-0.137095,0.0984271,-0.345572,0.068179,-0.116335,-0.0789424,0.40791,-0.368452,0.286419,-0.266768,0.258514,0.135278,-0.025032,0.179277,-0.250239,-0.482812,-0.231405,-0.371023,0.352274,-0.298119,-0.498872,0.283902,-0.247397,0.0664484,-0.281934,0.213845,0.0294831,0.452195,0.11512,0.162511,-0.350875,-0.253976,-0.155055,-0.295592,-0.0515445,-0.0651561,-0.203489,0.184861,-0.165581,-0.484895,-0.206833,-0.270748,0.116695,-0.427427,-0.0899617,-0.0989077,-0.222361,0.232445,0.0308651,0.304714,0.124766,-0.358514,0.448387,0.291197,0.0528384,-0.315817,0.0737906,0.304891,0.132197,-0.365185,-0.0123683,0.373387,0.255482,0.114878,0.236449,-0.117959,0.484343,-0.0985963,-0.44053,-0.429284,0.318493,-0.398716,-0.236273,-0.493848,-0.256443,-0.344113,0.47917,0.174595,-0.107732,0.165835,-0.313549,0.110727,-0.21566,-0.233057,-0.189312,0.363292,-0.494714,0.0262321,0.146245,-0.305567,0.36196,0.26656,0.345917,-0.111537,-0.0924461,-0.0905526,0.0777121,0.439641,0.26883,0.314309,-0.0383116,0.301628,-0.46916,-0.276715,0.184889,-0.00737858,0.00404959,0.324895,0.0557103,-0.497314,-0.172965,0.381609,-0.429921,0.494905,0.03197,-0.276769,0.298949,0.13597,-0.491918,0.0684902,0.152164,0.0964518,-0.167014,0.319611,-0.222903,0.195759,-0.364986,-0.473406,0.223707,0.0816515,0.221324,-0.0756417,-0.0895965,-0.134718,-0.475814,0.296037,-0.0620532,-0.186372,0.313691,0.234422,0.125391,0.294297,0.196105,0.38579,-0.193052,-0.229374,0.126607,0.287255,0.496698,-0.0377667,-0.250943,-0.158005,0.176475,0.224387,0.279171,0.346101,-0.35222,0.0773839,-0.088317,0.356827,0.0621966,0.0676017,-0.282045,-0.443164,0.43041,0.359596,-0.0481279,0.494529,0.201461,0.454533,-0.175276,-0.496758,-0.369063,0.267095,-0.172463,0.0920906,0.389342,-0.434823,0.460868,0.346528,0.203077,0.346927,-0.239481,0.299246,-0.34882,-0.472026,-0.442159,-0.369687,0.0201717,-0.0697423,0.216529,-0.382826,-0.247416,0.0873507,-0.0291886,0.342707,0.483312,0.401263,-0.356746,0.249046,0.472017,0.355913,-0.107529,-0.40974,-0.237482,-0.133229,0.290192,-0.387899,-0.402186,-0.233987,0.236615,0.456721,-0.181108,0.498577,-0.0715573,-0.358658,-0.187274,0.319533,0.0145726,0.237241,0.0625161,0.0863549,-0.303802,0.254795,-0.082482,-0.235636,-0.31364,0.0605388,-0.0449476,-0.0309487,-0.00625641,0.474667,-0.224654,-0.180269,0.0569684,-0.00881459,0.414316,-0.142924,-0.1764,0.31587,-0.260803,0.364681,-0.0103113,0.372129,0.497165,-0.234467,-0.0734485,-0.147115,-0.465793,-0.205423,0.414629,-0.283547,0.419103,0.388635,-0.361476,-0.308139,-0.247279,0.379744,0.386117,-0.199207,-0.240611,0.281545,0.177429,0.190123,0.159725,0.299566,-0.167735,0.40778,-0.349439,-0.348236,0.490587,0.26551,0.0582545,-0.29439,0.0938714,0.416152,-0.0373056,-0.495307,-0.288079,-0.334916,0.140894,0.426384,0.0514912,-0.0403712,-0.240581,-0.108759,0.418166,-0.391825,0.0360977,0.198572,0.0741648,-0.407836,-0.20104,0.197258,-0.367486,0.0869462,0.142009,0.406149,-0.183292,-0.147741,0.248028,-0.12646,-0.0969943,-0.247927,0.0851905,0.072563,0.0912603,0.0028897,0.025966,-0.198567,0.107786,-0.152304,-0.142342,-0.44735,-0.265488,-0.418927,-0.417952,-0.488173,0.0650553,-0.134611,-0.268719,-0.346168,0.0504825,0.0451417,-0.268819,-0.345612,-0.180564,0.372956,0.347098,0.260086,0.449433,-0.485857,-0.113617,-0.32789,0.196791,0.470209,0.0851307,0.0413426,0.294699,-0.216915,-0.0946338,0.100541,0.160929,-0.318082,-0.0678675,0.240553,-0.0575795,0.309692,-0.437802,0.182894,-0.236684,-0.439494,0.342469,-0.442855,0.429995,-0.303626,0.0479006,-0.348727,-0.165091,-0.347953,-0.138043,0.421957,-0.242354,-0.24584,-0.0311244,-0.18908,-0.270044,0.0933221,-0.0363874,0.368763,-0.125595,0.382439,0.120222,-0.0119401,-0.4484,0.0810907,0.0953191,-0.321071,0.016046,0.00303374,0.0987238,0.136152,0.363728,0.470451,-0.173497,-0.24297,0.0103185,-0.135672,-0.303783,0.457347,-0.137727,-0.443963,-0.111191,-0.359447,0.4967,0.0744073,0.118574,-0.343661,0.117189,0.159828,0.214615,0.105589,0.215818,0.484531,0.296833,0.299526,-0.207026,-0.165403,0.421713,0.42536,0.0349333,-0.0450527,0.0620771,-0.368213,0.10363,0.174942,-0.0353106,-0.238159,-0.195036,0.353819,0.0728806,-0.463716,-0.394442,0.0330338,0.0260176,0.239667,0.363486,0.31076,0.123143,-0.289094,0.23783,0.399112,-0.0667448,0.135392,0.19211,0.46275,0.467818,0.0139813,0.081029,-0.0363575,0.0771843,-0.00127852,0.471187,0.31144,0.404879,-0.231018,-0.437237,0.395281,0.446009,0.124621,-0.229756,-0.0934006,-0.117989,-0.46751,0.348143,0.209235,-0.0858848,-0.124796,-0.500131,0.287812,-0.226693,-0.279179,0.231309,0.249802,0.354444,-0.0354553,-0.250744,0.0155769,-0.441082,0.127684,0.00671624,0.00304465,0.478777,-0.167356,0.0324589,-0.341243,0.31051,-0.233196,0.322567,-0.205586,0.449883,0.342634,0.142661,0.27398,0.123938,0.430447,0.136975,0.377809,-0.232005,0.434674,0.442528,0.109814,-0.252564,0.325294,0.352827,-0.486337,0.324242,-0.446589,-0.0408133,0.443681,0.0872081,0.385333,0.315268,0.337291,-0.134623,0.204426,-0.49325,-0.0336386,0.3431,0.193173,-0.413632,-0.345283,0.0414872,-0.496925,-0.435134,0.307503,-0.350519,-0.0707681,-0.242101,0.456747,0.272283,0.096225,-0.465303,0.488439,-0.115518,-0.259476,-0.0192177,-0.115232,-0.0585514,0.431355,-0.0562193,0.410409,0.318072,0.0746905,0.0216916,0.000301661,-0.13144,0.159818,-0.0521969,-0.383904,0.103584,-0.405609,0.270522,-0.500756,0.221802,0.0140489,-0.422978,-0.469201,-0.486539,-0.0116271,-0.374989,0.0312565,0.199611,0.0651307,-0.30288,-0.354909,-0.232344,-0.498614,-0.381288,-0.0806588,0.226054,-0.0459442,0.211117,-0.337445,0.0180784,0.476778,-0.00817954,0.055655,0.46163,-0.257458,-0.279445,0.0165791,-0.363389,0.402554,-0.113555,-0.361344,0.413324,-0.2049,-0.217606,0.0270882,-0.200091,-0.289756,-0.183545,0.264279,-0.371924,0.379615,-0.0536046,0.310585,-0.299129,0.130273,0.0132647,-0.137173,0.312845,0.366613,0.292119,-0.178565,-0.353846,-0.469013,0.387385,0.452265,0.0535832,-0.0816605,0.0256951,-0.0299326,-0.214001,0.359441,0.242303,0.115267,-0.140299,-0.484977,0.26198,0.356005,0.287563,0.442954,0.482138,0.466451,0.15221,0.415008,0.490489,-0.497841,-0.0767122,0.25629,-0.14761,-0.456791,-0.256216,0.312362,-0.228578,-0.478462,0.406033,-0.194093,-0.1294,0.0602143,-0.157363,-0.207014,0.098276,0.287198,-0.451145,0.447119,-0.0570138,0.0385763,-0.111238,0.372239,-0.283371,-0.445318,0.238079,0.325047,0.0268612,0.302592,0.0346757,0.20957,0.499622,0.449885,-0.136979,0.379744,0.141485,0.212828,0.108838,0.0390508,0.045089,-0.383143,-0.491436,0.412329,-0.0357308,0.492728,0.297423,-0.472102,-0.367235,0.349346,-0.347577,-0.230736,-0.153534,0.262313,-0.403479,0.244135,0.370124,0.488724,0.152291,0.417156,0.408358,-0.171523,-0.0585274,-0.160523,0.30611,-0.28134,0.480039,-0.166234,-0.173827,0.432834,0.224479,0.295751,-0.13118,-0.347813,-0.0997666,0.0412179,-0.221092,0.0873555,-0.222418,-0.232549,-0.192198,0.206877,0.281191,-0.295286,-0.264065,0.0770217,0.407346,0.238529,-0.286708,-0.061206,0.0231018,0.226963,-0.412252,-0.0369105,0.145013,-0.163431,0.102231,0.118772,-0.148064,0.217532,-0.217268,-0.345419,0.177342,0.388075,0.0473431,-0.426584,-0.410133,0.43255,0.0492441,0.308694,-0.303305,0.12925,0.304432,-0.336369,-0.165509,0.25733,-0.0345839,0.500568,0.162088,-0.219593,0.0299533,0.289004,0.199235,0.308813,-0.0834265,-0.448018,0.139153,0.255856,0.0461175,0.331124,-0.00630897,-0.440161,-0.271961,-0.429327,0.447923,0.252419,0.175752,0.0720474,-0.117719,0.221666,-0.0464245,0.289119,0.0146576,0.410548,-0.0938729,-0.0553835,-0.426946,-0.0228509,-0.293521,0.350106,0.006696,0.00395693,0.19409,-0.398747,0.455969,0.20262,0.027858,0.3739,0.161747,0.465045,-0.0664317,0.450653,0.0978334,-0.306728,-0.44578,-0.475558,-0.254446,0.385314,-0.109735,-0.199759,-0.151909,0.0848418,0.14704,0.241184,-0.439529,0.119812,0.127765,0.450351,-0.241536,0.158862,-0.488247,-0.0149981,0.0678783,0.227037,0.0778253,-0.356662,0.232149,0.0842696,-0.243036,-0.218497,-0.414121,-0.360643,0.0676302,-0.00725189,0.454251,-0.425756,0.337983,0.145762,0.199942,-0.175218,0.0815143,0.199819,-0.436507,0.276564,0.054558,0.117305,-0.115579,0.280283,0.398755,2.31038e-05,-0.27913,-0.414889,-0.344143,0.426735,-0.180664,0.00272006,0.0505292,0.0366943,0.00719835,-0.0438711,0.392056,-0.21094,-0.244914,0.285758,-0.321817,-0.154257,-0.0819734,0.456466,-0.220479,-0.224656,0.0223996,0.0359224,-0.110442,0.425319,0.0787475,0.310024,-0.250917,-0.000194983,-0.162258,0.439341,-0.0313757,0.188506,0.119658,-0.306708,0.00384297,-0.0255806,-0.316957,0.218555,-0.0252786,0.35181,-0.435688,0.42367,-0.108898,-0.498385,0.151316,-0.0207514,-0.145633,-0.306865,0.215517,-0.209665,0.26482,0.150055,-0.342066,0.491901,-0.476032,0.464566,0.143172,0.39745,0.219683,-0.258705,-0.0665779,-0.0377686,0.48523,-0.362052,0.139549,0.0316858,0.380055,-0.305198,-0.328589,0.139009,-0.343248,-0.280946,-0.0900314,-0.272908,-0.200535,0.283526,-0.262003,-0.352933,-0.280461,0.185535,-0.268834,-0.255555,0.249432,0.290492,0.303049,-0.406391,0.295751,0.42403,0.307074,-0.219995,0.34788,0.473652,0.125999,0.149136,0.440254,-0.406304,-0.159231,-0.165419,0.358123,0.343667,0.343453,-0.0229165,-0.0195938,-0.343352,0.37505,0.101967,0.377652,-0.372969,-0.40276,0.279903,-0.0824439,0.264215,0.491128,0.324886,-0.0211628,0.136568,-0.0573135,-0.474224,0.344205,0.00264326,0.0986211,0.0336113,-0.0347606,-0.390984,-0.0908803,-0.265695,0.385831,0.295251,-0.147088,0.476848,-0.401177,-0.456431,0.19356,-0.409474,-0.00825896,0.359913,-0.0530959,0.485568,0.288681,0.193152,-0.466618,0.398797,-0.312176,-0.467658,0.37988,0.438106,0.438968,-0.41713,-0.0969606,0.153485,-0.157593,0.223215,-0.30207,0.391754,0.115034,-0.0158363,0.417573,0.153347,-0.113928,0.327219,-0.364429,-0.4151,0.113062,0.363933,-0.435428,-0.0640586,0.120775,-0.241374,-0.030749,-0.427962,-0.239757,-0.0693881,-0.205186,0.0890971,-0.207707,0.120486,-0.0264078,-0.38694,-0.113611,0.151482,-0.105324,-0.149621,0.412476,0.394746,0.418046,0.108171,-0.409953,0.16019,-0.471067,0.368689,0.49033,-0.21392,-0.0950548,-0.373948,-0.0156919,0.42928,0.0612378,0.153992,-0.363946,-0.147415,-0.458139,-0.485878,0.107347,-0.309479,0.0486298,0.295132,-0.248771,-0.334528,0.13082,0.482842,0.391097,0.244609,-0.0305181,-0.43675,0.0551344,-0.179776,-0.184966,0.0956026,0.307026,-0.381034,-0.233041,-0.283526,-0.0715078,0.231981,0.256193,0.113042,0.46744,-0.468153,-0.371065,-0.261399,-0.148987,-0.399261,0.168724,0.399261,-0.0513554,-0.11645,-0.130057,0.0933956,0.370718,0.00665709,-0.18427,0.0755347,-0.164147,-0.129603,-0.0260639,0.144914,0.280375,0.389308,-0.422282,-0.156182,-0.172427,-0.158866,0.24768,-0.480379,0.0616942,-0.234574,-0.389935,0.33248,0.0116596,-0.455981,-0.0242193,-0.21906,-0.373624,0.451518,-0.252796,-0.229823,0.122561,0.225818,-0.321152,0.368307,0.0836532,0.350972,0.361689,0.181498,-0.042555,-0.231537,0.184235,-0.321891,0.434166,-0.186508,-0.332927,0.381774,0.116331,-0.361343,0.0815099,0.0346672,-0.45878,0.165221,0.242491,-0.104229,0.457414,-0.149326,0.492692,-0.426856,-0.0900215,-0.184737,-0.169362,0.206176,0.496741,-0.198311,-0.229575,0.441479,-0.475086,-0.127456,0.215048,0.00751591,-0.436199,-0.0116823,0.316738,-0.260924,0.385503,-0.203838,0.338266,-0.0941745,0.385904,-0.327207,-0.383754,0.304404,-0.0105422,-0.468607,-0.0266536,-0.373318,-0.267726,0.21146,0.201042,0.278889,-0.0108445,0.488114,0.0772763,-0.480931,-0.390726,0.412691,0.234832,-0.332055,0.333327,0.0141017,0.453366,0.267651,0.0172203,0.015027,0.437943,-0.195987,-0.104692,-0.168092,0.103119,0.143978,0.0699524,-0.0948815,-0.00768286,0.0717166,0.357626,0.372167,0.157749,-0.144104,-0.090685,-0.371375,-0.350983,0.465769,-0.135442,0.469619,0.380109,-0.180213,0.358619,0.190523,-0.448142,0.226491,0.454586,-0.231219,0.0261664,0.46579,0.373112,-0.0878266,-0.252343,0.442591,0.343206,-0.136518,0.291772,-0.357083,-0.169637,-0.307482,0.0495813,0.119533,0.402287,0.439823,-0.258302,-0.0934321,0.206658,-0.0306755,-0.365473,0.399386,-0.43269,-0.0482494,-0.330054,0.127537,0.42373,-0.148116,-0.208797,0.071728,-0.413578,0.467524,-0.355053,-0.00728502,0.229168,-0.227807,0.0987319,0.361446,0.0554964,0.0782855,0.397652,0.0683655,-0.330705,-0.21128,0.28997,-0.208085,0.388082,-0.118525,-0.493247,0.32158,0.156637,-0.0833964,-0.414497,0.314597,0.13819,0.478827,0.143825,0.0621386,0.377213,0.344848,0.269035,0.396216,0.404721,0.340079,0.0416447,-0.371479,0.345157,0.203274,0.433134,-0.434115,0.399039,0.359951,-0.291526,-0.340825,-0.366911,-0.423706,-0.190664,-0.0735127,-0.363882,-0.368582,-0.242067,-0.407315,-0.139545,0.0437442,0.256419,0.1914,0.207879,0.12034,-0.278959,-0.0463972,0.081327,0.301215,0.157647,0.0209607,0.295458,-0.110047,-0.279279,0.029662,0.0500557,-0.291321,-0.136528,0.191653,-0.326429,0.0105217,0.439075,0.419356,0.126871,-0.332106,-0.0421746,-0.439909,0.0521701,-0.471923,0.230092,-0.0243192,-0.369405,-0.475424,-0.034269,0.236731,0.49851,0.360993,-0.372847,-0.35738,-0.38042,-0.477223,0.415545,0.489934,0.411417,-0.377936,0.108285,-0.427725,0.276038,0.223313,-0.256591,0.0286595,-0.33419,0.287032,-0.465908,-0.109171,-0.148065,-0.0111973,-0.332898,0.317823,0.465174,-0.158948,0.344251,-0.206826,0.129573,-0.479958,-0.468502,0.323889,0.317142,0.199425,0.238271,-0.0175931,0.341445,0.439595,0.386617,0.258547,-0.420513,0.483923,-0.0110775,0.324895,-0.222695,0.343092,0.376242,-0.45034,0.306505,-0.0912176,0.451395,0.23053,-0.10147,0.30354,0.00512405,-0.380816,-0.0406231,-0.451499,-0.194382,0.166474,0.216134,0.462232,-0.0278916,-0.225458,-0.181108,-0.146832,0.358488,-0.160147,-0.338761,-0.299753,-0.317096,-0.0590434,-0.294968,-0.0399671,0.165223,0.0428158,-0.0566379,0.249371,0.00884293,0.116987,0.455666,0.170104,-0.445661,0.399853,0.0390899,0.382039,0.388903,-0.0870193,-0.0832304,0.34771,-0.034993,-0.102574,0.0407427,-0.408024,0.100279,0.06946,0.471728,-0.254349,-0.241737,0.485081,0.0486386,-0.0969212,0.201087,-0.272077,0.148914,0.267929,-0.302247,0.180212,-0.452646,0.342771,-0.176865,-0.0730315,0.398835,0.0933102,0.300628,0.486758,-0.150124,-0.0605873,-0.218746,-0.0311802,-0.468239,0.193388,0.154077,-0.444586,-0.0530794,0.189458,0.283893,-0.143736,-0.341819,-0.138508,0.00848485,-0.39583,0.320029,-0.0156476,0.0304995,-0.446593,0.15881,-0.367746,0.0984,0.317393,-0.380783,-0.264492,0.443361,0.222229,-0.0678059,0.202514,0.426706,0.152052,-0.495836,0.329229,-0.489665,0.159842,-0.471201,-0.0993984,0.0937467,-0.442923,-0.243016,-0.28942,-0.191858,0.0846288,-0.34107,-0.382228,0.427676,-0.497842,-0.415543,-0.316074,0.363883,0.229767,-0.182528,0.201297,0.315525,0.126248,-0.0315306,-0.172494,-0.0934245,-0.099083,-0.436965,-0.26805,-0.374036,0.0562037,-0.124611,-0.109978,0.399304,-0.42338,-0.0556025,-0.287928,0.283492,-0.0276044,-0.438821,-0.179377,0.387214,0.0436014,0.113098,0.0378878,-0.488819,-0.0424625,0.0227805,-0.307117,0.383452,-0.438975,0.00853422,0.0521277,0.272065,0.0258448,-0.0649664,-0.331024,-0.397762,-0.0946371,-0.401451,-0.0154257,-0.422838,0.339736,-0.465847,0.0681863,-0.09535,-0.466996,-0.449657,0.189505,-0.116011,-0.145696,0.187134,-0.11263,-0.443724,0.424199,-0.356977,-0.291094,-0.0735461,-0.0807483,0.251614,-0.371925,-0.217513,0.33544,0.141257,-0.488106,-0.304238,-0.365834,-0.340888,0.200885,0.26093,-0.35484,0.48318,-0.390607,-0.408144,-0.166252,-0.483238,0.222025,0.449089,0.206944,-0.120096,-0.386575,-0.384897,-0.0393925,-0.389448,-0.111527,0.358439,-0.463812,0.0522797,-0.325654,-0.21464,-0.3337,-0.246178,-0.428203,0.123795,-0.402981,0.179846,0.167091,0.146247,-0.369202,-0.219224,0.430484,-0.441666,0.450793,-0.174032,-0.331335,0.357733,-0.300836,0.342397,-0.154253,-0.331993,0.0834451,-0.0509088,0.110491,0.0368609,-0.416492,-0.245195,0.336213,0.284481,0.128081,0.0455169,-0.30539,-0.176228,0.00710362,-0.31354,-0.100314,-0.422814,0.0228636,-0.273939,-0.286592,0.410539,0.433378,0.0234399,0.279942,0.383874,0.0666214,0.218095,-0.243399,0.350582,0.464705,-0.108526,-0.349824,-0.254117,-0.39589,-0.155965,0.134224,-0.39978,0.473719,-0.37506,0.344706,-0.365223,0.392682,-0.134058,-0.49529,-0.194759,-0.236206,0.194744,-0.240686,-0.377671,-0.176219,0.15904,-0.0535563,0.496565,-0.34833,0.0753626,-0.0336033,0.0862166,-0.290174,-0.0717813,0.164007,0.0400551,-0.449918,0.15555,-0.323014,-0.255599,-0.349146,0.239081,-0.0657967,-0.226666,0.401728,-0.198318,-0.173635,-0.3862,0.339958,0.214707,-0.403082,0.368963,-0.0761465,0.106206,0.336503,0.183969,-0.428438,0.398456,0.393624,0.0138339,0.150453,0.0295911,-0.328113,0.265471,-0.333809,0.423629,0.269758,-0.335031,0.249422,0.0269141,-0.19247,-0.021552,0.252238,0.112738,0.231137,0.353112,0.292612,0.387134,0.376336,0.105395,0.0242503,0.458989,-0.179712,-0.412863,-0.20475,0.118977,0.219974,0.21703,0.324873,0.319948,0.208655,-0.439871,-0.240938,-0.282793,-0.459312,-0.166245,-0.228126,0.1475,0.150036,0.356667,0.403154,-0.0829702,-0.112566,-0.242814,0.383145,-0.187162,0.0160062,0.3875,0.094188,-0.449653,0.238922,0.232606,-0.438369,0.251964,0.457432,0.217344,-0.405185,-0.183379,-0.143991,0.446956,-0.00130048,-0.366045,-0.214207,0.350683,-0.0782594,-0.272201,0.493136,0.0519422,-0.453985,0.387868,0.403935,0.140985,0.121505,-0.240513,-0.184363,-0.241108,-0.269387,-0.449278,0.105238,0.449143,0.100491,0.0943931,-0.392697,0.22042,-0.248955,0.321624,0.258469,0.258121,0.486812,0.0307825,0.184059,0.172813,-0.398452,0.055131,0.248347,0.478349,0.0410776,0.190992,-0.11988,0.361539,-0.112854,-0.296846,-0.380185,0.112336,-0.339867,0.428435,-0.457624,-0.343734,0.345017,0.224498,0.3354,0.200023,0.493917,0.174588,-0.113587,0.403712,0.378465,0.189693,-0.296896,0.497583,-0.0117955,-0.237008,-0.323503,0.478409,0.171593,-0.212554,0.199746,-0.416731,-0.0180915,0.389652,-0.00051535,-0.332968,-0.446019,0.321424,0.252803,0.333994,0.268831,0.411666,0.0738208,-0.0655048,-0.38252,0.437176,0.499455,-0.0638283,0.347512,0.318128,-0.144099,-0.413753,0.394351,0.21397,0.0247716,-0.148572,-0.100203,0.493872,0.323497,0.223739,0.346287,-0.187147,0.133187,0.0316811,0.467529,0.327429,-0.0667548,-0.480787,-0.38121,-0.424571,-0.0578933,0.314047,0.0488766,0.0225623,-0.00876461,-0.487053,0.222022,0.236212,-0.153132,0.171779,0.024394,0.238799,-0.118322,-0.497855,0.42148,0.183093,-0.253677,-0.330773,0.465929,0.206089,0.407979,0.427055,0.406108,0.0974122,0.0781836,0.468681,0.100206,-0.321327,-0.0591634,-0.2385,-0.393156,-0.307343,-0.050555,0.366743,0.48653,-0.251692,-0.403514,0.200211,0.284735,-0.455998,0.139981,-0.0843668,0.252349,-0.0692054,0.486451,0.296587,0.415055,0.0230753,0.335713,0.0956687,0.273246,-0.472467,-0.377182,0.407032,0.188032,-0.416801,-0.439566,0.302357,-0.17597,-0.204363,-0.290668,-0.26417,0.0658489,0.0472081,-0.172139,0.26888,-0.265731,-0.406157,0.249984,-0.207146,-0.129229,-0.0247437,-0.155747,0.184964,0.170025,0.304852,-0.345066,-0.0965961,-0.118166,0.0931896,0.420081,-0.334672,-0.355725,0.389015,0.482074,-0.258899,-0.256727,0.0417005,0.433684,-0.338831,0.412388,-0.21711,0.0325827,-0.00856215,-0.336691,0.211883,-0.488292,-0.02808,0.245535,0.434005,-0.352876,-0.214,0.167916,0.219394,0.0280887,-0.267927,-0.0706574,-0.0574024,0.441229,-0.0428101,0.197291,-0.386887,0.271615,0.464337,0.00656361,-0.258129,0.27237,-0.100266,0.0909211,-0.0490683,-0.173715,-0.345439,0.120316,0.489742,0.30652,0.389611,0.373105,-0.416,0.234344,0.398794,0.120097,-0.506197,0.178855,-0.376717,0.151184,0.244209,0.379785,-0.207483,-0.394693,0.226492,0.00324982,0.146401,0.10472,-0.295119,-0.296778,-0.392201,0.306381,0.140147,-0.312589,-0.443257,-0.454121,-0.26639,0.104697,-0.232211,-0.38248,0.0424291,0.373776,0.0658681,0.276871,0.337034,-0.00620229,0.245415,0.121237,0.241849,0.321987,0.378152,0.21029,-0.0695724,-0.125656,0.185529,-0.425033,0.397977,-0.501645,-0.0325499,-0.453239,-0.432737,0.178617,0.266395,-0.0352008,-0.120383,0.0191975,0.0930599,0.171141,-0.183517,0.256038,-0.242733,-0.303733,-0.272852,0.196505,-0.342676,0.416753,-0.359616,0.161984,0.0215747,-0.341928,-0.0998024,-0.215192,0.420538,0.313536,-0.248211,-0.178975,0.335502,0.416767,-0.156098,0.142318,-0.448613,-0.271741,-0.252566,-0.0984344,-0.352165,0.432345,0.38512,0.0167535,-0.17141,-0.119754,0.0338055,-0.246582,-0.150108,0.425041,-0.443928,0.365706,0.127185,0.312364,-0.104737,-0.0192387,0.334934,-0.251246,0.450603,-0.128098,-0.254089,0.0500523,0.28099,-0.0844564,-0.22089,0.443963,0.197195,-0.47306,0.274144,-0.00657947,-0.104336,-0.21297,0.253507,-0.445225,-0.114557,0.0805297,0.470112,0.0901943,0.235035,0.0911414,0.324246,-0.491056,0.470949,0.215029,-0.153498,-0.424219,0.368845,-0.293516,0.142413,-0.470164,0.420984,-0.474229,0.219584,0.291099,0.430072,-0.41111,0.178825,0.0556444,-0.489132,0.286971,0.458086,0.364895,0.0959165,-0.479025,0.0135118,0.0297459,0.184324,-0.0256085,-0.311489,-0.332475,0.354716,-0.390719,-0.248409,-0.25796,-0.124463,-0.265351,-0.289531,-0.277549,0.310122,0.00310138,-0.379496,-0.323839,-0.396509,0.259041,0.38619,0.17474,-0.213861,-0.24592,0.0565562,0.275667,0.222641,0.247482,-0.265857,-0.275562,-0.0341898,-0.156864,0.257468,-0.481171,-0.328617,0.304732,0.0224991,-0.412322,0.177969,0.303999,0.359842,-0.122035,0.311714,0.233042,0.241629,-0.204065,0.441103,0.141574,0.151426,-0.313391,-0.0966799,-0.331406,-0.283809,0.247001,0.0666519,0.0422551,-0.0393883,-0.397658,-0.228243,-0.472485,0.270372,0.346789,-0.327646,-0.425799,0.470994,0.409011,-0.243911,-0.296784,0.393512,-0.429047,0.127464,-0.48512,-0.390181,-0.0490263,-0.303162,-0.0648717,0.145794,-0.195571,0.481558,0.275201,-0.498892,0.0309568,-0.265055,0.477271,-0.211052,-0.229195,-0.0479246,-0.0239983,0.120688,0.308543,0.153326,-0.318737,0.346315,-0.00680701,0.347457,-0.149269,-0.0564611,0.23089,-0.0239373,0.0310268,0.0513571,-0.0861466,0.286948,-0.313005,0.0890587,0.310525,-0.30967,0.452789,0.0964604,-0.355244,-0.163257,-0.479444,-0.423612,0.00977199,0.470401,0.0343676,-0.270125,-0.254222,0.277772,-0.328664,-0.384639,0.299359,0.0480305,0.0528244,0.367271,0.436599,0.341741,-0.112112,0.237127,-0.265238,-0.198386,0.0553583,0.150836,-0.00439129,-0.431561,0.3065,-0.196991,-0.112801,0.410381,0.139083,0.283574,-0.265264,-0.201599,-0.398574,-0.446633,-0.388064,-0.251281,-0.168059,-0.340466,0.194657,0.073559,-0.230122,-0.224748,0.480318,-0.347129,0.389978,0.30409,-0.47873,-0.441027,0.149663,-0.0627485,0.495708,0.120027,0.16503,0.124177,-0.175117,-0.367483,-0.409675,-0.498941,0.377519,-0.0725217,-0.462623,-0.156188,-0.0081432,-0.391538,0.435839,-0.126744,-0.037023,-0.226218,0.195648,-0.192856,0.340007,-0.279282,-0.125867,0.231038,-0.173493,-0.120057,0.209381,0.0851571,0.175851,0.225745,-0.118538,0.312156,-0.445176,0.377799,-0.19682,0.164274,0.143767,-0.384012,0.0596637,-0.309038,0.0055334,-0.477001,-0.113504,0.213128,-0.126059,0.38228,-0.457719,-0.00580918,0.390288,0.141318,-0.480541,0.260226,-0.175994,0.199621,0.282458,-0.0942995,-0.0176113,0.28431,0.244861,-0.306579,-0.171583,-0.1195,0.38089,0.343016,-0.458455,-0.0896365,0.447271,-0.0791621,-0.255672,0.167069,0.132047,-0.100358,0.0562958,-0.283233,0.279466,0.441277,-0.496991,0.299311,-0.328336,-0.44917,-0.0577006,-0.11238,-0.0503455,-0.0790788,-0.441183,0.345404,0.400308,0.376921,0.0842864,0.0342631,0.148902,0.00401824,0.336666,0.214789,0.117248,-0.499028,-0.3471,-0.106072,-0.457523,0.464727,0.46806,0.229396,0.468741,-0.455735,0.417289,-0.335585,-0.040006,-0.10062,-0.446315,0.248776,0.383144,0.279324,-0.107265,-0.385775,0.0179254,0.339752,-0.11056,0.436586,0.151242,0.497363,-0.297645,-0.499765,0.0576234,-0.0944855,-0.389291,0.0739396,0.124613,0.0172276,0.0912038,-0.317754,-0.31639,-0.0202405,0.235386,-0.198149,0.0581224,-0.482193,0.146192,-0.430963,-0.0709167,0.141727,0.296488,0.312361,0.130677,0.213229,-0.267121,-0.152842,0.34444,-0.295342,-0.258891,-0.352449,-0.252601,-0.138967,-0.119457,0.259803,-0.203797,-0.495566,0.185933,-0.24271,-0.0385094,0.45881,-0.389376,-0.472749,-0.172456,0.246774,0.0675363,-0.353172,0.0675236,0.0389696,0.250752,0.473923,-0.0430669,-0.224903,0.0347871,-0.248478,-0.27177,0.000360481,0.0202444,-0.265255,0.405151,0.132369,-0.309048,0.0145349,0.15351,0.357951,-0.0336779,0.152724,0.492734,-0.230644,-0.168681,-0.480225,-0.0164679,-0.463707,-0.439975,-0.0282133,0.347492,-0.0480559,-0.273498,0.100969,-0.377956,0.427614,0.215314,-0.434542,-0.394676,-0.324117,0.243448,-0.0264011,0.053817,0.120764,0.44245,0.334104,0.292447,-0.161264,-0.210236,-0.213767,-0.166583,0.116969,0.223413,-0.335467,0.102347,-0.0686821,0.488682,-0.164373,-0.290214,-0.0467501,0.339786,0.429012,0.302834,0.243704,0.239691,0.0493028,0.172835,0.358587,-0.325393,-0.0876281,0.152167,0.0464301,0.442109,0.403061,-0.2313,-0.255152,-0.203073,0.0645295,0.247828,-0.227386,-0.269751,0.357384,0.0147044,0.103327,-0.442111,-0.487186,0.299803,-0.33835,0.0078779,-0.322536,-0.105792,-0.0803749,0.217095,-0.406026,-0.0239388,0.180087,-0.217314,0.325738,-0.354237,0.246129,0.166898,-0.0330222,-0.462411,0.1329,0.0627023,-0.272149,-0.0775289,0.0526676,0.0466099,0.0790212,0.416854,-0.178911,-0.130329,0.0237279,-0.240573,-0.000780079,0.0553243,-0.26974,0.0361718,-0.380549,0.252906,-0.16205,-0.154372,-0.422595,-0.0770183,-0.416311,0.447368,0.185546,0.104142,0.488656,-0.188936,0.100245,-0.10205,0.417623,0.379273,-0.26953,-0.158827,-0.107814,-0.372246,-0.12694,-0.355424,-0.0196511,0.28442,-0.184506,0.142025,-0.438887,0.16732,0.362027,-0.183488,0.111213,0.0713266,0.21136,-0.186587,0.271482,0.0805868,0.470101,0.315012,0.0329124,-0.270482,-0.435331,0.188905,-0.399166,0.0201848,0.161517,-0.0572997,-0.279388,-0.299431,0.0612127,0.039807,0.242711,-0.324212,0.0244346,0.105051,0.0653511,0.294804,-0.201529,-0.0435823,0.489634,-0.243907,-0.118489,0.378441,0.22163,0.471209,0.455105,-0.32237,0.334677,0.18276,0.328546,-0.232897,0.261592,-0.405453,-0.0792675,0.406581,-0.314827,0.0651456,-0.0394089,0.475582,0.393466,-0.311604,0.172921,0.436825,-0.38202,0.397833,-0.1139,0.35468,0.190671,0.00431671,-0.146668,0.455791,0.00440335,0.412389,0.0465768,0.170962,-0.17987,-0.158548,-0.164611,0.476292,-0.259781,-0.0280661,-0.365478,-0.354147,0.479436,-0.0388173,0.0718249,0.389604,-0.200023,0.109203,-0.149964,0.0373585,-0.0142553,-0.163701,-0.450576,-0.117183,0.465437,0.177018,-0.116918,0.289897,0.197961,0.272563,0.120333,0.40362,0.461368,0.168811,-0.204138,-0.2446,0.462674,0.374099,-0.426831,-0.138947,-0.067451,-0.32749,0.154803,-0.227678,0.442544,-0.0776072,-0.365792,0.0419615,0.118056,-0.179076,-0.19089,-0.295487,0.366323,-0.403184,0.0575428,0.128752,-0.1793,-0.0706183,-0.313286,0.331373,0.219599,-0.207642,0.467561,-0.00122714,0.062901,-0.413469,-0.224643,-0.343358,0.316704,0.175432,0.0132177,-0.250146,-0.0868323,-0.393842,0.16561,0.373985,-0.364796,0.0791912,-0.458311,-0.378678,0.392406,0.110629,-0.292776,0.457746,-0.191747,0.435378,0.12331,-0.404696,0.439912,0.305253,-0.252607,0.403347,