0.350684,-0.491901,-0.349365,-0.0531063,0.441919,0.0943625,0.487014,0.430226,-0.28434,0.124715,-0.345985,0.256007,-0.324322,-0.182796,-0.0436459,0.44553,0.188821,-0.167919,-0.306136,0.452532,-0.144733,-0.0821536,0.21738,-0.498929,-0.222001,0.0867112,0.482984,0.157131,-0.448954,-0.47342,-0.0180123,0.279443,-0.388489,0.411835,-0.0188618,0.327649,-0.0501036,-0.103856,-0.382156,0.339339,-0.239211,0.00374788,0.402221,0.131312,-0.487982,-0.40048,-0.314848,-0.327582,0.463369,-0.125023,-0.0185691,-0.108752,-0.102356,0.144499,0.170706,0.203545,0.0194515,-0.242094,0.24516,-0.251338,0.304245,0.427166,0.446058,0.111885,-0.0713899,-0.0895498,-0.0658297,0.0924,-0.334648,0.154348,0.215521,-0.303608,-0.171346,0.360268,-0.332078,-0.0448372,-0.0298156,0.370464,0.0890169,-0.390788,0.30162,0.394381,0.314778,0.00821992,0.172656,0.414725,0.430148,-0.483244,0.0102838,-0.366324,-0.0713765,-0.288746,-0.397513,-0.326865,0.426771,0.340421,-0.165832,0.366459,-0.283295,-0.0520443,0.370706,-0.397153,-0.0123272,-0.393813,0.363202,-0.159925,-0.249993,0.017623,-0.443145,0.154037,-0.366972,-0.394025,-0.128078,0.0254683,-0.0183375,0.489747,0.498422,-0.0440037,-0.369224,0.40296,-0.107087,-0.253211,0.188556,-0.478344,0.32006,0.445772,0.0586969,0.184868,-0.0894403,0.114941,-0.470821,-0.0761503,0.352393,0.336039,-0.347698,0.171739,0.49138,0.153458,-0.203904,-0.433574,0.0765139,0.483755,-0.211267,-0.241142,0.431028,-0.424199,0.442767,-0.12923,0.209436,-0.463781,-0.184823,-0.216292,-0.0705927,0.369117,-0.140002,-0.386588,0.170888,0.292286,-0.0416238,-0.215442,-0.359892,0.105556,0.28902,0.258637,0.217128,-0.130105,0.103278,-0.331027,-0.0910146,0.33836,0.335748,-0.284865,0.389735,0.453627,-0.140966,-0.306225,0.201696,0.0640334,-0.296067,0.399149,-0.19957,-0.0351663,0.490735,0.199598,0.122833,-0.40273,0.485281,0.187868,-0.30816,0.252335,-0.348485,-0.342979,-0.492779,0.429616,-0.448716,-0.116404,0.486877,0.0338888,0.414639,-0.256711,0.0678191,-0.294015,0.409518,-0.10324,-0.277256,0.477812,-0.153195,0.289993,-0.332393,0.435284,0.401311,-0.199267,-0.375058,0.108078,0.106957,0.213121,0.372315,0.0559389,-0.2967,-0.249324,-0.162644,-0.469573,-0.143328,0.343657,-0.463172,-0.388356,0.0416622,-0.284789,-0.283275,0.316447,-0.0590182,-0.0643092,-0.0676616,0.412415,-0.0527498,0.492038,0.0454393,-0.289763,0.33197,-0.021604,0.212557,0.165723,0.392395,-0.123087,-0.249405,-0.136383,-0.222047,-0.113498,-0.425359,-0.107649,-0.371592,-0.154189,0.0921344,0.489995,0.317125,-0.112262,-0.293517,-0.315602,-0.0593241,0.374443,-0.33601,-0.192073,0.187141,-0.129547,0.281732,0.41527,0.105141,0.137288,0.2241,0.229465,0.356027,-0.111511,-0.429744,-0.071962,0.416786,-0.39384,-0.0934975,-0.096981,-0.0973722,-0.183869,-0.299111,-0.205359,0.352856,-0.474239,0.369749,0.221468,0.238836,0.43066,-0.149926,0.317522,0.493799,0.392936,0.206408,0.211725,-0.373795,-0.0189322,0.302424,-0.49617,-0.0163781,-0.205788,0.358472,-0.405804,0.377799,0.0132127,0.119261,0.488056,0.0607019,0.0183498,-0.246666,0.456145,-0.139127,-0.338388,0.0761046,0.173513,-0.0572603,0.152408,-0.185768,0.215891,0.467658,-0.314663,-0.139721,0.184545,0.138176,0.2428,0.206527,0.288523,0.445991,0.0565543,-0.279914,-0.349302,0.2543,0.0911788,-0.0786408,0.130581,0.45951,0.277751,0.0612566,0.185283,-0.308038,0.139569,0.371891,-0.411982,-0.276764,0.125185,-0.0635367,0.41326,0.255498,0.202828,0.22162,-0.112754,0.46405,-0.337783,-0.102865,0.32845,-0.138381,0.281454,-0.171617,-0.243965,-0.025998,0.233745,0.238513,0.295016,0.0742587,-0.334606,-0.15691,-0.0825498,-0.238076,-0.148163,0.285883,-0.248049,-0.397073,-0.100346,0.21409,0.45142,-0.0554534,0.275515,0.146577,-0.197441,0.336641,0.0955667,-0.418044,0.115,-0.226991,0.280952,-0.320831,-0.322929,0.330997,-0.211416,0.10545,-0.225498,-0.00899872,-0.291287,-0.159428,-0.324183,0.358113,-0.21007,-0.223895,0.274573,-0.460543,-0.128047,0.272119,0.0811844,0.388226,-0.0432367,-0.320906,-0.203575,0.497294,0.244552,-0.181306,0.282576,0.322787,0.211889,-0.164776,0.460328,0.116459,0.107203,-0.155949,-0.0530045,-0.451992,-0.150822,0.324374,-0.392462,0.313996,0.281207,0.261698,0.097375,0.0810361,0.213712,-0.378526,0.455759,0.238249,0.0765832,0.4148,-0.387716,0.454498,0.248735,-0.431703,0.111292,-0.165148,-0.207979,-0.0550231,0.00441583,0.384964,-0.183906,-0.369407,-0.188397,0.253623,0.217626,-0.201911,0.185798,-0.366243,0.110965,-0.392498,-0.177705,-0.0970125,0.0937714,-0.244671,0.130145,0.0360562,0.228348,-0.172,0.141865,0.341262,-0.177335,-0.318613,-0.149868,0.031833,0.0827387,0.458156,-0.420571,-0.0617904,0.188064,0.476632,-0.496024,-0.185151,-0.453936,-0.280038,0.0581345,-0.0751411,0.476651,0.201261,0.00571122,0.111523,0.221793,0.222274,0.180014,0.0912275,0.37216,-0.347335,0.347295,0.438853,0.178758,-0.101328,0.182241,-0.470316,-0.00105186,0.0539308,0.364385,-0.323396,-0.151343,-0.475672,0.354662,-0.0435837,0.458683,0.0241453,-0.316668,0.217157,-0.0201105,-0.0151253,0.401545,-0.110545,-0.399155,-0.096619,0.0485336,-0.0233581,0.20942,-0.477988,0.0151768,0.208085,0.258236,-0.298847,0.12423,-0.461543,0.448936,-0.0679636,-0.409384,-0.306071,-0.330714,0.256607,-0.333556,-0.148433,0.287547,-0.00533348,0.327223,-0.439927,0.12633,-0.0318553,-0.0677533,-0.344664,0.288951,-0.318437,0.174456,0.0665169,0.143844,0.138892,-0.134046,-0.341075,0.0767084,-0.124487,0.315665,-0.339698,0.011592,-0.363963,0.0272308,-0.276325,-0.216475,0.380841,0.317727,0.248507,-0.199036,0.204948,0.298099,-0.472777,0.21808,0.0117508,-0.106964,0.105718,0.155633,-0.420619,-0.412138,-0.147969,-0.0484886,-0.433881,-0.21595,0.182742,0.367008,0.406801,-0.0661941,-0.230913,-0.385045,-0.278007,-0.266377,-0.113512,0.248376,-0.484893,-0.457875,-0.475525,0.137978,0.279625,0.455336,0.0559249,0.11026,-0.244561,0.226869,0.120011,-0.469622,-0.253692,-0.109258,-0.396013,-0.444401,-0.251983,-0.0809761,0.335928,0.14592,0.333208,0.472589,-0.308711,0.073924,0.013604,-0.312907,-0.414324,-0.493076,0.370948,0.26685,-0.0444969,0.14506,0.0638138,-0.364699,0.460574,0.241638,-0.429955,0.243632,0.429549,-0.445548,-0.0325808,-0.301533,-0.0233128,-0.0246364,0.15295,-0.451243,-0.213076,0.421382,0.14087,0.161027,0.369693,0.270669,0.221861,0.302322,0.00438358,-0.0455654,0.233356,-0.477732,0.212805,-0.453144,0.343557,-0.429809,0.0954616,0.261119,0.00404293,-0.437684,-0.188712,-0.182957,0.163382,-0.166375,-0.30768,0.386514,-0.318109,0.356201,-0.47603,0.15856,-0.0499763,-0.490264,0.178741,-0.434918,0.118375,-0.00902633,-0.193956,-0.0889742,0.167232,0.033851,0.337652,0.168638,0.199278,-0.283203,0.425276,0.170187,-0.203758,0.488478,-0.301174,0.137025,0.126827,-0.301029,-0.316328,-0.0854491,0.256323,0.156886,-0.0616301,0.408015,0.23592,-0.386982,-0.182083,0.101172,0.279038,0.119157,0.250741,-0.288223,0.254272,-0.347307,0.14246,-0.318229,-0.340919,-0.0680329,-0.423965,-0.121476,0.368411,0.49336,-0.241303,0.424744,-0.251475,0.307027,-0.245067,0.220006,0.0369851,0.145707,0.497631,0.31196,0.27368,0.307689,-0.103739,-0.0615272,-0.00723462,-0.293477,-0.402496,-0.406519,-0.443213,0.471732,-0.152718,0.282761,0.170048,0.0959797,-0.149454,-0.179534,-0.310663,-0.34917,-0.405709,0.373828,-0.222353,-0.436626,0.0788766,0.371484,0.214839,0.322782,-0.212119,0.0860376,0.248636,-0.00232057,0.17921,-0.465443,-0.0504496,-0.306694,-0.145493,0.448608,0.305985,0.0108733,-0.163351,-0.222511,0.157313,-0.271,-0.0797644,-0.140406,0.39118,0.0183711,0.102162,-0.468888,-0.22211,-0.241917,-0.148569,0.0101601,-0.478895,-0.261068,0.256894,0.101704,-0.42026,0.32046,0.172772,-0.317142,-0.207387,-0.120892,-0.147352,0.102634,-0.130049,-0.212378,-0.100297,0.491766,-0.0310769,-0.385726,0.403379,-0.247406,-0.429126,-0.111338,-0.461778,-0.361974,0.0672619,0.276076,-0.404039,0.265941,-0.389771,0.399096,0.49114,0.02812,0.341798,-0.259863,-0.333109,-0.0691094,-0.105266,0.131513,0.441003,-0.126397,-0.186662,0.346226,0.15706,-0.0356489,-0.466765,0.483431,0.25839,-0.368994,-0.160161,0.0603458,0.275958,0.179529,0.022144,0.456274,-0.184667,0.0155472,0.309905,0.084957,0.403083,0.493069,-0.310458,-0.432634,-0.364895,0.0239794,-0.0626897,-0.0416483,-0.0707433,0.0203742,0.441866,-0.48219,0.317641,-0.0345905,-0.444975,0.427907,-0.482186,0.405754,0.313912,-0.0795948,0.18252,-0.416737,0.125169,0.0546622,0.449315,-0.27046,0.0418039,-0.302068,0.440113,0.0723081,0.230602,0.344941,0.496602,0.412849,0.428907,-0.178808,-0.343454,-0.350491,0.17983,-0.330602,-0.376405,-0.0851614,-0.401418,0.42272,0.0833263,0.245704,-0.396154,-0.146,-0.43768,-0.253001,0.363789,0.323926,0.405387,0.118582,0.290643,0.273285,0.451427,0.0554204,0.044597,-0.0748451,0.0941201,0.0225963,-0.143303,0.322757,0.0428917,-0.0684949,0.432083,0.128245,0.00477304,0.366264,-0.0366701,0.343926,-0.439627,-0.357364,0.34539,0.402542,-0.343396,-0.247806,0.0683319,-0.177484,0.0278904,0.263286,-0.36264,-0.473155,0.141082,-0.438213,0.260952,-0.305422,0.292108,0.495281,-0.215807,-0.0277043,-0.0897042,0.246859,-0.222412,0.467417,-0.084131,-0.407429,0.000598344,0.388006,0.0307879,-0.193972,-0.29112,0.249238,0.340444,0.167613,-0.279657,0.337321,-0.0209912,-0.306815,0.186958,-0.200083,-0.241836,0.287944,0.232501,0.450346,0.428772,-0.350079,0.167828,0.473477,-0.203793,-0.46867,-0.346225,-0.0203651,-0.430849,-0.37047,-0.408095,-0.354823,0.122939,0.258228,0.369931,0.13981,-0.0315255,-0.3082,-0.142995,0.427268,-0.229446,0.400496,0.410412,0.359027,-0.322666,0.424774,-0.0850289,-0.150568,0.160356,0.213622,0.375398,-0.0730648,0.0343061,-0.356897,-0.32041,0.494555,0.296469,0.161856,0.385373,-0.177903,0.0970365,-0.393239,-0.233116,-0.220571,0.103691,0.416084,0.362011,0.370518,0.230106,-0.478345,0.386753,-0.487201,0.251059,-0.0871409,-0.479045,-0.0970883,-0.486794,-0.490257,-0.430639,-0.104749,-0.145172,0.491398,0.460909,0.230358,-0.146842,0.360393,-0.424324,-0.378157,0.29715,0.338046,-0.201907,-0.00871475,-0.129983,0.416597,-0.159425,0.243395,0.057342,0.00136833,0.408054,-0.153086,0.250833,-0.188187,-0.167132,0.259613,-0.329884,-0.0302509,-0.496521,-0.216556,-0.305179,-0.329794,0.446784,0.0534287,-0.133754,-0.257062,-0.169913,0.0662998,-0.0320203,-0.10081,-0.259869,0.157434,0.0368182,0.11866,0.468421,0.400405,-0.117498,0.13991,-0.150113,0.259326,0.207522,-0.0150577,0.452837,0.291356,0.187123,0.24914,0.125559,0.194458,-0.415098,-0.275825,-0.0329716,0.341051,0.20421,-0.396438,0.197011,0.450658,-0.251005,0.172773,-0.166679,-0.357584,0.0379932,-0.367628,-0.371083,-0.417516,-0.169983,-0.141458,-0.482504,-0.165592,0.00473938,-0.386483,0.186654,-0.434293,-0.21163,-0.491751,-0.248438,-0.452028,-0.0141776,0.345942,-0.00572366,-0.139614,0.0100484,-0.456169,-0.365744,0.448614,-0.308187,-0.225568,0.322705,-0.272518,-0.351748,-0.157522,-0.22656,0.0159931,-0.301488,0.177716,0.421881,-0.0952167,0.39738,-0.114045,0.476427,0.40177,0.00693409,-0.00998865,0.337879,0.32159,0.0842753,-0.255317,-0.217321,0.0860414,0.0157152,-0.429147,0.345302,0.262151,-0.487854,0.00635169,0.163861,-0.374066,-0.434623,0.263682,-0.456383,0.164172,-0.17375,-0.305657,-0.0399218,-0.0323079,-0.412524,0.109022,0.261967,-0.496005,-0.295285,-0.00234735,-0.0731768,0.0551228,-0.13879,0.0369483,-0.305215,-0.337092,-0.293497,0.398321,0.0616063,-0.424993,0.331982,0.453829,-0.436478,0.0965522,-0.0616381,0.236318,-0.0394399,0.0198276,0.0388458,-0.00667149,-0.330529,-0.429438,-0.22169,0.262189,0.492843,-0.129423,-0.306492,0.018539,-0.0758842,-0.445801,-0.0221676,0.324432,0.276393,-0.25952,0.412012,0.182006,0.119687,-0.278506,0.379205,0.203216,0.178872,-0.216718,0.304148,-0.0204155,-0.00208495,0.196186,-0.252393,0.321375,-0.0735626,0.242692,0.104359,-0.183289,-0.112695,-0.124778,0.204965,0.160254,0.442813,-0.0548015,0.388866,0.287801,-0.418646,-0.107445,-0.147277,-0.303388,-0.449054,0.185024,0.299986,0.163529,-0.133008,-0.336034,-0.431713,0.412301,-0.197066,-0.123455,-0.00926872,-0.304776,-0.087341,0.497239,-0.400586,-0.413741,-0.347343,-0.372584,0.382087,0.316668,0.381276,-0.132455,0.34711,-0.40661,-0.491486,-0.0563235,-0.406201,0.15162,-0.128105,0.153364,-0.208263,-0.332238,0.169296,-0.241457,-0.477352,0.0351662,-0.380889,0.380701,0.129037,-0.439997,0.382729,0.201506,0.205507,-0.0508236,-0.369544,-0.389741,-0.335486,-0.435771,0.476791,0.25524,0.453661,0.474367,-0.402701,-0.022705,0.319638,-0.0624251,-0.33824,-0.125153,0.0475467,0.372123,-0.42979,0.165739,0.222137,-0.216691,0.232423,0.372207,0.130319,0.16306,-0.125356,0.471442,0.217734,0.0815993,-0.312337,0.20813,0.380547,0.00774462,0.131209,-0.168125,0.240517,-0.432441,-0.479699,0.143174,-0.280674,-0.262059,0.343884,0.406217,0.475983,0.121118,-0.10122,-0.452835,-0.465641,-0.0158306,-0.343926,-0.342659,0.102099,-0.486245,-0.202288,-0.229323,-0.447844,-0.0426238,0.191486,-0.32413,-0.454613,-0.0913911,0.0328103,-0.342718,0.0898076,-0.496348,-0.355031,-0.209423,-0.0567139,0.235435,-0.245235,-0.435359,-0.0852335,-0.477589,0.0589998,0.118685,0.291412,-0.236448,-0.472248,0.070942,0.348112,0.00338514,-0.162755,0.424206,0.317484,-0.163413,-0.350337,0.21904,0.121213,-0.412272,0.381288,-0.296602,-0.246544,0.135655,-0.34711,-0.217076,-0.321801,0.329847,0.255048,-0.240332,-0.462884,-0.00473917,0.339125,0.491192,-0.220441,0.276242,-0.311707,-0.155719,0.366235,0.342327,0.0851744,-0.439685,-0.0272897,0.364465,0.330843,0.277173,0.491226,0.426275,-0.157806,-0.0359117,0.190466,-0.462773,-0.241459,-0.461407,0.252272,-0.49786,-0.0391621,0.319875,-0.0496495,0.106703,0.161038,0.39152,0.132393,-0.494774,-0.282976,0.0745889,0.464365,-0.0819247,0.0136658,-0.0747498,0.0177678,0.0887242,-0.147621,-0.163846,0.421861,0.307473,0.290114,0.487938,0.0862882,0.448911,0.168589,-0.300451,-0.213908,0.405289,-0.285848,-0.44111,-0.438612,-0.291726,0.278027,-0.0372865,-0.356755,0.108785,0.0533068,-0.00567658,-0.319397,0.0663052,0.0388784,0.312287,-0.489389,0.42943,0.427945,0.295501,0.201574,-0.063936,-0.306221,-0.199958,0.440966,-0.262629,0.409288,0.0201514,0.415335,0.221895,0.465784,-0.175592,0.156211,-0.454197,0.0586744,0.359854,-0.00287451,-0.417865,-0.320779,0.34396,0.0151329,0.368084,0.0749244,0.00772642,0.165278,-0.00766941,0.356797,-0.362811,-0.274355,-0.0818811,-0.421695,0.320275,0.367586,0.0665492,-0.237404,-0.422351,-0.201757,-0.287348,0.457505,0.411866,-0.306755,-0.0224401,0.355334,0.227808,0.458328,0.0979331,-0.211096,-0.350432,-0.246624,-0.214902,0.360312,-0.199575,0.407525,-0.135175,-0.117121,0.0304978,0.40407,0.153861,0.470817,0.0143107,0.102266,-0.48041,0.430673,-0.30797,-0.0573201,-0.179706,-0.410409,0.0504205,-0.404156,0.483825,0.112302,-0.0790633,0.212324,0.310886,0.14149,0.25428,-0.295335,0.447106,-0.281957,0.25375,-0.359365,-0.167979,-0.493102,0.234172,-0.496467,-0.47094,0.131254,-0.117993,0.0252871,0.0708716,-0.2059,-0.464551,-0.454741,-0.392834,-0.139116,0.34115,-0.0150214,0.106294,0.205228,-0.159989,-0.236868,-0.255464,0.105609,0.0800373,0.0124783,-0.174569,0.312546,0.309406,-0.40369,0.451253,0.307493,0.190538,-0.243424,0.321846,0.261996,0.211846,0.407244,-0.182335,-0.113818,-0.426719,0.292457,-0.18607,0.0221486,0.401643,-0.471686,-0.249436,0.126018,0.249772,0.0724243,0.221332,-0.0182185,-0.0785545,-0.343671,0.496589,-0.0106182,0.200692,0.483534,-0.152111,-0.299985,-0.143035,0.123695,-0.197579,-0.475418,-0.299741,0.287215,0.255899,0.214265,0.164824,0.233837,-0.400433,-0.270913,-0.0650362,0.0281544,-0.246226,-0.03839,0.333773,0.408537,0.132223,-0.159267,0.172979,-0.240171,0.138269,-0.151696,0.145423,-0.199514,-0.273388,0.471358,0.438713,-0.491646,-0.0301912,0.10137,0.0487895,-0.414151,-0.0343694,-0.422562,0.016222,0.288455,0.138209,0.322777,0.489128,0.21452,0.218418,0.285966,0.329661,0.279609,-0.395261,0.385763,0.412906,-0.449096,-0.301493,-0.471389,0.368127,-0.0657691,-0.421939,0.0540844,-0.0368689,0.0582066,0.309271,-0.0241764,0.357488,-0.419925,-0.382952,0.0353538,-0.0625848,-0.441469,0.304833,-0.158117,-0.261462,0.242509,0.404678,0.257631,-0.303835,-0.451457,0.395077,0.0929179,0.417345,-0.482153,-0.0239596,-0.0244717,-0.0667603,-0.410409,-0.34295,0.451659,0.340509,-0.479487,0.289776,-0.381521,-0.218205,0.13319,-0.440683,0.242626,0.379027,-0.351235,-0.388408,-0.450415,0.193169,0.45982,0.120502,0.287658,-0.228719,-0.387683,-0.0757438,0.38906,0.0827024,-0.0428863,-0.392884,0.152694,0.171291,-0.0623503,-0.256727,-0.405811,-0.29271,-0.364153,-0.143035,-0.379613,-0.470821,-0.0499126,0.0738846,-0.0735787,-0.155508,-0.112438,-0.00169809,0.39032,0.407859,0.0237163,0.340787,0.476293,0.260127,0.46198,0.334078,-0.068484,-0.133705,-0.474889,-0.224547,0.419482,0.24223,0.304473,-0.380496,-0.145289,0.468153,0.319017,0.101303,0.0564905,-0.231202,0.369218,0.38804,0.396422,-0.2156,0.0527715,-0.121173,0.344901,-0.312732,-0.145913,0.136528,0.138221,-0.0547994,-0.401874,0.0991555,0.261798,-0.215567,0.436387,0.181576,-0.335515,-0.486703,-0.108215,-0.241746,-0.398425,0.384965,0.276656,-0.386796,-0.188933,0.107328,-0.260229,-0.409034,-0.333576,-0.478313,0.463213,0.414118,0.117346,-0.0836767,-0.205781,-0.133631,0.3576,0.250682,0.436313,0.249206,-0.237079,0.0243119,-0.226572,-0.13915,0.0548547,-0.270407,0.300091,0.419731,-0.188672,-0.02753,0.47213,0.162986,0.0060415,-0.12548,0.382545,-0.349828,-0.113363,-0.377933,-0.0292433,-0.0562353,0.253109,0.280469,-0.495896,-0.39534,0.273082,-0.3999,-0.248989,-0.346592,-0.322732,-0.194322,0.423058,0.361884,0.250094,-0.253369,0.252073,-0.368052,0.289704,0.257623,-0.277871,-0.451036,-0.239719,0.348571,-0.252404,-0.460537,-0.218096,0.0374225,0.424374,0.287755,-0.482721,-0.197665,0.201012,-0.0417192,0.0351122,-0.310804,-0.413788,0.49445,0.0402627,0.00360058,-0.493689,0.324292,0.0474676,0.324259,-0.07329,-0.391992,0.173,-0.370855,-0.388655,0.0909011,0.243809,0.411938,0.115635,-0.353102,-0.19925,-0.096413,0.100911,0.428266,0.184692,0.202562,0.37858,-0.250342,-0.160345,-0.151808,0.481828,0.0747873,-0.324962,0.0424701,0.127201,-0.186309,-0.38687,-0.291585,-0.0407595,0.311475,0.201742,0.184388,0.47735,-0.228062,0.055815,0.0731285,0.436433,-0.0609165,-0.205723,0.113489,0.265691,-0.231684,0.346079,0.335994,0.262776,0.021242,-0.0340362,-0.249148,-0.299911,0.381642,-0.185438,0.263078,-0.0965017,-0.451058,-0.278119,0.243439,-0.073665,0.372186,0.0416642,-0.270683,0.125319,0.261822,-0.00365587,-0.308946,-0.151541,-0.212177,0.151692,0.32491,0.174265,-0.306997,-0.0384874,-0.223915,0.0869689,-0.115397,0.0313191,0.364421,0.337394,0.132421,-0.139007,-0.208976,0.214774,0.182623,-0.18417,-0.412131,0.0429411,-0.450681,-0.400187,-0.21953,0.103724,-0.490419,-0.39424,0.304864,-0.277402,0.333453,0.00776313,-0.326012,-0.130348,-0.0119991,-0.251799,0.0217597,-0.350586,0.384259,-0.0346424,-0.0274141,0.152727,0.122743,0.222434,0.140448,0.47162,-0.278243,0.039479,-0.441729,0.348985,0.0709616,0.345256,-0.197814,0.367245,0.117237,-0.170744,0.496917,-0.12584,0.270888,-0.233056,0.0755885,-0.252105,0.0317696,-0.121036,0.340353,0.264125,0.376792,0.0131768,0.27556,-0.317494,-0.0322495,-0.204048,-0.359848,0.489087,-0.234313,-0.303313,0.245658,-0.129468,-0.0913887,-0.226355,-0.299503,-0.386784,-0.031336,-0.14151,0.340762,0.496894,0.386974,-0.265332,-0.386346,0.103021,-0.142896,0.329155,-0.146842,-0.129655,-0.369728,0.426735,-0.472743,-0.32451,-0.43208,-0.37275,0.25043,0.0262174,-0.456345,0.20327,0.428198,0.477588,-0.250677,-0.228801,0.424879,0.35014,0.0126803,0.210284,0.239558,-0.324787,0.350478,0.0186226,0.177252,0.0732265,-0.373914,-0.48379,0.302098,-0.235,-0.141045,0.46403,0.343641,0.27163,-0.493163,-0.0683464,-0.379755,-0.283581,-0.193487,-0.0926442,0.242787,0.41911,0.0917982,-0.288642,-0.0424917,0.180993,0.245116,0.488016,-0.288758,0.040743,0.412022,0.237321,0.481416,0.0495762,0.280573,0.243146,0.0382708,0.188254,0.450032,-0.462313,-0.413502,0.105218,0.47621,0.438076,0.3793,-0.0500422,0.194373,0.026941,0.333664,0.412149,-0.0736963,0.338404,-0.0388696,-0.180026,-0.39978,-0.377648,-0.333139,-0.0317416,0.280582,-0.2953,-0.427603,0.100339,0.0483582,-0.0221965,-0.110901,-0.175153,0.136327,0.179384,-0.0212697,-0.315195,-0.334098,0.14943,0.395966,0.288087,0.0845,0.0931634,0.0977837,-0.0703486,0.0938992,0.495238,0.0109216,-0.143069,0.478458,0.188302,0.122995,-0.300124,0.503362,-0.288437,-0.448977,0.403694,0.15578,0.351523,-0.0641597,0.166501,0.256804,-0.359741,0.328407,-0.0705212,0.105226,-0.229196,-0.158205,0.234647,-0.455028,0.0367358,-0.280997,-0.442145,-0.349852,-0.0752721,0.0655412,0.425268,-0.0885921,0.370363,0.149289,-0.162258,0.372124,-0.244379,0.279155,-0.269364,-0.151839,-0.3398,0.295306,0.159634,-0.405677,0.0754715,-0.190113,-0.16793,-0.424201,0.0692895,-0.306656,-0.296251,-0.0258164,0.403474,-0.131646,0.454962,-0.376126,-0.114094,-0.243946,-0.238076,-0.118366,0.477842,0.0776713,-0.0328679,-0.039884,-0.113109,-0.337356,0.413742,-0.194544,-0.0959187,0.252603,-0.0350964,0.0222726,-0.413703,0.259819,0.0300197,-0.447824,-0.290201,0.377671,-0.394931,-0.295696,0.467135,-0.442307,0.295045,-0.270342,-0.246125,0.091709,-0.349706,-0.222369,0.362399,-0.289088,0.202074,0.0237259,-0.413041,0.193285,-0.0319697,-0.087688,-0.00676717,-0.241671,0.425511,0.00740383,-0.179893,0.207635,-0.477227,-0.340443,0.356995,-0.370672,0.342004,0.238722,0.40788,-0.35574,0.197489,-0.267552,-0.192847,-0.392813,0.0966189,-0.142973,-0.0678944,-0.395451,-0.333439,0.164173,0.413089,-0.474798,-0.239198,0.259518,0.289085,0.416851,0.214835,0.455847,0.194626,-0.145624,-0.308948,-0.394345,-0.346306,-0.0691049,-0.0254611,-0.454749,-0.112786,-0.286446,-0.152633,0.0206057,-0.477507,0.411829,-0.436122,-0.0644199,-0.272723,-0.319806,-0.211484,0.0690265,-0.477832,0.0996009,0.201854,-0.135986,0.180931,0.226987,-0.0780259,0.394895,0.283641,0.467095,-0.424961,0.319693,-0.282157,0.10284,-0.494282,0.0794806,0.346604,0.392651,-0.361833,0.42874,-0.333457,-0.0346828,0.290328,0.194694,-0.0720302,-0.0838229,-0.0223522,0.269072,-0.445274,-0.260508,-0.214481,0.447778,-0.387323,-0.100435,-0.177316,0.00444129,-0.189709,0.181561,-0.359187,0.0792088,-0.209814,-0.453853,0.076219,-0.0577179,-0.079729,0.281852,0.392328,0.223124,0.14397,0.030134,-0.221922,-0.375042,0.0594655,0.321886,0.0174605,0.282172,-0.277032,-0.250898,0.317761,-0.236176,0.350294,-0.198807,0.340382,-0.288114,-0.191862,-0.432324,0.243158,0.497933,-0.361992,0.38587,0.351852,0.254603,0.239679,-0.128082,0.485796,-0.11921,-0.10038,0.158156,-0.24899,-0.0893801,-0.250844,-0.258338,0.483887,-0.326175,-0.427301,-0.325387,0.270905,-0.293395,0.49797,-0.291282,-0.206232,-0.282993,-0.179365,-0.212975,0.479082,-0.309377,-0.457935,-0.235678,-0.120104,-0.459748,0.490394,0.478813,-0.493494,0.0351291,-0.329399,-0.339494,0.325788,-0.0125401,0.148977,0.418939,0.403295,-0.400484,0.243055,0.303435,-0.00569269,-0.329065,0.355275,0.190601,-0.383051,-0.102119,0.261865,-0.0433187,0.196242,-0.445401,0.0332672,-0.498068,-0.302851,-0.172704,0.255815,0.194977,-0.130304,0.104484,0.196003,-0.134974,-0.355503,0.183037,-0.429135,0.436401,0.0389345,-0.335289,-0.16822,0.258114,-0.267476,-0.312927,0.0185206,-0.452403,0.0420467,-0.425758,0.0786874,0.292868,-0.477147,0.0359122,-0.370312,0.260216,0.446804,0.235716,0.284321,0.14914,0.285789,0.42789,0.460622,-0.337571,-0.388713,-0.223084,0.0551765,0.458552,0.491152,0.333082,-0.221586,-0.036663,-0.179306,0.488772,0.311613,0.413589,0.0304176,0.497593,0.382652,0.206933,-0.192295,-0.390065,-0.10117,-0.300401,0.450597,-0.319448,0.342905,0.347185,0.486156,0.467244,0.412746,0.0526765,-0.249983,-0.462815,0.206402,0.253664,0.0475078,-0.348339,-0.450667,0.261404,0.268521,0.314269,-0.381723,-0.106924,-0.447603,-0.125261,0.246872,0.0537943,0.135715,-0.183993,-0.342156,0.381867,-0.474377,-0.124482,-0.167603,0.148201,0.419913,-0.211835,-0.49145,-0.0730131,0.0519377,0.0938296,0.385337,-0.371199,0.185126,0.248689,-0.372761,0.027997,-0.0991784,0.0907669,0.0289245,-0.458678,0.100126,-0.216131,0.164895,0.237183,0.375192,0.461012,0.0372299,-0.445826,0.224364,-0.443989,0.212179,0.250762,-0.153027,-0.498963,-0.235725,-0.325986,-0.0204982,-0.370693,-0.419958,-0.305852,0.125061,0.0720822,0.212832,-0.417002,-0.383299,-0.471571,0.0174054,-0.257024,-0.142117,0.462756,0.414313,0.073316,-0.409458,0.295655,-0.498529,0.0863664,-0.492647,0.0538194,0.0427242,0.142979,-0.0382084,-0.232186,0.135297,0.193358,-0.142329,0.468272,-0.40299,0.335188,0.279062,-0.432307,0.171104,-0.104272,-0.119742,-0.464595,0.250339,-0.439137,-0.0826921,-0.179148,-0.366292,-0.178922,-0.318015,-0.425129,-0.342127,-0.425692,-0.339664,-0.146066,-0.218044,0.0033771,0.224783,0.119484,0.214137,-0.10794,0.308971,-0.395856,0.0928956,-0.221928,0.20428,-0.178803,-0.0893183,0.443496,0.401216,0.106517,0.0284131,0.204301,0.450824,-0.114803,0.193499,0.0223929,0.465729,0.138753,0.0556903,-0.330007,0.0992287,0.0321367,-0.145891,-0.44643,-0.0232636,0.338193,-0.337176,0.303282,-0.146782,-0.0424819,-0.354544,0.300761,0.139911,0.426156,0.0519531,-0.198645,0.173012,0.0220864,-0.0283925,0.307473,0.0542276,-0.446515,0.0943182,-0.485477,-0.450362,-0.186811,0.257048,0.365259,0.0855547,-0.280308,-0.3055,-0.0061977,-0.238462,-0.0365204,0.0865762,-0.087524,-0.323126,-0.375291,0.128721,-0.284492,0.293605,0.334431,-0.0621923,0.314969,0.116483,0.16543,-0.199056,0.0188448,0.249858,-0.29283,-0.33256,0.260816,0.173712,-0.334093,0.29798,0.232572,0.114831,0.388913,0.195939,-0.432586,0.36682,0.264991,0.496231,-0.00682005,0.0313178,0.263741,0.199043,-0.0799236,0.331772,0.425964,-0.25896,0.434471,0.0938519,0.218219,0.0894904,-0.424157,-0.415503,0.0895838,-0.345822,0.0435797,0.0759045,0.316232,-0.217265,-0.0965384,-0.0862988,0.300417,-0.0278984,-0.239118,0.37143,0.199935,0.363347,0.222191,-0.199896,-0.198731,0.149576,0.175782,0.0553054,-0.116445,-0.287696,-0.384026,-0.176957,-0.323228,0.129785,-0.0242093,-0.104664,-0.0391916,0.276219,0.241493,0.205957,-0.327141,-0.384066,0.220466,-0.0525827,-0.323019,0.219551,0.394786,-0.0151046,0.449335,-0.184355,-0.170722,0.0410733,-0.489891,-0.0628409,0.244168,-0.286938,-0.173793,-0.227114,-0.156904,-0.475927,0.420989,0.126156,0.0998268,-0.188768,0.331498,-0.429764,0.15642,0.389838,0.105999,0.234748,-0.0366976,-0.484341,-0.0962967,0.322902,-0.0966559,-0.202982,-0.317086,0.0459436,-0.195587,-0.0925284,-0.40224,0.395653,-0.0563586,0.339783,-0.0473506,-0.426341,-0.325764,0.122723,0.246629,0.122187,0.28709,0.0655894,0.216276,-0.386612,0.109562,-0.115684,0.148956,0.0866968,-0.469236,-0.272933,0.157956,-0.0117035,-0.495699,-0.037525,0.225905,-0.297357,-0.389955,-0.48427,-0.316854,-0.450722,-0.00913523,0.362394,0.26196,-0.0327358,-0.0249149,-0.219824,0.331709,-0.399464,-0.103549,-0.162092,0.345283,-0.162307,-0.190617,-0.0511777,0.475662,-0.276776,0.218989,-0.449179,-0.114812,0.400248,-0.166738,0.33291,-0.163845,-0.246463,-0.241172,0.0146865,0.347049,0.212832,-0.057643,-0.272207,0.233916,-0.180484,0.307532,0.193998,-0.262034,0.130321,0.447119,-0.313828,-0.169486,-0.23501,-0.143407,0.346191,-0.381791,-0.317562,-0.0182407,-0.242471,0.0754011,0.155694,-0.457481,0.476845,-0.315252,0.084902,-0.071595,0.0925099,0.248792,0.339249,0.404979,0.0560859,-0.162088,0.214491,0.315427,-0.0663944,0.401893,-0.335925,0.440796,0.193282,-0.248476,-0.364548,0.0421087,0.315482,-0.173251,-0.198925,-0.265182,0.0245483,-0.151452,0.0983468,0.397382,-0.0502483,0.0204376,-0.159803,-0.194389,0.393078,0.0833319,-0.27093,-0.310754,0.0159419,0.401956,-0.0131365,0.358671,-0.262566,0.0189635,0.0698113,-0.0856951,0.439042,0.203412,-0.370703,-0.438748,-0.491501,-0.448457,-0.0805458,-0.255359,0.301157,-0.209176,0.070117,-0.458205,0.285144,0.109842,-0.0581178,-0.208375,0.220123,-0.264356,-0.223495,0.125932,0.446346,0.490261,0.482589,0.467504,0.32137,-0.082269,0.177614,0.161256,-0.250234,-0.413839,0.342898,-0.091166,0.0191124,-0.0431254,-0.282139,0.0191197,-0.0776127,0.313328,-0.43054,0.167724,-0.0323776,-0.139268,0.284354,0.109604,0.288759,0.341123,-0.481074,-0.0756875,0.336084,0.296554,0.227792,-0.494581,-0.0180548,-0.300844,-0.442562,-0.267835,-0.266937,-0.165808,-0.425486,-0.493065,0.000965106,-0.031251,-0.422427,-0.0752784,-0.403098,0.256271,-0.0771942,-0.140445,-0.352713,-0.181628,-0.4825,0.474982,0.109035,0.106589,0.169841,0.281782,-0.215942,-0.0399751,0.185715,-0.298104,0.0534714,0.191332,0.471671,0.206692,0.130585,-0.389763,0.0787555,-0.18273,0.326698,0.350703,-0.42237,0.093099,-0.125107,-0.375078,-0.344943,0.023612,0.288822,-0.10235,0.411472,0.499769,-0.104345,0.216616,-0.424499,0.291818,-0.226606,0.288483,-0.103988,-0.313908,-0.0731423,0.104356,0.161043,0.165691,0.415045,-0.254798,0.0580026,-0.221304,-0.0923527,-0.0396634,0.393953,0.110312,0.0494226,-0.117296,-0.249014,0.238894,-0.361664,0.319644,0.21456,-0.34605,-0.0728073,0.430894,-0.226088,-0.203082,0.40916,-0.481725,-0.0167473,-0.488726,-0.17922,0.366739,-0.180506,-0.0149036,-0.0313965,-0.0137541,-0.190366,-0.202297,0.302843,0.451691,0.244747,-0.141932,-0.262065,0.0339693,0.338063,-0.373115,0.383252,-0.195216,-0.215042,0.477217,-0.303743,-0.0965727,-0.325958,0.28051,0.438077,0.0907912,0.428653,0.00766238,-0.00475863,-0.12008,0.473296,-0.487535,0.0989788,0.438239,-0.254732,0.306353,0.17905,0.356716,-0.138124,-0.103167,-0.418954,0.202124,-0.190834,-0.403009,0.232698,0.188185,0.066128,0.44448,-0.364377,-0.18184,0.183797,-0.458321,0.0174683,0.13563,-0.439781,0.0185423,-0.244749,0.106296,0.0434213,0.425534,-0.356834,0.283238,0.0899692,-0.0553207,-0.0125769,0.120657,0.115395,-0.298553,0.302567,-0.274553,-0.138144,-0.126673,-0.476139,0.491525,-0.413875,-0.409757,-0.364559,-0.132035,-0.297097,-0.487918,0.456667,-0.152539,0.397221,-0.235509,-0.203688,0.161382,0.314005,0.056331,0.202438,-0.211348,-0.337533,-0.437068,-0.295121,0.158898,0.479531,-0.0874828,-0.36364,-0.343743,-0.0201612,-0.423593,-0.102467,-0.314679,-0.218468,0.269041,0.342283,0.497195,-0.371557,-0.0457442,-0.1492,0.212675,-0.0792873,-0.0300737,-0.35475,-0.235195,0.378612,-0.187909,0.342363,0.170535,0.0763633,-0.311603,-0.045118,0.24467,-0.151092,-0.34207,-0.0776378,0.482034,-0.184758,0.404272,0.366677,-0.212751,0.354912,0.239157,0.468046,0.122945,0.208326,0.426362,0.280414,0.286574,0.336518,-0.0908854,0.456924,-0.421141,-0.426513,0.0917765,-0.104179,0.0652694,-0.301212,0.396828,0.0116362,0.119159,0.462676,0.157936,-0.169677,-0.232146,-0.129465,0.0525987,-0.0775806,0.331697,-0.302359,0.354842,0.0481832,-0.272875,0.298095,-0.412173,0.38789,0.0418372,-0.393844,0.28789,0.294094,-0.182511,0.0985302,0.476523,-0.155478,-0.48234,0.0196208,0.24399,0.447393,0.277169,-0.296893,0.182294,0.034162,-0.0496698,-0.298163,-0.122025,0.475126,0.462249,-0.00938083,-0.185252,0.494938,-0.268756,0.10279,0.108063,-0.0581204,0.309387,-0.255462,0.349276,-0.499861,0.474239,-0.194073,0.219702,0.294701,-0.355434,0.382615,-0.126479,0.389727,-0.408331,0.0505856,-0.277037,0.0513521,0.305277,-0.324189,-0.203117,-0.0316791,-0.216434,0.228011,-0.358081,-0.336338,-0.381233,0.402809,0.471206,-0.250355,-0.0392163,0.255447,-0.251177,-0.229432,-0.135803,-0.334368,0.139403,-0.13,0.401624,-0.0639821,0.231712,-0.341688,0.145002,-0.336068,-0.194281,0.175377,0.191091,-0.448698,-0.32303,0.0720522,0.00204426,-0.359783,-0.389626,0.230766,0.183748,-0.347059,-0.0189861,0.416911,-0.209812,0.159279,0.00634546,-0.312082,-0.466244,-0.224405,-0.069194,-0.160217,0.369068,-0.106945,0.0486232,-0.080129,0.193187,0.285857,0.339477,-0.20222,0.203474,-0.233158,0.256416,0.0235743,0.0938152,-0.242809,-0.27804,0.332528,-0.295033,0.00290242,-0.202391,-0.117253,-0.201481,0.0889895,-0.43266,0.448243,-0.290253,0.0407295,-0.179604,0.276116,0.2976,0.216082,0.22021,-0.0544777,0.0391649,0.355843,0.296004,0.39618,-0.207626,0.145729,-0.119809,0.178958,-0.305861,-0.192761,0.076745,-0.218973,-0.423876,-0.0691228,-0.311948,-0.0191021,-0.351267,0.211644,-0.0127337,-0.23848,0.0373379,-0.343837,0.488409,0.326748,-0.291881,0.294814,0.0511313,-0.141291,-0.362011,-0.46159,0.332017,0.0804032,-0.0768327,-0.0667224,0.209359,-0.059204,-0.327263,-0.44279,-0.0445284,-0.144574,0.129245,-0.0766237,-0.203683,0.264675,-0.273337,0.0699558,-0.303683,-0.131399,0.275529,-0.258351,0.411819,-0.239098,0.376092,0.140836,0.00540488,-0.185636,0.0984034,0.156117,0.0608657,0.300763,-0.232545,0.00893905,0.263468,0.431503,0.376674,0.112459,0.204564,-0.138427,0.221441,0.36956,0.318731,0.300804,-0.424963,-0.435426,0.0495214,-0.167524,0.334794,0.0709858,-0.041582,-0.477487,0.255092,-0.267325,0.404189,0.0560331,-0.362712,0.47423,-0.197981,-0.27591,0.202171,0.385608,-0.185988,0.343753,-0.0654181,-0.208451,0.0548009,0.08736,0.180045,-0.321759,-0.00483287,-0.11004,0.147922,0.0165298,0.142816,0.366825,-0.301833,-0.320541,-0.175667,-0.195434,0.227743,-0.442572,0.117196,0.0552752,0.150873,0.38979,-0.158761,0.220586,0.0931548,0.475938,0.0177083,-0.0800135,-0.158082,0.380995,0.0787846,0.344314,-0.203627,-0.157614,-0.286065,-0.229283,0.417318,0.143485,0.385808,-0.390736,0.369178,0.0819873,0.10918,-0.28228,0.455703,-0.196576,0.159428,0.423711,0.397544,-0.00981909,-0.0233559,-0.387423,0.25434,-0.25588,-0.337028,-0.483765,-0.256853,-0.0413426,-0.331777,0.322613,-0.314712,0.277959,-0.321955,0.12182,0.39818,0.292327,0.167779,0.362194,-0.170858,-0.229658,-0.105936,-0.208933,0.204773,0.299197,0.166028,0.461794,-0.464071,0.199983,0.471453,-0.108248,0.302748,-0.203435,-0.0926051,0.00549243,-0.204629,-0.383039,-0.352674,-0.0157007,0.389424,0.183963,0.319856,0.0137846,-0.306098,0.486123,-0.338414,0.171322,0.394671,-0.453091,-0.211909,-0.385176,-0.0011414,0.0490162,-0.2426,-0.308263,0.0024339,0.0991537,-0.0307846,0.252834,-0.202552,-0.490062,0.139492,-0.299993,-0.317292,-0.341895,-0.183372,0.300737,0.209462,0.418805,0.25324,-0.484543,-0.310927,-0.18018,0.470779,-0.394085,0.200165,0.285769,0.0591798,-0.387494,-0.00473266,0.32601,-0.348942,-0.156076,0.337728,0.0792238,0.165507,-0.0833964,-0.312763,0.446916,-0.0125976,0.470783,-0.00520539,-0.0256342,-0.0182273,0.38898,0.291705,0.145476,-0.110638,-0.011279,0.18107,-0.33346,-0.235938,-0.38439,-0.360929,0.091832,-0.106768,0.487739,-0.36304,0.0391091,0.116194,-0.364256,-0.374891,0.451691,0.329936,-0.389867,-0.485849,0.00440489,-0.275584,-0.281394,0.512183,0.275786,-0.426872,0.374194,-0.339276,-0.136347,-0.0652941,-0.0359842,0.312613,0.100287,-0.189428,-0.411029,-0.177901,-0.167517,-0.0784563,-0.324044,-0.22787,-0.406306,0.297044,-0.24111,0.0172405,-0.0933059,0.214848,0.222561,0.240677,-0.284206,-0.00133677,0.303844,-0.338655,0.180107,0.179852,0.0615748,0.171495,0.21009,0.0476935,-0.0971107,-0.231632,0.332645,-0.0513404,0.239086,-0.397037,0.0358022,-0.476753,0.0313582,0.252171,0.0140809,0.425472,0.456525,-0.297853,0.0623011,-0.34347,-0.257224,0.249898,-0.431889,0.182884,0.0738436,0.0778327,-0.340473,0.143432,-0.361326,-0.253114,0.226114,0.398472,-0.00813645,0.278946,0.128063,-0.0858005,-0.160919,0.10566,0.140088,-0.441823,0.0844088,0.153862,0.452804,-0.255811,0.0695169,0.448226,-0.069749,0.166263,0.480996,-0.39196,-0.205326,-0.366977,-0.138233,0.358655,-0.369436,0.139443,0.489261,0.448253,-0.21376,0.256739,0.332454,0.435637,0.0400976,0.228001,-0.0098446,0.0353418,0.318175,0.330277,0.414628,-0.489107,-0.238023,0.0516075,-0.374389,0.0233889,0.374698,0.241041,0.317226,0.302766,-0.475508,0.397045,0.35518,0.306964,-0.0092123,-0.129492,-0.470642,-0.25357,-0.0223849,-0.0433977,-0.256618,0.492273,-0.327213,0.146096,0.386059,-0.439341,0.227586,-0.022304,-0.197098,-0.23035,-0.143455,-0.413126,0.223003,-0.178511,-0.199631,0.465445,-0.37008,0.387064,0.41247,-0.129377,-0.451266,0.333682,-0.488901,-0.0102586,-0.383577,-0.0491011,-0.0168502,-0.363556,0.124164,-0.436449,-0.307869,0.355324,0.382179,0.255521,0.409454,0.0571859,0.0512707,0.481983,-0.436426,0.0761827,0.225463,-0.436066,0.0764811,-0.250448,-0.139952,0.235393,-0.299812,-0.201625,-0.404107,-0.0481953,-0.447329,0.0130695,0.0946061,0.386775,-0.25843,0.459348,0.179774,0.464054,-0.216696,0.175414,-0.392968,0.143779,-0.107552,-0.288317,-0.294376,-0.118377,-0.207261,-0.391842,-0.125869,-0.07145,-0.356514,-0.257584,-0.315306,-0.444086,0.003211,0.268129,-0.476154,0.47859,0.490404,-0.455268,0.415489,-0.194693,0.160976,-0.468999,-0.357621,-0.0669797,0.358154,0.0392082,-0.282557,-0.230333,0.441064,0.442845,0.310503,0.282308,-0.228629,-0.0408523,0.241551,-0.00214662,-0.452064,0.0673163,0.498542,0.287778,-0.468457,0.217974,0.383435,-0.21403,0.227687,0.00117193,-0.333035,0.0595004,0.0743693,-0.293064,0.279088,0.0392093,0.238036,0.217473,0.313094,-0.379451,0.157653,-0.116145,0.118841,-0.385082,0.417001,-0.244086,-0.47415,0.370375,-0.0543222,-0.433061,-0.351833,0.172801,0.451894,0.267582,0.149983,-0.480353,-0.326394,0.279377,0.167304,0.0524779,0.0238217,-0.421941,-0.0339562,-0.431206,-0.413985,-0.435262,-0.23952,-0.339634,0.0231267,0.137402,0.463425,0.0714369,0.426143,0.400326,0.0821333,-0.213889,-0.462682,-0.157824,-0.211026,0.089172,0.0950369,0.0268588,0.149624,0.427763,0.485728,0.313767,0.4622,-0.085407,-0.0817238,0.0291989,-0.289684,0.378408,-0.281503,-0.470111,0.130146,0.116585,0.209821,-0.00448025,-0.377573,-0.31286,-0.10388,-0.387154,0.0867735,0.244022,-0.416337,0.0956467,-0.163678,0.162855,-0.387646,-0.133042,-0.147746,0.01893,0.349989,0.24721,0.268418,0.0579604,-0.393621,-0.131019,-0.413033,0.0907069,-0.119581,0.337626,0.285004,-0.330242,0.254522,-0.0538512,-0.274917,0.0830219,-0.429628,0.0698053,-0.0854218,0.410362,0.408753,0.0151715,-0.0841184,0.415613,-0.441878,0.12343,-0.219243,-0.0146503,-0.222133,0.108149,-0.176019,0.46203,0.370868,-0.295201,-0.382634,0.363393,-0.364617,-0.498429,-0.361611,0.0637374,-0.18932,-0.154927,-0.386206,0.0268158,-0.18827,0.168643,-0.136626,0.0668988,-0.119346,0.170676,0.494637,0.0146187,-0.0187813,0.251829,-0.403097,-0.141013,0.431948,-0.0498248,0.0144407,-0.115327,0.225245,-0.12439,0.133181,-0.400385,-0.496457,0.476357,-0.377245,0.350854,0.241049,0.166245,-0.465359,0.465862,-0.0420412,-0.399171,0.309835,-0.231426,-0.404401,0.0128397,-0.406808,-0.275542,0.280131,0.432517,-0.0732109,0.326099,0.0554095,0.465255,-0.0149236,-0.205336,-0.290526,0.438963,-0.0474385,0.166566,0.09722,0.140843,0.207918,-0.218413,0.280403,-0.328297,-0.0659724,0.296207,-0.268296,0.293284,-0.0361705,0.0384357,0.26287,-0.108962,-0.122863,0.079658,0.431023,-0.452019,0.160439,-0.385183,0.451212,0.375118,-0.339371,0.397862,0.439217,0.364243,-0.15527,0.272354,0.126087,0.25167,0.319511,-0.027676,0.448743,-0.177355,0.309204,0.128447,-0.119608,-0.124338,0.471936,-0.347344,0.185067,-0.146416,0.466749,-0.386222,-0.0419256,0.189453,0.37272,0.115887,-0.181316,-0.277155,0.416574,-0.369797,-0.28496,-0.186304,-0.382302,0.467242,-0.0733454,-0.21409,-0.443407,-0.10417,-0.00639881,0.341119,0.132528,0.474824,0.278482,0.124395,0.219268,-0.15248,0.181421,-0.293,0.488714,0.000405293,-0.101016,0.428096,0.166245,-0.0735665,0.448193,-0.211839,0.316988,0.383278,-0.181115,0.49426,0.134118,-0.348343,0.0963732,0.185584,0.207144,0.197112,0.270037,0.363946,-0.00430597,0.40753,-0.114537,0.367783,-0.271066,0.294129,-0.339682,-0.337177,-0.305508,0.0417157,0.40169,-0.444303,0.341848,0.219467,-0.299493,-0.0330372,-0.101509,0.354628,-0.301516,-0.439636,-0.0987419,-0.099755,-0.118769,-0.306017,-0.226589,0.269374,-0.106637,-0.208166,-0.286459,0.192074,-0.0107994,0.362155,-0.0303193,0.317857,0.417995,0.484281,0.15307,-0.0251602,-0.47969,0.328219,-0.183199,-0.263836,-0.398846,-0.270738,-0.30391,0.295658,0.47875,-0.239825,-0.069177,-0.0764117,-0.395504,0.474057,-0.320368,0.0440795,-0.311323,-0.424104,0.129395,0.385728,-0.287047,0.460328,-0.0617411,0.112947,-0.4595,-0.297341,0.263999,-0.389617,0.246909,0.0658664,0.181589,0.195179,-0.287264,-0.0668588,-0.246205,0.353001,0.274423,-0.251671,-0.197801,-0.424664,0.00421319,-0.0743121,-0.338741,0.0731293,-0.412326,-0.317817,-0.281454,0.467753,0.262637,-0.359439,0.392363,-0.384218,-0.227222,-0.484665,-0.334789,-0.375491,0.485228,-0.174484,-0.00147765,0.151267,0.232447,0.473696,0.090571,0.36879,0.193556,0.312535,0.414827,0.169725,0.336717,-0.430222,-0.0665336,0.364905,-0.284669,0.0660117,-0.337405,-0.177487,0.0419254,0.0314454,-0.0360863,0.163882,-0.0252141,-0.299177,-0.474185,0.389067,0.333185,0.315694,-0.383664,0.101521,-0.476948,-0.388712,0.183972,0.362353,0.19654,0.317997,0.275177,0.044168,-0.163964,-0.195595,-0.473305,-0.205449,0.092327,0.274159,-0.313445,-0.011706,-0.263578,0.466506,-0.260381,-0.110438,0.382298,0.243397,0.423874,-0.216633,0.338941,0.208999,0.063971,0.226253,-0.465344,0.186778,-0.195455,-0.354687,-0.0514909,0.140199,0.37558,0.129274,-0.16374,-0.274729,-0.484939,0.268845,0.313677,0.145587,0.120447,0.285604,-0.0960765,-0.138849,-0.127779,0.18151,0.120623,0.0261144,-0.109523,-0.340261,0.484939,-0.223831,0.0940851,0.0719519,-0.0223253,-0.193139,-0.074645,-0.244927,0.0143066,-0.249621,0.472983,0.182015,0.435779,-0.126225,0.413279,0.21827,-0.331887,-0.117865,-0.120624,-0.0897494,0.315029,-0.137626,0.0370246,0.223402,-0.461255,0.168561,0.374122,-0.108906,-0.01456,0.10078,-0.392994,-0.389468,0.112585,0.365699,-0.216149,-0.115007,0.417429,0.237683,0.339235,-0.0573866,-0.206287,-0.291022,0.286355,0.310641,0.106668,0.0203217,-0.142989,-0.126248,0.236337,-0.27653,0.157526,0.389147,0.092836,-0.156783,-0.418545,0.444539,-0.483033,0.442342,-0.350994,0.249279,-0.241537,-0.251559,0.0360609,0.379048,-0.130058,-0.0248531,-0.227111,0.307879,-0.452826,-0.458139,-0.444582,0.323333,-0.299758,-0.172045,0.114492,0.386767,0.496024,-0.0503969,-0.493867,-0.0013811,0.448566,-0.266337,0.419776,0.477767,-0.189732,0.429451,0.138769,0.0164073,0.405439,0.21745,-0.112286,0.061452,0.29181,0.123431,-0.227931,-0.424235,0.245744,0.0836098,-0.377921,0.0635131,-0.00927918,-0.353352,0.346399,0.218164,-0.394124,0.331196,0.488147,-0.23292,0.168859,-0.433531,-0.437028,0.233183,0.391642,-0.0959724,0.038327,0.141551,0.012104,0.115505,0.358397,0.235746,-0.289414,0.110285,0.278403,0.472766,-0.100717,0.0504707,0.390999,-0.0904331,-0.276551,0.182169,0.309623,0.0566859,0.255007,0.160538,0.182742,-0.22748,0.465986,-0.269566,-0.160225,0.162494,0.00902554,-0.238918,-0.143453,-0.41955,0.308861,-0.244328,0.476335,0.287246,-0.00767884,0.0792036,-0.145203,-0.214485,0.140493,-0.146422,-0.228402,-0.0967328,-0.0916369,-0.25537,-0.429323,0.417988,0.102583,0.498519,-0.0553212,0.408953,0.422878,0.0810871,-0.367216,-0.383724,0.126561,0.171194,0.0268274,0.465631,-0.167755,-0.0765491,0.3853,0.392869,-0.198749,0.109667,-0.273282,0.41732,-0.245452,0.164926,-0.413145,-0.112818,0.241867,-0.114794,-0.065065,-0.249682,0.352114,0.00382134,0.210065,0.499479,0.231191,0.366854,0.4402,0.471434,-0.30719,-0.0869098,-0.162519,-0.219743,-0.249142,-0.02321,-0.234999,-0.205645,-0.208933,-0.115729,0.114346,0.22429,-0.406344,-0.43712,0.231871,-0.135981,0.209758,-0.358315,-0.312173,0.155584,-0.0932521,0.387351,-0.147743,-0.437732,0.436777,-0.0520217,0.144937,-0.311184,-0.0639884,-0.218928,0.33905,0.00230813,0.0862123,-0.14085,-0.158533,0.291543,-0.0334144,0.107513,-0.235421,-0.171938,-0.0216314,0.415808,-0.116609,0.330917,-0.414167,-0.39989,0.448061,0.347396,0.12701,-0.110445,-0.200623,-0.333752,0.379158,-0.412953,-0.00313917,0.253131,0.50288,-0.0363729,0.145134,-0.169302,0.378485,0.199268,-0.385256,0.0135436,-0.418682,-0.475637,0.334855,-0.0730027,-0.437517,-0.333353,0.0886244,-0.466717,0.0879593,-0.110254,-0.0060279,0.413006,-0.227024,-0.449668,-0.0415512,-0.00255613,0.209732,-0.388278,0.437437,-0.480598,0.384713,-0.24838,-0.318981,0.469988,0.417751,-0.140347,-0.226738,-0.0632391,0.0801054,-0.335307,-0.25623,-0.386083,0.197856,-0.169645,-0.15828,-0.242832,0.245414,-0.00963455,0.0529296,-0.317326,-0.050172,-0.391718,0.00420644,0.219784,0.35807,-0.288267,0.0319942,-0.443198,-0.417856,0.103468,0.0577851,0.217575,0.211925,-0.124961,-0.170955,0.247483,0.469423,-0.426156,0.162285,-0.0673484,0.410987,0.319416,-0.448968,0.493142,0.444482,0.338359,0.377495,0.464075,0.0192958,-0.263933,0.0958745,-0.377938,0.179536,0.208118,-0.23517,0.492378,-0.461841,-0.234987,0.148192,-0.32198,0.351012,-0.351446,0.0226084,-0.344999,-0.236431,0.0974869,0.45915,-0.0584472,-0.421848,-0.309167,-0.178144,-0.35156,0.49456,-0.375092,-0.359068,-0.0137361,0.42383,0.0215661,0.434776,-0.163505,0.061538,-0.485804,0.0560752,0.00873949,0.145111,-0.13921,0.396358,-0.0523675,-0.311771,-0.0188973,-0.305316,0.29158,-0.141052,0.419108,-0.347453,0.121212,-0.103877,-0.301863,-0.00333618,-0.270221,0.0389268,-0.00473387,-0.174921,0.224769,-0.132527,0.343492,0.306242,0.250476,0.136247,0.197239,0.245979,0.202874,-0.0824716,-0.06138,-0.249584,-0.225602,0.0830847,-0.017275,-0.206426,0.357178,0.420737,-0.135251,0.325982,-0.158539,-0.122578,-0.188643,-0.353041,-0.480697,-0.144232,0.113455,0.278348,-0.000932863,-0.116643,0.388316,-0.238168,-0.190798,0.365938,0.0645445,0.204844,-0.0944398,-0.488734,-0.385541,0.490993,0.0604963,-0.242835,-0.396833,-0.26054,0.390512,-0.474012,0.299494,0.246853,-0.122432,-0.0673896,0.0908791,0.456859,-0.422428,-0.48471,0.0831397,-0.441506,0.483193,-0.427019,0.48762,-0.313567,-0.181138,0.269987,-0.270287,0.163428,-0.491875,0.253334,-0.366714,0.220541,-0.0321066,0.185892,0.422036,0.40381,0.387048,-0.277936,-0.145037,-0.00515999,0.206227,-0.295519,0.252496,0.0158015,-0.0695934,0.349992,0.343874,-0.413712,0.321042,-0.205894,-0.194249,0.424312,0.231112,-0.471098,0.0408806,-0.00961812,-0.333032,-0.308674,-0.131665,-0.401424,0.0548383,0.189921,-0.399742,0.342896,0.169987,0.126313,0.130665,0.452167,0.0181608,0.138963,-0.477092,0.303075,0.099841,-0.03999,0.355404,0.114393,0.328993,0.0312525,0.247743,-0.118666,0.199427,0.0871998,0.0610248,-0.0165222,0.484177,-0.481656,-0.291516,-0.366073,0.49838,-0.287327,-0.449394,0.365958,-0.0836024,-0.101725,-0.0403542,-0.474454,0.247978,-0.398715,0.0265766,0.0849252,0.275087,0.479615,-0.139641,0.0465552,0.493812,0.126633,-0.327517,0.100794,-0.321344,0.0701317,-0.138854,0.312359,-0.0996824,0.0873662,-0.385481,-0.0411733,-0.214603,-0.381074,0.362476,-0.49676,0.303451,0.193313,-0.242662,-0.284806,0.212226,-0.499268,-0.0322352,-0.129857,-0.137391,0.202199,-0.104756,-0.135056,0.250391,-0.245186,-0.0279479,0.0753311,-0.489889,-0.0234145,-0.454396,-0.372315,-0.349697,0.158489,-0.0519664,-0.482993,0.490296,-0.336163,-0.134369,0.182001,0.00146961,0.49374,-0.430253,-0.0468142,-0.361303,0.262321,-0.381565,-0.319182,0.167166,-0.115596,0.0700005,-0.341997,-0.278529,0.171815,0.385862,-0.232237,-0.0887293,-0.243812,-0.421155,0.363433,0.287558,0.407179,0.257151,0.375208,-0.0681879,-0.435978,0.0981352,-0.25892,-0.107447,0.0646083,0.00137543,-0.288064,0.107251,0.0155977,-0.409444,0.0510302,0.106747,-0.193079,0.296593,0.302433,0.314345,-0.0680723,0.240303,-0.479267,-0.473992,0.172222,0.443166,-0.427429,-0.152353,-0.0816253,0.165575,0.499131,-0.192588,0.0431894,-0.200471,0.323853,-0.0547157,-0.0115633,-0.375533,0.442894,-0.282825,-0.397868,0.141888,-0.450301,-0.370219,-0.115641,-0.437547,0.432199,0.0744331,-0.113596,-0.287148,0.0464184,0.123654,0.234307,0.129343,0.0524632,-0.245234,-0.338776,-0.271871,0.0891806,-0.296333,-0.293768,-0.192784,-0.383828,-0.440706,-0.034341,-0.283152,-0.0463232,0.0801057,0.332434,-0.0245406,0.0244171,-0.0064073,-0.0313771,-0.420561,0.170759,0.412448,0.199521,-0.0202862,-0.00527295,-0.152156,0.103411,0.269267,-0.42573,-0.422879,0.217946,0.494091,0.425427,0.399652,0.151861,-0.300529,0.208534,-0.354779,0.412897,0.15451,0.214664,-0.00578472,-0.0988009,0.445397,0.362197,0.467813,0.17931,0.448056,-0.153624,-0.152766,-0.266862,-0.425156,0.286758,-0.271049,-0.13461,-0.0572587,-0.204653,-0.0282977,0.0862703,-0.267392,0.0401813,-0.0746687,0.275279,-0.229811,-0.494435,-0.467773,0.0917784,0.282737,-0.333241,-0.268784,0.419602,0.407988,0.151942,0.217497,0.289388,0.116222,0.13632,-0.490459,0.103127,-0.0732452,0.277437,0.344243,0.207649,0.31052,-0.149159,0.216369,-0.320878,-0.484387,0.379692,0.457805,-0.176353,0.412936,-0.18692,0.224099,-0.0992332,-0.0399543,0.166953,0.295088,0.0166712,-0.148595,-0.168858,-0.0175379,-0.175345,-0.348697,-0.432408,-0.372463,-0.499762,-0.305258,0.359777,0.0986426,-0.0978529,0.183622,0.0223414,-0.139451,-0.475024,0.0166382,-0.128719,-0.484389,0.0949402,-0.265636,-0.089937,-0.0452612,-0.118306,0.244184,-0.180927,0.246849,0.00194475,0.373267,-0.346676,-0.146256,0.0892265,-0.362416,0.333665,0.393534,0.427999,0.468357,-0.366934,0.485152,-0.217511,-0.407664,0.08891,0.200368,-0.312453,0.478964,-0.467476,-0.316187,-0.470253,-0.0361941,-0.277634,-0.0284461,-0.0714862,-0.362372,0.100845,-0.350755,-0.0774173,0.44296,0.451442,0.480208,0.15484,-0.413868,0.138586,-0.25781,-0.23173,-0.185457,0.0126184,-0.0552694,-0.152135,0.473565,0.42961,0.493099,0.0802739,-0.0493613,0.352919,0.22482,-0.0436624,-0.0503079,-0.082076,-0.376974,-0.392139,0.396392,-0.0524895,-0.0176898,-0.35696,-0.00182392,0.124056,-0.018134,0.280427,-0.496826,-0.270063,0.305343,0.0457851,0.448046,0.221757,-0.0874831,0.0339053,0.194979,0.0741695,-0.26808,0.390622,-0.123866,-0.48108,-0.220522,-0.137711,-0.00831061,-0.0306455,-0.354216,-0.0888284,-0.0251553,0.157963,0.0227141,0.0851518,0.386512,-0.00380281,0.396175,-0.386002,0.310451,0.222084,-0.160667,0.490109,-0.0222823,0.0204593,0.26118,-0.461238,-0.352807,-0.480472,0.184988,-0.15507,0.146654,-0.184944,-0.42513,-0.349829,-0.443598,-0.45841,-0.0375031,-0.186647,-0.480569,-0.488721,-0.270835,-0.33674,-0.407704,-0.334382,-0.281258,0.0811162,-0.475904,-0.0847111,-0.106587,0.122824,-0.328465,-0.293682,-0.386986,-0.0675332,0.43933,-0.314743,0.101434,-0.334157,-0.296331,0.442491,0.158949,-0.425225,-0.217564,-0.501375,0.176397,-0.00971532,0.0248982,-0.131976,-0.318915,-0.420139,0.463587,0.0162886,0.219501,-0.124318,0.291957,0.124679,-0.295257,-0.487068,-0.0659124,0.129786,-0.382404,-0.305369,0.222508,0.0563076,-0.0413088,0.279931,0.315943,-0.415486,0.289867,0.0250031,0.0297936,0.43877,-0.20946,0.291084,0.0936659,-0.250241,-0.177455,0.167518,-0.304676,0.0780922,0.442446,0.333649,0.0433761,0.252654,-0.119796,-0.456349,0.175445,0.291392,-0.154353,0.0244328,0.192919,-0.193989,0.0242469,0.435649,-0.103852,-0.198051,-0.1119,0.412234,-0.264025,0.0775726,0.228794,0.033779,0.00728871,-0.235704,0.260435,0.370676,0.488389,-0.351987,0.359901,0.0435146,0.219256,0.401178,-0.342205,-0.473372,-0.268838,-0.093096,0.315867,0.458212,-0.307319,-0.342997,0.484977,-0.421345,0.171495,0.370723,-0.0937038,-0.172338,0.278298,0.412933,0.112545,-0.0171105,0.0714525,-0.37423,-0.235129,-0.194915,-0.32793,0.485301,-0.426875,0.184498,0.152376,0.0781491,-0.0215587,-0.0721642,0.391543,-0.282626,0.139582,0.00103114,0.349329,0.124697,0.106843,0.295527,-0.308104,0.0587405,0.0226652,-0.202317,0.0354451,0.24985,0.456239,0.489295,-0.0735914,0.0202671,-0.149254,-0.0928925,-0.227687,0.355024,-0.376862,0.0855486,-0.357913,0.109127,0.105612,-0.427518,0.274386,-0.476725,0.371759,0.489683,-0.251344,0.214759,-0.243578,0.238287,-0.282531,0.237291,-0.00508877,-0.0367166,-0.115789,-0.332219,-0.300509,0.231401,0.0290604,-0.344938,-0.290851,0.138985,0.270548,-0.0275072,0.155952,-0.291002,0.142655,-0.0644829,-0.456396,-0.243859,-0.0134926,0.039568,0.22559,-0.213636,-0.2428,0.336299,-0.176445,-0.293329,0.00825994,0.0169135,-0.0259013,-0.296383,0.14209,-0.121484,0.241,0.2934,-0.495383,-0.330208,-0.430434,0.102493,0.0850733,-0.0492642,0.364109,-0.489366,0.479507,-0.17344,-0.0972737,-0.315588,-0.127148,0.10105,0.300421,-0.00360243,-0.0513314,-0.471022,-0.381585,0.149522,-0.0152648,-0.45284,0.445002,-0.0805397,-0.0465812,0.20079,0.392078,0.285676,-0.39347,0.301592,-0.485011,0.26076,-0.286678,0.120502,-0.0866745,-0.34987,0.39788,0.0379779,-0.245971,-0.326608,0.0988727,0.124334,-0.423137,-0.253827,-0.0434809,0.479279,-0.345813,-0.374646,0.03699,0.267233,0.0800049,-0.1154,-0.137457,0.472121,-0.331237,-0.333661,0.242707,-0.0116871,-0.39858,0.118725,0.168894,-0.483801,0.27578,0.26563,0.167183,0.0250502,0.362979,-0.15557,-0.362831,-0.025283,0.3758,-0.368543,-0.0910522,0.0620478,0.362834,0.468386,-0.378922,0.0305912,-0.220681,-0.0749701,-0.0018434,-0.183938,0.428083,-0.297522,-0.365098,-0.212404,-0.487868,-0.499828,-0.312336,0.302944,0.371308,0.0945058,-0.218322,-0.318056,0.0290107,0.457479,0.471376,-0.360838,-0.0718822,0.1738,0.234905,0.0922592,0.229038,0.42529,-0.260644,-0.490844,-0.0324211,-0.277463,0.191318,-0.161196,-0.187164,-0.418546,0.0232665,0.0162485,0.0416347,-0.225867,-0.333469,0.208773,-0.36726,-0.302326,-0.252251,0.306284,-0.255243,-0.129905,0.270221,-0.12863,0.258663,-0.438879,0.35223,-0.0170238,-0.482601,0.34422,-0.495819,-0.0197328,-0.281088,-0.236961,0.0762913,-0.213209,-0.39229,0.33867,0.104413,-0.343775,-0.0992204,-0.07397,-0.0630294,0.460698,-0.486243,-0.463024,-0.406224,-0.0231343,-0.0755686,0.427539,0.153257,0.317912,0.0166538,0.168243,0.325865,0.262507,-0.142022,0.357657,-0.0862595,0.284408,-0.419979,-0.218942,-0.429566,-0.411491,0.00322568,0.468249,0.319833,-0.357772,-0.161308,0.476725,0.420135,0.0886085,-0.425648,-0.255954,-0.331799,0.0834417,0.0764967,0.456461,-0.163889,-0.317109,0.28637,0.413895,0.308087,-0.216502,-0.248563,-0.230941,0.406381,0.16277,-0.102575,0.36442,-0.361884,0.197867,-0.297544,-0.237876,0.352828,-0.393774,-0.222486,-0.369988,-0.170721,0.027091,0.200337,-0.343344,0.149126,-0.488081,-0.451502,0.475295,-0.0957531,-0.211974,-0.118927,0.192142,0.149407,0.173705,0.124714,-0.0632732,-0.255152,-0.367217,-0.490714,0.252275,-0.2966,0.45846,-0.148875,-0.279347,0.192366,0.166479,0.0390469,-0.181321,-0.0285816,-0.353391,0.127633,-0.335541,0.347942,-0.33903,-0.479945,-0.319566,0.362502,0.0273021,-0.352245,-0.170365,-0.450755,-0.216362,-0.117193,-0.395195,-0.405099,0.330334,0.133528,-0.00526001,-0.0473362,-0.0145944,-0.191315,0.150543,0.242758,-0.106175,0.310493,0.207111,-0.406876,0.347194,0.413542,-0.458007,0.381006,0.157331,-0.101454,-0.241701,0.471954,0.210277,0.0923864,0.160507,-0.133214,0.498306,-0.269824,0.342295,0.329317,0.2804,0.0527118,-0.421415,-0.390194,0.338624,0.222321,-0.461517,0.250834,-0.394394,-0.331691,-0.0645762,-0.21466,0.11632,0.110534,0.310677,-0.276191,0.452054,0.109591,0.488766,-0.251242,-0.202558,0.128608,-0.120424,-0.130674,0.497105,0.00823218,-0.343576,0.329765,-0.448918,0.089382,-0.260554,0.292791,-0.315379,-0.00149568,0.0052699,0.100529,0.126966,0.482552,-0.333224,-0.253599,0.252947,0.0536527,-0.103392,-0.169602,0.164211,-0.416981,-0.0212859,-0.11429,-0.16284,0.277373,0.391622,-0.436246,0.174005,0.377438,0.267899,-0.33015,0.0156127,-0.0945772,-0.259928,0.0588688,-0.403232,0.246269,-0.332523,-0.324193,0.379639,0.477237,0.451256,0.330216,-0.439338,-0.179881,-0.0400019,-0.31644,0.472209,0.417179,0.362226,-0.0219374,-0.218286,0.0379312,-0.308977,0.00721815,-0.493697,0.0945755,0.27266,-0.317957,-0.100941,-0.032234,0.215503,0.446507,-0.237412,0.298788,-0.180748,0.319331,-0.427002,0.134631,-0.330673,-0.412258,-0.163263,0.225437,-0.319794,-0.187281,0.210665,0.401014,-0.484782,-0.453041,0.319516,0.383605,-0.198246,0.209038,-0.475195,-0.190009,-0.0875304,-0.364592,-0.186273,-0.218643,0.057025,0.398397,-0.209239,-0.0891934,-0.100878,-0.345972,0.287197,-0.00957803,-0.426604,-0.153058,-0.188639,0.34034,0.415163,0.440858,0.242844,-0.243432,0.204212,0.388714,0.144013,0.423535,-0.234838,-0.397814,0.500681,-0.165259,0.318248,0.0348585,-0.337158,-0.00501288,0.00833956,0.0185719,0.463111,0.309087,-0.474196,-0.417904,-0.439431,-0.0360441,0.195166,-0.416255,0.0331358,-0.445917,0.276048,-0.414556,0.390968,0.251626,-0.261862,0.0192297,0.171103,-0.364014,0.257927,0.221471,-0.489136,-0.0619215,0.368992,-0.19069,0.306056,0.187552,-0.357998,-0.0936628,-0.300654,-0.0570152,-0.414563,0.368122,-0.157434,0.0535796,-0.0691332,0.305813,-0.268749,-0.148427,0.207834,-0.369217,-0.303173,0.00748992,-0.124295,0.357647,-0.431274,0.349551,-0.152221,0.167671,0.475602,0.0206362,0.44452,0.455072,-0.413208,-0.347638,-0.0767519,-0.319828,0.462152,0.397132,-0.288161,-0.452829,-0.362003,-0.337417,0.39313,0.280875,-0.0838283,-0.336567,0.106209,-0.425361,-0.238499,-0.285027,-0.317151,-0.371448,-0.230247,0.0378791,-0.0602358,-0.426114,-0.0856539,0.309192,-0.256948,0.45392,0.23115,-0.27922,0.0788901,0.317635,0.375312,0.193847,0.449058,-0.346804,0.252548,-0.450482,0.229811,-0.158211,-0.490331,0.146649,0.0437628,-0.334578,-0.396686,0.472038,0.328601,-0.293768,0.0573098,0.47182,0.344228,0.309964,0.416457,0.437851,-0.286723,0.204336,-0.0653179,-0.321453,-0.21457,-0.407998,0.308992,0.112256,-0.084767,-0.193456,-0.100081,-0.275685,0.427954,0.26281,-0.21291,0.411375,0.47724,0.0865096,-0.49715,-0.445378,0.31964,0.323402,0.0878621,-0.0746946,-0.381205,0.383473,-0.0215362,0.0182972,0.00256785,-0.00332549,0.0521929,0.16353,0.0266988,-0.191319,0.417586,-0.176936,0.351028,-0.0458656,0.337454,-0.057678,-0.403929,0.231844,0.338944,0.119012,-0.206324,-0.433259,-0.470173,0.104028,-0.407745,0.0784343,0.0844613,-0.330471,-0.0972011,-0.275996,0.431728,-0.293207,-0.00660536,-0.337179,0.434873,-0.0963871,0.233174,0.0225239,0.0861582,-0.00566748,-0.453174,0.495141,0.313673,-0.433764,0.37272,0.448558,-0.233854,-0.478562,-0.301672,0.16955,-0.490911,0.295058,0.433844,-0.14514,-0.252489,-0.476353,-0.464959,0.122034,0.234748,0.490125,0.470201,-0.213194,0.386809,-0.398193,-0.332588,-0.341616,-0.215906,-0.301634,0.229845,0.365113,-0.210606,0.329244,-0.0241468,-0.476677,-0.2303,0.103208,-0.0454532,-0.179745,0.311183,0.398092,0.0596767,0.155857,-0.296945,0.0507293,0.17822,-0.112469,0.101812,0.117541,-0.438741,-0.199982,-0.315328,-0.00424078,0.178392,0.457261,0.290617,-0.329025,0.170951,0.450188,-0.17756,-0.0587871,0.209968,-0.0233399,0.469682,-0.360343,-0.447911,0.285095,0.298234,-0.383953,-0.341884,-0.227591,0.441591,0.140691,0.317977,0.305654,0.135543,0.0888335,-0.0670023,0.413863,-0.0365189,0.416858,0.0981982,-0.431845,-0.366547,0.464594,0.309289,0.214975,0.177922,0.0960772,0.127501,-0.274451,0.0704753,-0.0371599,-0.286341,-0.107347,0.16989,0.196987,-0.0903433,0.357554,-0.447063,0.0746975,-0.392467,0.430797,0.489131,-0.088,0.18973,-0.415934,-0.292138,-0.401214,0.0412127,-0.463748,-0.409954,0.339927,-0.190406,0.371753,0.427191,-0.398982,0.174695,0.102849,0.336685,0.353011,0.253524,-0.189454,-0.196938,0.180868,-0.452534,-0.272421,0.162638,-0.207011,0.412947,-0.313136,0.0479535,-0.265628,0.00564212,0.463763,0.324939,-0.177924,0.197475,-0.387683,0.152306,0.286897,-0.438116,-0.348717,0.342768,0.186779,-0.101398,-0.472555,0.259551,-0.392393,-0.29106,0.00115182,0.361427,0.228739,0.155346,-0.401371,0.0467782,0.444513,-0.104113,-0.466008,-0.0340868,0.321312,0.39815,0.273546,0.0894273,-0.432324,-0.353412,0.201582,0.122334,-0.108757,-0.0943943,0.225746,-0.328008,0.318582,-0.0578937,0.228067,0.147981,-0.424994,0.177328,0.0311116,0.479453,-0.385793,0.291173,0.439387,-0.081665,0.0124576,-0.489024,0.304608,0.220292,-0.348894,0.445159,-0.225387,-0.499204,0.408638,-0.237977,-0.0555251,-0.454208,0.440533,0.178011,-0.326651,0.055896,-0.484424,0.475987,-0.103823,-0.159213,0.346343,0.181879,0.234284,0.482256,-0.365669,0.489121,-0.438281,0.129011,0.452762,-0.395781,0.198767,0.207474,0.452838,0.181471,0.470993,0.338142,0.485588,-0.444328,-0.13114,0.165289,-0.108515,-0.402902,0.199185,-0.123015,0.421873,-0.20896,0.413063,0.358845,0.4771,-0.235446,0.38788,0.228745,0.22842,0.43155,0.0928953,0.48008,-0.251055,-0.42703,0.496858,-0.0436321,-0.337083,0.09338,-0.00821224,0.0740349,-0.137724,0.212867,0.347587,0.213315,0.475823,-0.0149606,-0.432864,0.248267,0.24616,-0.0503188,0.306364,0.168733,-0.341452,0.179508,0.124012,-0.100908,-0.0622913,0.0880756,0.00333102,-0.0461666,-0.0141518,-0.260087,0.16883,0.0707606,-0.243956,0.305772,0.352312,-0.0504469,-0.368203,0.241375,0.324431,0.10186,0.307542,0.257894,0.0800603,-0.315435,0.227009,0.398619,-0.187533,-0.278864,-0.364134,-0.2008,0.254668,0.416564,0.400889,-0.138048,0.2821,0.214296,0.135571,-0.246834,0.125017,0.0207696,-0.0355633,-0.0997401,-0.193827,0.234167,0.484648,-0.314242,0.210065,-0.490232,-0.438071,-0.061231,0.0916143,-0.381414,-0.404488,0.455603,0.150635,0.37589,0.0164373,0.357524,0.283464,0.45927,-0.0557917,-0.184673,-0.486135,-0.132493,-0.0372024,0.205901,-0.362158,0.467652,0.269854,0.300471,-0.119768,0.342161,-0.207921,-0.00635298,-0.393201,-0.287262,0.150416,-0.226142,0.0358355,-0.313442,0.0291465,0.0654967,-0.359248,-0.219501,-0.141332,-0.290496,0.0967961,0.498505,-0.386829,-0.073241,-0.411866,0.256411,-0.366259,0.324496,0.247071,-0.139817,-0.1948,0.326519,0.479583,0.355138,-0.469409,-0.320724,-0.438452,0.11015,-0.359342,-0.192572,-0.210303,-0.291556,0.36794,0.302369,0.341228,0.265518,-0.209616,-0.0817793,-0.345701,0.300226,0.344758,0.22273,-0.447909,-0.109877,-0.483542,0.272998,0.432486,-0.439061,0.451783,-0.11812,-0.00693698,0.178445,-0.297857,0.250151,-0.0242598,-0.18199,-0.460928,0.271817,-0.268144,0.23942,-0.119613,-0.130702,0.291849,-0.398464,0.366343,-0.00265046,0.237004,-0.0286968,-0.451464,-0.254859,-0.42844,0.350791,0.359096,-0.0712339,-0.250307,-0.254757,-0.112229,-0.166215,0.117745,-0.373223,-0.0970202,-0.338497,0.15314,-0.230239,-0.0382071,-0.46796,0.00633181,0.289845,0.400057,0.103057,-0.0149745,-0.0760238,-0.447468,0.103536,0.156216,-0.176807,0.00439773,0.426168,-0.195365,0.102549,-0.136492,0.464014,0.488754,-0.274567,0.224406,0.156934,-0.154253,-0.363463,-0.253666,-0.499625,0.240568,-0.182119,-0.390469,-0.383291,0.299838,0.316515,0.306677,-0.0478659,0.324718,-0.239485,0.447003,0.0806584,-0.475714,0.261262,0.281371,0.0406075,0.211774,0.175861,0.322571,-0.117911,0.465892,0.484208,-0.471934,-0.476986,-0.149001,-0.154359,0.201852,0.413552,-0.444614,-0.116328,0.298917,0.201605,-0.0716526,0.311625,-0.0923036,-0.289215,0.443697,0.275478,0.102973,0.466867,-0.449312,-0.447207,0.0553179,-0.326368,-0.330991,-0.452537,0.175832,-0.449324,-0.064609,0.152289,0.32971,0.263961,-0.0956981,0.486693,0.252899,-0.080267,0.0509866,-0.189184,-0.224705,0.0182426,-0.299675,0.167612,-0.0445471,-0.489565,-0.495533,0.315191,0.00805815,0.212429,0.398346,0.449546,-0.3285,0.0586838,-0.162302,-0.363075,0.485121,0.405827,0.119037,-0.489869,0.154533,-0.259853,-0.452991,-0.24476,-0.286546,0.415522,-0.0572656,-0.470126,-0.475234,0.24533,0.418082,0.4356,0.036072,-0.216476,0.0850769,0.213109,0.439688,0.0366769,0.475213,-0.0173702,0.0878995,0.348673,0.47068,-0.41977,0.234604,0.325705,-0.34174,-0.465003,0.21064,0.403499,0.120489,-0.393149,0.0903644,0.144171,-0.218109,0.29259,0.36859,0.455826,0.0450627,-0.110441,-0.149679,-0.263079,0.231145,-0.213425,0.442597,-0.0973958,0.467173,0.195381,0.194579,0.317254,-0.169327,-0.0199491,0.11471,0.0219708,0.151542,-0.0234643,0.129089,-0.00760161,-0.00326629,-0.134634,-0.454152,0.223867,-0.491701,-0.0275026,0.469804,-0.481994,-0.22814,0.468187,-0.19479,-0.0444283,0.319082,-0.0050493,0.220956,0.277353,0.23134,0.0211422,0.395472,0.0104722,0.202222,-0.303141,-0.406139,0.264799,0.135431,-0.166884,-0.0510428,0.239775,0.233744,-0.1323,-0.105424,0.341155,0.3206,-0.417282,0.388247,0.0483955,0.389767,0.325811,-0.0142283,-0.299041,-0.10718,-0.229335,-0.419712,-0.454086,-0.317435,-0.328995,0.332408,0.163076,0.0400189,0.207673,-0.263757,-0.475027,0.0782396,-0.147636,-0.329485,-0.42138,-0.101874,-0.253489,0.0836045,0.177608,0.0989364,0.0216268,0.410634,0.162808,0.258122,0.477721,-0.329476,-0.0883406,-0.182643,-0.192288,-0.104321,0.319748,0.479759,0.269073,-0.283465,0.274517,0.138018,0.294156,0.375579,-0.181908,-0.319864,0.228793,0.0713912,-0.446687,0.108773,-0.377333,-0.443417,-0.346531,0.487061,-0.432668,0.159178,-0.467631,-0.441614,0.263334,0.279547,0.492801,-0.238204,-0.469825,-0.495567,0.138679,0.419635,-0.454859,-0.386296,0.092758,-0.243919,0.122954,0.487904,0.431133,-0.391915,0.169022,0.373606,-0.0111548,0.482814,-0.0965652,0.224591,-0.391123,-0.0651127,-0.361622,0.0611643,-0.205051,-0.369723,-0.396958,-0.099399,-0.203829,-0.0208141,0.339191,-0.1868,-0.363279,0.334561,-0.360415,0.492576,-0.492938,-0.10483,-0.00805317,0.440252,-0.314285,-0.0200586,-0.285267,-0.490512,0.219355,0.013414,0.211968,0.370122,0.139251,-0.302377,0.0278716,-0.309978,0.00143142,-0.101243,0.418652,-0.265286,-0.0321562,0.391235,0.139477,0.125547,-0.368499,0.0930918,-0.167142,-0.456566,0.278569,0.17845,0.13417,-0.173701,-0.223174,0.208082,-0.469132,0.444759,-0.307211,-0.454018,0.201481,0.395483,-0.193373,-0.338932,-0.0105454,0.210498,0.0652864,0.113595,0.349128,-0.0492942,-0.0393431,0.409921,0.237024,-0.365922,-0.415132,0.0161154,-0.0766515,-0.0995184,-0.337589,-0.325232,0.0411893,0.386963,0.332325,-0.475574,0.125598,0.185799,0.176391,-0.470334,0.307041,0.0378159,-0.464222,-0.354469,-0.266137,0.392765,0.350808,-0.428403,0.478368,0.0621802,0.150569,-0.476804,-0.151923,0.345144,-0.0223138,0.282961,-0.328534,-0.0410473,0.258001,-0.342855,-0.00898705,-0.337074,-0.420783,-0.226946,-0.200934,0.0258313,-0.380352,-0.414961,0.433254,-0.323334,-0.267495,-0.306253,-0.0454217,0.428256,-0.367647,-0.362435,-0.421448,-0.201423,0.154485,0.232471,0.0530533,0.123641,-0.217288,-0.170594,0.0359577,-0.0923809,0.35682,0.401948,-0.268286,-0.39846,-0.271788,-0.0556931,-0.217324,-0.374977,-0.284306,-0.322906,0.343025,0.129358,0.442706,-0.437138,0.0585692,0.243792,-0.206384,-0.444844,0.125583,0.370907,-0.178489,-0.00671225,-0.399868,0.418836,-0.241762,-0.255605,0.254309,0.28986,0.340262,0.135017,0.00669324,0.194997,-0.0164611,-0.394522,-0.469907,0.264315,0.447954,-0.161887,0.111323,0.0865537,0.328232,-0.0942995,0.172991,-0.0708107,-0.425217,-0.306479,-0.396246,0.440687,0.211651,-0.0686487,0.12015,-0.205005,-0.367395,0.367336,0.16784,0.354028,0.3549,0.434796,0.281559,0.141698,-0.0556934,-0.308538,-0.166308,-0.00627026,-0.209967,-0.158104,0.399337,0.219574,0.461974,-0.387185,-0.338548,-0.189243,-0.459355,0.166339,-0.0176569,0.222721,-0.147116,-0.132045,-0.333658,-0.0827724,0.320282,-0.216634,0.304478,0.221797,-0.0398422,0.162565,0.0668714,-0.338538,0.247322,-0.138032,-0.330782,0.122928,0.40678,-0.412983,0.223427,-0.128163,-0.0897347,-0.405151,-0.422393,0.459725,-0.285411,0.198704,-0.055344,0.345939,-0.369226,-0.287313,0.30568,-0.0990808,-0.276978,0.263316,0.25804,-0.0142143,0.0893978,0.0639747,-0.197199,0.357952,0.142584,0.27831,0.42069,0.222147,0.160276,0.081551,-0.340403,0.0987609,-0.472374,-0.433022,-0.366929,0.391245,0.471714,-0.221012,-0.244674,-0.348364,0.40181,-0.0231685,-0.459247,0.497918,0.12277,0.460728,0.391228,-0.407862,0.114593,0.0329263,0.438452,-0.181452,0.075044,0.0841341,-0.33307,0.414885,-0.0140153,0.30957,0.13964,-0.139801,0.277567,-0.320004,0.207892,0.239452,-0.101924,0.00117655,0.34551,-0.260188,0.0179632,0.133781,-0.331418,-0.334509,-0.232622,-0.0152207,0.0290775,0.33223,-0.160924,0.215158,0.393873,-0.0827892,0.321203,-0.279428,-0.440741,0.0475705,-0.416531,0.460295,0.48761,-0.103429,0.428994,0.293021,-0.488364,-0.281878,-0.274632,-0.412793,-0.403363,-0.275778,-0.047408,-0.441089,-0.302704,0.283854,0.0704551,-0.0906972,-0.0868044,-0.31102,0.0722202,0.374966,0.138058,0.0173246,0.334129,-0.26579,0.223961,0.408257,-0.315667,0.350112,-0.15185,0.103787,0.269695,-0.324534,-0.150099,-0.418212,-0.213205,-0.488042,-0.405965,0.470114,0.0220509,0.285551,-0.0195048,0.29558,0.363338,-0.224466,0.310641,-0.28225,0.146308,-0.150192,0.40003,-0.0645028,-0.252853,0.488037,-0.19043,0.124038,0.0310772,0.43147,-0.311683,0.0876428,-0.324925,0.145215,-0.396774,-0.167016,0.300916,0.493646,0.104207,-0.33042,-0.262831,-0.371305,0.160386,-0.110541,-0.170391,0.43567,-0.277837,-0.0120277,-0.429774,-0.0710469,0.434352,0.186967,0.11688,0.35126,0.266344,0.245933,0.360109,-0.130673,0.0655637,0.0440605,0.172336,-0.0338176,-0.295844,0.0953674,0.257583,-0.365662,-0.290267,0.0572102,-0.098236,-0.235876,-0.117807,-0.00933849,-0.320596,0.396862,-0.463557,-0.0075603,0.316064,0.246109,-0.168204,0.108211,0.216504,-0.0212386,-0.394219,0.244923,0.248476,-0.497549,0.305799,0.163464,0.00839627,-0.118636,-0.113017,0.148617,-0.251276,0.300259,-0.15316,0.0532007,0.408214,0.184535,0.320233,-0.450256,0.419498,-0.488752,-0.0623116,-0.147944,0.0292206,0.26765,0.232419,0.369114,-0.377744,0.390753,-0.0642823,0.484688,0.394078,-0.415475,-0.461386,0.0282988,0.457594,-0.288084,0.382652,-0.358592,-0.2871,-0.0338611,0.164228,0.117914,-0.0849403,0.413675,-0.481969,0.099715,0.44286,-0.417465,-0.0793981,-0.142552,0.340081,-0.249207,0.0826048,-0.310894,-0.34677,0.291279,0.396829,-0.429266,0.471504,0.272482,0.131778,-0.451447,-0.442352,-0.217393,0.243016,-0.0103518,0.424062,0.211105,-0.390258,-0.3508,0.447351,0.430383,0.18162,-0.160583,0.0306683,-0.303287,0.257265,-0.364601,0.326786,0.00216547,0.47466,-0.198906,0.335452,0.301696,0.396757,0.439197,-0.447834,0.387437,0.025169,0.224899,0.266269,-0.327358,-0.246156,-0.0507577,-0.0201617,0.23996,-0.281296,-0.449517,0.306095,-0.0486068,-0.141846,-0.234576,-0.326626,0.225417,-0.392684,0.473325,0.0609052,-0.36145,-0.249718,-0.2381,0.0551498,0.333301,-0.183434,-0.348811,-0.321325,-0.309522,0.101531,0.278371,-0.242543,-0.165836,0.233381,-0.269387,-0.0491845,0.346287,-0.173604,-0.266723,-0.296028,0.329034,-0.0298255,0.117161,-0.195928,0.166527,-0.406163,0.0823685,0.0404826,-0.0202193,-0.0673141,-0.265333,-0.104387,-0.241891,-0.315081,-0.134732,0.46644,-0.181006,-0.174182,-0.181985,-0.420632,-0.478181,-0.231645,0.325471,0.0144565,-0.190904,-0.0179429,0.412847,-0.454681,-0.325968,-0.149032,0.397681,-0.413727,0.156753,0.222767,0.25031,0.157158,-0.0378692,-0.0693128,-0.481314,0.0178501,-0.181397,0.10603,-0.370448,-0.462039,-0.176762,-0.260839,0.26323,0.0879924,0.306437,-0.203994,-0.00970966,-0.498627,0.0141622,-0.106237,0.0332792,-0.0549281,0.307021,0.294661,0.0344845,0.0958444,0.333782,-0.281059,-0.153554,0.204678,-0.494097,-0.329602,-0.159404,0.351858,0.266512,0.130426,0.21208,-0.216927,0.325842,-0.0752886,-0.400223,0.17337,-0.410809,0.249572,0.0778759,0.137789,0.484228,-0.127131,0.497539,-0.176266,-0.492781,0.350226,0.138029,0.233939,0.225978,-0.391781,0.126865,-0.300494,-0.376067,-0.426511,0.466521,-0.0856937,-0.262718,0.490822,-0.348149,0.251377,-0.454755,0.254734,0.266363,0.177337,0.0354674,-0.385309,0.0184365,0.471257,0.0531537,-0.0252936,-0.0895725,0.143441,-0.423755,0.481331,-0.364772,-0.329497,0.431697,-0.475985,0.172211,0.233987,0.375169,0.27655,0.0386152,-0.433674,-0.232979,-0.467298,-0.123325,-0.298704,0.143744,0.046078,-0.266432,0.457704,-0.180662,0.362973,0.029305,0.347785,-0.000387977,0.468758,0.310434,-0.185756,-0.10699,-0.427629,-0.180731,0.355289,-0.296716,-0.0610729,0.0810384,0.426816,-0.211831,-0.115362,0.286344,-0.389883,0.468757,0.126532,-0.426358,-0.404243,0.0532181,-0.149955,0.250921,0.484885,-0.1934,0.420884,0.336423,0.466944,0.302726,-0.321293,0.132914,-0.086627,-0.241034,0.3264,0.13145,0.125977,0.338497,-0.389873,0.435948,-0.470303,0.319887,-0.096283,0.457373,-0.12607,-0.221974,-0.164397,-0.398441,-0.438051,-0.330493,0.0730465,0.343814,0.410605,0.0198326,-0.17858,-0.26159,0.377022,-0.454034,-0.222078,0.171914,0.306607,-0.149421,0.0334451,-0.36916,-0.3544,-0.480628,0.422265,-0.12051,-0.467594,0.432647,-0.0291821,-0.283477,-0.0369582,-0.486054,-0.197195,0.279033,0.390231,-0.150325,0.26115,0.407747,0.408951,0.127926,-0.296534,0.472718,0.499165,0.0172459,-0.190083,0.0826445,0.1009,-0.254924,-0.313847,-0.319754,0.487935,-0.0475339,0.165455,0.0409046,-0.147621,-0.255134,0.22392,-0.442421,0.157706,0.291175,0.123933,0.164329,-0.0867239,-0.388435,-0.223815,-0.223963,-0.244778,0.399647,0.295539,0.294411,-0.185558,-0.163089,0.365241,0.108003,0.0870931,-0.34472,0.142118,0.020931,0.160228,0.242837,-0.0791673,0.224661,0.203098,0.483666,-0.0476617,0.237576,-0.420394,-0.329224,0.0179396,-0.387388,0.221509,-0.394242,0.429182,-0.130712,0.331591,-0.0549119,-0.445011,-0.211353,0.306091,0.0882088,-0.17144,0.24408,-0.168985,0.432546,-0.484957,-0.216147,-0.286086,0.295949,0.154125,0.480625,-0.227633,0.0203191,-0.131194,0.191058,-0.132363,-0.158691,0.0241314,0.472613,0.175596,-0.28265,0.184406,0.276226,0.381357,0.372791,0.291621,-0.00423252,-0.254684,-0.205795,-0.0292955,0.0622412,-0.441268,-0.170228,0.0959589,0.218885,0.424101,-0.382629,-0.39475,-0.131593,0.117551,-0.368525,0.439896,-0.46058,0.467436,-0.200754,0.217093,-0.0342729,-0.404055,-0.172929,0.059543,0.282275,-0.33427,0.0353708,0.44985,0.31122,-0.0759447,-0.158865,0.0394817,-0.011415,-0.236988,-0.36396,0.23537,0.371793,0.374802,0.24424,0.389014,0.21698,0.109021,0.274088,0.184324,-0.159195,0.11276,0.109483,-0.0237341,0.347801,-0.297123,0.140414,0.376204,0.237265,0.138531,0.149445,0.282701,0.0535961,-0.161814,-0.4806,0.498671,-0.124731,0.325136,0.4403,0.427779,-0.262635,-0.435222,0.471174,0.0348031,-0.418246,0.18974,0.0113954,-0.48474,-0.397644,-0.469695,0.337825,0.291317,0.411328,-0.477927,-0.462171,-0.373171,0.387877,0.0993469,-0.0247046,-0.159083,0.282374,0.477394,0.206023,-0.421166,-0.137743,-0.372648,-0.104502,0.423162,-0.414751,0.137972,0.202396,0.0652837,-0.316101,-0.273177,0.0290385,0.267442,0.411142,0.260707,0.376835,-0.0262695,0.486681,0.400761,-0.340378,-0.420906,0.106261,0.0984534,-0.369727,-0.158611,-0.327171,0.282667,-0.394312,-0.209416,0.469165,-0.303576,-0.154685,0.444708,-0.402181,-0.423885,-0.113049,0.297032,0.326644,-0.294884,0.11649,0.0720548,-0.370768,-0.0236519,-0.457504,0.0254125,-0.444717,-0.128028,0.445878,0.209894,0.456694,-0.138348,-0.494387,-0.371236,-0.046209,-0.0339026,-0.226593,0.0800001,0.161996,0.119623,-0.248158,0.272331,0.0675211,-0.208947,-0.179777,0.200004,0.0252754,-0.491484,-0.277106,0.0148413,-0.23071,-0.133177,0.34199,0.145206,0.384181,0.325057,-0.465151,0.00179297,-0.141209,0.275076,-0.309635,0.483971,-0.272191,-0.149633,-0.468087,-0.439342,-0.30081,0.488019,0.385888,0.490179,-0.173137,-0.429894,-0.135711,0.125767,0.131713,0.318841,0.239635,0.492908,-0.334664,0.438242,0.471761,-0.138143,-0.30969,-0.0215452,-0.133018,0.123585,-0.379201,-0.271847,-0.231197,0.0932329,-0.328351,-0.339931,0.444685,-0.381814,-0.471215,-0.0763075,-0.233313,0.398892,-0.296468,0.0116415,-0.0410371,0.444301,0.240964,-0.245554,-0.465094,0.40811,-0.196213,0.407502,-0.148035,-0.121728,-0.40864,0.173527,-0.404798,-0.0120738,0.30415,0.0364375,-0.263811,-0.466207,-0.00603855,0.184397,0.263656,0.486303,-0.243935,0.138219,-0.48365,0.00340465,-0.238287,0.416746,0.308551,-0.209558,0.28638,-0.241783,0.0541033,0.357364,-0.241111,-0.160171,0.415576,-0.400923,-0.410188,0.332511,0.00572907,-0.142698,0.165155,-0.238804,-0.373358,0.296689,-0.332589,-0.329952,-0.382998,-0.427805,0.333711,0.0101285,0.090745,0.132794,0.0714533,0.327444,-0.0534194,0.495837,-0.464812,-0.313916,-0.0857565,-0.436353,-0.168978,-0.0572445,-0.479425,0.0260393,0.452925,-0.104817,-0.0765253,-0.475423,-0.0427035,-0.108608,-0.0985835,0.370522,-0.217984,0.122598,0.394491,0.197828,-0.152667,0.0793774,-0.184784,-0.0202058,0.360396,0.283778,-0.259022,-0.319855,0.244623,-0.306308,-0.433964,0.0989108,0.371942,0.26866,-0.109025,-0.0336041,0.24549,0.290379,0.0148654,-0.24636,0.0578063,-0.497061,-0.304554,-0.146616,-0.00741685,-0.0701956,-0.194304,0.0463138,-0.140154,0.0991598,-0.342853,0.0682165,-0.116335,-0.0789424,0.40791,-0.368446,0.286687,-0.266398,0.259651,0.137533,-0.0214983,0.184045,-0.246326,-0.480271,-0.229352,-0.369481,0.353167,-0.297577,-0.498477,0.285276,-0.243501,0.0696407,-0.277835,0.215845,0.0297979,0.448388,0.113213,0.16556,-0.346847,-0.253901,-0.155055,-0.295592,-0.0515445,-0.0651515,-0.203262,0.185208,-0.164559,-0.482776,-0.203323,-0.266448,0.120247,-0.42486,-0.0894859,-0.0984958,-0.221646,0.233203,0.0318065,0.30632,0.127755,-0.356147,0.449565,0.289326,0.0503747,-0.318807,0.075213,0.308705,0.135082,-0.365147,-0.0123683,0.373387,0.255482,0.114881,0.236614,-0.117745,0.484781,-0.0969982,-0.438594,-0.427317,0.320695,-0.397053,-0.235891,-0.493774,-0.255938,-0.343404,0.479993,0.175641,-0.106537,0.166698,-0.313318,0.108862,-0.220139,-0.237078,-0.189254,0.363666,-0.494658,0.0262321,0.146245,-0.305567,0.36196,0.26656,0.345978,-0.11146,-0.0923888,-0.0898397,0.0785685,0.440479,0.269432,0.315295,-0.0377254,0.301632,-0.469094,-0.27659,0.185157,-0.00694353,0.00436201,0.325056,0.0558401,-0.497385,-0.174056,0.380927,-0.429941,0.494905,0.03197,-0.276769,0.298949,0.13597,-0.491918,0.0684902,0.152166,0.0964542,-0.167014,0.319637,-0.222878,0.195784,-0.364974,-0.47332,0.223837,0.0816515,0.221324,-0.0756417,-0.0895899,-0.134705,-0.475808,0.296037,-0.0620532,-0.186372,0.313671,0.234422,0.125391,0.294297,0.196105,0.38579,-0.193052,-0.229374,0.126607,0.287255,0.496698,-0.0377667,-0.250943,-0.158005,0.176475,0.224387,0.279171,0.346101,-0.35222,0.0773839,-0.088317,0.356827,0.0621966,0.0676017,-0.282045,-0.443164,0.43041,0.359596,-0.0481279,0.494529,0.201461,0.454533,-0.175276,-0.496758,-0.369063,0.267095,-0.172463,0.0920906,0.389342,-0.434823,0.460868,0.346528,0.203077,0.346927,-0.239481,0.299246,-0.34882,-0.472026,-0.442159,-0.369687,0.0201717,-0.0697423,0.216529,-0.382826,-0.247416,0.0873507,-0.0291886,0.342707,0.483312,0.401263,-0.356746,0.249046,0.472017,0.355913,-0.107529,-0.40974,-0.237482,-0.133229,0.290192,-0.3879,-0.402187,-0.233987,0.236615,0.456721,-0.181108,0.498565,-0.071567,-0.35864,-0.187242,0.31959,0.0146032,0.237272,0.0625179,0.0863567,-0.303793,0.254809,-0.0824848,-0.235643,-0.31364,0.0605388,-0.0449476,-0.0309487,-0.00625641,0.474667,-0.224654,-0.180269,0.0569684,-0.00884564,0.414273,-0.142932,-0.176419,0.315738,-0.261041,0.364244,-0.0104899,0.372708,0.498251,-0.233025,-0.0722172,-0.146179,-0.465378,-0.20531,0.414692,-0.283555,0.418995,0.388448,-0.36153,-0.308139,-0.247279,0.379744,0.386117,-0.199208,-0.240614,0.281547,0.177354,0.189964,0.15962,0.299426,-0.168261,0.406769,-0.350439,-0.348722,0.490724,0.266621,0.0602096,-0.292162,0.0963656,0.418171,-0.0357204,-0.494414,-0.287923,-0.335113,0.140787,0.426843,0.0516746,-0.0403779,-0.240581,-0.108759,0.418166,-0.39183,0.0361255,0.198582,0.0737668,-0.408416,-0.201499,0.196248,-0.368874,0.0860639,0.142001,0.406426,-0.182891,-0.146886,0.249923,-0.124106,-0.0944003,-0.246072,0.0866258,0.0747283,0.0939123,0.00769294,0.0305268,-0.19356,0.110585,-0.15231,-0.142342,-0.44735,-0.265489,-0.418899,-0.417848,-0.487937,0.0650076,-0.135724,-0.270133,-0.347467,0.0498711,0.0452659,-0.268306,-0.345083,-0.180206,0.37285,0.347772,0.261516,0.450752,-0.484563,-0.1113,-0.323156,0.202858,0.476942,0.090661,0.0465424,0.298102,-0.216893,-0.0946338,0.100541,0.16093,-0.318009,-0.0677961,0.240842,-0.0576606,0.308937,-0.438917,0.182687,-0.235929,-0.438264,0.344077,-0.442072,0.429801,-0.304096,0.0474048,-0.348169,-0.161479,-0.343668,-0.133684,0.426734,-0.237035,-0.239647,-0.0258526,-0.187868,-0.269548,0.0933231,-0.0363874,0.368763,-0.125593,0.382533,0.119992,-0.0127896,-0.448989,0.0810482,0.0963677,-0.319594,0.0173122,0.0044111,0.0995737,0.135904,0.36388,0.471446,-0.173076,-0.239915,0.016136,-0.130169,-0.299041,0.462002,-0.133025,-0.439546,-0.109787,-0.359576,0.496807,0.0744093,0.118574,-0.343661,0.117189,0.159839,0.213971,0.104764,0.215447,0.485749,0.298757,0.299807,-0.206965,-0.16498,0.423162,0.427405,0.0391787,-0.0402566,0.0666281,-0.363258,0.109544,0.181087,-0.0293897,-0.234547,-0.194046,0.353401,0.0712285,-0.465312,-0.394592,0.0330348,0.0260176,0.239667,0.363486,0.310565,0.122063,-0.289582,0.238771,0.401928,-0.0652166,0.135886,0.191584,0.46308,0.472073,0.0187353,0.085704,-0.0316183,0.0818014,0.00353548,0.475836,0.317363,0.411202,-0.226868,-0.436499,0.393903,0.443639,0.122224,-0.230477,-0.0934159,-0.117989,-0.46751,0.34813,0.208693,-0.08728,-0.124874,-0.498204,0.290831,-0.222158,-0.274798,0.234325,0.254179,0.35958,-0.0305225,-0.246872,0.017043,-0.440779,0.127921,0.00917628,0.0082564,0.483972,-0.162865,0.0323829,-0.344223,0.307103,-0.235873,0.321459,-0.20561,0.449883,0.342634,0.142635,0.27315,0.122526,0.430958,0.139902,0.383039,-0.22577,0.439455,0.446278,0.113755,-0.249105,0.328119,0.353789,-0.486277,0.324177,-0.447163,-0.038879,0.447955,0.0913841,0.389395,0.315051,0.333947,-0.138661,0.201795,-0.494142,-0.0336512,0.3431,0.193173,-0.413657,-0.346044,0.0402479,-0.493924,-0.428225,0.314703,-0.344073,-0.0650764,-0.237801,0.45993,0.272046,0.0962198,-0.465554,0.487309,-0.116973,-0.261492,-0.017489,-0.112095,-0.0560114,0.432011,-0.0563974,0.407485,0.313743,0.0719896,0.0210906,0.000300502,-0.13144,0.159818,-0.052218,-0.384077,0.103308,-0.401191,0.277165,-0.494331,0.225903,0.016721,-0.422901,-0.470369,-0.488598,-0.0135279,-0.377098,0.0285049,0.196455,0.0616887,-0.301712,-0.352715,-0.230244,-0.498091,-0.38159,-0.0836131,0.221512,-0.0490358,0.210379,-0.337447,0.0180784,0.476778,-0.0081358,0.0593788,0.465189,-0.253588,-0.274417,0.0187704,-0.363516,0.400944,-0.117269,-0.366529,0.408177,-0.209089,-0.221948,0.0225556,-0.204414,-0.293429,-0.182169,0.266742,-0.369533,0.380038,-0.0536014,0.309182,-0.301974,0.127583,0.012657,-0.13718,0.312845,0.366613,0.292141,-0.175632,-0.351057,-0.465842,0.391018,0.455739,0.0557325,-0.0821491,0.0212515,-0.0350832,-0.21845,0.355731,0.239229,0.112227,-0.143013,-0.486519,0.265439,0.360505,0.290056,0.443868,0.482644,0.46644,0.150746,0.412798,0.490149,-0.49784,-0.0767122,0.25629,-0.147631,-0.457326,-0.257038,0.314528,-0.226776,-0.47502,0.409489,-0.191092,-0.127747,0.0619595,-0.154335,-0.20504,0.0986947,0.286253,-0.451963,0.447875,-0.0511937,0.0446966,-0.108961,0.372501,-0.282969,-0.444933,0.236844,0.323289,0.026378,0.30258,0.0346757,0.20957,0.499615,0.448874,-0.13966,0.377714,0.138848,0.214631,0.112366,0.043081,0.0495218,-0.378427,-0.486112,0.418928,-0.0299124,0.496401,0.298801,-0.468859,-0.360321,0.356002,-0.346122,-0.231116,-0.153364,0.262536,-0.404642,0.242534,0.369409,0.488705,0.152291,0.417156,0.408342,-0.172543,-0.0610991,-0.163907,0.303526,-0.281828,0.48071,-0.164477,-0.168459,0.439038,0.231061,0.304317,-0.122781,-0.340086,-0.0944074,0.0467459,-0.214829,0.0921505,-0.222984,-0.233343,-0.19216,0.207397,0.280709,-0.296668,-0.264436,0.0770202,0.407346,0.238529,-0.286723,-0.0622745,0.0207635,0.224448,-0.412407,-0.0356775,0.145247,-0.162552,0.104894,0.123786,-0.142531,0.225393,-0.209268,-0.338317,0.184276,0.394717,0.0534026,-0.421343,-0.408789,0.432322,0.0495224,0.309287,-0.303697,0.127937,0.304174,-0.336369,-0.165509,0.25733,-0.0345839,0.500128,0.160586,-0.221158,0.0302311,0.290595,0.200526,0.310208,-0.0813143,-0.445124,0.142661,0.259922,0.0514072,0.335361,0.000121781,-0.433519,-0.265423,-0.422709,0.454423,0.258412,0.179057,0.0735481,-0.116973,0.222202,-0.046182,0.289119,0.0146576,0.410548,-0.0938729,-0.0554757,-0.428014,-0.0245695,-0.294178,0.351395,0.00877636,0.00601444,0.195916,-0.397351,0.457903,0.205237,0.0300139,0.374788,0.165629,0.470894,-0.0597525,0.457614,0.105323,-0.298537,-0.438727,-0.470261,-0.250392,0.389546,-0.106454,-0.199716,-0.151909,0.0848418,0.14704,0.241168,-0.440183,0.118588,0.126434,0.449936,-0.240663,0.159689,-0.487887,-0.0149053,0.0682608,0.228536,0.0795022,-0.355243,0.232855,0.0850509,-0.241414,-0.215193,-0.406265,-0.352325,0.0752185,-0.00205621,0.458571,-0.420591,0.342633,0.145848,0.199942,-0.175218,0.0815143,0.199807,-0.437053,0.275668,0.0537244,0.117148,-0.115415,0.280511,0.398945,0.000114406,-0.279,-0.414063,-0.342609,0.428395,-0.179142,0.00388491,0.0519394,0.0388288,0.0111206,-0.0395039,0.396774,-0.206775,-0.240304,0.290653,-0.318487,-0.154214,-0.0819734,0.456466,-0.220479,-0.224663,0.0220424,0.035352,-0.110844,0.425311,0.078781,0.310059,-0.250856,-9.44985e-05,-0.162219,0.439493,-0.0303586,0.189933,0.121211,-0.305041,0.00543724,-0.0239755,-0.314537,0.220519,-0.0255021,0.351614,-0.435035,0.424124,-0.108833,-0.498385,0.151316,-0.0207514,-0.145633,-0.306865,0.215389,-0.209855,0.264768,0.150058,-0.342059,0.491903,-0.476043,0.464671,0.143239,0.397456,0.219815,-0.258454,-0.066036,-0.036944,0.48578,-0.361759,0.13999,0.0319633,0.379785,-0.305393,-0.328595,0.139009,-0.343248,-0.280946,-0.0900314,-0.272908,-0.200535,0.283526,-0.262006,-0.352939,-0.280461,0.185535,-0.268834,-0.255555,0.249431,0.290502,0.303064,-0.406391,0.295751,0.42403,0.307088,-0.219969,0.347894,0.473652,0.125999,0.149136,0.440248,-0.406304,-0.159231,-0.165419,0.358123,0.343667,0.343453,-0.0229165,-0.0195938,-0.343352,0.37505,0.101967,0.377652,-0.372969,-0.40276,0.279903,-0.0824439,0.264215,0.491128,0.324886,-0.0211628,0.136568,-0.0573135,-0.474224,0.344205,0.00264326,0.0986211,0.0336113,-0.0347606,-0.390984,-0.0908803,-0.265695,0.385831,0.295251,-0.147088,0.476848,-0.401177,-0.456431,0.19356,-0.409474,-0.00825896,0.359913,-0.0530959,0.485568,0.288681,0.193152,-0.466618,0.398797,-0.312176,-0.467658,0.37988,0.438106,0.438968,-0.41713,-0.0969606,0.153485,-0.157593,0.223215,-0.30207,0.391754,0.115034,-0.0158363,0.417573,0.153347,-0.113928,0.327219,-0.364429,-0.4151,0.113062,0.363932,-0.435429,-0.0640586,0.120775,-0.241374,-0.030749,-0.427961,-0.239754,-0.069386,-0.205185,0.0890962,-0.207707,0.120486,-0.0264082,-0.386941,-0.11358,0.151543,-0.105314,-0.149624,0.412476,0.394746,0.418046,0.108171,-0.409953,0.16019,-0.471067,0.368689,0.49033,-0.213936,-0.0950776,-0.373952,-0.01569,0.429293,0.0612618,0.154044,-0.363868,-0.147295,-0.458052,-0.485828,0.107367,-0.309487,0.0486137,0.295103,-0.248607,-0.334187,0.131064,0.482815,0.391069,0.244609,-0.0305181,-0.43675,0.0551344,-0.179793,-0.185045,0.0956073,0.307041,-0.381071,-0.233085,-0.283521,-0.0714547,0.232088,0.256372,0.113499,0.468236,-0.466434,-0.369235,-0.259735,-0.147777,-0.398916,0.168799,0.399047,-0.0516026,-0.116522,-0.12985,0.0935446,0.370624,0.00665367,-0.18427,0.0755347,-0.164152,-0.129789,-0.0264054,0.144942,0.280492,0.389302,-0.422293,-0.156089,-0.17228,-0.158604,0.248117,-0.47919,0.0631623,-0.232119,-0.38744,0.334667,0.0132349,-0.455692,-0.0246311,-0.220609,-0.375346,0.450805,-0.25279,-0.229634,0.122593,0.225815,-0.321152,0.368307,0.083643,0.350795,0.361488,0.181349,-0.0425905,-0.231484,0.184344,-0.321682,0.434618,-0.184746,-0.330613,0.384663,0.11864,-0.358885,0.0838434,0.0368513,-0.455928,0.167913,0.24479,-0.103805,0.455359,-0.150695,0.492248,-0.426587,-0.0898394,-0.184737,-0.169362,0.206176,0.496735,-0.19834,-0.229771,0.441288,-0.475353,-0.127404,0.2152,0.00790381,-0.43535,-0.00958054,0.318888,-0.257855,0.388613,-0.200556,0.341863,-0.0903744,0.390877,-0.321711,-0.378114,0.307759,-0.0102444,-0.469239,-0.0273432,-0.372939,-0.267436,0.211463,0.201042,0.278889,-0.0108478,0.488163,0.0771144,-0.481052,-0.390942,0.412771,0.235757,-0.329992,0.337005,0.0178151,0.456753,0.270969,0.0205371,0.0186702,0.442581,-0.19103,-0.0981437,-0.160531,0.11053,0.149111,0.0730266,-0.0928602,-0.00634775,0.0722871,0.357992,0.372174,0.157749,-0.144104,-0.0906901,-0.371341,-0.35105,0.465699,-0.135523,0.470062,0.383433,-0.175421,0.363097,0.194024,-0.444772,0.230159,0.458941,-0.226917,0.0312609,0.468636,0.37675,-0.0823806,-0.247213,0.445675,0.345589,-0.132928,0.294318,-0.355728,-0.16942,-0.307479,0.0495813,0.119533,0.402287,0.439847,-0.258095,-0.0932688,0.206925,-0.0294935,-0.360655,0.403358,-0.429107,-0.0442092,-0.325754,0.132378,0.429026,-0.143327,-0.204218,0.0739779,-0.411127,0.471268,-0.351642,-0.0054976,0.229841,-0.225225,0.101339,0.363378,0.0555847,0.0782499,0.397652,0.0683655,-0.3307,-0.211108,0.290469,-0.207686,0.389308,-0.114819,-0.488268,0.325281,0.160599,-0.0801452,-0.411202,0.318742,0.14279,0.483397,0.147829,0.0633698,0.377547,0.344212,0.267598,0.394883,0.403256,0.3416,0.0446958,-0.368943,0.346172,0.203251,0.433134,-0.434115,0.399047,0.360243,-0.290845,-0.340392,-0.364872,-0.420163,-0.186396,-0.0690211,-0.360244,-0.365358,-0.238281,-0.402738,-0.135331,0.0471304,0.258505,0.189453,0.203344,0.115181,-0.283869,-0.0500316,0.0785981,0.303959,0.161351,0.0244029,0.29789,-0.109997,-0.279279,0.029662,0.0500582,-0.291228,-0.136146,0.193219,-0.321487,0.0145059,0.4431,0.422706,0.129255,-0.329917,-0.0396673,-0.437184,0.0540669,-0.471086,0.229538,-0.0294718,-0.377149,-0.483316,-0.0414855,0.231895,0.495331,0.363721,-0.368456,-0.352323,-0.378412,-0.477207,0.415545,0.489934,0.41142,-0.377833,0.109031,-0.424156,0.281468,0.22677,-0.253781,0.0301162,-0.333158,0.288031,-0.465522,-0.109702,-0.148998,-0.0122997,-0.335577,0.311226,0.456816,-0.167221,0.337198,-0.210695,0.127471,-0.478701,-0.465257,0.32901,0.319117,0.199441,0.238271,-0.0175931,0.341448,0.439711,0.387991,0.262712,-0.417069,0.485475,-0.0120081,0.322637,-0.227074,0.3391,0.372522,-0.454385,0.301819,-0.09579,0.445663,0.22268,-0.108449,0.296909,-0.000312545,-0.383401,-0.0399104,-0.448935,-0.190403,0.171536,0.217204,0.462245,-0.0278916,-0.225458,-0.181105,-0.146367,0.361761,-0.156251,-0.33675,-0.300424,-0.321097,-0.0636393,-0.300028,-0.0444008,0.161339,0.0390706,-0.0601321,0.246024,0.00461421,0.111727,0.450583,0.165085,-0.44935,0.399285,0.0419138,0.386037,0.394005,-0.0824425,-0.0827615,0.34771,-0.034993,-0.102574,0.0407457,-0.406786,0.104627,0.0729956,0.472548,-0.2576,-0.246328,0.481852,0.0459597,-0.0997277,0.198841,-0.273525,0.14761,0.265345,-0.305192,0.176875,-0.455506,0.340312,-0.177699,-0.0702412,0.40306,0.098227,0.306355,0.489912,-0.149965,-0.0605861,-0.218746,-0.0311802,-0.46823,0.195216,0.157518,-0.442967,-0.0537229,0.186073,0.280402,-0.146585,-0.343594,-0.13889,0.0089891,-0.394764,0.320778,-0.0168055,0.0299105,-0.44707,0.158496,-0.368066,0.100012,0.321453,-0.37611,-0.258343,0.449773,0.224907,-0.0675945,0.202516,0.426706,0.152052,-0.495831,0.330772,-0.488007,0.159993,-0.471277,-0.100739,0.093433,-0.442166,-0.241519,-0.286698,-0.189016,0.0873081,-0.339343,-0.382412,0.427845,-0.496944,-0.413641,-0.314284,0.366877,0.234044,-0.177699,0.2068,0.319619,0.128647,-0.0312634,-0.172489,-0.0934245,-0.099083,-0.436974,-0.266776,-0.372916,0.05688,-0.12429,-0.108899,0.402595,-0.418797,-0.0518138,-0.283806,0.287278,-0.0244833,-0.436763,-0.178974,0.387266,0.0434297,0.11379,0.0389713,-0.486704,-0.0384244,0.0275859,-0.302544,0.38695,-0.436732,0.00869359,0.0521277,0.272065,0.0258448,-0.0649664,-0.330017,-0.395843,-0.0926024,-0.399655,-0.0132801,-0.419932,0.343602,-0.463522,0.069151,-0.0945931,-0.466334,-0.44924,0.189291,-0.116542,-0.146525,0.185585,-0.114261,-0.444566,0.425568,-0.354598,-0.287511,-0.0706196,-0.0790098,0.251691,-0.371925,-0.217513,0.33544,0.141257,-0.48788,-0.303234,-0.36372,-0.339093,0.202839,0.263619,-0.352022,0.483998,-0.390794,-0.408473,-0.166701,-0.483783,0.221338,0.448312,0.206082,-0.122012,-0.387955,-0.385376,-0.0385237,-0.387468,-0.108115,0.360486,-0.463053,0.0522685,-0.325654,-0.21464,-0.3337,-0.246178,-0.428205,0.123637,-0.402357,0.18093,0.168424,0.147016,-0.368287,-0.218989,0.429998,-0.442262,0.45016,-0.174709,-0.332068,0.35674,-0.302347,0.33966,-0.155455,-0.331475,0.0859197,-0.0477986,0.113989,0.0385873,-0.416008,-0.245217,0.336213,0.284481,0.128081,0.0455169,-0.305393,-0.176401,0.00687711,-0.313791,-0.100326,-0.42254,0.0234146,-0.273504,-0.286531,0.410247,0.433037,0.0230654,0.279551,0.383107,0.0651573,0.215673,-0.24492,0.350616,0.467229,-0.105737,-0.347486,-0.253598,-0.395803,-0.155981,0.134224,-0.39978,0.473719,-0.37506,0.344703,-0.365395,0.392455,-0.134255,-0.495384,-0.194777,-0.236206,0.194999,-0.240291,-0.377543,-0.176234,0.158997,-0.0536132,0.496432,-0.348629,0.0749147,-0.0337884,0.0865516,-0.288596,-0.070115,0.165187,0.0401786,-0.449906,0.15555,-0.323014,-0.255599,-0.349146,0.239081,-0.0657967,-0.226731,0.401624,-0.198365,-0.17368,-0.386234,0.339927,0.214746,-0.402713,0.369194,-0.0761467,0.106202,0.336495,0.18395,-0.428491,0.3984,0.393591,0.0138272,0.150509,0.0296785,-0.328066,0.265472,-0.333809,0.423629,0.269758,-0.335031,0.249422,0.0269141,-0.19247,-0.0215537,0.252235,0.112738,0.231136,0.353111,0.292611,0.387133,0.37637,0.105446,0.0242503,0.458989,-0.179712,-0.412864,-0.20475,0.118976,0.219974,0.21703,0.324873,0.319949,0.208655,-0.439871,-0.240938,-0.282793,-0.459312,-0.166245,-0.228126,0.1475,0.150036,0.356667,0.403154,-0.0829702,-0.112566,-0.242814,0.383145,-0.187162,0.0160062,0.3875,0.094188,-0.449653,0.238922,0.232606,-0.438369,0.251964,0.457432,0.217344,-0.405185,-0.183379,-0.143991,0.446956,-0.00130048,-0.366045,-0.214207,0.350683,-0.0782594,-0.272201,0.493136,0.0519422,-0.453985,0.387868,0.403935,0.140985,0.121505,-0.240513,-0.184363,-0.241108,-0.269387,-0.449278,0.105238,0.449143,0.100491,0.0943931,-0.392697,0.22042,-0.248955,0.321624,0.258469,0.258121,0.486812,0.0307825,0.184059,0.172813,-0.398452,0.055131,0.248347,0.478349,0.0410776,0.190992,-0.119871,0.361553,-0.112854,-0.296846,-0.380185,0.112336,-0.339848,0.428471,-0.457584,-0.343689,0.345024,0.224497,0.335399,0.200016,0.49391,0.17463,-0.113513,0.403707,0.378441,0.189693,-0.296896,0.497583,-0.0117955,-0.237008,-0.323503,0.478409,0.171593,-0.212554,0.200088,-0.416254,-0.0180105,0.38968,-0.000320574,-0.332616,-0.44526,0.322576,0.254155,0.335365,0.269552,0.411861,0.073769,-0.0657325,-0.382717,0.437353,0.499567,-0.0640784,0.346888,0.31794,-0.144099,-0.413753,0.394351,0.21397,0.0247616,-0.148615,-0.100164,0.493862,0.324358,0.224696,0.346639,-0.186368,0.134763,0.0337243,0.47002,0.330455,-0.0623914,-0.47601,-0.377005,-0.421797,-0.0570281,0.313714,0.0478007,0.0212455,-0.010123,-0.488008,0.220854,0.235407,-0.153156,0.171779,0.024394,0.238797,-0.11842,-0.497916,0.421767,0.183023,-0.252876,-0.329413,0.46757,0.208258,0.410443,0.429753,0.40979,0.101724,0.0838531,0.474692,0.105709,-0.316854,-0.056844,-0.238175,-0.394772,-0.309883,-0.0534799,0.364516,0.484398,-0.252845,-0.403532,0.200211,0.284735,-0.456004,0.139995,-0.084134,0.252586,-0.0687304,0.488511,0.299115,0.417447,0.0257656,0.339982,0.100484,0.278939,-0.466718,-0.371263,0.412853,0.193797,-0.411149,-0.434277,0.306833,-0.17434,-0.20643,-0.29378,-0.266754,0.0642299,0.0465794,-0.172144,0.26888,-0.265731,-0.406158,0.250205,-0.20692,-0.128656,-0.0227292,-0.152234,0.187964,0.172551,0.3075,-0.340814,-0.0924206,-0.112971,0.0987265,0.425494,-0.329494,-0.350653,0.394131,0.487662,-0.253951,-0.2536,0.04267,0.433432,-0.340088,0.412578,-0.216807,0.0325873,-0.00856215,-0.336691,0.211887,-0.487968,-0.0274456,0.247605,0.436887,-0.349356,-0.210845,0.171311,0.224326,0.0335328,-0.262634,-0.0659193,-0.0536019,0.444208,-0.039889,0.19878,-0.385228,0.273315,0.46634,0.00875145,-0.25573,0.276707,-0.0969317,0.0920763,-0.0485629,-0.173705,-0.345439,0.120316,0.48974,0.306802,0.391047,0.375629,-0.413092,0.23787,0.404991,0.128781,-0.497531,0.185691,-0.371834,0.153104,0.244097,0.378685,-0.208654,-0.398376,0.22351,0.00206082,0.145644,0.104753,-0.293337,-0.29155,-0.386291,0.310472,0.140879,-0.312584,-0.443257,-0.454121,-0.26639,0.105087,-0.229859,-0.37944,0.0463526,0.379247,0.0746154,0.2867,0.345472,-0.000499173,0.247796,0.121409,0.241019,0.320486,0.376485,0.206387,-0.0735601,-0.128251,0.183353,-0.426333,0.398066,-0.497321,-0.0258606,-0.447773,-0.431463,0.178631,0.266395,-0.0352008,-0.120362,0.0201076,0.096042,0.174852,-0.178385,0.263631,-0.236233,-0.298491,-0.269399,0.196609,-0.343104,0.417361,-0.358996,0.162381,0.0225161,-0.343802,-0.103984,-0.218112,0.419001,0.313062,-0.247375,-0.174691,0.342474,0.422175,-0.154451,0.142346,-0.448613,-0.271741,-0.252524,-0.0969928,-0.347196,0.436837,0.389482,0.0212308,-0.170324,-0.119047,0.0340198,-0.247675,-0.150074,0.428089,-0.439655,0.369353,0.131395,0.313516,-0.106577,-0.020736,0.335129,-0.248803,0.453264,-0.123348,-0.248455,0.0546883,0.282467,-0.0844914,-0.22089,0.443963,0.197232,-0.471405,0.279198,-0.0020575,-0.100368,-0.211618,0.2526,-0.446786,-0.11463,0.0806325,0.472441,0.0963294,0.242251,0.0970554,0.329678,-0.489588,0.469036,0.212605,-0.154406,-0.421397,0.372149,-0.289857,0.146595,-0.465651,0.421766,-0.474293,0.219584,0.291099,0.430149,-0.407993,0.183518,0.0583527,-0.487772,0.28666,0.457294,0.363921,0.0970361,-0.476748,0.0192135,0.038343,0.192314,-0.0192534,-0.306148,-0.331976,0.352188,-0.393626,-0.250392,-0.256254,-0.122701,-0.263582,-0.286435,-0.27298,0.311009,0.00303811,-0.379496,-0.323839,-0.396447,0.261325,0.388233,0.175824,-0.213402,-0.246024,0.0560772,0.276491,0.225027,0.252357,-0.259315,-0.268196,-0.0282976,-0.152459,0.260234,-0.482534,-0.332782,0.30007,0.0194518,-0.411985,0.17861,0.305344,0.363004,-0.117184,0.312926,0.233023,0.241629,-0.204065,0.441171,0.143844,0.153164,-0.312902,-0.0965855,-0.331352,-0.283014,0.24844,0.0693744,0.0481259,-0.0313935,-0.390817,-0.223536,-0.468653,0.272361,0.345005,-0.331559,-0.430125,0.468931,0.408896,-0.243064,-0.295186,0.39747,-0.423574,0.129456,-0.48511,-0.390181,-0.0490263,-0.303085,-0.061906,0.148975,-0.194023,0.482348,0.275129,-0.499059,0.0307535,-0.264426,0.481713,-0.20507,-0.225475,-0.0452284,-0.0221268,0.120907,0.306203,0.149773,-0.322193,0.345176,-0.00620382,0.34886,-0.147284,-0.0511723,0.236629,-0.0220128,0.0310454,0.0513571,-0.0861466,0.286896,-0.312834,0.0914474,0.31455,-0.305629,0.452816,0.0951817,-0.354982,-0.161505,-0.476147,-0.4197,0.0125366,0.472139,0.0366017,-0.268625,-0.255042,0.276048,-0.330559,-0.385732,0.300506,0.0503509,0.0568173,0.374751,0.443413,0.343258,-0.112084,0.237127,-0.265238,-0.19846,0.0543449,0.150477,-0.00134236,-0.426212,0.308719,-0.196613,-0.110997,0.412943,0.141944,0.286592,-0.264152,-0.201754,-0.397589,-0.444917,-0.387381,-0.250194,-0.167184,-0.339397,0.197704,0.0775326,-0.224799,-0.216825,0.486754,-0.346362,0.389982,0.30409,-0.47873,-0.441071,0.149382,-0.0646526,0.494683,0.122627,0.168715,0.126563,-0.172087,-0.365306,-0.408632,-0.498464,0.375867,-0.0746215,-0.463495,-0.15674,-0.00924126,-0.392312,0.43573,-0.125408,-0.0336138,-0.222336,0.20004,-0.18609,0.344899,-0.278797,-0.125867,0.231038,-0.173493,-0.120057,0.209987,0.0844743,0.173649,0.225463,-0.114605,0.315503,-0.441872,0.379755,-0.196134,0.164761,0.143774,-0.384987,0.0588483,-0.310001,0.003948,-0.479489,-0.115423,0.212564,-0.125746,0.383498,-0.452607,0.000210599,0.393848,0.141611,-0.480541,0.260226,-0.175994,0.199621,0.282619,-0.0947753,-0.0178281,0.284661,0.247673,-0.303583,-0.169426,-0.119029,0.381044,0.343487,-0.458117,-0.0898956,0.446967,-0.0798099,-0.256444,0.165469,0.131268,-0.0998422,0.0582044,-0.280135,0.284372,0.444916,-0.4962,0.298588,-0.328347,-0.44917,-0.0577006,-0.11238,-0.0503744,-0.0805689,-0.442562,0.345083,0.402118,0.377873,0.0847028,0.0347902,0.149211,0.0043273,0.336847,0.214899,0.117396,-0.499102,-0.347438,-0.106528,-0.456115,0.466861,0.471416,0.233011,0.473546,-0.453143,0.416977,-0.336698,-0.0400267,-0.10062,-0.446315,0.248776,0.383118,0.277933,-0.109172,-0.38713,0.0185921,0.340406,-0.109653,0.437775,0.152308,0.497385,-0.297586,-0.499475,0.0579693,-0.0942282,-0.389386,0.0734996,0.124919,0.0185422,0.0944845,-0.314194,-0.313029,-0.0198407,0.234472,-0.198946,0.0581121,-0.482193,0.146192,-0.430963,-0.0709401,0.140538,0.294947,0.31136,0.13134,0.213865,-0.266462,-0.151703,0.345386,-0.295136,-0.258851,-0.352149,-0.252176,-0.138517,-0.11903,0.260135,-0.203329,-0.494695,0.187913,-0.239845,-0.0360504,0.458958,-0.389468,-0.472764,-0.172456,0.246774,0.0675363,-0.353172,0.0675236,0.0385236,0.25011,0.473738,-0.042758,-0.22458,0.0351276,-0.248074,-0.271225,0.000678114,0.0202464,-0.265215,0.405226,0.132534,-0.308808,0.0146862,0.153579,0.35801,-0.0335873,0.153241,0.493053,-0.230635,-0.168681,-0.480225,-0.0164679,-0.463707,-0.439975,-0.0282133,0.347492,-0.0480677,-0.273516,0.100969,-0.377944,0.427624,0.215324,-0.434533,-0.39463,-0.324047,0.243448,-0.0264011,0.053817,0.120768,0.442458,0.334108,0.292447,-0.161264,-0.210236,-0.213758,-0.166583,0.116969,0.223413,-0.335467,0.102347,-0.0686821,0.488682,-0.164373,-0.290214,-0.0467501,0.339786,0.429012,0.302834,0.243704,0.239691,0.0493028,0.172835,0.358587,-0.325393,-0.0876281,0.152167,0.0464301,0.442109,0.403061,-0.2313,-0.255152,-0.203073,0.0645295,0.247828,-0.227386,-0.269751,0.357384,0.0147044,0.103327,-0.442111,-0.487186,0.299803,-0.33835,0.0078779,-0.322536,-0.105792,-0.0803749,0.217095,-0.406026,-0.0239388,0.180087,-0.217314,0.325738,-0.354237,0.246129,0.166898,-0.0330222,-0.462411,0.1329,0.0627023,-0.272149,-0.0775289,0.0526676,0.0466099,0.0790212,0.416854,-0.178911,-0.130329,0.0237279,-0.240573,-0.000780079,0.0553243,-0.26974,0.0361796,-0.380537,0.252906,-0.16205,-0.154372,-0.422595,-0.0770179,-0.41631,0.447383,0.185575,0.10417,0.488656,-0.188936,0.100245,-0.10205,0.417603,0.379231,-0.269538,-0.158826,-0.107814,-0.372246,-0.12694,-0.355424,-0.0196511,0.28442,-0.184506,0.142025,-0.438887,0.167614,0.362438,-0.183418,0.111214,0.0713316,0.211369,-0.186568,0.271524,0.0810601,0.471009,0.315834,0.0332539,-0.270417,-0.435313,0.188907,-0.399286,0.0199224,0.161303,-0.0573304,-0.279383,-0.299431,0.0612127,0.039807,0.242711,-0.324223,0.0243806,0.104987,0.0653972,0.295623,-0.200702,-0.0434342,0.489654,-0.243867,-0.118439,0.378495,0.221714,0.472133,0.456903,-0.320516,0.336324,0.183485,0.328713,-0.232844,0.261631,-0.405517,-0.0795119,0.406361,-0.314823,0.0651463,-0.0394089,0.475582,0.393462,-0.311737,0.172484,0.436366,-0.381871,0.398907,-0.113016,0.354861,0.190726,0.00437503,-0.14661,0.455861,0.00453885,0.413077,0.048421,0.173429,-0.176908,-0.156424,-0.163437,0.476804,-0.259478,-0.028052,-0.365759,-0.354507,0.479296,-0.0388167,0.0718249,0.389604,-0.200029,0.108902,-0.150644,0.0372771,-0.0132076,-0.16215,-0.449903,-0.11709,0.465494,0.177077,-0.116851,0.290012,0.198242,0.272953,0.121707,0.40623,0.464711,0.172087,-0.201685,-0.243324,0.463233,0.374255,-0.426987,-0.139327,-0.0676681,-0.32749,0.154803,-0.227678,0.442535,-0.0780137,-0.366441,0.0423901,0.12025,-0.176493,-0.189995,-0.295404,0.366404,-0.402992,0.0578132,0.129112,-0.178801,-0.0701081,-0.312489,0.333418,0.222944,-0.203785,0.470372,0.000434566,0.0639261,-0.412888,-0.224665,-0.343664,0.316498,0.17543,0.0132177,-0.250146,-0.0868435,-0.394294,0.164993,0.374555,-0.362399,0.0821059,-0.456987,-0.378571,0.392548,0.110953,-0.292365,0.45822,-0.191317,0.435708,0.123481,