0.350684,-0.491901,-0.349365,-0.0531063,0.441919,0.0943625,0.487014,0.430226,-0.28434,0.124715,-0.345985,0.256007,-0.324322,-0.182796,-0.0436459,0.44553,0.188821,-0.167919,-0.306136,0.452532,-0.144733,-0.0821536,0.21738,-0.498929,-0.222001,0.0867112,0.482984,0.157131,-0.448954,-0.47342,-0.0180123,0.279443,-0.388489,0.411835,-0.0188599,0.327652,-0.0501036,-0.103856,-0.382156,0.339339,-0.239208,0.00375401,0.402228,0.13132,-0.48798,-0.400479,-0.314847,-0.327581,0.46337,-0.125014,-0.018551,-0.108748,-0.102356,0.144499,0.170706,0.203545,0.0194515,-0.242094,0.24516,-0.251338,0.304245,0.427166,0.446128,0.111982,-0.0713734,-0.0895455,-0.0657998,0.0924542,-0.334529,0.154542,0.215743,-0.303395,-0.171233,0.360314,-0.332041,-0.0447881,-0.0297803,0.370523,0.0891456,-0.390666,0.301664,0.394386,0.314778,0.00821992,0.172656,0.414725,0.430141,-0.483273,0.0102816,-0.366312,-0.0711866,-0.288549,-0.39745,-0.326745,0.427015,0.340739,-0.165473,0.366856,-0.282865,-0.051606,0.371108,-0.396816,-0.0120757,-0.393656,0.363319,-0.159833,-0.249885,0.0177887,-0.442995,0.154063,-0.366972,-0.394025,-0.128078,0.0254665,-0.0184059,0.48961,0.498405,-0.0439479,-0.368983,0.403229,-0.106826,-0.252875,0.188929,-0.477949,0.320451,0.446178,0.059122,0.18536,-0.0888367,0.115652,-0.470148,-0.0755887,0.352782,0.336309,-0.347562,0.1719,0.491545,0.153517,-0.203904,-0.433574,0.0765139,0.483751,-0.211342,-0.241249,0.430973,-0.424076,0.443216,-0.128795,0.209803,-0.463405,-0.184466,-0.215966,-0.0702598,0.369515,-0.139595,-0.386061,0.171566,0.293048,-0.0407574,-0.214531,-0.359154,0.106084,0.289282,0.258789,0.217279,-0.130039,0.103278,-0.331027,-0.0910146,0.338358,0.335713,-0.284967,0.389737,0.453941,-0.140324,-0.305728,0.20207,0.0643164,-0.295839,0.399316,-0.199456,-0.0350246,0.490903,0.199814,0.123216,-0.402166,0.486003,0.188627,-0.307412,0.252974,-0.348056,-0.342765,-0.49265,0.429698,-0.448715,-0.116404,0.486877,0.0338871,0.414627,-0.256745,0.0680605,-0.293557,0.410147,-0.102897,-0.277123,0.477835,-0.153155,0.290057,-0.33229,0.435438,0.401468,-0.19919,-0.37497,0.108326,0.107273,0.213558,0.372929,0.0565131,-0.296452,-0.249181,-0.162511,-0.46947,-0.143326,0.343657,-0.463172,-0.388358,0.0416649,-0.28469,-0.282962,0.316882,-0.0585874,-0.0643425,-0.0676111,0.412506,-0.0528148,0.492023,0.0455983,-0.289556,0.332243,-0.0214692,0.212703,0.165999,0.392736,-0.1227,-0.248998,-0.135916,-0.221879,-0.11359,-0.42544,-0.107616,-0.371591,-0.154189,0.0921344,0.489995,0.317158,-0.112094,-0.293312,-0.315662,-0.0594201,0.374056,-0.336029,-0.192067,0.186848,-0.129843,0.281633,0.415339,0.105266,0.137333,0.224116,0.229525,0.356107,-0.111407,-0.429677,-0.0718662,0.41697,-0.394056,-0.0939749,-0.0971503,-0.0973755,-0.183869,-0.299111,-0.205357,0.35292,-0.474116,0.369667,0.221077,0.238525,0.430311,-0.149885,0.317665,0.493611,0.392665,0.206116,0.211502,-0.37387,-0.0190469,0.302271,-0.496353,-0.0165765,-0.205959,0.358399,-0.405756,0.37788,0.0129413,0.118697,0.487715,0.0606937,0.0183498,-0.246666,0.45615,-0.139018,-0.338445,0.0758123,0.17331,-0.0573535,0.152207,-0.185805,0.216254,0.468006,-0.314392,-0.139955,0.184246,0.138129,0.242744,0.206352,0.288317,0.445891,0.0565106,-0.279889,-0.349153,0.254434,0.0910535,-0.0791943,0.130157,0.459505,0.277751,0.0612566,0.185289,-0.307928,0.139569,0.371734,-0.411965,-0.276668,0.125151,-0.063462,0.413876,0.256158,0.203412,0.221563,-0.112945,0.464058,-0.337776,-0.103043,0.328474,-0.138267,0.281619,-0.171334,-0.243594,-0.0258282,0.233735,0.238123,0.294669,0.0742551,-0.334606,-0.15691,-0.0825496,-0.238175,-0.148083,0.28596,-0.247897,-0.396878,-0.100112,0.214455,0.452089,-0.0546725,0.276104,0.146501,-0.197518,0.336761,0.0957193,-0.417936,0.115236,-0.226693,0.281377,-0.320307,-0.322581,0.331011,-0.211368,0.105154,-0.225802,-0.00900229,-0.291287,-0.159428,-0.324183,0.357995,-0.20988,-0.223473,0.274908,-0.460219,-0.127617,0.272479,0.0815243,0.388598,-0.0431004,-0.321089,-0.203546,0.497456,0.244663,-0.181192,0.28286,0.323178,0.212382,-0.164305,0.460514,0.116455,0.107318,-0.156133,-0.0531539,-0.451991,-0.150822,0.324374,-0.392461,0.313873,0.281425,0.262159,0.0977293,0.0813725,0.213976,-0.378422,0.455844,0.238415,0.076642,0.414956,-0.387375,0.454787,0.24889,-0.43155,0.111577,-0.164747,-0.207559,-0.0547195,0.00447096,0.384984,-0.183778,-0.369492,-0.18856,0.253622,0.217626,-0.201911,0.185799,-0.366396,0.111091,-0.392054,-0.177318,-0.0967434,0.0937899,-0.244738,0.130123,0.0362319,0.228633,-0.171385,0.142446,0.341714,-0.177134,-0.318394,-0.149649,0.0320426,0.0828735,0.458084,-0.420683,-0.061839,0.18818,0.476702,-0.496064,-0.185148,-0.453936,-0.280038,0.0581353,-0.0751903,0.476672,0.201424,0.00606429,0.111761,0.221746,0.22202,0.179944,0.0915302,0.372674,-0.346836,0.347575,0.439052,0.178805,-0.101341,0.182154,-0.470486,-0.00126787,0.0536776,0.364101,-0.3237,-0.151345,-0.475613,0.354755,-0.0435794,0.458683,0.0241453,-0.316669,0.217059,-0.0202217,-0.0150633,0.40191,-0.110085,-0.39894,-0.0966517,0.0488307,-0.0229604,0.209908,-0.477667,0.0153763,0.208224,0.258202,-0.299059,0.12384,-0.462108,0.448333,-0.0684898,-0.409851,-0.306244,-0.330485,0.256723,-0.333543,-0.148435,0.287547,-0.00533348,0.327221,-0.440082,0.126218,-0.0316752,-0.0672516,-0.344064,0.289458,-0.318126,0.174862,0.0670066,0.144453,0.139407,-0.133623,-0.340722,0.077018,-0.124371,0.315422,-0.340023,0.0111613,-0.364298,0.0271728,-0.276052,-0.21595,0.381158,0.317759,0.248507,-0.199036,0.204948,0.298099,-0.472846,0.21805,0.011905,-0.106475,0.106159,0.156053,-0.42034,-0.411947,-0.147702,-0.0480866,-0.433474,-0.215688,0.182943,0.367188,0.406911,-0.0660976,-0.230747,-0.384768,-0.2776,-0.265912,-0.113008,0.248922,-0.484559,-0.457822,-0.475525,0.137978,0.279625,0.455336,0.0559133,0.110274,-0.244519,0.227103,0.120238,-0.469472,-0.253609,-0.109153,-0.39586,-0.444203,-0.251838,-0.0810194,0.335786,0.145795,0.333166,0.472706,-0.308405,0.0744559,0.0141852,-0.312504,-0.413974,-0.492676,0.371133,0.266862,-0.0444969,0.14506,0.0638138,-0.364699,0.460576,0.241706,-0.429871,0.243792,0.429755,-0.445324,-0.0322924,-0.30128,-0.0231859,-0.0245611,0.152906,-0.451396,-0.213277,0.42114,0.140708,0.161152,0.370078,0.271095,0.222174,0.302546,0.00472934,-0.0452432,0.233429,-0.477731,0.212805,-0.453144,0.343557,-0.429809,0.0954626,0.261173,0.00414106,-0.437476,-0.188415,-0.182605,0.163807,-0.165943,-0.307401,0.386474,-0.318188,0.356143,-0.47609,0.158488,-0.0499709,-0.490094,0.178967,-0.434711,0.118516,-0.00879572,-0.193624,-0.0887925,0.167261,0.0338518,0.337652,0.168638,0.199278,-0.283203,0.425276,0.170223,-0.203708,0.488581,-0.30088,0.137355,0.127159,-0.300694,-0.316111,-0.0854084,0.256325,0.156923,-0.0615773,0.408073,0.235994,-0.386893,-0.182001,0.101262,0.279109,0.119339,0.250961,-0.28819,0.254272,-0.347307,0.14246,-0.318229,-0.340919,-0.0680329,-0.423965,-0.121462,0.368426,0.493372,-0.241163,0.42491,-0.251316,0.307118,-0.244955,0.220071,0.0369854,0.145713,0.497641,0.311981,0.273714,0.307713,-0.103726,-0.0615125,-0.00722316,-0.293406,-0.402452,-0.406517,-0.443213,0.471732,-0.152718,0.282761,0.170048,0.0959797,-0.149454,-0.179533,-0.310663,-0.34917,-0.405704,0.373833,-0.222348,-0.436624,0.0788862,0.371499,0.214839,0.322782,-0.212119,0.0860382,0.248637,-0.00232005,0.17921,-0.465443,-0.0504496,-0.306692,-0.145493,0.448608,0.305985,0.0108733,-0.163351,-0.222511,0.157313,-0.271,-0.0797644,-0.140406,0.39118,0.0183711,0.102162,-0.468888,-0.22211,-0.241917,-0.148569,0.0101601,-0.478895,-0.261068,0.256894,0.101704,-0.42026,0.32046,0.172772,-0.317142,-0.207387,-0.120892,-0.147352,0.102634,-0.130049,-0.212378,-0.100297,0.491766,-0.0310769,-0.385726,0.403379,-0.247406,-0.429126,-0.111338,-0.461778,-0.361974,0.0672619,0.276076,-0.404039,0.265941,-0.389771,0.399096,0.49114,0.02812,0.341798,-0.259863,-0.333109,-0.0691094,-0.105266,0.131513,0.441003,-0.126397,-0.186662,0.346226,0.15706,-0.0356489,-0.466765,0.483431,0.25839,-0.368994,-0.160161,0.0603458,0.275958,0.179529,0.022144,0.456274,-0.184667,0.0155472,0.309902,0.084951,0.403077,0.493063,-0.310458,-0.432633,-0.364894,0.0239841,-0.062685,-0.0416471,-0.0707444,0.0203676,0.441859,-0.48219,0.317641,-0.0345905,-0.444975,0.427907,-0.482186,0.405754,0.313912,-0.0795948,0.182513,-0.416746,0.125167,0.0546574,0.449281,-0.270521,0.0416745,-0.302247,0.439944,0.0722009,0.230614,0.345028,0.496745,0.413076,0.429112,-0.178729,-0.34356,-0.350702,0.179609,-0.33066,-0.376405,-0.0851614,-0.401418,0.42272,0.083326,0.245703,-0.396152,-0.145994,-0.437691,-0.253019,0.363753,0.323791,0.405116,0.118245,0.290299,0.272964,0.451134,0.0552539,0.0445574,-0.0746503,0.0945197,0.0230864,-0.142952,0.322823,0.0425954,-0.0689326,0.43164,0.128021,0.00476585,0.366264,-0.0366701,0.343926,-0.43963,-0.357368,0.345407,0.402581,-0.343392,-0.247893,0.0680739,-0.177856,0.0275454,0.263008,-0.36277,-0.473103,0.141202,-0.437944,0.261453,-0.304729,0.292765,0.495888,-0.215158,-0.0270866,-0.0896013,0.246477,-0.222845,0.467224,-0.0841364,-0.407429,0.000598344,0.388005,0.0307867,-0.193967,-0.291101,0.249219,0.340257,0.167273,-0.280042,0.337008,-0.0210467,-0.306722,0.187196,-0.199596,-0.241278,0.288693,0.233276,0.451002,0.429297,-0.34959,0.168435,0.47425,-0.203331,-0.468864,-0.3465,-0.0203966,-0.430849,-0.37047,-0.408095,-0.354823,0.122944,0.258233,0.369899,0.13956,-0.0319224,-0.308594,-0.143278,0.427275,-0.228947,0.401276,0.411323,0.360171,-0.321428,0.425867,-0.0842967,-0.150185,0.160475,0.213662,0.375869,-0.07241,0.0351073,-0.356565,-0.320422,0.494566,0.296469,0.161856,0.385373,-0.177903,0.0970443,-0.393303,-0.23342,-0.220965,0.103338,0.416048,0.36233,0.371109,0.231044,-0.477289,0.387834,-0.486088,0.252008,-0.0865214,-0.478578,-0.0969266,-0.486785,-0.490233,-0.429954,-0.103791,-0.144327,0.491722,0.460886,0.230372,-0.146841,0.360393,-0.424324,-0.378157,0.297142,0.337852,-0.202271,-0.00903806,-0.130035,0.416937,-0.159039,0.24394,0.0583374,0.00242853,0.408974,-0.152455,0.251289,-0.188121,-0.167239,0.259378,-0.330084,-0.0300338,-0.495331,-0.215298,-0.304264,-0.329476,0.446666,0.0534523,-0.133754,-0.257062,-0.169913,0.0662998,-0.0320735,-0.101128,-0.260214,0.157361,0.0370816,0.119244,0.469104,0.400865,-0.116788,0.140668,-0.149587,0.259314,0.207327,-0.0154617,0.452542,0.29104,0.186852,0.249477,0.12688,0.196078,-0.413998,-0.275471,-0.033023,0.341117,0.204213,-0.396438,0.197011,0.450655,-0.251135,0.172423,-0.166913,-0.35743,0.0383909,-0.367004,-0.37064,-0.417104,-0.16952,-0.141097,-0.48232,-0.16562,0.00472666,-0.38644,0.18687,-0.434294,-0.211555,-0.491067,-0.246793,-0.449953,-0.0128523,0.346417,-0.00563988,-0.139552,0.0100509,-0.456169,-0.365744,0.448607,-0.308385,-0.225919,0.322598,-0.272128,-0.351086,-0.15685,-0.226089,0.0163299,-0.301598,0.177713,0.42225,-0.0948357,0.397824,-0.113313,0.477478,0.402907,0.00797197,-0.00862137,0.339941,0.323903,0.0855064,-0.254839,-0.217218,0.0860529,0.0157135,-0.429147,0.345302,0.262144,-0.488053,0.00600207,0.163747,-0.373698,-0.434025,0.26439,-0.455635,0.164561,-0.173697,-0.30531,-0.0392162,-0.0315446,-0.411577,0.110466,0.263782,-0.494092,-0.293615,-0.00049468,-0.0707735,0.0576981,-0.13731,0.0375176,-0.305262,-0.337104,-0.293498,0.398321,0.0616063,-0.424999,0.331791,0.453483,-0.436508,0.0970285,-0.0606215,0.237545,-0.0380524,0.0208239,0.0394248,-0.00597974,-0.329386,-0.428116,-0.220181,0.264237,0.495036,-0.127211,-0.304525,0.0206531,-0.0734859,-0.443189,-0.0201044,0.325556,0.276352,-0.259542,0.412011,0.182006,0.119687,-0.278512,0.379009,0.20272,0.178874,-0.215665,0.305955,-0.0181442,-5.08645e-05,0.197989,-0.251041,0.322734,-0.0718552,0.244781,0.106637,-0.180718,-0.110338,-0.12276,0.206853,0.162413,0.445005,-0.0526342,0.390671,0.288828,-0.418742,-0.107488,-0.147279,-0.303388,-0.449054,0.185018,0.299752,0.162903,-0.132671,-0.334516,-0.429434,0.41479,-0.194983,-0.121769,-0.00800851,-0.303544,-0.0858863,0.498975,-0.398722,-0.411687,-0.345699,-0.37109,0.383678,0.318495,0.383127,-0.130686,0.34855,-0.406011,-0.491713,-0.0563589,-0.406201,0.15162,-0.128105,0.153358,-0.208546,-0.33284,0.169677,-0.239733,-0.474851,0.0376141,-0.3789,0.382366,0.130192,-0.438978,0.383832,0.202799,0.206908,-0.0492607,-0.368283,-0.388595,-0.334391,-0.434402,0.47831,0.256736,0.454919,0.474894,-0.402949,-0.0228069,0.319635,-0.0624251,-0.33824,-0.125161,0.0472262,0.371777,-0.429189,0.167498,0.224449,-0.214382,0.234473,0.373909,0.131266,0.163811,-0.124523,0.472459,0.218838,0.0826477,-0.311695,0.208645,0.381166,0.00886214,0.132618,-0.166717,0.24154,-0.43216,-0.480006,0.143001,-0.280679,-0.262059,0.343884,0.406212,0.475771,0.121048,-0.100607,-0.451702,-0.463974,-0.0140887,-0.342511,-0.341634,0.102617,-0.485768,-0.201608,-0.228414,-0.446825,-0.0417251,0.191974,-0.323785,-0.454183,-0.0904267,0.0340746,-0.341423,0.0907616,-0.496212,-0.355349,-0.209505,-0.0567139,0.235435,-0.245235,-0.43536,-0.0853048,-0.477552,0.0595545,0.119526,0.292559,-0.235461,-0.471656,0.0712608,0.348148,0.00363336,-0.162335,0.424849,0.318269,-0.162565,-0.349748,0.219411,0.121606,-0.411462,0.382344,-0.295635,-0.245885,0.135556,-0.347466,-0.217136,-0.321801,0.329847,0.255048,-0.240332,-0.462907,-0.00489078,0.339544,0.491814,-0.219623,0.276812,-0.311466,-0.155722,0.366303,0.342609,0.0854794,-0.439265,-0.0266726,0.365256,0.331331,0.277476,0.491644,0.426796,-0.157263,-0.0354539,0.190656,-0.463107,-0.241829,-0.461468,0.252272,-0.49786,-0.0391621,0.319875,-0.0496602,0.106432,0.161249,0.39203,0.133113,-0.494244,-0.282583,0.0748744,0.464638,-0.0816585,0.0139252,-0.0744824,0.018114,0.0892487,-0.147109,-0.16329,0.422299,0.307842,0.290466,0.488222,0.0860473,0.448485,0.168369,-0.300468,-0.213908,0.405289,-0.285848,-0.44111,-0.438619,-0.292038,0.278092,-0.0369629,-0.356165,0.109261,0.0537374,-0.00538984,-0.319145,0.0665105,0.038986,0.312353,-0.4892,0.429934,0.42862,0.296483,0.202347,-0.063469,-0.306041,-0.199983,0.440571,-0.263009,0.409195,0.0201459,0.415335,0.221895,0.465784,-0.175592,0.156204,-0.454556,0.0586451,0.360223,-0.00221184,-0.417513,-0.320489,0.344235,0.0153122,0.368128,0.074916,0.00771306,0.165313,-0.00730919,0.35745,-0.361949,-0.273824,-0.0815852,-0.42164,0.320085,0.36719,0.0663346,-0.237441,-0.422355,-0.201757,-0.287348,0.457505,0.411866,-0.306762,-0.0227961,0.355072,0.227901,0.458724,0.0982169,-0.210834,-0.35029,-0.246576,-0.214896,0.36031,-0.199589,0.407508,-0.135141,-0.117024,0.030615,0.404118,0.153888,0.47082,0.0141092,0.102005,-0.48045,0.430672,-0.30797,-0.0573201,-0.179706,-0.410409,0.0504205,-0.404156,0.483688,0.112137,-0.0790356,0.212481,0.311026,0.141612,0.254287,-0.295321,0.447115,-0.281957,0.253749,-0.359368,-0.167982,-0.493101,0.234179,-0.496463,-0.470937,0.131256,-0.118071,0.025237,0.07087,-0.2059,-0.464551,-0.454741,-0.392834,-0.139116,0.34115,-0.0150214,0.10629,0.205223,-0.159989,-0.236865,-0.255459,0.105614,0.0800371,0.0124796,-0.174567,0.312546,0.309406,-0.40369,0.451253,0.307492,0.190538,-0.243424,0.321846,0.261996,0.211845,0.407244,-0.182335,-0.113818,-0.426719,0.292457,-0.18607,0.0221486,0.401643,-0.471686,-0.249436,0.126018,0.249772,0.0724243,0.221332,-0.0182185,-0.0785545,-0.343671,0.496589,-0.0106182,0.200692,0.483534,-0.152111,-0.299985,-0.143035,0.123695,-0.197579,-0.475418,-0.299741,0.287215,0.255899,0.214265,0.164824,0.233837,-0.400433,-0.270913,-0.0650362,0.0281544,-0.246226,-0.03839,0.333773,0.408537,0.132223,-0.159267,0.172979,-0.240171,0.138269,-0.151696,0.145423,-0.199514,-0.273388,0.471358,0.438713,-0.491646,-0.0301912,0.10137,0.0487895,-0.414151,-0.0343694,-0.422562,0.016222,0.288455,0.138209,0.322777,0.489128,0.21452,0.218418,0.285966,0.329661,0.279609,-0.395261,0.385763,0.412906,-0.449096,-0.301493,-0.471385,0.368136,-0.0657608,-0.42193,0.0540844,-0.0368696,0.0582059,0.309271,-0.0241757,0.357486,-0.419927,-0.38295,0.0353565,-0.0625848,-0.441469,0.304833,-0.158117,-0.261462,0.242509,0.404678,0.257631,-0.303835,-0.451451,0.395086,0.0929195,0.417351,-0.482107,-0.0238774,-0.0242959,-0.0665029,-0.410147,-0.342713,0.451737,0.340489,-0.47952,0.289761,-0.381514,-0.218211,0.133222,-0.440616,0.242705,0.379048,-0.351235,-0.388408,-0.450415,0.193169,0.459826,0.120532,0.287672,-0.228736,-0.387682,-0.0757261,0.389106,0.0828842,-0.0425195,-0.392425,0.153176,0.171789,-0.0618416,-0.25625,-0.405467,-0.29259,-0.364162,-0.143134,-0.379569,-0.470709,-0.0497556,0.0740341,-0.0734277,-0.155427,-0.112435,-0.00169809,0.39032,0.407861,0.0237879,0.340966,0.476396,0.260042,0.461918,0.334181,-0.0681368,-0.133201,-0.474364,-0.224044,0.419961,0.242689,0.304925,-0.380149,-0.145251,0.467751,0.318594,0.100885,0.0565333,-0.231127,0.36935,0.388187,0.396563,-0.215537,0.0527735,-0.121173,0.344901,-0.312728,-0.145802,0.136741,0.13837,-0.0547657,-0.401683,0.0996007,0.262327,-0.215052,0.43684,0.181961,-0.335153,-0.486344,-0.107848,-0.241449,-0.398367,0.384574,0.276268,-0.387138,-0.188772,0.107532,-0.260097,-0.408909,-0.333494,-0.478312,0.463213,0.414118,0.117346,-0.0836731,-0.205675,-0.133424,0.357821,0.251093,0.436816,0.24975,-0.236606,0.0246213,-0.226425,-0.13915,0.0548572,-0.270367,0.300156,0.419813,-0.1886,-0.0279259,0.471701,0.16262,0.00612802,-0.125028,0.382838,-0.349738,-0.113367,-0.377945,-0.0292434,-0.0562353,0.253109,0.280472,-0.495795,-0.395043,0.27366,-0.399309,-0.248521,-0.346337,-0.322679,-0.194327,0.422986,0.361821,0.250129,-0.253253,0.252263,-0.367823,0.28989,0.257164,-0.278531,-0.451548,-0.239755,0.348975,-0.251994,-0.460088,-0.217985,0.0374077,0.424374,0.287755,-0.482721,-0.197663,0.201096,-0.0412577,0.0357722,-0.310274,-0.413608,0.494287,0.0403738,0.00372943,-0.493875,0.324209,0.0477455,0.3247,-0.0727801,-0.391418,0.173499,-0.370987,-0.389108,0.0903244,0.243515,0.412455,0.116981,-0.351479,-0.198144,-0.0961847,0.100911,0.428266,0.184692,0.202562,0.378694,-0.249624,-0.159646,-0.151715,0.481562,0.0745269,-0.324844,0.0427549,0.127193,-0.186252,-0.386414,-0.290805,-0.0399132,0.312323,0.202501,0.184612,0.477372,-0.228182,0.0559937,0.0742799,0.438789,-0.058391,-0.203753,0.114278,0.265717,-0.231684,0.346079,0.336,0.263052,0.0220639,-0.0335426,-0.249211,-0.299966,0.381834,-0.184655,0.264166,-0.0957324,-0.450479,-0.277553,0.244208,-0.0726609,0.373119,0.0425751,-0.270005,0.126406,0.263172,-0.00220637,-0.30716,-0.148975,-0.209496,0.153696,0.325788,0.174295,-0.306997,-0.0384874,-0.223903,0.0873326,-0.11496,0.0314894,0.364599,0.337896,0.133163,-0.137887,-0.207523,0.216237,0.184008,-0.183381,-0.411322,0.0441001,-0.449582,-0.398702,-0.217862,0.105639,-0.488496,-0.392322,0.306915,-0.275211,0.335686,0.00924774,-0.325687,-0.130338,-0.0119991,-0.251799,0.0217684,-0.35039,0.384404,-0.0345845,-0.0271253,0.153333,0.12344,0.223229,0.14172,0.472985,-0.276697,0.0404926,-0.44052,0.351039,0.0730525,0.347765,-0.19563,0.369395,0.119296,-0.168889,0.498562,-0.124514,0.272252,-0.232372,0.0757101,-0.252097,0.0317696,-0.121036,0.340355,0.264022,0.376905,0.013696,0.27635,-0.31636,-0.0311339,-0.203019,-0.358252,0.490867,-0.232156,-0.301173,0.248045,-0.127026,-0.0891876,-0.224247,-0.29749,-0.384833,-0.0298724,-0.140475,0.342059,0.498522,0.388524,-0.264686,-0.386221,0.103029,-0.142896,0.329155,-0.146841,-0.129783,-0.369352,0.427761,-0.471502,-0.322847,-0.430585,-0.371206,0.253059,0.029512,-0.453139,0.205788,0.430738,0.479852,-0.248715,-0.227191,0.425521,0.350645,0.0129604,0.211033,0.240925,-0.323324,0.351862,0.0191813,0.177295,0.0732312,-0.373914,-0.48379,0.302099,-0.23509,-0.140447,0.465343,0.345288,0.273823,-0.490995,-0.0660474,-0.377016,-0.280726,-0.191359,-0.0910983,0.24387,0.419952,0.0924175,-0.28849,-0.0426755,0.180878,0.244919,0.488641,-0.287688,0.0416754,0.412965,0.237648,0.481248,0.0495743,0.280573,0.243146,0.038272,0.188224,0.450619,-0.461034,-0.411449,0.107959,0.478814,0.440353,0.3815,-0.0479533,0.195489,0.0273625,0.333331,0.411594,-0.0742476,0.337992,-0.0391702,-0.180245,-0.399956,-0.376929,-0.332259,-0.03094,0.281314,-0.295135,-0.427649,0.100343,0.0483582,-0.0221965,-0.110896,-0.174915,0.136901,0.180954,-0.0185684,-0.312569,-0.331873,0.150728,0.396735,0.288543,0.0843619,0.0925385,0.0967456,-0.071654,0.0927223,0.494446,0.0104799,-0.143294,0.478645,0.188974,0.123615,-0.299598,0.503882,-0.288173,-0.448759,0.4037,0.15578,0.351523,-0.0641392,0.167183,0.258135,-0.357785,0.33068,-0.0688635,0.106024,-0.229587,-0.158673,0.234086,-0.455694,0.0355179,-0.282414,-0.443585,-0.351101,-0.0760409,0.0652226,0.425215,-0.0884169,0.37058,0.149495,-0.162096,0.372466,-0.243981,0.279347,-0.269361,-0.151839,-0.3398,0.29533,0.160529,-0.403953,0.0771529,-0.188923,-0.167733,-0.424069,0.0691491,-0.306812,-0.296639,-0.0264447,0.402557,-0.132664,0.454185,-0.376698,-0.114388,-0.243993,-0.238062,-0.118404,0.477854,0.0778124,-0.0325186,-0.0391577,-0.112453,-0.337233,0.413742,-0.194544,-0.0959187,0.252603,-0.0349299,0.0227071,-0.41324,0.2601,0.0298521,-0.447977,-0.290523,0.377253,-0.395626,-0.296536,0.466307,-0.443069,0.29478,-0.270452,-0.24606,0.0918887,-0.349528,-0.222268,0.362561,-0.288851,0.202454,0.0243378,-0.41256,0.193365,-0.0319697,-0.087688,-0.00676717,-0.241671,0.425516,0.00751311,-0.179783,0.207741,-0.477366,-0.341016,0.356162,-0.37121,0.341669,0.238523,0.407818,-0.355701,0.197624,-0.267462,-0.192769,-0.39267,0.0967976,-0.142881,-0.0678334,-0.395383,-0.333097,0.164715,0.413362,-0.474784,-0.239198,0.259518,0.289085,0.416851,0.214835,0.455926,0.194677,-0.145591,-0.309121,-0.394858,-0.347014,-0.0693554,-0.025404,-0.454594,-0.112583,-0.286212,-0.152397,0.020781,-0.477375,0.411897,-0.436116,-0.0644188,-0.272717,-0.319691,-0.211011,0.0695005,-0.477728,0.0995972,0.201854,-0.135986,0.180931,0.226987,-0.0780244,0.394998,0.283681,0.467095,-0.425125,0.319291,-0.282612,0.102712,-0.494198,0.0795951,0.346735,0.392804,-0.361684,0.428845,-0.333426,-0.0347133,0.290323,0.194689,-0.0720288,-0.0835766,-0.0218651,0.269341,-0.445237,-0.260511,-0.214481,0.447778,-0.387323,-0.100435,-0.177313,0.00456905,-0.189601,0.18162,-0.359174,0.0791908,-0.209832,-0.453848,0.0762178,-0.0577195,-0.0797217,0.281879,0.392365,0.223158,0.143998,0.030159,-0.221894,-0.375035,0.0594591,0.322137,0.0177941,0.282221,-0.277032,-0.250898,0.317761,-0.236176,0.350294,-0.198807,0.340382,-0.288063,-0.191795,-0.432307,0.24318,0.497955,-0.361972,0.385875,0.351837,0.254593,0.239679,-0.128079,0.485802,-0.119198,-0.100362,0.158168,-0.248985,-0.0893801,-0.250844,-0.258232,0.483955,-0.326173,-0.427301,-0.325387,0.270905,-0.293395,0.49797,-0.291282,-0.206232,-0.282992,-0.179363,-0.212975,0.479083,-0.309376,-0.457934,-0.235678,-0.120105,-0.45975,0.490394,0.478813,-0.493494,0.0351294,-0.329399,-0.339493,0.325788,-0.0125401,0.148977,0.418941,0.403295,-0.400484,0.243055,0.303435,-0.00569269,-0.329065,0.355275,0.190601,-0.383051,-0.102119,0.261865,-0.0433187,0.196242,-0.445401,0.0332672,-0.498068,-0.302851,-0.172704,0.255815,0.194977,-0.130304,0.104484,0.196003,-0.134974,-0.355503,0.183037,-0.429135,0.436401,0.0389345,-0.335289,-0.16822,0.258114,-0.267476,-0.312927,0.0185206,-0.452403,0.0420467,-0.425758,0.0786874,0.292868,-0.477147,0.0359122,-0.370312,0.260216,0.446804,0.235716,0.284321,0.14914,0.285789,0.42789,0.460622,-0.337571,-0.388713,-0.223084,0.0551765,0.458552,0.491152,0.333082,-0.221586,-0.036663,-0.179306,0.488772,0.311613,0.413589,0.0304176,0.497593,0.382652,0.206933,-0.192298,-0.39007,-0.10117,-0.300401,0.450597,-0.319448,0.342905,0.34719,0.486166,0.467254,0.412756,0.0526865,-0.249973,-0.46281,0.206407,0.253668,0.0475162,-0.348337,-0.450666,0.261404,0.268521,0.314269,-0.381723,-0.106924,-0.447603,-0.125261,0.246872,0.0537943,0.1356,-0.184154,-0.342183,0.381867,-0.474376,-0.12448,-0.167575,0.148399,0.42023,-0.211524,-0.491142,-0.0726949,0.0522756,0.0941063,0.385499,-0.371136,0.185184,0.248739,-0.372748,0.0279978,-0.0991784,0.0907669,0.0289245,-0.458678,0.100124,-0.216141,0.164898,0.237186,0.374896,0.460693,0.0371748,-0.445822,0.224389,-0.443864,0.212511,0.251323,-0.152395,-0.498351,-0.235069,-0.325197,-0.0196181,-0.369855,-0.419346,-0.305519,0.125188,0.0721539,0.212912,-0.416985,-0.383298,-0.471571,0.0174054,-0.257025,-0.142139,0.462718,0.414332,0.0733651,-0.409741,0.295339,-0.498578,0.0864007,-0.492416,0.0543347,0.0433155,0.143574,-0.0376165,-0.231534,0.136149,0.194375,-0.141305,0.469285,-0.40206,0.336025,0.279618,-0.432062,0.17133,-0.10416,-0.119742,-0.464595,0.250339,-0.439138,-0.0827112,-0.179165,-0.366278,-0.178938,-0.318325,-0.425321,-0.342049,-0.425374,-0.339146,-0.145481,-0.217481,0.00384222,0.225136,0.120026,0.214795,-0.107232,0.30964,-0.395136,0.0938023,-0.220871,0.205186,-0.178473,-0.0890923,0.44363,0.401217,0.106517,0.0284131,0.2043,0.450825,-0.114816,0.193515,0.022246,0.465401,0.138662,0.0560982,-0.329422,0.0998014,0.0326754,-0.145587,-0.446352,-0.0231345,0.338421,-0.336881,0.303614,-0.146623,-0.0421283,-0.353814,0.301596,0.140746,0.426604,0.0520526,-0.198593,0.173013,0.0220864,-0.0283925,0.307473,0.0542387,-0.446523,0.0943424,-0.485641,-0.450648,-0.186626,0.257614,0.365781,0.0860323,-0.280005,-0.305379,-0.00599772,-0.23819,-0.0362678,0.0867994,-0.0875011,-0.323237,-0.375289,0.129214,-0.283855,0.294081,0.33466,-0.0621716,0.315018,0.116484,0.16543,-0.199056,0.0188442,0.249865,-0.292828,-0.332527,0.260665,0.173553,-0.333884,0.298393,0.232927,0.114939,0.388983,0.196238,-0.432169,0.367161,0.265244,0.496234,-0.00689712,0.0313047,0.263748,0.199406,-0.0792935,0.332166,0.425861,-0.259198,0.434492,0.0938524,0.218219,0.0894904,-0.424157,-0.415501,0.0896019,-0.3458,0.0433964,0.0758906,0.31648,-0.216935,-0.0964182,-0.0863889,0.300592,-0.0276429,-0.238925,0.371518,0.199843,0.363178,0.222081,-0.199819,-0.198502,0.150076,0.176737,0.0559882,-0.116603,-0.288087,-0.38407,-0.176957,-0.323228,0.129785,-0.024209,-0.104655,-0.0391649,0.276186,0.241404,0.205997,-0.326703,-0.38359,0.220717,-0.0522967,-0.322867,0.219547,0.394684,-0.0153415,0.448951,-0.184761,-0.170806,0.0412512,-0.489661,-0.0623238,0.24514,-0.286064,-0.173909,-0.227565,-0.157027,-0.475929,0.420989,0.126156,0.0998272,-0.188758,0.331412,-0.429841,0.156576,0.39007,0.106583,0.235191,-0.036243,-0.483922,-0.0961959,0.322677,-0.0971586,-0.203496,-0.317657,0.0454506,-0.195683,-0.0924377,-0.402085,0.396263,-0.0554341,0.34059,-0.0474096,-0.426804,-0.325952,0.122722,0.246629,0.122187,0.28709,0.0655599,0.216141,-0.386609,0.109905,-0.115373,0.149513,0.0871648,-0.468981,-0.272814,0.157782,-0.0123381,-0.496441,-0.0381365,0.225295,-0.297758,-0.390106,-0.484303,-0.316727,-0.450101,-0.00835335,0.362832,0.261779,-0.0331302,-0.0250795,-0.219825,0.331709,-0.399464,-0.103552,-0.162226,0.345198,-0.16223,-0.190413,-0.0510233,0.475863,-0.276805,0.218802,-0.449396,-0.115274,0.399474,-0.167477,0.332336,-0.164404,-0.246784,-0.241291,0.0146601,0.347498,0.213583,-0.0570821,-0.27221,0.233581,-0.180837,0.307379,0.193997,-0.262034,0.130321,0.447118,-0.313852,-0.16946,-0.235193,-0.143449,0.346361,-0.381571,-0.317729,-0.0186042,-0.242871,0.0749869,0.155021,-0.458216,0.476234,-0.315743,0.0846147,-0.0717013,0.0927302,0.249527,0.340018,0.405315,0.0558784,-0.162414,0.214122,0.315309,-0.0663939,0.401893,-0.335925,0.440794,0.193236,-0.248529,-0.364867,0.0419471,0.315797,-0.17287,-0.198775,-0.265415,0.0242903,-0.151691,0.0980458,0.396998,-0.0506835,0.0201491,-0.159833,-0.194076,0.393872,0.0842604,-0.270189,-0.310479,0.0160238,0.40183,-0.0134527,0.358544,-0.262567,0.0189635,0.0698113,-0.085698,0.43889,0.203238,-0.37095,-0.438921,-0.491137,-0.44773,-0.0798953,-0.255085,0.301297,-0.208819,0.0704759,-0.458174,0.284886,0.109826,-0.0576404,-0.207382,0.221233,-0.26344,-0.22304,0.12613,0.446552,0.490169,0.482312,0.46742,0.32137,-0.082269,0.177614,0.161256,-0.250286,-0.414001,0.342616,-0.0913826,0.0194675,-0.0422028,-0.281404,0.0197379,-0.0769296,0.313939,-0.430136,0.167864,-0.0323096,-0.13888,0.285209,0.110634,0.289702,0.341686,-0.480858,-0.0755405,0.336196,0.296412,0.227544,-0.494603,-0.0180547,-0.300844,-0.442562,-0.267834,-0.266953,-0.165902,-0.425637,-0.49308,0.00154294,-0.0303268,-0.421783,-0.0745212,-0.402254,0.256924,-0.0766912,-0.139924,-0.352121,-0.180944,-0.481659,0.475798,0.109536,0.106574,0.169705,0.281709,-0.216031,-0.0401373,0.185515,-0.298104,0.0534716,0.191332,0.471671,0.206692,0.130563,-0.389759,0.0789176,-0.182355,0.32726,0.351508,-0.421691,0.0938629,-0.124188,-0.374353,-0.344074,0.0245089,0.289623,-0.101603,0.412219,0.500541,-0.10383,0.216577,-0.424833,0.291472,-0.226712,0.288412,-0.104086,-0.313907,-0.0731423,0.104356,0.161043,0.165691,0.415018,-0.254782,0.05824,-0.220951,-0.0919531,-0.0390373,0.394604,0.111013,0.050183,-0.11663,-0.248256,0.239824,-0.360933,0.320265,0.215049,-0.345636,-0.0724249,0.43123,-0.225976,-0.203296,0.408998,-0.481759,-0.0167006,-0.488709,-0.17922,0.366739,-0.180506,-0.0149036,-0.031403,-0.013715,-0.190169,-0.202157,0.302869,0.452072,0.245389,-0.141354,-0.26172,0.0342496,0.338433,-0.372747,0.383358,-0.195127,-0.214908,0.477423,-0.303397,-0.0961025,-0.325542,0.28057,0.438133,0.0909358,0.428818,0.00776537,-0.0047573,-0.12008,0.473296,-0.487535,0.0989799,0.438314,-0.254474,0.306436,0.178865,0.356818,-0.137708,-0.103011,-0.419021,0.202035,-0.190833,-0.403045,0.232582,0.188015,0.0659611,0.444291,-0.364252,-0.181267,0.184426,-0.457884,0.0176832,0.135823,-0.439605,0.0186856,-0.244747,0.106296,0.0434213,0.425534,-0.356833,0.283271,0.0901451,-0.0551938,-0.0126585,0.120665,0.115456,-0.298522,0.302466,-0.27459,-0.138172,-0.126715,-0.476191,0.491425,-0.413975,-0.409816,-0.364475,-0.13155,-0.296428,-0.487484,0.456872,-0.152363,0.397377,-0.235406,-0.203687,0.161382,0.314005,0.056331,0.202439,-0.211342,-0.33749,-0.436979,-0.29519,0.158875,0.479504,-0.0875933,-0.363682,-0.343731,-0.0201625,-0.423595,-0.102469,-0.314689,-0.218481,0.269034,0.342324,0.497554,-0.371072,-0.0456072,-0.14916,0.212701,-0.0792732,-0.0300717,-0.35475,-0.235195,0.378612,-0.187909,0.342363,0.170537,0.0763592,-0.311595,-0.0451452,0.244655,-0.151123,-0.342165,-0.0776004,0.482065,-0.184758,0.404272,0.366677,-0.212752,0.35491,0.239156,0.468056,0.123021,0.208407,0.426377,0.280416,0.286574,0.336518,-0.0908854,0.456924,-0.421141,-0.426513,0.0917765,-0.104179,0.0652695,-0.301212,0.396828,0.0116343,0.119159,0.462676,0.157933,-0.169672,-0.232139,-0.129465,0.0525987,-0.0775806,0.331697,-0.302359,0.354842,0.0481832,-0.272875,0.298095,-0.412173,0.38789,0.0418372,-0.393844,0.28789,0.294094,-0.182511,0.0985302,0.476523,-0.155478,-0.48234,0.0196208,0.24399,0.447393,0.277169,-0.296893,0.182294,0.034162,-0.0496698,-0.298163,-0.122025,0.475126,0.462249,-0.00938083,-0.185252,0.494938,-0.268756,0.10279,0.108063,-0.0581204,0.309387,-0.255462,0.349276,-0.499861,0.474239,-0.194073,0.219702,0.294701,-0.355434,0.382615,-0.126479,0.389727,-0.408331,0.0505856,-0.277037,0.0513521,0.305277,-0.324189,-0.203117,-0.0316791,-0.216434,0.228011,-0.358081,-0.336338,-0.381233,0.402809,0.471206,-0.250355,-0.0392163,0.255447,-0.251177,-0.229432,-0.135803,-0.334368,0.139403,-0.13,0.401624,-0.0639821,0.231712,-0.341687,0.145004,-0.336068,-0.194281,0.175377,0.191091,-0.448693,-0.323027,0.0720468,0.00203911,-0.359799,-0.389642,0.23075,0.183746,-0.347061,-0.0190139,0.416854,-0.209824,0.159279,0.00634546,-0.312082,-0.466244,-0.224405,-0.069194,-0.160217,0.369068,-0.106945,0.0486232,-0.0800721,0.193266,0.285871,0.339485,-0.202167,0.203569,-0.232991,0.256426,0.0234056,0.0935821,-0.243223,-0.278564,0.332011,-0.295333,0.00276424,-0.202599,-0.11764,-0.201805,0.0889132,-0.432661,0.448243,-0.290253,0.0407295,-0.179604,0.276117,0.2976,0.216015,0.220076,-0.0544536,0.0393065,0.35592,0.296214,0.396579,-0.207261,0.145829,-0.120028,0.178671,-0.306238,-0.193297,0.0759148,-0.220037,-0.424982,-0.0699114,-0.312328,-0.0193632,-0.351671,0.211267,-0.0127672,-0.23848,0.0373379,-0.343837,0.488409,0.326745,-0.292014,0.294275,0.050265,-0.141835,-0.361859,-0.461165,0.332562,0.0806594,-0.0770412,-0.0671133,0.208896,-0.0596326,-0.327796,-0.443554,-0.0455567,-0.14575,0.127893,-0.077958,-0.204968,0.263863,-0.273915,0.0693428,-0.303934,-0.131399,0.275529,-0.258351,0.41182,-0.239216,0.375704,0.140018,0.00444448,-0.185981,0.0988821,0.156613,0.0609766,0.300423,-0.233087,0.00842505,0.263244,0.431653,0.376759,0.112441,0.20493,-0.138177,0.221386,0.369326,0.317593,0.299479,-0.425599,-0.436042,0.0491858,-0.167525,0.334794,0.0709858,-0.0415848,-0.477744,0.254637,-0.268262,0.403681,0.0561681,-0.362208,0.474176,-0.198403,-0.276422,0.201645,0.386269,-0.184291,0.345671,-0.063502,-0.206499,0.0565821,0.0887296,0.180982,-0.320962,-0.00385367,-0.109892,0.147533,0.0160898,0.142533,0.366821,-0.301833,-0.320541,-0.175673,-0.195758,0.227355,-0.443158,0.116961,0.0553978,0.150607,0.389033,-0.15844,0.22134,0.0942503,0.47769,0.0196251,-0.0780908,-0.156083,0.383061,0.0807141,0.345759,-0.202241,-0.156392,-0.284378,-0.22752,0.418786,0.143371,0.385472,-0.390742,0.369178,0.0819873,0.10918,-0.282469,0.455507,-0.197137,0.159098,0.423385,0.397589,-0.00860742,-0.0217118,-0.385774,0.256202,-0.253812,-0.334888,-0.482057,-0.255194,-0.0401715,-0.331004,0.322705,-0.314913,0.277551,-0.321666,0.124179,0.400961,0.293707,0.167658,0.36219,-0.170858,-0.229658,-0.105936,-0.20891,0.204959,0.298811,0.165516,0.461493,-0.462766,0.201899,0.473765,-0.105772,0.304686,-0.201544,-0.0908182,0.00681647,-0.203272,-0.381855,-0.351756,-0.0154161,0.389097,0.183143,0.318622,0.0145669,-0.303408,0.488468,-0.337958,0.171315,0.394671,-0.453091,-0.2119,-0.384899,-0.00082032,0.0486654,-0.243276,-0.30733,0.00402921,0.101294,-0.0282028,0.254665,-0.201393,-0.488757,0.140949,-0.298483,-0.315832,-0.340726,-0.182751,0.300625,0.208931,0.41771,0.251263,-0.484753,-0.308626,-0.177571,0.472182,-0.394075,0.200165,0.285769,0.059195,-0.387031,-0.00442267,0.325459,-0.349806,-0.154668,0.339542,0.0817913,0.167281,-0.0820766,-0.311329,0.448272,-0.0112435,0.471782,-0.00465839,-0.0256307,-0.0189866,0.387896,0.290608,0.143842,-0.112838,-0.0110071,0.183125,-0.330543,-0.233871,-0.384352,-0.360929,0.091832,-0.106758,0.488074,-0.362983,0.0388175,0.1163,-0.362774,-0.373209,0.453123,0.330793,-0.388849,-0.484847,0.00493641,-0.275152,-0.28122,0.511951,0.274885,-0.428614,0.372502,-0.340966,-0.138373,-0.0672498,-0.0349983,0.314999,0.103266,-0.187869,-0.411016,-0.177901,-0.167517,-0.0784443,-0.323659,-0.227652,-0.405476,0.297905,-0.239434,0.0187336,-0.0925682,0.215934,0.223597,0.241128,-0.284354,-0.00148162,0.303395,-0.339596,0.178567,0.177877,0.0597648,0.169651,0.208427,0.0471538,-0.0954649,-0.229244,0.335417,-0.0498775,0.239099,-0.397037,0.0358022,-0.476743,0.0316047,0.252881,0.0158372,0.42655,0.457826,-0.297952,0.0619879,-0.343575,-0.256978,0.250057,-0.431961,0.182794,0.0734829,0.076956,-0.341739,0.142163,-0.362701,-0.254728,0.224966,0.399649,-0.00592054,0.281355,0.130545,-0.0850586,-0.16091,0.10566,0.140088,-0.441813,0.0848611,0.155721,0.454826,-0.254739,0.0698219,0.447003,-0.0709485,0.165856,0.481143,-0.391959,-0.205685,-0.36745,-0.13846,0.358124,-0.370134,0.138234,0.487478,0.446487,-0.214204,0.258956,0.334791,0.438075,0.0419983,0.228292,-0.0098441,0.0353418,0.318175,0.330289,0.415771,-0.486281,-0.23577,0.0527279,-0.37565,0.0214333,0.373033,0.240241,0.317327,0.302502,-0.476011,0.396499,0.354797,0.306446,-0.0101358,-0.131023,-0.472278,-0.254409,-0.0205483,-0.0404581,-0.254125,0.494825,-0.326362,0.14625,0.386064,-0.439341,0.227586,-0.0222978,-0.195703,-0.227515,-0.141196,-0.411887,0.221435,-0.180789,-0.201764,0.463753,-0.370935,0.386473,0.411984,-0.129892,-0.452274,0.332447,-0.490409,-0.0117926,-0.384764,-0.0482071,-0.0140733,-0.360746,0.126654,-0.433925,-0.306975,0.355668,0.382187,0.255521,0.409454,0.0571947,0.0526263,0.484374,-0.43445,0.0774065,0.22405,-0.437923,0.0750077,-0.251796,-0.141101,0.234285,-0.30127,-0.203387,-0.406265,-0.0503022,-0.448684,0.012869,0.0951348,0.388861,-0.256043,0.461745,0.181509,0.465071,-0.215734,0.175718,-0.392963,0.143779,-0.107552,-0.288314,-0.293061,-0.1164,-0.205717,-0.391511,-0.126383,-0.0715151,-0.356023,-0.258126,-0.3165,-0.445506,0.00137411,0.265859,-0.478753,0.475991,0.488046,-0.456436,0.415205,-0.193615,0.16289,-0.466985,-0.356816,-0.0659678,0.359195,0.0393851,-0.282557,-0.230333,0.441064,0.442845,0.31131,0.283918,-0.227312,-0.0398336,0.242665,-0.00179655,-0.451585,0.0671549,0.497308,0.286349,-0.470157,0.215888,0.381321,-0.216346,0.22538,-0.00105514,-0.335026,0.0580186,0.0739034,-0.292784,0.279638,0.0400577,0.238637,0.217549,0.313094,-0.379451,0.157653,-0.116145,0.118994,-0.384577,0.417845,-0.243303,-0.473072,0.370431,-0.0548726,-0.434042,-0.352604,0.172137,0.45116,0.266769,0.149122,-0.481699,-0.328047,0.277649,0.165685,0.0510508,0.022825,-0.422072,-0.0335339,-0.430647,-0.413827,-0.435379,-0.239522,-0.339634,0.0231267,0.137402,0.463409,0.0709169,0.425531,0.400059,0.0824419,-0.214222,-0.46374,-0.158464,-0.2111,0.0891705,0.0950131,0.026815,0.149504,0.427433,0.485276,0.313264,0.46154,-0.0863198,-0.0825743,0.0289114,-0.28917,0.378833,-0.281573,-0.470302,0.130143,0.116585,0.209821,-0.00448025,-0.377581,-0.313179,-0.10495,-0.388333,0.0862385,0.243807,-0.416718,0.0952266,-0.163944,0.162837,-0.387632,-0.133018,-0.147753,0.0187534,0.349726,0.246961,0.268237,0.0573127,-0.394403,-0.131142,-0.412564,0.0908299,-0.119733,0.337489,0.285002,-0.330242,0.254522,-0.0538512,-0.274917,0.082982,-0.430028,0.069329,-0.0855015,0.410373,0.408763,0.0149868,-0.0844543,0.41549,-0.441875,0.123446,-0.219222,-0.0146533,-0.222155,0.108137,-0.17606,0.461529,0.37026,-0.294985,-0.382212,0.363425,-0.364634,-0.498432,-0.361611,0.0637374,-0.18932,-0.154927,-0.386206,0.0268136,-0.188304,0.168587,-0.136625,0.066921,-0.119316,0.170677,0.494305,0.0144084,-0.0187812,0.251831,-0.403093,-0.141007,0.431956,-0.04982,0.0144284,-0.11544,0.22513,-0.124283,0.13326,-0.400382,-0.496457,0.476357,-0.377245,0.350854,0.241049,0.166245,-0.465359,0.465862,-0.0420413,-0.399171,0.309837,-0.231425,-0.4044,0.0128412,-0.406839,-0.275588,0.280131,0.432517,-0.0732109,0.326099,0.0554099,0.465255,-0.0149236,-0.205336,-0.290526,0.438966,-0.0474385,0.166566,0.09722,0.140843,0.207918,-0.218413,0.280403,-0.328297,-0.0659724,0.296207,-0.268296,0.293284,-0.0361705,0.0384357,0.26287,-0.108962,-0.122863,0.079658,0.431023,-0.452019,0.160439,-0.385183,0.451212,0.375118,-0.339371,0.397862,0.439217,0.364243,-0.15527,0.272354,0.126087,0.25167,0.319511,-0.027676,0.448743,-0.177355,0.309204,0.128447,-0.119608,-0.124338,0.471936,-0.347344,0.185067,-0.146416,0.466749,-0.386222,-0.0419256,0.189453,0.37272,0.115887,-0.181316,-0.277155,0.416574,-0.369797,-0.28496,-0.186304,-0.382302,0.467242,-0.0733454,-0.21409,-0.443407,-0.10417,-0.00639881,0.341119,0.132528,0.474824,0.278482,0.124395,0.219267,-0.15248,0.181421,-0.293,0.488714,0.000405293,-0.101016,0.428095,0.166243,-0.0735708,0.448189,-0.211839,0.316988,0.383279,-0.181114,0.494222,0.134039,-0.34836,0.0963737,0.185584,0.207144,0.197112,0.270037,0.363946,-0.00430597,0.40753,-0.114537,0.367783,-0.271086,0.294101,-0.339687,-0.337178,-0.30551,0.0417119,0.401681,-0.444322,0.341771,0.219334,-0.299611,-0.0330891,-0.101521,0.354635,-0.301506,-0.439859,-0.0992522,-0.100186,-0.118857,-0.306013,-0.226589,0.269374,-0.106637,-0.208166,-0.286458,0.192077,-0.0108735,0.362084,-0.0304275,0.317791,0.417983,0.484272,0.153052,-0.0251847,-0.47972,0.328179,-0.183346,-0.264096,-0.399109,-0.270963,-0.304005,0.29565,0.478775,-0.239799,-0.0693477,-0.0769212,-0.395938,0.474054,-0.320368,0.0440795,-0.311323,-0.424104,0.129396,0.385555,-0.287619,0.45983,-0.0621147,0.11283,-0.459526,-0.297366,0.263968,-0.389653,0.246874,0.0658316,0.181487,0.194932,-0.287581,-0.0672313,-0.246462,0.352887,0.274426,-0.251631,-0.197747,-0.425046,0.00374117,-0.0744542,-0.33874,0.0731293,-0.412326,-0.317816,-0.28161,0.467242,0.261877,-0.360139,0.391876,-0.384345,-0.227251,-0.484696,-0.334819,-0.375518,0.485204,-0.174506,-0.00150344,0.151129,0.232157,0.473316,0.0902028,0.368529,0.193469,0.312569,0.414896,0.16952,0.33623,-0.430466,-0.0665334,0.364905,-0.284669,0.066008,-0.337754,-0.178033,0.0410248,0.0307053,-0.0366478,0.163743,-0.025247,-0.299206,-0.474203,0.389056,0.333174,0.315691,-0.383656,0.101498,-0.47714,-0.389164,0.183202,0.361487,0.195913,0.317824,0.275164,0.0439385,-0.164498,-0.195961,-0.47331,-0.205449,0.092327,0.274151,-0.313886,-0.0122784,-0.264493,0.465799,-0.260935,-0.110615,0.382277,0.243376,0.423854,-0.216643,0.338945,0.208968,0.0639054,0.226138,-0.465753,0.185846,-0.196887,-0.356183,-0.0527563,0.139367,0.374976,0.128782,-0.164293,-0.275194,-0.484947,0.268845,0.313677,0.145587,0.120161,0.285008,-0.0970847,-0.139577,-0.128293,0.181275,0.120476,0.0259707,-0.109652,-0.340364,0.484797,-0.224223,0.0935642,0.0715311,-0.022853,-0.19399,-0.075909,-0.246268,0.0132112,-0.250189,0.472793,0.181738,0.435628,-0.12644,0.413274,0.21827,-0.331887,-0.117865,-0.120714,-0.0901364,0.31417,-0.138327,0.0367429,0.223444,-0.46124,0.168523,0.373919,-0.109312,-0.0149258,0.100454,-0.393298,-0.389738,0.1123,0.365277,-0.216828,-0.11577,0.416865,0.237735,0.339496,-0.0572772,-0.206187,-0.290722,0.286375,0.310641,0.106668,0.0203257,-0.142913,-0.126462,0.235617,-0.277051,0.157548,0.389481,0.0931509,-0.157138,-0.418865,0.44415,-0.483467,0.441955,-0.351245,0.249079,-0.241706,-0.251541,0.0366913,0.379864,-0.129572,-0.024665,-0.226988,0.307938,-0.452963,-0.457821,-0.444562,0.323333,-0.299758,-0.172039,0.114654,0.386344,0.495172,-0.0509069,-0.493668,-0.00130263,0.448395,-0.267047,0.419087,0.47716,-0.190539,0.428727,0.138521,0.016442,0.405884,0.218404,-0.111104,0.062669,0.292855,0.12385,-0.228397,-0.424799,0.245346,0.0833057,-0.377934,0.0635131,-0.00927918,-0.353353,0.346346,0.217385,-0.395403,0.329989,0.487498,-0.23355,0.168104,-0.434822,-0.438455,0.231905,0.390602,-0.0963996,0.0387564,0.142161,0.0131098,0.116332,0.359212,0.236528,-0.288774,0.110409,0.277348,0.47169,-0.101813,0.0499464,0.390987,-0.0904331,-0.276551,0.182165,0.309416,0.0559475,0.253545,0.15888,0.181816,-0.228248,0.465149,-0.27046,-0.161115,0.162208,0.0092522,-0.238209,-0.142321,-0.418464,0.309841,-0.243487,0.477115,0.287777,-0.00762718,0.0790095,-0.146056,-0.215598,0.139172,-0.146988,-0.228414,-0.0967328,-0.0916369,-0.255373,-0.429525,0.417321,0.100811,0.49675,-0.056311,0.408504,0.422935,0.081864,-0.366032,-0.382372,0.127822,0.172864,0.0287407,0.467321,-0.166434,-0.0760126,0.38568,0.393106,-0.198733,0.109023,-0.274339,0.416013,-0.246798,0.164474,-0.413151,-0.112818,0.241867,-0.114797,-0.0653483,-0.250672,0.350482,0.0021634,0.209394,0.500154,0.232412,0.368217,0.441556,0.472634,-0.306083,-0.0858107,-0.161278,-0.218589,-0.248331,-0.0228224,-0.234734,-0.205561,-0.209216,-0.116569,0.113187,0.22283,-0.407544,-0.43741,0.23187,-0.135981,0.209758,-0.358319,-0.312515,0.154404,-0.0945874,0.386135,-0.147966,-0.436882,0.437595,-0.051388,0.145382,-0.311069,-0.0641571,-0.219115,0.33923,0.00275851,0.0867604,-0.140242,-0.157937,0.291851,-0.0335725,0.106961,-0.236381,-0.173313,-0.0225918,0.415632,-0.116609,0.330917,-0.414167,-0.399896,0.447738,0.346222,0.126106,-0.110882,-0.200965,-0.333726,0.379088,-0.413435,-0.00418717,0.25176,0.501497,-0.0374584,0.144725,-0.169449,0.378563,0.199551,-0.384882,0.0134926,-0.418995,-0.476227,0.333864,-0.0740754,-0.437816,-0.333319,0.0886241,-0.466717,0.0879593,-0.110257,-0.00613013,0.412549,-0.227479,-0.45013,-0.0425754,-0.00365958,0.208493,-0.389791,0.43575,-0.48235,0.382873,-0.249951,-0.319727,0.469435,0.41731,-0.140657,-0.226993,-0.0640201,0.0792075,-0.33631,-0.257355,-0.386715,0.197971,-0.169451,-0.158274,-0.242832,0.245414,-0.00962936,0.0530866,-0.317314,-0.0506448,-0.392752,0.0022681,0.217875,0.356588,-0.289622,0.0305876,-0.444689,-0.419407,0.102231,0.0571552,0.21705,0.211429,-0.125426,-0.171483,0.246446,0.468123,-0.427465,0.161324,-0.0674138,0.411296,0.319506,-0.448968,0.493142,0.444482,0.338359,0.377506,0.463756,0.0184205,-0.265296,0.0943875,-0.379625,0.178026,0.207294,-0.235703,0.491771,-0.462567,-0.235614,0.147771,-0.322364,0.350638,-0.351783,0.0222665,-0.345446,-0.237227,0.0964993,0.458548,-0.0586615,-0.421869,-0.309167,-0.178144,-0.35156,0.49456,-0.375092,-0.359076,-0.0139451,0.423358,0.0209708,0.434248,-0.164543,0.0603719,-0.486495,0.0559075,0.00852036,0.144783,-0.139548,0.39609,-0.0525857,-0.312028,-0.0191037,-0.305521,0.291326,-0.14142,0.418757,-0.347689,0.121109,-0.103857,-0.301839,-0.00333585,-0.270221,0.0389268,-0.00473387,-0.174927,0.224581,-0.132912,0.343074,0.305933,0.250152,0.135513,0.196662,0.245908,0.202807,-0.0826566,-0.0615792,-0.249753,-0.225661,0.0830748,-0.0173,-0.206552,0.356976,0.420514,-0.135443,0.325863,-0.158544,-0.12254,-0.188608,-0.35304,-0.480697,-0.144232,0.113455,0.278345,-0.00104096,-0.116976,0.38796,-0.238362,-0.190918,0.365546,0.0639324,0.20434,-0.0944913,-0.488831,-0.385736,0.49078,0.0603136,-0.242951,-0.396959,-0.260744,0.39028,-0.474212,0.299397,0.246848,-0.122403,-0.0673534,0.0909043,0.456859,-0.422428,-0.48471,0.0831397,-0.441506,0.4832,-0.427119,0.48751,-0.313626,-0.181193,0.269915,-0.270711,0.162866,-0.492051,0.253313,-0.366855,0.220343,-0.0323201,0.185667,0.421825,0.403609,0.386856,-0.278025,-0.145054,-0.00516598,0.206231,-0.295516,0.252497,0.0158015,-0.0695934,0.349992,0.343874,-0.413712,0.32105,-0.205886,-0.194248,0.424292,0.231089,-0.471122,0.0407903,-0.0100876,-0.333324,-0.308675,-0.131683,-0.401459,0.0547629,0.189807,-0.399817,0.34286,0.169956,0.126304,0.13066,0.452164,0.0181607,0.138963,-0.477092,0.303075,0.099841,-0.03999,0.355404,0.114393,0.328993,0.0312528,0.247743,-0.118666,0.199426,0.0871991,0.0610242,-0.0165651,0.484113,-0.481656,-0.291516,-0.366073,0.498379,-0.287331,-0.449395,0.365958,-0.0836024,-0.101725,-0.0403543,-0.474454,0.247978,-0.398715,0.0265766,0.0849252,0.275087,0.479615,-0.139641,0.0465552,0.493812,0.126633,-0.327517,0.100794,-0.321344,0.0701317,-0.138854,0.312359,-0.0996824,0.0873662,-0.385481,-0.0411733,-0.214603,-0.381074,0.362476,-0.49676,0.303451,0.193313,-0.242662,-0.284806,0.212226,-0.499268,-0.0322352,-0.129857,-0.137391,0.202199,-0.104756,-0.135056,0.250391,-0.245186,-0.0279479,0.0753311,-0.489889,-0.0234145,-0.454396,-0.372315,-0.349697,0.158489,-0.0519664,-0.482993,0.490296,-0.336163,-0.134369,0.182001,0.00146961,0.49374,-0.430253,-0.0468142,-0.361303,0.262321,-0.381565,-0.319182,0.167166,-0.115596,0.0700005,-0.341997,-0.278529,0.171815,0.385862,-0.232237,-0.0887291,-0.243812,-0.421155,0.363433,0.287558,0.407179,0.257147,0.375199,-0.068197,-0.435987,0.0981259,-0.258929,-0.107459,0.0645965,0.00137794,-0.288059,0.107253,0.015598,-0.409444,0.0510302,0.106747,-0.193079,0.296593,0.302433,0.314345,-0.0680723,0.240303,-0.47926,-0.473983,0.172224,0.443166,-0.427428,-0.152352,-0.0816465,0.165399,0.498844,-0.19288,0.0428957,-0.200789,0.323453,-0.0551919,-0.0119157,-0.375618,0.442924,-0.282788,-0.397854,0.14189,-0.450301,-0.370219,-0.115641,-0.437547,0.432199,0.0744333,-0.113591,-0.287147,0.0464369,0.123674,0.23431,0.129345,0.0524513,-0.245336,-0.339068,-0.272376,0.0886089,-0.29691,-0.294441,-0.193733,-0.38501,-0.441923,-0.0353479,-0.283766,-0.0465094,0.0801499,0.332479,-0.024532,0.0244174,-0.0064073,-0.0313771,-0.420561,0.170759,0.412462,0.199555,-0.0202733,-0.00525186,-0.152135,0.103419,0.26925,-0.425935,-0.423354,0.217382,0.493502,0.424829,0.398927,0.150785,-0.301854,0.207178,-0.356136,0.411559,0.153277,0.213959,-0.00582246,-0.0987528,0.445414,0.362197,0.467813,0.17931,0.448056,-0.153613,-0.152731,-0.266826,-0.425138,0.286785,-0.271033,-0.13468,-0.0575472,-0.20516,-0.0288815,0.0856942,-0.267907,0.0396912,-0.0755695,0.274219,-0.230898,-0.495607,-0.469029,0.0904333,0.281364,-0.334357,-0.268954,0.419645,0.408006,0.151942,0.217497,0.289388,0.116222,0.136344,-0.490423,0.103164,-0.0732247,0.277465,0.34418,0.207275,0.309952,-0.149767,0.215769,-0.321311,-0.484755,0.379094,0.457016,-0.177152,0.412216,-0.187424,0.223532,-0.100352,-0.0413223,0.165701,0.294651,0.0166964,-0.148571,-0.168858,-0.0175379,-0.175345,-0.348696,-0.432378,-0.372426,-0.499725,-0.305238,0.359756,0.0983002,-0.098416,0.183025,0.0217432,-0.139936,-0.475523,0.0159257,-0.129514,-0.48514,0.0944043,-0.265856,-0.0899354,-0.0453842,-0.119241,0.242913,-0.181741,0.246444,0.00196971,0.373297,-0.346675,-0.146256,0.0892265,-0.362416,0.333685,0.393572,0.428039,0.468371,-0.367028,0.484997,-0.217743,-0.407866,0.0888962,0.200196,-0.313173,0.478176,-0.468223,-0.316752,-0.470374,-0.0361736,-0.277604,-0.0285012,-0.072303,-0.363762,0.0995566,-0.351221,-0.0775823,0.442864,0.451442,0.480208,0.15484,-0.413868,0.138594,-0.257771,-0.231595,-0.185032,0.012838,-0.0551332,-0.152066,0.473815,0.429991,0.493159,0.0799034,-0.0499807,0.352429,0.224714,-0.0436486,-0.0502848,-0.0821365,-0.377169,-0.393069,0.394303,-0.054796,-0.018519,-0.357189,-0.00217751,0.124041,-0.018134,0.280427,-0.496826,-0.270057,0.305449,0.0462044,0.448527,0.221811,-0.0877262,0.0336125,0.194823,0.0740006,-0.268231,0.390477,-0.124137,-0.481511,-0.220785,-0.138088,-0.00889735,-0.0317507,-0.35589,-0.0913336,-0.0286715,0.154531,0.0213975,0.0848743,0.386189,-0.00381785,0.396175,-0.386002,0.310451,0.222115,-0.160019,0.490822,-0.0223831,0.0198837,0.260551,-0.461709,-0.353492,-0.481241,0.184059,-0.155528,0.14631,-0.185881,-0.426219,-0.351501,-0.445889,-0.461051,-0.0405623,-0.19058,-0.484952,-0.492245,-0.272291,-0.336833,-0.407517,-0.334382,-0.281258,0.0811162,-0.475904,-0.0845685,-0.105831,0.123393,-0.328912,-0.294319,-0.387691,-0.0683482,0.438422,-0.315775,0.0999584,-0.335123,-0.297539,0.44013,0.156224,-0.428649,-0.221346,-0.505251,0.172192,-0.0146554,0.0200794,-0.135109,-0.320008,-0.419802,0.463933,0.0162886,0.219501,-0.124318,0.291969,0.125283,-0.294581,-0.487099,-0.0668035,0.128281,-0.384145,-0.3072,0.22035,0.0539661,-0.0437888,0.277449,0.313024,-0.419225,0.285867,0.0207852,0.0255003,0.43447,-0.214236,0.286156,0.0889674,-0.253756,-0.179083,0.167853,-0.304333,0.0780922,0.442446,0.333649,0.043388,0.253298,-0.119315,-0.456707,0.173718,0.288119,-0.158065,0.0207207,0.188689,-0.198153,0.0203494,0.432065,-0.107847,-0.202385,-0.116195,0.408149,-0.267556,0.073726,0.224469,0.0295608,0.00376041,-0.237962,0.259394,0.371195,0.488766,-0.351987,0.359901,0.0435146,0.219268,0.401818,-0.341827,-0.474403,-0.27162,-0.0973609,0.311347,0.453916,-0.311083,-0.346308,0.482059,-0.424404,0.168295,0.367766,-0.0964482,-0.17467,0.275841,0.409699,0.109456,-0.0198434,0.0693173,-0.375566,-0.235468,-0.194259,-0.327457,0.485304,-0.426875,0.184498,0.152388,0.0787423,-0.0210727,-0.073205,0.388269,-0.287049,0.135065,-0.00283804,0.346253,0.122208,0.104571,0.293042,-0.310163,0.0572258,0.0212997,-0.204039,0.033258,0.247523,0.454348,0.487862,-0.0747371,0.0193219,-0.149438,-0.0922094,-0.22734,0.355024,-0.376862,0.0855486,-0.357913,0.109246,0.106022,-0.428426,0.271054,-0.480537,0.367879,0.486803,-0.253551,0.212924,-0.245178,0.237146,-0.283198,0.236752,-0.0058983,-0.0378434,-0.117006,-0.333391,-0.301535,0.230659,0.0285116,-0.345318,-0.290751,0.139614,0.270651,-0.0275071,0.155952,-0.291002,0.142648,-0.0647116,-0.456671,-0.244772,-0.0155482,0.0371488,0.223286,-0.214793,-0.243713,0.33547,-0.177182,-0.293527,0.00806106,0.0164107,-0.0264837,-0.296977,0.141513,-0.121805,0.241067,0.293722,-0.495152,-0.33021,-0.430331,0.102881,0.0850942,-0.0492642,0.364109,-0.489366,0.479496,-0.173835,-0.0980665,-0.316726,-0.12848,0.100076,0.299282,-0.00442987,-0.05216,-0.471874,-0.382622,0.148407,-0.0164214,-0.454045,0.443795,-0.0815879,-0.0473926,0.200375,0.392374,0.286235,-0.393145,0.301304,-0.48539,0.260732,-0.286678,0.120502,-0.0866745,-0.34987,0.39788,0.0379102,-0.246189,-0.32736,0.0979412,0.123709,-0.423768,-0.254426,-0.0441896,0.478308,-0.347049,-0.375949,0.0357099,0.265991,0.0788084,-0.116328,-0.138148,0.471529,-0.331676,-0.333861,0.24266,-0.0119724,-0.398757,0.118726,0.168895,-0.483801,0.27578,0.26563,0.167183,0.0250505,0.362878,-0.156209,-0.363709,-0.0259385,0.375326,-0.369278,-0.092015,0.0610258,0.361812,0.46739,-0.379627,0.0302292,-0.221002,-0.0753541,-0.00234669,-0.18452,0.427471,-0.298051,-0.36523,-0.212397,-0.487862,-0.499826,-0.312337,0.302944,0.371308,0.0945058,-0.218322,-0.318055,0.0289298,0.456897,0.470658,-0.361392,-0.0724372,0.173074,0.234188,0.0915445,0.228434,0.424916,-0.260748,-0.490853,-0.0324338,-0.277524,0.191165,-0.161609,-0.187766,-0.419125,0.0229965,0.0162434,0.0416387,-0.225867,-0.33347,0.208773,-0.36726,-0.302326,-0.252251,0.306284,-0.255254,-0.13026,0.269531,-0.12935,0.257942,-0.439589,0.351567,-0.017454,-0.482733,0.344197,-0.495819,-0.0197327,-0.281094,-0.236984,0.0762423,-0.213333,-0.392728,0.338102,0.104149,-0.34378,-0.0992188,-0.073971,-0.0630305,0.460698,-0.486243,-0.463024,-0.406224,-0.023134,-0.0755566,0.427459,0.152884,0.317249,0.0159379,0.167549,0.325534,0.262453,-0.142013,0.357657,-0.0862595,0.284408,-0.41998,-0.218946,-0.429574,-0.411533,0.00289641,0.467815,0.319732,-0.357769,-0.161307,0.476725,0.420135,0.0886085,-0.425648,-0.255954,-0.331799,0.0834417,0.0765012,0.456468,-0.163951,-0.317421,0.286006,0.413572,0.30807,-0.216471,-0.248544,-0.230941,0.406381,0.16277,-0.102575,0.36442,-0.361885,0.197857,-0.297613,-0.237951,0.352818,-0.393773,-0.222486,-0.369988,-0.170721,0.027091,0.200337,-0.343344,0.149126,-0.488081,-0.451502,0.475295,-0.0957531,-0.211982,-0.118938,0.192131,0.149407,0.173708,0.124718,-0.0632732,-0.255152,-0.367217,-0.490714,0.252275,-0.2966,0.45846,-0.148875,-0.279347,0.192366,0.166479,0.0390469,-0.181321,-0.0285816,-0.353391,0.127633,-0.335541,0.347942,-0.33903,-0.479945,-0.319566,0.362502,0.0273021,-0.352245,-0.170365,-0.450755,-0.216362,-0.117193,-0.395195,-0.405099,0.330334,0.133528,-0.00526001,-0.0473362,-0.0145944,-0.191315,0.150543,0.242758,-0.106175,0.310493,0.207111,-0.406876,0.347194,0.413542,-0.458007,0.381006,0.157331,-0.101454,-0.241701,0.471954,0.210277,0.0923864,0.160507,-0.133214,0.498306,-0.269824,0.342295,0.329317,0.2804,0.0527118,-0.421415,-0.390194,0.338624,0.222321,-0.461517,0.250834,-0.394394,-0.331691,-0.0645762,-0.21466,0.11632,0.110534,0.310677,-0.276191,0.452054,0.109591,0.488766,-0.251242,-0.202559,0.128607,-0.120424,-0.130674,0.497105,0.00823218,-0.343552,0.329809,-0.448877,0.0894227,-0.260561,0.292784,-0.315386,-0.00149589,0.00526969,0.100637,0.127189,0.482602,-0.333223,-0.253599,0.252947,0.0536527,-0.103392,-0.169602,0.164211,-0.416981,-0.0212859,-0.11429,-0.162848,0.277361,0.39162,-0.43621,0.174252,0.377885,0.268848,-0.328792,0.0169255,-0.0933849,-0.259525,0.0588409,-0.403322,0.246256,-0.332479,-0.323525,0.381132,0.478526,0.451586,0.330229,-0.439338,-0.179881,-0.0400019,-0.31644,0.472202,0.417155,0.3624,-0.0218948,-0.218307,0.0379198,-0.308746,0.00820617,-0.491708,0.0970466,0.275216,-0.315319,-0.0982909,-0.029536,0.2178,0.447981,-0.236606,0.298944,-0.180665,0.319463,-0.426308,0.136215,-0.329344,-0.412194,-0.163262,0.225437,-0.319794,-0.187283,0.210623,0.401397,-0.483478,-0.452565,0.319598,0.384136,-0.19638,0.211776,-0.472331,-0.187257,-0.0847096,-0.361681,-0.183277,-0.215597,0.0600975,0.401449,-0.206375,-0.0870592,-0.0998946,-0.345855,0.28698,-0.00869864,-0.425518,-0.15281,-0.188638,0.34034,0.415163,0.440854,0.243219,-0.242154,0.205521,0.389518,0.145487,0.425978,-0.231978,-0.394979,0.503513,-0.162658,0.320867,0.0374955,-0.334459,-0.00223956,0.0114132,0.0216029,0.46604,0.31173,-0.47219,-0.416861,-0.43948,-0.0357262,0.196232,-0.415813,0.0331337,-0.445917,0.276048,-0.414547,0.391881,0.252928,-0.260215,0.021177,0.173926,-0.361108,0.260471,0.223235,-0.487877,-0.0613957,0.3692,-0.190514,0.30624,0.187935,-0.356863,-0.0920994,-0.298743,-0.0549811,-0.412688,0.36977,-0.156869,0.0539711,-0.0677152,0.306804,-0.268737,-0.148427,0.207834,-0.369197,-0.302001,0.00932873,-0.120791,0.360496,-0.428727,0.351012,-0.151553,0.167668,0.475153,0.0202365,0.444269,0.454791,-0.413566,-0.34795,-0.0772686,-0.320468,0.461555,0.397467,-0.286887,-0.451286,-0.360474,-0.335567,0.394955,0.282176,-0.0838043,-0.336567,0.106209,-0.425363,-0.237648,-0.282238,-0.313128,-0.368731,-0.228893,0.038065,-0.0586203,-0.424579,-0.0857685,0.308712,-0.257513,0.453041,0.230367,-0.280095,0.0781253,0.316954,0.374685,0.193438,0.448923,-0.345647,0.25411,-0.447902,0.232003,-0.157185,-0.490319,0.146649,0.0437628,-0.334578,-0.396037,0.475437,0.332257,-0.292693,0.056854,0.471157,0.345703,0.311642,0.416144,0.436902,-0.287833,0.20305,-0.0664685,-0.322645,-0.215812,-0.409137,0.307879,0.111404,-0.0854281,-0.193086,-0.097727,-0.272742,0.429929,0.263152,-0.212906,0.411375,0.47724,0.0865279,-0.496196,-0.441996,0.322244,0.323212,0.0864281,-0.0760891,-0.380572,0.385728,-0.021544,0.017354,0.00125567,-0.00466767,0.0511165,0.162603,0.0258553,-0.192274,0.416509,-0.177816,0.350502,-0.0448611,0.340591,-0.0544174,-0.401981,0.231532,0.338938,0.119012,-0.206324,-0.43322,-0.46888,0.107445,-0.405704,0.078342,0.0826036,-0.332369,-0.0973364,-0.27284,0.434419,-0.291899,-0.00681934,-0.337436,0.434838,-0.0961777,0.233564,0.0228364,0.0865528,-0.00524655,-0.452569,0.496741,0.316883,-0.430161,0.373891,0.447958,-0.233867,-0.478562,-0.301672,0.169597,-0.489446,0.298666,0.435939,-0.145211,-0.253934,-0.477816,-0.465418,0.125585,0.238614,0.493903,0.471951,-0.212202,0.387777,-0.396857,-0.331037,-0.339906,-0.21452,-0.300332,0.231325,0.366877,-0.20877,0.331794,-0.0229333,-0.476922,-0.230305,0.103208,-0.0454532,-0.1797,0.312553,0.401368,0.061481,0.155879,-0.298252,0.0497657,0.178181,-0.109829,0.105534,0.121479,-0.436722,-0.198625,-0.313936,-0.00238168,0.180599,0.459266,0.292204,-0.328111,0.171627,0.450323,-0.177453,-0.0566373,0.211691,-0.0233722,0.469677,-0.360343,-0.447911,0.285134,0.299217,-0.381706,-0.339833,-0.227033,0.441328,0.14059,0.318397,0.307802,0.139025,0.0919318,-0.0660746,0.413944,-0.036438,0.417417,0.0989978,-0.431495,-0.366561,0.464254,0.309079,0.214454,0.177831,0.0981316,0.129478,-0.273828,0.0704865,-0.0371599,-0.286341,-0.107306,0.170888,0.198914,-0.0889729,0.358146,-0.446731,0.0744667,-0.392183,0.432852,0.492515,-0.0847728,0.191384,-0.415706,-0.292235,-0.401088,0.0412903,-0.463877,-0.410226,0.339736,-0.190638,0.371109,0.42707,-0.397014,0.176748,0.103351,0.336685,0.353011,0.253524,-0.189409,-0.195936,0.182879,-0.451244,-0.271466,0.163704,-0.207237,0.412812,-0.312456,0.0503671,-0.263144,0.00682978,0.463784,0.325027,-0.177908,0.197227,-0.388538,0.151363,0.28619,-0.439148,-0.349757,0.342311,0.188545,-0.0989255,-0.471634,0.259575,-0.392393,-0.29106,0.00115285,0.361643,0.230511,0.157689,-0.39921,0.0486177,0.44484,-0.104441,-0.465572,-0.0321626,0.323363,0.398697,0.273091,0.0892612,-0.432219,-0.353697,0.200707,0.121237,-0.109814,-0.0956243,0.224495,-0.328809,0.320019,-0.055608,0.229257,0.148017,-0.424994,0.177328,0.0311138,0.479261,-0.3852,0.293649,0.442343,-0.0780718,0.0145356,-0.488124,0.306705,0.222544,-0.347041,0.445,-0.226022,-0.499773,0.408302,-0.238602,-0.0567459,-0.455614,0.439396,0.176806,-0.327922,0.0553727,-0.482633,0.477916,-0.103488,-0.15922,0.346343,0.181879,0.234287,0.481965,-0.365886,0.490329,-0.435756,0.132638,0.456393,-0.39331,0.201384,0.209633,0.453852,0.181019,0.470371,0.337593,0.485067,-0.444951,-0.132227,0.164044,-0.109459,-0.403663,0.198458,-0.122475,0.424036,-0.206911,0.413381,0.358845,0.4771,-0.235446,0.38788,0.228505,0.227911,0.43143,0.0938326,0.48198,-0.247791,-0.424138,0.498167,-0.0431542,-0.337387,0.0928816,-0.00879271,0.0735432,-0.138351,0.21218,0.346918,0.212559,0.474991,-0.015542,-0.432836,0.249842,0.248962,-0.0479625,0.306754,0.168733,-0.341452,0.179508,0.124012,-0.100958,-0.0625099,0.0877691,0.00301299,-0.046596,-0.0133607,-0.259236,0.16897,0.0703423,-0.244388,0.305332,0.352,-0.0505724,-0.368531,0.2408,0.323779,0.101069,0.306655,0.257092,0.0796384,-0.3142,0.229405,0.399636,-0.187763,-0.278868,-0.364134,-0.2008,0.254668,0.416566,0.40099,-0.137926,0.282251,0.214349,0.13604,-0.24523,0.126117,0.0205764,-0.0358295,-0.100003,-0.194028,0.234105,0.484799,-0.314123,0.210146,-0.490446,-0.438858,-0.0620502,0.0914804,-0.379473,-0.402441,0.455664,0.150183,0.375881,0.0164373,0.357524,0.283464,0.459272,-0.0556979,-0.184368,-0.485677,-0.132182,-0.0371172,0.206685,-0.360693,0.468825,0.269848,0.300343,-0.119893,0.342078,-0.207793,-0.00611197,-0.392979,-0.287283,0.150071,-0.226551,0.0366631,-0.311309,0.0301094,0.0652341,-0.359571,-0.219505,-0.141332,-0.290496,0.0967961,0.498506,-0.386748,-0.0730409,-0.411628,0.256502,-0.36628,0.324511,0.248092,-0.138321,-0.194312,0.326514,0.479568,0.35512,-0.469397,-0.320691,-0.438437,0.110111,-0.359566,-0.192795,-0.208978,-0.289808,0.368134,0.302325,0.341222,0.265518,-0.209616,-0.0817793,-0.345701,0.300226,0.344787,0.222802,-0.447845,-0.109862,-0.48356,0.272979,0.432675,-0.437754,0.452599,-0.118121,-0.00693844,0.178442,-0.29786,0.250147,-0.0242626,-0.181999,-0.460976,0.271792,-0.267574,0.239785,-0.119601,-0.130702,0.291849,-0.398464,0.366343,-0.00265046,0.237004,-0.0286968,-0.451463,-0.254858,-0.42844,0.35079,0.359095,-0.0712345,-0.250308,-0.254637,-0.112049,-0.166215,0.117745,-0.373223,-0.0970203,-0.338497,0.15314,-0.230239,-0.0382071,-0.46796,0.00634357,0.289845,0.400057,0.103057,-0.0149745,-0.0760238,-0.447468,0.103536,0.156216,-0.176807,0.00439773,0.426168,-0.195365,0.102549,-0.136492,0.464014,0.488754,-0.274567,0.224406,0.156934,-0.154253,-0.363463,-0.253666,-0.499625,0.240568,-0.182119,-0.390469,-0.383291,0.299838,0.316515,0.306677,-0.0478659,0.324718,-0.239485,0.447003,0.0806584,-0.475714,0.261262,0.281371,0.0406075,0.211774,0.175861,0.322571,-0.117911,0.465892,0.484208,-0.471934,-0.476986,-0.149001,-0.154359,0.201852,0.413552,-0.444614,-0.116328,0.298917,0.201605,-0.0716526,0.311625,-0.0923036,-0.289215,0.443697,0.275478,0.102973,0.466867,-0.449312,-0.447207,0.0553179,-0.326368,-0.330991,-0.452536,0.175833,-0.449324,-0.064609,0.152289,0.32971,0.263976,-0.0956639,0.486732,0.252939,-0.0802572,0.0509939,-0.189177,-0.224697,0.0182499,-0.299687,0.167587,-0.0445532,-0.489566,-0.495533,0.315191,0.00805815,0.212429,0.398346,0.449546,-0.3285,0.0586838,-0.162302,-0.363031,0.485181,0.405837,0.11906,-0.489708,0.154823,-0.259208,-0.451898,-0.243529,-0.285393,0.416144,-0.0569575,-0.469851,-0.474958,0.245516,0.418056,0.435424,0.0359092,-0.216534,0.0850701,0.213109,0.439688,0.0366769,0.475213,-0.0173695,0.087902,0.348653,0.470673,-0.419659,0.234732,0.325879,-0.341098,-0.463691,0.212375,0.405511,0.122779,-0.390735,0.0927595,0.146335,-0.216343,0.293969,0.369455,0.456384,0.045358,-0.110432,-0.149853,-0.263107,0.231197,-0.213426,0.442597,-0.0973958,0.467173,0.195385,0.194536,0.317106,-0.169398,-0.0197877,0.115188,0.0232075,0.153348,-0.0213925,0.131366,-0.00530781,-0.000988502,-0.132317,-0.451704,0.226545,-0.488915,-0.0249258,0.471838,-0.480544,-0.227165,0.46946,-0.193882,-0.0434868,0.319648,-0.00504995,0.220956,0.277353,0.23134,0.0211005,0.395332,0.0103629,0.202495,-0.30203,-0.404461,0.26675,0.137556,-0.16474,-0.049051,0.241706,0.235657,-0.130414,-0.103174,0.343744,0.32327,-0.414438,0.391461,0.0518695,0.392559,0.327825,-0.0130401,-0.298074,-0.10653,-0.22933,-0.419712,-0.454086,-0.317436,-0.329095,0.332274,0.163268,0.0414476,0.209787,-0.261674,-0.472954,0.0799336,-0.146415,-0.328759,-0.420855,-0.101387,-0.252863,0.0844488,0.179157,0.101605,0.0248808,0.414327,0.166912,0.262168,0.480743,-0.328042,-0.0882613,-0.182666,-0.192289,-0.104321,0.319748,0.479757,0.268944,-0.283258,0.276041,0.140156,0.29617,0.376947,-0.181065,-0.319257,0.229215,0.0716911,-0.446416,0.109362,-0.376453,-0.442641,-0.345223,0.48887,-0.430833,0.161763,-0.463618,-0.437237,0.267151,0.281671,0.492912,-0.238347,-0.469827,-0.495567,0.138679,0.419635,-0.454881,-0.38546,0.0945798,-0.241961,0.124222,0.488411,0.432685,-0.390374,0.16928,0.374081,-0.00996973,0.484817,-0.0943617,0.226639,-0.389283,-0.0632575,-0.359729,0.0630428,-0.202974,-0.366921,-0.394027,-0.0975432,-0.203506,-0.0210149,0.33919,-0.1868,-0.363279,0.334561,-0.360186,0.493996,-0.49127,-0.10418,-0.00779455,0.440482,-0.312579,-0.0184934,-0.284887,-0.489255,0.221225,0.0156814,0.214172,0.372065,0.141103,-0.300677,0.0296443,-0.308356,0.00264488,-0.0999799,0.420774,-0.263907,-0.0322266,0.390789,0.13946,0.125547,-0.368499,0.0931068,-0.166547,-0.455007,0.279585,0.178432,0.134481,-0.172496,-0.220257,0.211216,-0.466667,0.446738,-0.305383,-0.452289,0.202768,0.396305,-0.192728,-0.338079,-0.00974608,0.210942,0.0657649,0.113554,0.350261,-0.0482819,-0.0394247,0.409556,0.237009,-0.365922,-0.415132,0.0161456,-0.0757413,-0.0982013,-0.337085,-0.324915,0.0426078,0.388986,0.335255,-0.471674,0.12951,0.189029,0.177748,-0.469876,0.307358,0.0377658,-0.464864,-0.355067,-0.266472,0.392375,0.350608,-0.428944,0.479461,0.0634091,0.150951,-0.47683,-0.151913,0.345144,-0.0223138,0.282991,-0.327654,-0.0397201,0.259239,-0.34115,-0.00674697,-0.334801,-0.418305,-0.223081,-0.197081,0.0284425,-0.380285,-0.415583,0.432515,-0.32447,-0.269277,-0.307409,-0.0461555,0.427536,-0.368441,-0.363069,-0.420535,-0.199619,0.155793,0.232685,0.0530633,0.123641,-0.217288,-0.170571,0.0366394,-0.0907129,0.359038,0.404064,-0.265911,-0.396441,-0.270214,-0.0529201,-0.214524,-0.373607,-0.285643,-0.324605,0.34133,0.127361,0.440468,-0.438386,0.0577257,0.243572,-0.2064,-0.444721,0.126051,0.37266,-0.176783,-0.00638121,-0.399858,0.418836,-0.241762,-0.255568,0.255824,0.292819,0.343197,0.136963,0.00825171,0.195975,-0.0164456,-0.394499,-0.469465,0.264064,0.446102,-0.163887,0.109409,0.0844915,0.32632,-0.0945824,0.173325,-0.0700088,-0.424629,-0.305665,-0.395422,0.442807,0.213532,-0.0681883,0.120163,-0.205005,-0.367395,0.367369,0.169255,0.357213,0.357718,0.436378,0.282959,0.142314,-0.0562452,-0.309409,-0.166422,-0.00656109,-0.211,-0.159461,0.398039,0.218181,0.460998,-0.386775,-0.337574,-0.188461,-0.458444,0.167519,-0.0163228,0.225116,-0.145375,-0.131919,-0.33366,-0.0827724,0.320282,-0.216611,0.305154,0.224225,-0.0371112,0.163686,0.0675661,-0.338053,0.247444,-0.138007,-0.329535,0.124648,0.407951,-0.412959,0.222966,-0.12875,-0.0897441,-0.403895,-0.420981,0.460556,-0.284362,0.199876,-0.0538789,0.348377,-0.367549,-0.286906,0.305695,-0.0990808,-0.276978,0.26332,0.258478,-0.0125886,0.0909554,0.0644878,-0.196769,0.358485,0.142787,0.278995,0.423103,0.225132,0.162593,0.0826789,-0.340015,0.0987358,-0.471817,-0.431608,-0.365473,0.392211,0.47267,-0.220061,-0.243504,-0.34615,0.403444,-0.0223828,-0.459224,0.497918,0.12277,0.460728,0.391308,-0.407366,0.115648,0.034289,0.439803,-0.180443,0.076066,0.0869553,-0.329739,0.418161,-0.0117014,0.311437,0.141194,-0.138846,0.278641,-0.318613,0.209047,0.239826,-0.101594,0.00165178,0.346483,-0.258166,0.0195052,0.134147,-0.331418,-0.334509,-0.232622,-0.0152261,0.0289261,0.332156,-0.159902,0.217377,0.396597,-0.0801047,0.323871,-0.276405,-0.437476,0.0503452,-0.413948,0.462658,0.489591,-0.101528,0.430757,0.294598,-0.487041,-0.281364,-0.274309,-0.412236,-0.40191,-0.273435,-0.045648,-0.44081,-0.302704,0.283854,0.0704551,-0.0906972,-0.086811,-0.310884,0.0730302,0.377018,0.140588,0.0196177,0.336407,-0.263712,0.22545,0.409487,-0.314328,0.35166,-0.150427,0.105631,0.271459,-0.322932,-0.148485,-0.416541,-0.21147,-0.486891,-0.404237,0.472606,0.0241241,0.285939,-0.0195048,0.29558,0.363338,-0.224466,0.310643,-0.282217,0.14661,-0.149595,0.400665,-0.0641984,-0.252408,0.488767,-0.189594,0.124956,0.0320076,0.43209,-0.311431,0.088474,-0.323626,0.146741,-0.395048,-0.165084,0.302917,0.495308,0.10654,-0.327408,-0.260755,-0.370515,0.160396,-0.110541,-0.170391,0.43567,-0.277839,-0.0120403,-0.4296,-0.0707938,0.434652,0.187268,0.117151,0.351697,0.266952,0.246495,0.360553,-0.13045,0.0656305,0.043955,0.172331,-0.0335686,-0.295109,0.0971015,0.259377,-0.363687,-0.28733,0.06012,-0.0966474,-0.234858,-0.117788,-0.00933849,-0.320596,0.396862,-0.463558,-0.00760606,0.316098,0.246322,-0.167807,0.10875,0.216992,-0.0208219,-0.393923,0.245046,0.248585,-0.497392,0.305944,0.163489,0.00836518,-0.118578,-0.112736,0.149322,-0.250383,0.302278,-0.15022,0.0553519,0.409458,0.185264,0.320243,-0.450256,0.419498,-0.488752,-0.0623125,-0.147991,0.029159,0.26777,0.232908,0.369703,-0.377167,0.390994,-0.0643327,0.48464,0.394094,-0.415375,-0.461246,0.0284347,0.457735,-0.287936,0.382833,-0.358198,-0.286657,-0.0328231,0.165591,0.118266,-0.0848407,0.413689,-0.481969,0.099715,0.44286,-0.417465,-0.0793981,-0.142568,0.34004,-0.2492,0.0828501,-0.310591,-0.346492,0.291319,0.39669,-0.429356,0.471504,0.272495,0.131803,-0.451396,-0.442273,-0.21734,0.243049,-0.0102768,0.42414,0.211489,-0.390021,-0.350792,0.447351,0.430383,0.18162,-0.160583,0.0306683,-0.303287,0.257265,-0.364602,0.326786,0.00216547,0.474668,-0.198897,0.335461,0.301697,0.396744,0.439178,-0.447834,0.387437,0.025169,0.224901,0.266271,-0.327356,-0.246156,-0.0507577,-0.0201617,0.239968,-0.281296,-0.449517,0.306095,-0.0486068,-0.141846,-0.234576,-0.326626,0.225417,-0.392684,0.473325,0.0609052,-0.36145,-0.249718,-0.2381,0.0551498,0.333301,-0.183434,-0.348811,-0.321325,-0.309522,0.101531,0.278371,-0.242543,-0.165836,0.233381,-0.269387,-0.0491845,0.346287,-0.173604,-0.266723,-0.296028,0.329034,-0.0298255,0.117161,-0.195928,0.166527,-0.406163,0.0823685,0.0404826,-0.0202193,-0.0673141,-0.265333,-0.104387,-0.241891,-0.315081,-0.134732,0.46644,-0.181006,-0.174182,-0.181985,-0.420632,-0.478181,-0.231645,0.325471,0.0144565,-0.190904,-0.0179429,0.412847,-0.454681,-0.325968,-0.149032,0.397681,-0.413727,0.156753,0.222767,0.25031,0.157158,-0.0378692,-0.0693142,-0.481316,0.0178501,-0.181397,0.10603,-0.370448,-0.462026,-0.176737,-0.260815,0.263252,0.0879885,0.306437,-0.203994,-0.00970987,-0.498627,0.0141478,-0.106268,0.0332694,-0.0549315,0.307021,0.294661,0.0344845,0.0958444,0.333782,-0.281059,-0.153554,0.204678,-0.494097,-0.329657,-0.15948,0.351845,0.266531,0.13056,0.212322,-0.216407,0.326622,-0.0745396,-0.399602,0.173559,-0.410819,0.249543,0.0778481,0.137788,0.484142,-0.127389,0.497267,-0.176409,-0.492808,0.350226,0.138029,0.233939,0.225978,-0.39178,0.126867,-0.300518,-0.376082,-0.426662,0.466373,-0.0855932,-0.262183,0.491903,-0.346774,0.252906,-0.453066,0.25655,0.268074,0.178719,0.0362365,-0.384997,0.0183762,0.47113,0.0529917,-0.0255993,-0.0900367,0.142858,-0.423965,0.481327,-0.364772,-0.329497,0.431697,-0.475981,0.172155,0.233799,0.375064,0.27641,0.0387529,-0.432689,-0.231491,-0.465683,-0.121673,-0.296869,0.145668,0.0481708,-0.264577,0.459067,-0.180028,0.363257,0.029153,0.347414,-0.00113916,0.467363,0.308837,-0.187487,-0.107881,-0.427632,-0.180731,0.355289,-0.296715,-0.0611262,0.0808588,0.426572,-0.211845,-0.114804,0.287562,-0.388311,0.470412,0.128454,-0.424445,-0.402212,0.0551262,-0.148057,0.252584,0.486127,-0.192922,0.421094,0.336247,0.466421,0.30155,-0.322909,0.131169,-0.0882966,-0.241994,0.326394,0.13145,0.125977,0.338496,-0.389998,0.435769,-0.470385,0.320597,-0.0950931,0.458847,-0.124551,-0.22077,-0.163243,-0.397676,-0.437379,-0.32993,0.0735854,0.344321,0.410861,0.0189466,-0.179667,-0.26255,0.376243,-0.454916,-0.22326,0.170464,0.306102,-0.149662,0.0334435,-0.36916,-0.3544,-0.480631,0.422105,-0.120407,-0.466568,0.433926,-0.0281609,-0.282616,-0.0360976,-0.485334,-0.196726,0.279411,0.390513,-0.150298,0.260908,0.40769,0.408084,0.125695,-0.298953,0.470813,0.498048,0.0167748,-0.189951,0.0830026,0.100918,-0.255098,-0.31385,-0.319754,0.487935,-0.0475337,0.165402,0.0415078,-0.14641,-0.253978,0.224428,-0.441704,0.15958,0.292893,0.12452,0.164206,-0.0873162,-0.389599,-0.225088,-0.225125,-0.246512,0.397137,0.293006,0.291909,-0.18702,-0.16266,0.366987,0.109867,0.0882308,-0.344654,0.142116,0.020931,0.160228,0.242837,-0.0789903,0.225711,0.204168,0.48406,-0.0475848,0.238384,-0.418666,-0.327655,0.0182297,-0.388237,0.220397,-0.395387,0.428032,-0.131905,0.329877,-0.0571514,-0.447452,-0.213784,0.304716,0.0890011,-0.168896,0.246811,-0.16696,0.433147,-0.484935,-0.216147,-0.286086,0.295961,0.154597,0.481814,-0.226905,0.0204107,-0.131124,0.190862,-0.132189,-0.158509,0.0235442,0.471679,0.174806,-0.283084,0.18458,0.276673,0.381351,0.371663,0.290286,-0.00496508,-0.254627,-0.203845,-0.0254707,0.0658326,-0.438927,-0.169533,0.0959816,0.218885,0.424101,-0.382604,-0.393998,-0.130199,0.118048,-0.368764,0.438967,-0.461825,0.466841,-0.200701,0.21707,-0.034076,-0.403557,-0.171748,0.060965,0.283744,-0.332779,0.0358932,0.449885,0.311764,-0.0745207,-0.155886,0.0436181,-0.00770039,-0.234785,-0.363622,0.23537,0.371793,0.374802,0.244265,0.389848,0.218513,0.108987,0.272886,0.182813,-0.160572,0.111699,0.109725,-0.0230653,0.349976,-0.294775,0.143002,0.379229,0.240455,0.141755,0.151113,0.283927,0.0553297,-0.1587,-0.477119,0.502211,-0.121399,0.32707,0.44056,0.427778,-0.262635,-0.435222,0.471202,0.0356323,-0.416917,0.189233,0.0103739,-0.485333,-0.397687,-0.469159,0.340376,0.294594,0.415573,-0.473365,-0.457812,-0.369121,0.391852,0.102796,-0.0227811,-0.157453,0.284229,0.480495,0.209637,-0.417305,-0.134041,-0.370488,-0.104147,0.423161,-0.414751,0.137972,0.202408,0.0651496,-0.315841,-0.273556,0.0288656,0.268974,0.413763,0.263892,0.381868,-0.0197153,0.493526,0.406628,-0.335362,-0.416627,0.110255,0.101519,-0.368826,-0.157965,-0.326152,0.285246,-0.391569,-0.206829,0.472011,-0.301589,-0.154166,0.444714,-0.402181,-0.423885,-0.113032,0.297052,0.326963,-0.294536,0.117426,0.074114,-0.367839,-0.0201357,-0.452476,0.0314779,-0.43903,-0.123676,0.448754,0.212113,0.458496,-0.137819,-0.495272,-0.371952,-0.0460907,-0.0324549,-0.225235,0.0811103,0.163829,0.121428,-0.247729,0.272331,0.0675211,-0.208947,-0.179749,0.200728,0.0264799,-0.490534,-0.275408,0.017239,-0.228034,-0.130646,0.344846,0.148812,0.387117,0.326738,-0.464535,0.00188823,-0.141437,0.27414,-0.311523,0.482212,-0.272818,-0.149224,-0.467684,-0.438834,-0.29918,0.48987,0.386487,0.490192,-0.173137,-0.429894,-0.135715,0.126009,0.133144,0.321475,0.243387,0.495374,-0.332642,0.439854,0.473296,-0.136334,-0.308496,-0.0219402,-0.134332,0.122198,-0.380011,-0.273122,-0.233104,0.0913712,-0.329028,-0.339829,0.444828,-0.381312,-0.46952,-0.0744097,-0.232583,0.398911,-0.296468,0.0116415,-0.0410309,0.444576,0.242055,-0.242901,-0.461728,0.410512,-0.194934,0.408138,-0.147698,-0.121448,-0.408819,0.17139,-0.407501,-0.0146162,0.302594,0.034976,-0.265288,-0.467534,-0.00616805,0.184585,0.263826,0.486775,-0.242279,0.13993,-0.483341,0.00340378,-0.238287,0.416746,0.308565,-0.209051,0.287154,-0.240553,0.0557221,0.358394,-0.2404,-0.159475,0.416208,-0.40107,-0.411236,0.330061,0.00300714,-0.144916,0.163214,-0.240565,-0.374959,0.295143,-0.33317,-0.329916,-0.382997,-0.4271,0.335421,0.0117497,0.0909779,0.132794,0.0714533,0.327444,-0.0534194,0.495936,-0.464974,-0.314226,-0.08601,-0.436202,-0.169015,-0.0574185,-0.479668,0.0252011,0.451489,-0.106435,-0.0783337,-0.476588,-0.0442903,-0.110319,-0.100445,0.36863,-0.219747,0.121157,0.393856,0.198766,-0.150985,0.0806323,-0.184654,-0.0202058,0.360396,0.283778,-0.259022,-0.319855,0.244394,-0.306635,-0.434562,0.098251,0.370885,0.267261,-0.110136,-0.0344615,0.244669,0.289672,0.014428,-0.246512,0.0568932,-0.498477,-0.306369,-0.148391,-0.00912612,-0.0717353,-0.195366,0.0465545,-0.139486,0.0988748,-0.343632,0.0682057,-0.116335,-0.0789424,0.40791,-0.36845,0.28648,-0.266636,0.259326,0.137149,-0.0222614,0.18297,-0.2471,-0.480696,-0.229682,-0.369788,0.352958,-0.297707,-0.49855,0.285034,-0.24417,0.0690121,-0.279021,0.214935,0.0292284,0.448982,0.113564,0.164617,-0.348006,-0.253922,-0.155055,-0.295592,-0.0515445,-0.0651553,-0.203459,0.184964,-0.164862,-0.483109,-0.203999,-0.267288,0.119636,-0.425254,-0.0895589,-0.0985921,-0.221816,0.233023,0.0316116,0.306046,0.127264,-0.356571,0.449234,0.289448,0.0506597,-0.31825,0.0747708,0.307597,0.134251,-0.365158,-0.0123683,0.373387,0.255482,0.114877,0.236443,-0.117955,0.484611,-0.0971993,-0.438869,-0.427599,0.320367,-0.397325,-0.23596,-0.493791,-0.256058,-0.343573,0.479803,0.175413,-0.106783,0.166505,-0.313414,0.109139,-0.219084,-0.236054,-0.189282,0.363556,-0.494674,0.0262321,0.146245,-0.305567,0.36196,0.26656,0.345913,-0.111551,-0.0924182,-0.0899238,0.0784612,0.440373,0.269349,0.315114,-0.0378347,0.301631,-0.46911,-0.27662,0.185093,-0.00704481,0.00429123,0.32502,0.0558093,-0.497371,-0.173732,0.381131,-0.429935,0.494905,0.03197,-0.276769,0.298949,0.13597,-0.491918,0.0684902,0.152164,0.0964517,-0.167014,0.319634,-0.222881,0.195781,-0.364975,-0.473336,0.223812,0.0816515,0.221324,-0.0756417,-0.0895915,-0.134708,-0.475809,0.296037,-0.0620532,-0.186372,0.313677,0.234422,0.125391,0.294297,0.196105,0.38579,-0.193052,-0.229374,0.126607,0.287255,0.496698,-0.0377667,-0.250943,-0.158005,0.176475,0.224387,0.279171,0.346101,-0.35222,0.0773839,-0.088317,0.356827,0.0621966,0.0676017,-0.282045,-0.443164,0.43041,0.359596,-0.0481279,0.494529,0.201461,0.454533,-0.175276,-0.496758,-0.369063,0.267095,-0.172463,0.0920906,0.389342,-0.434823,0.460868,0.346528,0.203077,0.346927,-0.239481,0.299246,-0.34882,-0.472026,-0.442159,-0.369687,0.0201717,-0.0697423,0.216529,-0.382826,-0.247416,0.0873507,-0.0291886,0.342707,0.483312,0.401263,-0.356746,0.249046,0.472017,0.355913,-0.107529,-0.40974,-0.237482,-0.133229,0.290192,-0.387899,-0.402187,-0.233987,0.236615,0.456721,-0.181108,0.498569,-0.071564,-0.358644,-0.187249,0.319576,0.0145944,0.237263,0.0625175,0.0863563,-0.303797,0.254801,-0.0824859,-0.235642,-0.31364,0.0605388,-0.0449476,-0.0309487,-0.00625641,0.474667,-0.224654,-0.180269,0.0569684,-0.00883479,0.414288,-0.142929,-0.176414,0.315777,-0.260971,0.364372,-0.0104329,0.372584,0.498017,-0.233371,-0.0725449,-0.146443,-0.465493,-0.205337,0.414665,-0.283597,0.41897,0.388459,-0.361524,-0.308139,-0.247279,0.379744,0.386117,-0.199208,-0.240614,0.281541,0.177362,0.190003,0.159654,0.299468,-0.168107,0.407066,-0.350144,-0.348576,0.490693,0.266377,0.0597914,-0.292663,0.0957597,0.41763,-0.0361882,-0.494697,-0.288012,-0.33513,0.140735,0.426684,0.0516177,-0.0403772,-0.240581,-0.108759,0.418166,-0.391831,0.0361031,0.198537,0.0738029,-0.408314,-0.201373,0.196545,-0.368467,0.0863258,0.142011,0.406351,-0.183001,-0.147087,0.249497,-0.12467,-0.0950844,-0.246629,0.0861119,0.0740998,0.0931957,0.00664095,0.0295567,-0.194617,0.110006,-0.152309,-0.142342,-0.44735,-0.265489,-0.418918,-0.417908,-0.48804,0.0649861,-0.13545,-0.269727,-0.347085,0.0500542,0.0452311,-0.268456,-0.345239,-0.180306,0.372888,0.347649,0.261201,0.450375,-0.484976,-0.111952,-0.32423,0.201489,0.475444,0.0894928,0.045461,0.297412,-0.216898,-0.0946338,0.100541,0.16093,-0.318048,-0.0678522,0.24074,-0.0575892,0.309218,-0.438566,0.182754,-0.236144,-0.438622,0.34361,-0.442315,0.429838,-0.303976,0.0475219,-0.348278,-0.162247,-0.344586,-0.13469,0.425642,-0.238176,-0.240969,-0.0269648,-0.188145,-0.269668,0.0933226,-0.0363874,0.368763,-0.125594,0.382483,0.120021,-0.0125658,-0.448759,0.0811664,0.0961351,-0.320021,0.0169217,0.00398788,0.0993035,0.13593,0.363843,0.471235,-0.173173,-0.240548,0.014865,-0.131424,-0.30013,0.46093,-0.134037,-0.440415,-0.11002,-0.359556,0.496757,0.0744083,0.118574,-0.343661,0.117189,0.159821,0.21413,0.105001,0.215615,0.485514,0.298268,0.299715,-0.207005,-0.16512,0.422857,0.426982,0.0383223,-0.0412257,0.0657165,-0.364265,0.108253,0.17968,-0.0307715,-0.235493,-0.19438,0.35358,0.0718082,-0.464784,-0.394538,0.0330343,0.0260176,0.239667,0.363486,0.310616,0.122358,-0.289415,0.238583,0.401262,-0.0656233,0.135774,0.191705,0.46302,0.471224,0.017785,0.0847721,-0.0325722,0.0808738,0.00257807,0.474827,0.316034,0.409779,-0.227818,-0.436671,0.394411,0.444524,0.123103,-0.230185,-0.0934079,-0.117989,-0.46751,0.348134,0.208847,-0.0869067,-0.124819,-0.498677,0.29011,-0.223174,-0.27569,0.233795,0.253342,0.358556,-0.0314969,-0.247625,0.0167745,-0.440809,0.127929,0.00869306,0.0073182,0.483147,-0.1635,0.0326411,-0.343194,0.308287,-0.234901,0.321855,-0.2056,0.449883,0.342634,0.142643,0.273389,0.122917,0.430861,0.139171,0.381855,-0.227174,0.43847,0.445614,0.113066,-0.249697,0.327616,0.353663,-0.486207,0.324295,-0.446814,-0.0389815,0.447442,0.0909611,0.388991,0.315459,0.335069,-0.137387,0.202681,-0.493874,-0.0336482,0.3431,0.193173,-0.41365,-0.345817,0.0406057,-0.494518,-0.429764,0.313099,-0.345534,-0.0662881,-0.238559,0.45945,0.272269,0.0963848,-0.465298,0.487853,-0.1163,-0.260575,-0.017343,-0.112229,-0.0560245,0.432291,-0.0560143,0.408409,0.314944,0.0727376,0.0212557,0.000300668,-0.13144,0.159818,-0.0522113,-0.383958,0.103485,-0.402044,0.275696,-0.495735,0.224982,0.0162193,-0.422674,-0.469838,-0.487787,-0.0126193,-0.376126,0.0296032,0.197651,0.0629366,-0.301406,-0.352629,-0.230276,-0.497965,-0.381272,-0.0826715,0.222741,-0.048226,0.210575,-0.337446,0.0180784,0.476778,-0.00814181,0.058732,0.464614,-0.254292,-0.275404,0.0183942,-0.363364,0.401612,-0.115834,-0.364653,0.410059,-0.207467,-0.220353,0.0241067,-0.20294,-0.29217,-0.182124,0.266488,-0.369895,0.380034,-0.053465,0.309648,-0.301218,0.128275,0.012827,-0.137178,0.312845,0.366613,0.292139,-0.176124,-0.351466,-0.46634,0.390472,0.455333,0.0556997,-0.0814685,0.0229197,-0.0331979,-0.216778,0.357102,0.240309,0.113233,-0.142119,-0.485996,0.264878,0.359648,0.289483,0.44366,0.48261,0.466518,0.151166,0.413372,0.490252,-0.49784,-0.0767122,0.25629,-0.147624,-0.457134,-0.256713,0.314337,-0.22672,-0.475184,0.409323,-0.191146,-0.127448,0.0623355,-0.154406,-0.205178,0.0987195,0.286545,-0.451743,0.447675,-0.0524599,0.0433433,-0.109586,0.372426,-0.283012,-0.444977,0.23722,0.323767,0.0265229,0.302584,0.0346757,0.20957,0.499616,0.449111,-0.138966,0.378549,0.140073,0.214863,0.11211,0.0426475,0.0489862,-0.37904,-0.48696,0.417639,-0.0311284,0.495569,0.298372,-0.469737,-0.361905,0.354496,-0.346511,-0.231037,-0.153388,0.26252,-0.404265,0.242998,0.369619,0.48871,0.152291,0.417156,0.408347,-0.172252,-0.0603543,-0.162775,0.304573,-0.281463,0.480622,-0.164896,-0.169552,0.437782,0.229698,0.302354,-0.124764,-0.341906,-0.0957327,0.0454102,-0.216249,0.0910865,-0.222874,-0.233193,-0.192175,0.207318,0.280933,-0.296253,-0.264328,0.0770206,0.407346,0.238529,-0.286717,-0.0619146,0.0214713,0.225191,-0.412231,-0.0359645,0.145055,-0.162886,0.104207,0.122617,-0.143855,0.223515,-0.211183,-0.339994,0.182663,0.393168,0.0519857,-0.422572,-0.409141,0.432337,0.0494514,0.309207,-0.303476,0.128337,0.304249,-0.336369,-0.165509,0.25733,-0.0345839,0.500253,0.160904,-0.220865,0.030087,0.29019,0.200095,0.309721,-0.0819521,-0.445971,0.141665,0.258803,0.0500629,0.33431,-0.00135268,-0.435051,-0.266957,-0.424267,0.452909,0.257075,0.178343,0.0733241,-0.116968,0.222224,-0.0462076,0.289119,0.0146576,0.410548,-0.0938729,-0.0554551,-0.427838,-0.0242706,-0.294124,0.351062,0.00816303,0.0053326,0.195337,-0.397793,0.457376,0.204587,0.0294882,0.374549,0.164763,0.469601,-0.0612605,0.456008,0.103603,-0.300352,-0.440165,-0.471223,-0.251046,0.388789,-0.107095,-0.199724,-0.151909,0.0848418,0.14704,0.24117,-0.440109,0.118763,0.126644,0.450006,-0.240917,0.159375,-0.488045,-0.0149485,0.0681727,0.228225,0.0791597,-0.35553,0.232703,0.0848689,-0.241789,-0.215978,-0.408003,-0.354144,0.0736656,-0.00296264,0.457849,-0.421578,0.341718,0.145831,0.199942,-0.175218,0.0815143,0.199808,-0.436993,0.275769,0.0538231,0.117162,-0.115495,0.280395,0.398862,7.35599e-05,-0.27903,-0.414229,-0.342914,0.428065,-0.179449,0.00364224,0.0516397,0.0383659,0.0102124,-0.0405366,0.395829,-0.207466,-0.241136,0.289702,-0.319142,-0.154222,-0.0819734,0.456466,-0.220479,-0.224662,0.0220798,0.0354136,-0.110799,0.425324,0.0787809,0.310057,-0.25088,-0.000141399,-0.162237,0.439463,-0.0305592,0.189652,0.120904,-0.305372,0.00511949,-0.0243053,-0.315113,0.220002,-0.0254213,0.351743,-0.43515,0.424034,-0.108846,-0.498385,0.151316,-0.0207514,-0.145633,-0.306865,0.215402,-0.209836,0.264773,0.150065,-0.342052,0.49191,-0.47604,0.464622,0.143208,0.397455,0.219789,-0.258503,-0.0661428,-0.0371068,0.485671,-0.36182,0.139882,0.0318876,0.379864,-0.305336,-0.328593,0.139009,-0.343248,-0.280946,-0.0900314,-0.272908,-0.200535,0.283526,-0.262006,-0.352938,-0.280461,0.185536,-0.268834,-0.255555,0.249432,0.290497,0.303057,-0.406391,0.295751,0.42403,0.307085,-0.219974,0.347891,0.473652,0.125999,0.149136,0.44025,-0.406304,-0.159231,-0.165419,0.358123,0.343667,0.343453,-0.0229165,-0.0195938,-0.343352,0.37505,0.101967,0.377652,-0.372969,-0.40276,0.279903,-0.0824439,0.264215,0.491128,0.324886,-0.0211628,0.136568,-0.0573135,-0.474224,0.344205,0.00264326,0.0986211,0.0336113,-0.0347606,-0.390984,-0.0908803,-0.265695,0.385831,0.295251,-0.147088,0.476848,-0.401177,-0.456431,0.19356,-0.409474,-0.00825896,0.359913,-0.0530959,0.485568,0.288681,0.193152,-0.466618,0.398797,-0.312176,-0.467658,0.37988,0.438106,0.438968,-0.41713,-0.0969606,0.153485,-0.157593,0.223215,-0.30207,0.391754,0.115034,-0.0158363,0.417573,0.153347,-0.113928,0.327219,-0.364429,-0.4151,0.113062,0.363932,-0.435429,-0.0640586,0.120775,-0.241374,-0.030749,-0.427961,-0.239755,-0.0693867,-0.205185,0.0890964,-0.207707,0.120486,-0.026408,-0.38694,-0.113586,0.151531,-0.105316,-0.149624,0.412476,0.394746,0.418046,0.108171,-0.409953,0.16019,-0.471067,0.368689,0.49033,-0.213932,-0.0950722,-0.373951,-0.0156906,0.429289,0.0612541,0.154027,-0.363893,-0.147327,-0.458073,-0.485835,0.107368,-0.309479,0.0486247,0.295115,-0.248636,-0.33425,0.131021,0.482825,0.391076,0.244609,-0.0305181,-0.43675,0.0551344,-0.179789,-0.185026,0.0956089,0.307038,-0.381062,-0.233075,-0.283523,-0.0714717,0.232054,0.256321,0.113395,0.46807,-0.466768,-0.36958,-0.260036,-0.147976,-0.39895,0.16882,0.399117,-0.0515327,-0.116495,-0.129881,0.0935245,0.370647,0.00665447,-0.18427,0.0755347,-0.164151,-0.129743,-0.0263144,0.144956,0.280471,0.389304,-0.422293,-0.15612,-0.172327,-0.158672,0.24802,-0.47941,0.0629281,-0.232525,-0.387817,0.334419,0.0131927,-0.455489,-0.0242991,-0.220113,-0.374839,0.451009,-0.25277,-0.22966,0.122591,0.225816,-0.321152,0.368307,0.0836455,0.350845,0.361558,0.181407,-0.0425757,-0.231502,0.184307,-0.321741,0.434517,-0.185073,-0.331026,0.384175,0.118335,-0.359225,0.0835606,0.0366667,-0.456245,0.167612,0.244555,-0.103719,0.455996,-0.15029,0.492388,-0.426631,-0.0898728,-0.184737,-0.169362,0.206176,0.496736,-0.198319,-0.229702,0.441354,-0.475293,-0.127428,0.215152,0.00782342,-0.435514,-0.00990645,0.318597,-0.258419,0.388017,-0.201206,0.341133,-0.0911243,0.389904,-0.322819,-0.379254,0.307133,-0.0102879,-0.469081,-0.0271438,-0.373009,-0.267492,0.211462,0.201042,0.278889,-0.0108466,0.488169,0.077173,-0.481014,-0.3909,0.412743,0.235587,-0.330336,0.336204,0.0170434,0.45608,0.270306,0.0198798,0.0179237,0.441549,-0.192133,-0.099542,-0.162141,0.108976,0.148164,0.0724608,-0.0933412,-0.00677668,0.0721499,0.357921,0.372173,0.157749,-0.144104,-0.0906888,-0.371338,-0.351019,0.465724,-0.135506,0.469981,0.382705,-0.176504,0.362094,0.193306,-0.445442,0.22943,0.458063,-0.227737,0.0301862,0.468056,0.376083,-0.0833465,-0.248031,0.445428,0.345426,-0.13371,0.293552,-0.356213,-0.169491,-0.30748,0.0495813,0.119533,0.402287,0.439843,-0.25814,-0.0933052,0.206876,-0.0297249,-0.361787,0.402503,-0.429849,-0.0450475,-0.326595,0.131424,0.427952,-0.144239,-0.205114,0.073518,-0.41156,0.470694,-0.352019,-0.00542032,0.230108,-0.225719,0.100549,0.362666,0.0554557,0.0782569,0.397652,0.0683655,-0.330701,-0.211155,0.290345,-0.207781,0.389071,-0.115698,-0.489417,0.324511,0.15983,-0.0806809,-0.411705,0.318016,0.141926,0.482531,0.147068,0.0631419,0.377581,0.344557,0.26825,0.395627,0.404013,0.341382,0.0438246,-0.369783,0.345741,0.203253,0.433134,-0.434115,0.399045,0.360162,-0.291017,-0.340487,-0.365279,-0.420967,-0.187286,-0.0699425,-0.360843,-0.365921,-0.238983,-0.403592,-0.136107,0.0465354,0.258196,0.189971,0.204554,0.116604,-0.28241,-0.0487839,0.0796048,0.303368,0.160369,0.0233992,0.297135,-0.110011,-0.279279,0.029662,0.0500574,-0.291257,-0.136233,0.192819,-0.322636,0.0136861,0.442319,0.422141,0.128988,-0.3303,-0.0400978,-0.437611,0.0538092,-0.471119,0.229842,-0.0281757,-0.375123,-0.481223,-0.0394992,0.233423,0.496429,0.363165,-0.369495,-0.353628,-0.378983,-0.47721,0.415545,0.489934,0.411419,-0.377865,0.108852,-0.425087,0.280251,0.226116,-0.254224,0.030066,-0.333183,0.287902,-0.465498,-0.109442,-0.148629,-0.0118336,-0.334688,0.312976,0.459028,-0.165026,0.33915,-0.209381,0.128292,-0.478868,-0.465963,0.327706,0.318558,0.199438,0.238271,-0.0175931,0.341447,0.439676,0.387677,0.261724,-0.417731,0.485306,-0.0114399,0.32334,-0.226012,0.340086,0.373513,-0.453251,0.303179,-0.0943918,0.447335,0.224778,-0.106508,0.298772,0.00129094,-0.382396,-0.0398213,-0.449381,-0.191258,0.170274,0.216921,0.462242,-0.0278916,-0.225458,-0.181106,-0.146499,0.360943,-0.157141,-0.337069,-0.300042,-0.319858,-0.0624628,-0.298784,-0.0432308,0.162484,0.0402696,-0.0589224,0.247194,0.00595293,0.113247,0.452069,0.166552,-0.448183,0.399765,0.0414426,0.385245,0.39286,-0.083564,-0.0828875,0.34771,-0.034993,-0.102574,0.0407447,-0.407155,0.103532,0.0722099,0.472488,-0.256543,-0.244965,0.482839,0.0468361,-0.0987849,0.199729,-0.272757,0.148373,0.266333,-0.304182,0.177932,-0.454602,0.341101,-0.177304,-0.0706965,0.402227,0.0972001,0.305046,0.489226,-0.150004,-0.0605865,-0.218746,-0.0311802,-0.468232,0.194678,0.156628,-0.443339,-0.0534784,0.187188,0.281557,-0.145545,-0.34279,-0.138403,0.00931614,-0.394552,0.321035,-0.0162215,0.0302637,-0.446809,0.158663,-0.367896,0.09969,0.320635,-0.377056,-0.259711,0.448274,0.224342,-0.0676505,0.202516,0.426706,0.152052,-0.495832,0.330287,-0.488551,0.159876,-0.471182,-0.100074,0.0939194,-0.441859,-0.241381,-0.286917,-0.189276,0.0870591,-0.339426,-0.382166,0.427928,-0.497168,-0.414259,-0.314858,0.366102,0.233168,-0.178684,0.205652,0.318796,0.128145,-0.0313329,-0.17249,-0.0934245,-0.099083,-0.436972,-0.267227,-0.373373,0.0566185,-0.124243,-0.108879,0.402086,-0.419589,-0.0523403,-0.284473,0.286669,-0.0249756,-0.437049,-0.178967,0.387325,0.0434965,0.113517,0.0385949,-0.487221,-0.0392295,0.0266226,-0.30339,0.386275,-0.437195,0.00865391,0.0521277,0.272065,0.0258448,-0.0649664,-0.330346,-0.396469,-0.0932087,-0.400115,-0.0138079,-0.420608,0.342711,-0.463982,0.0690851,-0.0946148,-0.466346,-0.449214,0.189394,-0.116375,-0.146297,0.186005,-0.113752,-0.444146,0.425574,-0.354842,-0.288135,-0.0711721,-0.0793504,0.251674,-0.371925,-0.217513,0.33544,0.141257,-0.487952,-0.303573,-0.364404,-0.339674,0.202235,0.262899,-0.352713,0.483864,-0.390664,-0.408323,-0.166541,-0.483619,0.22152,0.448522,0.206315,-0.121476,-0.387421,-0.384964,-0.038407,-0.387665,-0.108741,0.360091,-0.463202,0.0522713,-0.325654,-0.21464,-0.3337,-0.246178,-0.428205,0.123675,-0.402563,0.180582,0.168035,0.146889,-0.368382,-0.218966,0.430151,-0.442096,0.450327,-0.174537,-0.331882,0.35701,-0.301924,0.340447,-0.15495,-0.33134,0.0855681,-0.0483329,0.113326,0.0382513,-0.416099,-0.245211,0.336213,0.284481,0.128081,0.0455169,-0.305393,-0.17636,0.00694131,-0.31371,-0.100288,-0.422538,0.0233646,-0.273558,-0.286518,0.410323,0.433121,0.0231562,0.279648,0.38332,0.0655798,0.216377,-0.244434,0.350734,0.466792,-0.106252,-0.347936,-0.253703,-0.395819,-0.155977,0.134224,-0.39978,0.473719,-0.37506,0.344703,-0.365354,0.392514,-0.134198,-0.49535,-0.194758,-0.236192,0.194956,-0.240366,-0.377568,-0.176231,0.159007,-0.0536001,0.496468,-0.348545,0.075042,-0.0337262,0.0865003,-0.288888,-0.0704339,0.164955,0.0401541,-0.449908,0.15555,-0.323014,-0.255599,-0.349146,0.239081,-0.0657967,-0.226716,0.40165,-0.198351,-0.173666,-0.386223,0.339937,0.214739,-0.402785,0.369149,-0.0761466,0.106203,0.336497,0.183955,-0.428478,0.398415,0.3936,0.0138287,0.150499,0.0296581,-0.328077,0.265472,-0.333809,0.423629,0.269758,-0.335031,0.249422,0.0269141,-0.19247,-0.0215533,0.252236,0.112738,0.231136,0.353111,0.292611,0.387133,0.376363,0.105436,0.0242503,0.458989,-0.179712,-0.412864,-0.20475,0.118976,0.219974,0.21703,0.324873,0.319949,0.208655,-0.439871,-0.240938,-0.282793,-0.459312,-0.166245,-0.228126,0.1475,0.150036,0.356667,0.403154,-0.0829702,-0.112566,-0.242814,0.383145,-0.187162,0.0160062,0.3875,0.094188,-0.449653,0.238922,0.232606,-0.438369,0.251964,0.457432,0.217344,-0.405185,-0.183379,-0.143991,0.446956,-0.00130048,-0.366045,-0.214207,0.350683,-0.0782594,-0.272201,0.493136,0.0519422,-0.453985,0.387868,0.403935,0.140985,0.121505,-0.240513,-0.184363,-0.241108,-0.269387,-0.449278,0.105238,0.449143,0.100491,0.0943931,-0.392697,0.22042,-0.248955,0.321624,0.258469,0.258121,0.486812,0.0307825,0.184059,0.172813,-0.398452,0.055131,0.248347,0.478349,0.0410776,0.190992,-0.119873,0.36155,-0.112854,-0.296846,-0.380185,0.112336,-0.339853,0.428462,-0.457593,-0.343699,0.345024,0.224497,0.335399,0.200018,0.493912,0.174614,-0.113543,0.403705,0.378447,0.189693,-0.296896,0.497583,-0.0117955,-0.237008,-0.323503,0.478409,0.171593,-0.212554,0.200027,-0.416339,-0.018025,0.389672,-0.000370616,-0.332706,-0.445455,0.322282,0.253843,0.335077,0.269426,0.411838,0.0737939,-0.065656,-0.382651,0.43728,0.499451,-0.0640994,0.347011,0.317982,-0.144099,-0.413753,0.394351,0.21397,0.024764,-0.148606,-0.100184,0.493864,0.324207,0.224525,0.346562,-0.186568,0.134358,0.0332026,0.4694,0.32972,-0.0633577,-0.477017,-0.377868,-0.422322,-0.0571617,0.313841,0.0480925,0.0215773,-0.00983728,-0.487881,0.221052,0.235593,-0.15315,0.171779,0.024394,0.238797,-0.118399,-0.497935,0.421617,0.183019,-0.253005,-0.329686,0.467162,0.207701,0.409818,0.429081,0.408916,0.100732,0.0826112,0.47345,0.104631,-0.317678,-0.0572513,-0.238173,-0.394317,-0.309195,-0.0526914,0.365042,0.484888,-0.252558,-0.403528,0.200211,0.284735,-0.456003,0.139962,-0.0842766,0.252471,-0.0688117,0.488088,0.298518,0.416839,0.0250942,0.338988,0.0993904,0.277674,-0.46799,-0.372579,0.411642,0.192664,-0.412347,-0.435421,0.305849,-0.174666,-0.205818,-0.292904,-0.26609,0.0646041,0.0467393,-0.172142,0.26888,-0.265731,-0.406158,0.250093,-0.20706,-0.128825,-0.0231082,-0.152958,0.187261,0.171927,0.306851,-0.34177,-0.0933368,-0.114259,0.0972829,0.424075,-0.330847,-0.351929,0.392905,0.48633,-0.255229,-0.254475,0.0422791,0.433444,-0.33978,0.412461,-0.216932,0.0325855,-0.00856215,-0.336691,0.211885,-0.48812,-0.027691,0.247062,0.436303,-0.350054,-0.211501,0.170579,0.223048,0.0321066,-0.264016,-0.0671889,-0.0546439,0.44336,-0.0407727,0.198241,-0.385735,0.272786,0.465694,0.0080567,-0.256518,0.275396,-0.098052,0.0916769,-0.0487583,-0.173709,-0.345439,0.120316,0.48974,0.306685,0.390603,0.374983,-0.413682,0.237187,0.403505,0.126499,-0.499854,0.183852,-0.373163,0.152483,0.243974,0.378882,-0.208491,-0.397623,0.224192,0.00242464,0.145935,0.104824,-0.293831,-0.293215,-0.388332,0.309133,0.140618,-0.312586,-0.443257,-0.454121,-0.26639,0.104967,-0.230572,-0.380256,0.0454285,0.377987,0.0722364,0.284036,0.343116,-0.00219823,0.246999,0.121187,0.241129,0.320844,0.376837,0.207186,-0.0727304,-0.127601,0.183966,-0.425917,0.398053,-0.498686,-0.0281233,-0.449665,-0.431916,0.178629,0.266395,-0.0352008,-0.120368,0.0198314,0.0951133,0.173807,-0.179641,0.261675,-0.23807,-0.300038,-0.270607,0.196376,-0.343062,0.417184,-0.359161,0.162272,0.0222531,-0.343488,-0.103101,-0.217322,0.419574,0.313404,-0.247514,-0.176048,0.340164,0.420259,-0.155132,0.142337,-0.448613,-0.271741,-0.252536,-0.0974144,-0.348651,0.435584,0.388416,0.0200028,-0.170888,-0.119596,0.0337238,-0.247565,-0.150104,0.42736,-0.440647,0.36863,0.130591,0.313359,-0.105975,-0.0201159,0.335421,-0.249002,0.452837,-0.124851,-0.250366,0.0530027,0.281703,-0.0844906,-0.22089,0.443963,0.197223,-0.471839,0.277826,-0.00328517,-0.101426,-0.212075,0.252564,-0.446527,-0.114548,0.0806232,0.471995,0.0950738,0.24079,0.0959787,0.328714,-0.489699,0.469874,0.213618,-0.153717,-0.421547,0.371754,-0.290983,0.145151,-0.467289,0.421253,-0.474281,0.219584,0.291099,0.430129,-0.408811,0.182267,0.0574579,-0.488249,0.286703,0.457463,0.364407,0.0970665,-0.47702,0.0182326,0.0367064,0.190803,-0.0203608,-0.307016,-0.331786,0.353205,-0.392483,-0.249416,-0.256087,-0.122709,-0.264066,-0.287475,-0.274624,0.310477,0.0030501,-0.379496,-0.323839,-0.396463,0.260761,0.387662,0.175313,-0.213595,-0.24597,0.0565108,0.276698,0.224875,0.251606,-0.260446,-0.26949,-0.0292241,-0.153055,0.260006,-0.481861,-0.331398,0.301607,0.0206414,-0.411566,0.178639,0.304974,0.362006,-0.118826,0.312455,0.233026,0.241629,-0.204065,0.441153,0.143233,0.152479,-0.313166,-0.0966116,-0.331204,-0.282722,0.248475,0.0689805,0.0469839,-0.0330281,-0.392088,-0.224248,-0.469256,0.27211,0.345533,-0.330409,-0.428798,0.469716,0.409161,-0.243321,-0.295716,0.396219,-0.42525,0.128881,-0.485113,-0.390181,-0.0490263,-0.303105,-0.0628359,0.147745,-0.194554,0.482154,0.275439,-0.498637,0.0310625,-0.264398,0.480883,-0.206238,-0.226045,-0.0455592,-0.0223576,0.120931,0.306793,0.150717,-0.321263,0.345442,-0.00657149,0.348255,-0.148011,-0.0527785,0.2351,-0.0225217,0.0310406,0.0513571,-0.0861466,0.286906,-0.313149,0.0903158,0.313249,-0.306657,0.45303,0.0956699,-0.354913,-0.161812,-0.476801,-0.420476,0.0120775,0.471887,0.036213,-0.268936,-0.254851,0.276473,-0.33013,-0.385782,0.299809,0.0494166,0.0554915,0.372606,0.441672,0.342852,-0.112092,0.237127,-0.265238,-0.198446,0.0543054,0.150017,-0.00251746,-0.427664,0.308227,-0.196736,-0.111449,0.412415,0.141347,0.285994,-0.264279,-0.201629,-0.397687,-0.445252,-0.387639,-0.250727,-0.167744,-0.340221,0.196473,0.0761497,-0.226303,-0.218728,0.485151,-0.346595,0.38998,0.30409,-0.47873,-0.441062,0.149178,-0.064681,0.494487,0.121848,0.167704,0.12566,-0.173058,-0.365815,-0.408806,-0.498435,0.376433,-0.0739634,-0.463098,-0.15641,-0.00885433,-0.392264,0.435498,-0.12614,-0.0348099,-0.223535,0.199027,-0.187571,0.343727,-0.278935,-0.125867,0.231038,-0.173493,-0.120057,0.209695,0.0842555,0.173752,0.225199,-0.115878,0.314286,-0.443067,0.379175,-0.19619,0.164839,0.143986,-0.384563,0.0591939,-0.309579,0.00450123,-0.478741,-0.114792,0.2129,-0.125602,0.383429,-0.453564,-0.00102192,0.393066,0.141544,-0.480541,0.260226,-0.175994,0.199621,0.282551,-0.0948445,-0.0181092,0.284312,0.246809,-0.304572,-0.17019,-0.119132,0.381134,0.343549,-0.457996,-0.0896904,0.447107,-0.0795603,-0.256121,0.16603,0.13172,-0.0996091,0.0581673,-0.280475,0.283514,0.444218,-0.496299,0.298813,-0.328343,-0.44917,-0.0577006,-0.11238,-0.0503677,-0.0802227,-0.442326,0.345041,0.401619,0.377691,0.0845974,0.0346975,0.149247,0.00437091,0.336942,0.214988,0.117453,-0.499041,-0.347316,-0.106306,-0.456215,0.466719,0.470995,0.23249,0.472652,-0.453634,0.41715,-0.336357,-0.0400204,-0.10062,-0.446315,0.248776,0.383124,0.278252,-0.108714,-0.386756,0.0185377,0.340367,-0.109796,0.437517,0.152069,0.497402,-0.297544,-0.499443,0.0579961,-0.0941877,-0.389275,0.0737267,0.125015,0.0184336,0.0939337,-0.314835,-0.313684,-0.0198516,0.234773,-0.198701,0.0581153,-0.482193,0.146192,-0.430963,-0.0709348,0.140807,0.295303,0.311622,0.131286,0.213825,-0.266511,-0.151954,0.345105,-0.295212,-0.258851,-0.352153,-0.252183,-0.138521,-0.119019,0.260167,-0.203334,-0.494792,0.187542,-0.240482,-0.0366102,0.458936,-0.389438,-0.47276,-0.172456,0.246774,0.0675363,-0.353172,0.0675236,0.0386244,0.250255,0.473785,-0.0427826,-0.2246,0.0351,-0.24816,-0.271428,0.000555429,0.0202464,-0.265216,0.405225,0.132531,-0.308811,0.014687,0.15358,0.358011,-0.0336034,0.153111,0.492973,-0.230638,-0.168681,-0.480225,-0.0164679,-0.463707,-0.439975,-0.0282133,0.347492,-0.048065,-0.273512,0.100969,-0.377945,0.427623,0.215323,-0.434535,-0.394648,-0.324074,0.243448,-0.0264011,0.053817,0.120768,0.442458,0.334108,0.292447,-0.161264,-0.210236,-0.213761,-0.166583,0.116969,0.223413,-0.335467,0.102347,-0.0686821,0.488682,-0.164373,-0.290214,-0.0467501,0.339786,0.429012,0.302834,0.243704,0.239691,0.0493028,0.172835,0.358587,-0.325393,-0.0876281,0.152167,0.0464301,0.442109,0.403061,-0.2313,-0.255152,-0.203073,0.0645295,0.247828,-0.227386,-0.269751,0.357384,0.0147044,0.103327,-0.442111,-0.487186,0.299803,-0.33835,0.0078779,-0.322536,-0.105792,-0.0803749,0.217095,-0.406026,-0.0239388,0.180087,-0.217314,0.325738,-0.354237,0.246129,0.166898,-0.0330222,-0.462411,0.1329,0.0627023,-0.272149,-0.0775289,0.0526676,0.0466099,0.0790212,0.416854,-0.178911,-0.130329,0.0237279,-0.240573,-0.000780079,0.0553243,-0.26974,0.0361779,-0.38054,0.252906,-0.16205,-0.154372,-0.422595,-0.0770181,-0.416311,0.447379,0.185568,0.104164,0.488656,-0.188936,0.100245,-0.10205,0.417607,0.37924,-0.269536,-0.158826,-0.107814,-0.372246,-0.12694,-0.355424,-0.0196511,0.28442,-0.184506,0.142025,-0.438887,0.167551,0.362351,-0.183433,0.111214,0.071329,0.211365,-0.186578,0.271506,0.0809439,0.470795,0.315644,0.0331743,-0.270434,-0.43532,0.188905,-0.399259,0.0199829,0.161353,-0.0573228,-0.279384,-0.299431,0.0612127,0.039807,0.242711,-0.324222,0.0243885,0.105,0.0653954,0.295457,-0.200877,-0.0434671,0.489644,-0.243888,-0.118465,0.378467,0.221678,0.471906,0.456476,-0.320958,0.335926,0.1833,0.328659,-0.232862,0.261619,-0.405503,-0.0794552,0.406411,-0.314824,0.0651462,-0.0394089,0.475582,0.393463,-0.311717,0.172557,0.436462,-0.381857,0.398724,-0.113199,0.354811,0.190698,0.00434479,-0.14664,0.455827,0.00448854,0.4129,0.0479704,0.17281,-0.177675,-0.157,-0.163786,0.476655,-0.259565,-0.0280709,-0.365707,-0.354437,0.479321,-0.0388169,0.0718249,0.389604,-0.200028,0.108954,-0.150521,0.0372955,-0.0133912,-0.16244,-0.450052,-0.117128,0.465464,0.177047,-0.116882,0.289969,0.198155,0.272839,0.121357,0.40557,0.463844,0.171244,-0.202331,-0.243675,0.463058,0.374193,-0.426967,-0.139253,-0.0676269,-0.32749,0.154803,-0.227678,0.442537,-0.077938,-0.366321,0.042303,0.119792,-0.177039,-0.190203,-0.295438,0.366372,-0.403049,0.0577394,0.129016,-0.178934,-0.0702462,-0.312698,0.332901,0.222087,-0.204725,0.469678,-4.90189e-06,0.0636149,-0.413069,-0.224684,-0.343597,0.316544,0.17543,0.0132177,-0.250146,-0.0868415,-0.394208,0.165106,0.374432,-0.362906,0.0814785,-0.457288,-0.378602,