0.350684,-0.491901,-0.349365,-0.0531063,0.441919,0.0943625,0.487014,0.430226,-0.28434,0.124715,-0.345985,0.256007,-0.324322,-0.182796,-0.0436459,0.44553,0.188821,-0.167919,-0.306136,0.452532,-0.144733,-0.0821536,0.21738,-0.498929,-0.222001,0.0867112,0.482984,0.157131,-0.448954,-0.47342,-0.0180123,0.279443,-0.388489,0.411835,-0.0188647,0.327645,-0.0501036,-0.103856,-0.382156,0.339339,-0.239225,0.00371752,0.402178,0.131259,-0.488007,-0.400484,-0.314852,-0.327588,0.463363,-0.125154,-0.0188385,-0.108811,-0.102357,0.144499,0.170706,0.203545,0.0194515,-0.242094,0.24516,-0.251338,0.304245,0.427166,0.445947,0.11173,-0.0714162,-0.0895711,-0.0659791,0.0921297,-0.335241,0.153374,0.214167,-0.305201,-0.172405,0.359809,-0.332328,-0.0450883,-0.0300006,0.369637,0.0872371,-0.392315,0.301256,0.394375,0.314778,0.00821992,0.172656,0.414725,0.430169,-0.483154,0.0101099,-0.36639,-0.0716824,-0.289064,-0.397709,-0.327462,0.425555,0.338841,-0.167613,0.36445,-0.285968,-0.0553484,0.367561,-0.399792,-0.0140038,-0.39468,0.362626,-0.160306,-0.250842,0.0157492,-0.444777,0.153948,-0.366973,-0.394025,-0.128078,0.0254744,-0.0181398,0.489661,0.49711,-0.0446228,-0.36967,0.402299,-0.108272,-0.254885,0.186671,-0.480362,0.317978,0.443625,0.0561198,0.181379,-0.093544,0.110409,-0.474629,-0.0788266,0.350814,0.335126,-0.348229,0.170118,0.489496,0.152834,-0.203905,-0.433574,0.0765139,0.483767,-0.211483,-0.24223,0.42952,-0.42552,0.441201,-0.130962,0.207634,-0.465705,-0.186825,-0.218184,-0.0724827,0.367181,-0.141996,-0.38954,0.166805,0.287722,-0.0460186,-0.219156,-0.362766,0.103595,0.288033,0.257518,0.215238,-0.131041,0.103278,-0.331027,-0.0910146,0.338358,0.334883,-0.285988,0.387742,0.451196,-0.144097,-0.308481,0.199855,0.0625472,-0.297249,0.398384,-0.200094,-0.0356674,0.490122,0.198569,0.120403,-0.40646,0.481163,0.184264,-0.311174,0.249775,-0.350144,-0.344322,-0.494637,0.428364,-0.448731,-0.116404,0.486877,0.0338719,0.413455,-0.258174,0.0647705,-0.297009,0.406242,-0.105145,-0.278059,0.477358,-0.153486,0.289744,-0.332687,0.43486,0.400849,-0.199653,-0.375859,0.105943,0.104541,0.210463,0.369691,0.0534939,-0.298706,-0.251298,-0.164637,-0.471148,-0.143357,0.343657,-0.463172,-0.38835,0.0408438,-0.286951,-0.286929,0.313442,-0.0616407,-0.0654668,-0.0690818,0.411008,-0.053075,0.491846,0.0450162,-0.290226,0.331383,-0.0219769,0.212128,0.164094,0.390095,-0.125552,-0.251349,-0.13839,-0.223966,-0.116098,-0.427407,-0.108846,-0.371607,-0.154189,0.0921344,0.489995,0.316639,-0.114968,-0.297296,-0.317776,-0.0608103,0.374066,-0.337499,-0.193506,0.187053,-0.12957,0.281569,0.415131,0.105038,0.137417,0.224277,0.229057,0.354665,-0.113323,-0.431335,-0.0734079,0.414026,-0.396698,-0.0952132,-0.0973457,-0.0973724,-0.183869,-0.299111,-0.205371,0.352176,-0.477048,0.366562,0.22003,0.238049,0.430727,-0.150987,0.315205,0.49341,0.393075,0.206673,0.212053,-0.373394,-0.0184737,0.302855,-0.496116,-0.0172605,-0.207201,0.356467,-0.408809,0.374222,0.0104318,0.117841,0.488455,0.0607163,0.0183498,-0.246666,0.45612,-0.140027,-0.341236,0.0732706,0.171646,-0.0575817,0.152921,-0.186213,0.212634,0.46466,-0.316863,-0.140924,0.183474,0.136968,0.241414,0.205088,0.286685,0.443266,0.0535705,-0.28344,-0.353371,0.250429,0.0885813,-0.0789831,0.131256,0.459526,0.277751,0.0612566,0.185255,-0.308902,0.136906,0.368868,-0.414464,-0.277422,0.125432,-0.0641374,0.409058,0.250682,0.198281,0.218661,-0.115265,0.461371,-0.340725,-0.105664,0.325052,-0.141881,0.277827,-0.175705,-0.248247,-0.0286408,0.232545,0.238333,0.295499,0.0742711,-0.334606,-0.15691,-0.0825751,-0.238824,-0.150644,0.282696,-0.250682,-0.397856,-0.100736,0.212519,0.447943,-0.0600063,0.270875,0.143282,-0.200584,0.333182,0.0920455,-0.421313,0.111475,-0.230494,0.277542,-0.324241,-0.325323,0.330081,-0.212325,0.104934,-0.225184,-0.00898634,-0.291287,-0.159428,-0.324209,0.357366,-0.212,-0.227521,0.271449,-0.462201,-0.128939,0.270603,0.0786503,0.385401,-0.0455688,-0.32209,-0.204437,0.49622,0.243447,-0.182375,0.281428,0.321497,0.210345,-0.166372,0.458966,0.115574,0.105727,-0.156852,-0.0532219,-0.451999,-0.150822,0.324374,-0.392487,0.313264,0.27932,0.258665,0.094243,0.078552,0.212957,-0.379381,0.454373,0.236098,0.0741991,0.412902,-0.389045,0.453327,0.247707,-0.432657,0.110082,-0.166666,-0.209455,-0.0559124,0.00349066,0.383798,-0.185967,-0.370669,-0.188611,0.253624,0.217626,-0.201911,0.185773,-0.366814,0.109204,-0.39522,-0.181114,-0.0999417,0.0931408,-0.245248,0.129092,0.0330457,0.224574,-0.175348,0.139901,0.339918,-0.178351,-0.319764,-0.151134,0.030588,0.0818378,0.458228,-0.420978,-0.0629118,0.185696,0.474866,-0.496533,-0.185165,-0.453936,-0.280038,0.0581339,-0.075309,0.475285,0.19854,0.00199974,0.108352,0.220554,0.221697,0.178252,0.0875253,0.367858,-0.350904,0.345202,0.437407,0.177536,-0.102424,0.181387,-0.470836,-0.00101319,0.0544628,0.364342,-0.324387,-0.153875,-0.477504,0.353926,-0.043605,0.458683,0.0241453,-0.316669,0.21724,-0.0206633,-0.0176059,0.397489,-0.114993,-0.4019,-0.0981349,0.045091,-0.0275408,0.205206,-0.481158,0.0129345,0.206485,0.256998,-0.299579,0.124075,-0.461069,0.449781,-0.0671314,-0.409388,-0.307646,-0.333709,0.254923,-0.333822,-0.14843,0.287547,-0.00533348,0.327223,-0.439774,0.126254,-0.0333939,-0.0717111,-0.349863,0.284591,-0.321668,0.170849,0.0626215,0.140087,0.135707,-0.13646,-0.342597,0.0754068,-0.125289,0.315712,-0.339288,0.0122664,-0.363568,0.0261966,-0.278778,-0.219672,0.379104,0.317504,0.248507,-0.199036,0.204948,0.298099,-0.472669,0.218142,0.0110844,-0.109752,0.101676,0.150702,-0.425069,-0.414914,-0.150309,-0.0510142,-0.436484,-0.217898,0.181891,0.366384,0.4065,-0.06632,-0.231053,-0.385392,-0.279033,-0.268306,-0.116307,0.245259,-0.486624,-0.45814,-0.475525,0.137978,0.279625,0.455336,0.0559466,0.110237,-0.244873,0.225773,0.118237,-0.472932,-0.257058,-0.11124,-0.396714,-0.445515,-0.253486,-0.081975,0.335873,0.146185,0.333362,0.472507,-0.309083,0.0729066,0.0117916,-0.314791,-0.416751,-0.495503,0.369988,0.266784,-0.044497,0.14506,0.0638138,-0.364699,0.460572,0.241502,-0.430348,0.242968,0.428594,-0.447289,-0.0355502,-0.303601,-0.0235527,-0.0248629,0.152204,-0.451887,-0.213494,0.42156,0.141278,0.160908,0.368632,0.268927,0.220055,0.3005,0.0020245,-0.0473066,0.232984,-0.477745,0.212805,-0.453144,0.343557,-0.429809,0.0954601,0.261038,0.00369029,-0.438402,-0.189632,-0.184046,0.161366,-0.168984,-0.309537,0.386505,-0.3184,0.355364,-0.476973,0.157713,-0.0506278,-0.491202,0.177355,-0.436521,0.116925,-0.010634,-0.195745,-0.0898914,0.167083,0.0338418,0.337652,0.168638,0.199278,-0.283203,0.425275,0.170148,-0.203894,0.48813,-0.30191,0.136234,0.125991,-0.302823,-0.318336,-0.086042,0.256215,0.156095,-0.0627452,0.4068,0.234617,-0.388221,-0.183256,0.0999731,0.278353,0.118219,0.249641,-0.288389,0.254271,-0.347307,0.14246,-0.318229,-0.340919,-0.0680329,-0.423965,-0.121489,0.368386,0.493302,-0.241635,0.424364,-0.251831,0.30666,-0.246664,0.219017,0.0369799,0.145603,0.497433,0.311532,0.27303,0.307257,-0.103949,-0.0617229,-0.0073161,-0.29383,-0.402717,-0.406526,-0.443213,0.471732,-0.152718,0.282761,0.170048,0.0959797,-0.149454,-0.179534,-0.310664,-0.34917,-0.405719,0.373816,-0.222365,-0.436629,0.0787312,0.371266,0.214839,0.322782,-0.212119,0.0860272,0.248615,-0.00233101,0.17921,-0.465443,-0.0504496,-0.306701,-0.145493,0.448608,0.305985,0.0108733,-0.163351,-0.222511,0.157313,-0.271,-0.0797644,-0.140406,0.39118,0.0183711,0.102162,-0.468888,-0.22211,-0.241917,-0.148569,0.0101601,-0.478895,-0.261068,0.256894,0.101704,-0.42026,0.32046,0.172772,-0.317142,-0.207387,-0.120892,-0.147352,0.102634,-0.130049,-0.212378,-0.100297,0.491766,-0.0310769,-0.385726,0.403379,-0.247406,-0.429126,-0.111338,-0.461778,-0.361974,0.0672619,0.276076,-0.404039,0.265941,-0.389771,0.399096,0.49114,0.02812,0.341798,-0.259863,-0.333109,-0.0691094,-0.105266,0.131513,0.441003,-0.126397,-0.186662,0.346226,0.15706,-0.0356489,-0.466765,0.483431,0.25839,-0.368994,-0.160161,0.0603458,0.275958,0.179529,0.022144,0.456274,-0.184667,0.0155472,0.309909,0.0849638,0.40309,0.493078,-0.310457,-0.432635,-0.364896,0.0239725,-0.0626966,-0.0416548,-0.0707556,0.0203736,0.441868,-0.48219,0.317641,-0.0345905,-0.444975,0.427907,-0.482186,0.405754,0.313912,-0.0795948,0.182508,-0.416753,0.125166,0.0546676,0.449353,-0.270392,0.0419495,-0.301873,0.440311,0.0724006,0.230541,0.344761,0.496324,0.412443,0.428529,-0.179002,-0.343538,-0.350495,0.179884,-0.330584,-0.376405,-0.0851614,-0.401418,0.42272,0.083327,0.245707,-0.396165,-0.146012,-0.437719,-0.253033,0.363819,0.324077,0.405692,0.118961,0.291012,0.273573,0.451651,0.0553687,0.0443598,-0.0753893,0.0932685,0.0215482,-0.144304,0.322152,0.0427196,-0.0684537,0.432114,0.128296,0.00477531,0.366264,-0.0366701,0.343926,-0.439621,-0.357379,0.345307,0.402466,-0.343463,-0.247762,0.0686128,-0.17707,0.0282151,0.263466,-0.362836,-0.473715,0.140356,-0.439151,0.259729,-0.306892,0.29056,0.493597,-0.217648,-0.0294249,-0.0907863,0.246616,-0.222594,0.467321,-0.0841293,-0.407429,0.000598344,0.388006,0.0307701,-0.194039,-0.291181,0.249269,0.340606,0.167961,-0.279236,0.337567,-0.0214077,-0.307545,0.185951,-0.201363,-0.243217,0.286349,0.230866,0.448674,0.427062,-0.351926,0.16578,0.47133,-0.205526,-0.469166,-0.34646,-0.0205473,-0.43085,-0.37047,-0.408095,-0.354823,0.122889,0.258158,0.369956,0.140164,-0.0310547,-0.307787,-0.142743,0.426983,-0.230646,0.398913,0.408632,0.356965,-0.3249,0.422578,-0.086975,-0.152308,0.158815,0.212104,0.373393,-0.0751955,0.0322785,-0.357775,-0.320551,0.494475,0.296468,0.161856,0.385373,-0.177904,0.0969705,-0.39323,-0.232777,-0.22005,0.104115,0.415877,0.36117,0.369126,0.228279,-0.480312,0.384609,-0.489524,0.248751,-0.0891552,-0.48093,-0.0986664,-0.488213,-0.491709,-0.432721,-0.106982,-0.147176,0.490497,0.460841,0.230279,-0.146843,0.360393,-0.424324,-0.378157,0.297122,0.338207,-0.201486,-0.00833238,-0.130099,0.41554,-0.160657,0.24193,0.055391,-0.000837007,0.405762,-0.154963,0.249158,-0.189434,-0.168062,0.258887,-0.330697,-0.0316779,-0.498761,-0.218793,-0.30707,-0.330662,0.446815,0.053365,-0.133755,-0.257062,-0.169913,0.0662998,-0.0319739,-0.100502,-0.259457,0.157465,0.0362162,0.117208,0.466806,0.398808,-0.119473,0.137641,-0.152097,0.258292,0.206799,-0.0154779,0.452466,0.291056,0.186709,0.24782,0.123366,0.192002,-0.417088,-0.276708,-0.0329977,0.34099,0.204208,-0.396438,0.197011,0.450662,-0.250869,0.173113,-0.166408,-0.357977,0.0369795,-0.369377,-0.372865,-0.419387,-0.171768,-0.143015,-0.483617,-0.166103,0.00451805,-0.386667,0.186188,-0.434699,-0.211952,-0.492793,-0.250559,-0.454728,-0.016304,0.344752,-0.00607977,-0.139734,0.0100474,-0.456169,-0.365744,0.448621,-0.307972,-0.225241,0.322769,-0.273475,-0.353476,-0.159589,-0.228477,0.0142414,-0.302297,0.177212,0.421366,-0.0953513,0.397266,-0.114751,0.475306,0.400407,0.00598505,-0.0110956,0.335899,0.318989,0.0823252,-0.256562,-0.217842,0.0858706,0.015716,-0.429147,0.345302,0.262158,-0.487633,0.00668685,0.163728,-0.375438,-0.436576,0.261526,-0.458546,0.162787,-0.17409,-0.305748,-0.0401815,-0.0322782,-0.412623,0.107998,0.260553,-0.497772,-0.296463,-0.00342084,-0.0748629,0.0526718,-0.140721,0.0357221,-0.305639,-0.337233,-0.293497,0.398321,0.0616063,-0.424986,0.332161,0.45411,-0.436937,0.0950441,-0.0635164,0.234242,-0.0413909,0.0190423,0.0390718,-0.00629877,-0.330555,-0.429619,-0.22219,0.260718,0.491117,-0.131471,-0.307938,0.0173706,-0.0772282,-0.447853,-0.0239958,0.323155,0.276022,-0.259645,0.412012,0.182006,0.119687,-0.278502,0.379213,0.203332,0.178124,-0.218639,0.301955,-0.0227634,-0.00399956,0.194872,-0.252765,0.321245,-0.0739561,0.24176,0.102976,-0.185314,-0.114688,-0.126849,0.203351,0.158952,0.441625,-0.0563066,0.38734,0.286629,-0.418957,-0.107525,-0.147275,-0.303388,-0.449054,0.185029,0.300033,0.163647,-0.133781,-0.338089,-0.434345,0.40957,-0.199366,-0.125079,-0.00997877,-0.305301,-0.0880436,0.496065,-0.402177,-0.415902,-0.349471,-0.374921,0.37989,0.314837,0.37947,-0.134358,0.345199,-0.407813,-0.491587,-0.0563652,-0.406201,0.15162,-0.128105,0.153371,-0.20808,-0.332106,0.16832,-0.243865,-0.480374,0.0321064,-0.383553,0.378529,0.127982,-0.440811,0.38188,0.200279,0.203906,-0.0529404,-0.37178,-0.392154,-0.337756,-0.437822,0.474572,0.253025,0.451598,0.473083,-0.402669,-0.0226279,0.319642,-0.0624251,-0.33824,-0.125151,0.0476686,0.372007,-0.431184,0.163286,0.219055,-0.219899,0.229513,0.369791,0.129241,0.162224,-0.126398,0.469945,0.215926,0.0797066,-0.314199,0.206176,0.378543,0.00566808,0.128812,-0.170484,0.238564,-0.433409,-0.479514,0.143357,-0.280669,-0.262059,0.343884,0.406219,0.476023,0.120784,-0.102708,-0.454979,-0.468157,-0.0184753,-0.346152,-0.344472,0.101091,-0.487227,-0.203638,-0.231208,-0.450021,-0.0446297,0.189599,-0.326027,-0.456524,-0.0933518,0.0305888,-0.344931,0.0879861,-0.496863,-0.354772,-0.209335,-0.0567139,0.235435,-0.245235,-0.435359,-0.0852391,-0.477956,0.0575788,0.116739,0.289333,-0.238341,-0.473585,0.0700377,0.347581,0.00254504,-0.163777,0.422643,0.315572,-0.165486,-0.352313,0.217159,0.119371,-0.414169,0.379237,-0.298481,-0.247919,0.135564,-0.346774,-0.217011,-0.321801,0.329847,0.255048,-0.240332,-0.462894,-0.00499184,0.3377,0.48935,-0.222168,0.2749,-0.312583,-0.155896,0.366109,0.341902,0.0847552,-0.440459,-0.0286322,0.362508,0.329068,0.275479,0.48951,0.4247,-0.159335,-0.0371769,0.189805,-0.462517,-0.241153,-0.461362,0.252272,-0.49786,-0.0391621,0.319875,-0.0496559,0.106583,0.159795,0.389723,0.130771,-0.495973,-0.283842,0.074161,0.463937,-0.0823128,0.0133636,-0.0751133,0.0170345,0.0872651,-0.149184,-0.165596,0.420422,0.306468,0.289261,0.487346,0.0863203,0.449178,0.168596,-0.300582,-0.21391,0.405289,-0.285848,-0.44111,-0.438611,-0.291735,0.277076,-0.0388802,-0.35831,0.107731,0.0524476,-0.00619558,-0.319832,0.0659718,0.0388032,0.312242,-0.489799,0.42825,0.426501,0.29373,0.200346,-0.0646382,-0.306625,-0.200142,0.441152,-0.262476,0.409133,0.0199481,0.415331,0.221895,0.465784,-0.175592,0.156213,-0.454128,0.0579297,0.358325,-0.00436862,-0.41855,-0.32133,0.343421,0.0147513,0.368013,0.0749964,0.00784048,0.165275,-0.00838505,0.355628,-0.364055,-0.274872,-0.0821059,-0.421759,0.320311,0.367748,0.0665353,-0.23759,-0.422497,-0.201759,-0.287348,0.457505,0.411866,-0.306753,-0.022338,0.355087,0.2271,0.457519,0.0974338,-0.211552,-0.350746,-0.246786,-0.214934,0.360326,-0.199485,0.407646,-0.135153,-0.117191,0.0304379,0.404125,0.153921,0.470819,0.0144953,0.102497,-0.480405,0.430653,-0.307973,-0.0573201,-0.179706,-0.410409,0.0504205,-0.404156,0.483868,0.112276,-0.0792413,0.212021,0.310644,0.141277,0.254239,-0.295415,0.447057,-0.281956,0.253762,-0.359343,-0.167941,-0.493051,0.234201,-0.496451,-0.470928,0.131254,-0.117906,0.0253426,0.0708734,-0.2059,-0.464551,-0.454741,-0.392834,-0.139116,0.34115,-0.0150214,0.106295,0.20523,-0.159989,-0.236874,-0.255471,0.105602,0.080037,0.012471,-0.17458,0.312546,0.309406,-0.40369,0.451254,0.307495,0.190539,-0.243424,0.321846,0.261996,0.211848,0.407244,-0.182335,-0.113818,-0.426719,0.292457,-0.18607,0.0221486,0.401643,-0.471686,-0.249436,0.126018,0.249772,0.0724243,0.221332,-0.0182185,-0.0785545,-0.343671,0.496589,-0.0106182,0.200692,0.483534,-0.152111,-0.299985,-0.143035,0.123695,-0.197579,-0.475418,-0.299741,0.287215,0.255899,0.214265,0.164824,0.233837,-0.400433,-0.270913,-0.0650362,0.0281544,-0.246226,-0.03839,0.333773,0.408537,0.132223,-0.159267,0.172979,-0.240171,0.138269,-0.151696,0.145423,-0.199514,-0.273388,0.471358,0.438713,-0.491646,-0.0301912,0.10137,0.0487895,-0.414151,-0.0343694,-0.422562,0.016222,0.288455,0.138209,0.322777,0.489128,0.21452,0.218418,0.285966,0.329661,0.279608,-0.395262,0.385763,0.412906,-0.449096,-0.301493,-0.471397,0.368111,-0.0657883,-0.42196,0.0540788,-0.03687,0.0582055,0.30927,-0.0241772,0.357484,-0.419939,-0.382966,0.0353416,-0.0625848,-0.441469,0.304833,-0.158117,-0.261462,0.242509,0.404678,0.257631,-0.303835,-0.451478,0.395048,0.092913,0.417333,-0.482236,-0.0241107,-0.0248003,-0.0672801,-0.411046,-0.343609,0.451277,0.340357,-0.479559,0.289722,-0.381551,-0.218245,0.132905,-0.441107,0.242234,0.378929,-0.351235,-0.388408,-0.450415,0.193169,0.459809,0.120453,0.287619,-0.228737,-0.387751,-0.0758078,0.38897,0.0823685,-0.0435639,-0.393775,0.151588,0.169932,-0.064307,-0.258897,-0.407813,-0.294252,-0.364948,-0.143493,-0.380092,-0.471407,-0.0507073,0.0730558,-0.0744049,-0.155895,-0.11245,-0.00169809,0.39032,0.407856,0.0235976,0.340464,0.475988,0.259993,0.461811,0.333819,-0.0691262,-0.134638,-0.47597,-0.225763,0.417843,0.240281,0.301919,-0.383385,-0.148392,0.464887,0.316341,0.0990323,0.0550447,-0.232218,0.368319,0.387176,0.395577,-0.215972,0.0527623,-0.121173,0.344901,-0.312738,-0.14612,0.136093,0.137692,-0.0553156,-0.402591,0.0982649,0.260778,-0.216752,0.434529,0.179476,-0.338019,-0.489349,-0.110957,-0.244764,-0.402052,0.38046,0.272038,-0.391148,-0.192158,0.1055,-0.26136,-0.409842,-0.334153,-0.478425,0.463213,0.414118,0.117346,-0.0836832,-0.20601,-0.134081,0.356813,0.249379,0.434958,0.248086,-0.238217,0.0231206,-0.228502,-0.141098,0.0526418,-0.272773,0.297648,0.416921,-0.192479,-0.0322846,0.467043,0.157833,0.00139656,-0.128715,0.380841,-0.350419,-0.113494,-0.37797,-0.0292437,-0.0562353,0.253109,0.280462,-0.49613,-0.395974,0.271601,-0.401539,-0.250315,-0.347786,-0.324236,-0.196235,0.420867,0.359652,0.247588,-0.256125,0.249059,-0.371172,0.286382,0.253412,-0.282531,-0.456051,-0.244927,0.344365,-0.255491,-0.462198,-0.218421,0.0373776,0.424373,0.287755,-0.482721,-0.197668,0.200827,-0.042679,0.0334174,-0.312408,-0.414971,0.492618,0.0373195,0.0004496,-0.49626,0.321632,0.0441915,0.320747,-0.0767945,-0.395374,0.170504,-0.374063,-0.393053,0.0862856,0.239291,0.407267,0.110666,-0.35705,-0.201243,-0.0967211,0.100911,0.428266,0.184692,0.202562,0.378358,-0.251835,-0.162322,-0.153398,0.48036,0.0721458,-0.328597,0.0382542,0.123518,-0.190035,-0.390854,-0.295606,-0.0446405,0.307811,0.199389,0.181587,0.472843,-0.233099,0.0507753,0.0677134,0.430222,-0.0661497,-0.209269,0.112518,0.265668,-0.231684,0.346079,0.335982,0.262228,0.0193576,-0.0361105,-0.251248,-0.302544,0.378212,-0.190108,0.257872,-0.101002,-0.455266,-0.282393,0.239253,-0.0774951,0.368777,0.0393671,-0.273859,0.120509,0.255905,-0.00998343,-0.315353,-0.15837,-0.217904,0.147782,0.323617,0.174232,-0.306997,-0.0384874,-0.223937,0.0862118,-0.117334,0.0293323,0.361995,0.333924,0.128115,-0.144019,-0.214246,0.210272,0.17815,-0.18858,-0.416544,0.0387281,-0.454598,-0.403564,-0.224291,0.0979598,-0.496739,-0.4009,0.298394,-0.283679,0.32826,0.00415395,-0.327115,-0.130369,-0.0119991,-0.251799,0.0217438,-0.351131,0.382757,-0.0366196,-0.0306018,0.148604,0.118491,0.218276,0.136017,0.46808,-0.282432,0.0349349,-0.446564,0.343573,0.0655531,0.340182,-0.203519,0.361249,0.111108,-0.177087,0.491211,-0.131052,0.266244,-0.236353,0.0746819,-0.252121,0.0317696,-0.121036,0.340336,0.263541,0.375329,0.0103883,0.270955,-0.322751,-0.0372536,-0.208216,-0.364289,0.484842,-0.239375,-0.309011,0.239561,-0.136178,-0.0979185,-0.231917,-0.305206,-0.392484,-0.0365779,-0.146703,0.33542,0.491196,0.381713,-0.268817,-0.387296,0.103005,-0.142896,0.329155,-0.14686,-0.130286,-0.371991,0.422267,-0.478416,-0.330539,-0.436934,-0.376461,0.245949,0.0204955,-0.462697,0.197119,0.421876,0.470943,-0.256685,-0.233689,0.420678,0.346032,0.00909133,0.205865,0.234181,-0.33022,0.345297,0.0152574,0.176518,0.0732177,-0.373914,-0.48379,0.30208,-0.235787,-0.144307,0.458763,0.337301,0.26541,-0.498157,-0.0722548,-0.384044,-0.288977,-0.199493,-0.0983519,0.237635,0.414164,0.0876257,-0.291861,-0.0454256,0.177954,0.242712,0.484586,-0.293252,0.0363837,0.407589,0.234433,0.481007,0.0495758,0.280573,0.243146,0.0382534,0.187304,0.4463,-0.467657,-0.419918,0.0991738,0.47089,0.433292,0.374386,-0.0558191,0.188564,0.0221418,0.330087,0.409569,-0.0758421,0.335962,-0.0414455,-0.182613,-0.401847,-0.381253,-0.337289,-0.0359251,0.276243,-0.297805,-0.428034,0.100331,0.0483582,-0.0221965,-0.110918,-0.176192,0.132827,0.173799,-0.0279904,-0.320879,-0.339387,0.144266,0.39095,0.282755,0.0792518,0.0887974,0.0945634,-0.072103,0.0926422,0.493475,0.00904276,-0.145126,0.476328,0.18467,0.118928,-0.304448,0.499016,-0.291015,-0.449562,0.403682,0.15578,0.351523,-0.0641932,0.165191,0.253474,-0.364878,0.321935,-0.0756898,0.100587,-0.233899,-0.163177,0.229856,-0.459603,0.0333948,-0.283353,-0.443291,-0.350677,-0.076631,0.0638802,0.42313,-0.0909762,0.366671,0.1452,-0.166267,0.368424,-0.246806,0.278708,-0.26937,-0.151839,-0.3398,0.295275,0.158308,-0.408764,0.0715907,-0.19513,-0.172077,-0.428565,0.0644326,-0.311289,-0.300158,-0.0291196,0.401009,-0.13341,0.45415,-0.376765,-0.115171,-0.245661,-0.240161,-0.120772,0.474341,0.0738139,-0.036448,-0.0432297,-0.115306,-0.337626,0.413742,-0.194544,-0.0959187,0.252603,-0.0354326,0.0207353,-0.415799,0.256859,0.0272021,-0.450887,-0.29366,0.374815,-0.396835,-0.297249,0.465662,-0.443546,0.294367,-0.271012,-0.247177,0.0902558,-0.351566,-0.224756,0.359184,-0.292272,0.199269,0.0210436,-0.41472,0.193108,-0.0319697,-0.087688,-0.00676717,-0.241671,0.425462,0.00644796,-0.181346,0.205965,-0.478423,-0.341779,0.355276,-0.372039,0.341009,0.237711,0.406844,-0.356618,0.196875,-0.268132,-0.193506,-0.393863,0.0946056,-0.145442,-0.0705685,-0.397759,-0.335994,0.162109,0.412208,-0.474855,-0.239198,0.259518,0.289085,0.416851,0.214821,0.455121,0.193549,-0.146834,-0.309609,-0.394982,-0.347056,-0.0698185,-0.0261105,-0.455383,-0.113524,-0.28715,-0.15328,0.0200781,-0.477955,0.411352,-0.437326,-0.0662907,-0.274889,-0.322028,-0.214142,0.0673226,-0.478296,0.0995662,0.201853,-0.135986,0.180931,0.226987,-0.078039,0.394197,0.282726,0.466195,-0.425267,0.319262,-0.282643,0.102486,-0.494629,0.079227,0.346259,0.392191,-0.362318,0.42827,-0.333796,-0.0349542,0.289796,0.193734,-0.0737082,-0.0858132,-0.0243637,0.268312,-0.445433,-0.260533,-0.214481,0.447778,-0.387323,-0.100435,-0.177328,0.00382299,-0.190495,0.180992,-0.359334,0.0790367,-0.209985,-0.453988,0.0761297,-0.057742,-0.0797612,0.281671,0.392077,0.22285,0.143679,0.029862,-0.222231,-0.375528,0.0585517,0.320647,0.0163343,0.282022,-0.277042,-0.250898,0.317761,-0.236176,0.350294,-0.198807,0.340382,-0.288346,-0.192205,-0.432436,0.243102,0.497866,-0.362055,0.38584,0.351806,0.254576,0.239678,-0.128105,0.485753,-0.119303,-0.100522,0.158062,-0.249036,-0.0894243,-0.250895,-0.25856,0.483751,-0.326179,-0.427301,-0.325387,0.270905,-0.293395,0.49797,-0.291282,-0.206232,-0.282999,-0.179374,-0.212975,0.47908,-0.309379,-0.457937,-0.235679,-0.120108,-0.459754,0.490394,0.478813,-0.493494,0.0351268,-0.329404,-0.339496,0.325788,-0.0125401,0.148977,0.418935,0.403295,-0.400484,0.243055,0.303435,-0.00569269,-0.329065,0.355275,0.190601,-0.383051,-0.102119,0.261865,-0.0433187,0.196242,-0.445401,0.0332672,-0.498068,-0.302851,-0.172704,0.255815,0.194977,-0.130304,0.104484,0.196003,-0.134974,-0.355503,0.183037,-0.429135,0.436401,0.0389345,-0.335289,-0.16822,0.258114,-0.267476,-0.312927,0.0185206,-0.452403,0.0420467,-0.425758,0.0786874,0.292868,-0.477147,0.0359122,-0.370312,0.260216,0.446804,0.235716,0.284321,0.14914,0.285789,0.42789,0.460622,-0.337571,-0.388713,-0.223084,0.0551765,0.458552,0.491152,0.333082,-0.221586,-0.036663,-0.179306,0.488772,0.311613,0.413589,0.0304176,0.497593,0.382652,0.206933,-0.192292,-0.390061,-0.10117,-0.300401,0.450597,-0.319448,0.342904,0.347179,0.486145,0.467233,0.412736,0.0526667,-0.249993,-0.462843,0.206374,0.253654,0.0474866,-0.348344,-0.450667,0.261404,0.268521,0.314269,-0.381723,-0.106924,-0.447603,-0.125261,0.246872,0.0537943,0.135821,-0.183846,-0.342131,0.381866,-0.474384,-0.124494,-0.167654,0.147973,0.419566,-0.212182,-0.491776,-0.0733835,0.0513389,0.0928508,0.384537,-0.371494,0.184959,0.248557,-0.372803,0.0279932,-0.0991784,0.0907669,0.0289245,-0.458678,0.100131,-0.216108,0.16489,0.237173,0.375459,0.461305,0.0372749,-0.445853,0.224292,-0.444172,0.211788,0.250139,-0.153731,-0.499678,-0.236657,-0.327548,-0.0225883,-0.372955,-0.421964,-0.307195,0.124496,0.0718922,0.212663,-0.41703,-0.383299,-0.471571,0.0174054,-0.257023,-0.142063,0.46285,0.414274,0.07322,-0.40923,0.295926,-0.498529,0.0862662,-0.492951,0.0532304,0.0420362,0.142266,-0.038961,-0.233251,0.133374,0.190808,-0.14494,0.465687,-0.405438,0.332891,0.277546,-0.432713,0.170827,-0.10439,-0.119742,-0.464595,0.250339,-0.439134,-0.0826457,-0.179107,-0.366308,-0.178949,-0.317801,-0.425019,-0.342276,-0.426085,-0.340294,-0.146772,-0.218738,0.00279153,0.224089,0.117773,0.211997,-0.110074,0.306904,-0.397832,0.0906755,-0.224415,0.202149,-0.179358,-0.0895873,0.443355,0.401216,0.106517,0.0284131,0.204303,0.450821,-0.11477,0.193473,0.0224983,0.465938,0.138754,0.0552192,-0.330622,0.0986257,0.0316016,-0.146025,-0.44657,-0.0240284,0.336919,-0.338594,0.301918,-0.147509,-0.0429697,-0.35596,0.298878,0.138035,0.425326,0.0517689,-0.19875,0.173011,0.0220864,-0.0283925,0.307474,0.0541988,-0.446502,0.0942398,-0.48538,-0.45019,-0.187056,0.256455,0.364954,0.0853938,-0.280406,-0.305967,-0.0072764,-0.239784,-0.0377908,0.0857408,-0.087649,-0.322764,-0.375126,0.127641,-0.285987,0.2929,0.334195,-0.0622468,0.314847,0.116481,0.16543,-0.199056,0.0188463,0.249838,-0.292855,-0.332664,0.260903,0.173912,-0.333713,0.298326,0.233051,0.11554,0.389017,0.194762,-0.43402,0.36537,0.263891,0.49609,-0.00670427,0.0313493,0.263609,0.1978,-0.0817637,0.330943,0.426698,-0.258188,0.434438,0.0938508,0.218219,0.0894904,-0.424157,-0.415512,0.0895525,-0.345743,0.044468,0.0768973,0.317364,-0.21628,-0.0954056,-0.0852867,0.300373,-0.0287262,-0.240287,0.370536,0.199927,0.363648,0.222434,-0.199853,-0.198931,0.148426,0.173484,0.0536392,-0.115414,-0.286008,-0.383764,-0.176957,-0.323228,0.129785,-0.0242094,-0.104668,-0.0391114,0.276819,0.242675,0.207122,-0.326528,-0.383716,0.220442,-0.0530866,-0.323505,0.219328,0.394678,-0.0150814,0.44983,-0.183846,-0.170534,0.0410178,-0.490078,-0.0640531,0.241712,-0.288906,-0.172836,-0.225229,-0.156288,-0.47592,0.420989,0.126156,0.0998263,-0.188742,0.332413,-0.428651,0.156775,0.390201,0.106021,0.234667,-0.0381888,-0.486067,-0.0976073,0.322986,-0.0956611,-0.202478,-0.316626,0.0462872,-0.195643,-0.0927401,-0.402637,0.393937,-0.0589291,0.337951,-0.0468525,-0.424481,-0.324705,0.122732,0.246629,0.122187,0.287089,0.0657784,0.217332,-0.385627,0.109638,-0.115482,0.148807,0.0856914,-0.470962,-0.274551,0.156771,-0.010766,-0.494342,-0.0371534,0.226147,-0.297344,-0.390241,-0.484622,-0.317638,-0.45297,-0.0117174,0.361302,0.262534,-0.0310147,-0.0239581,-0.219822,0.331709,-0.399464,-0.103531,-0.161159,0.346215,-0.161856,-0.190493,-0.0510408,0.475165,-0.278147,0.217461,-0.45064,-0.115222,0.401499,-0.165735,0.333019,-0.163858,-0.246751,-0.241651,0.0141563,0.345242,0.210245,-0.0597496,-0.272557,0.234557,-0.17885,0.308455,0.194,-0.262034,0.130321,0.447136,-0.312903,-0.168754,-0.234473,-0.143285,0.345231,-0.383654,-0.319238,-0.0195997,-0.243074,0.075623,0.156909,-0.456699,0.477005,-0.315277,0.0846588,-0.0720363,0.0913288,0.246294,0.336715,0.403627,0.0561851,-0.161455,0.216074,0.316149,-0.066395,0.401893,-0.335925,0.440813,0.194253,-0.247507,-0.36397,0.0420496,0.313898,-0.175317,-0.200707,-0.26583,0.0247121,-0.150677,0.0989589,0.397539,-0.050101,0.0204196,-0.160154,-0.19548,0.390798,0.080745,-0.273197,-0.31211,0.0150752,0.402199,-0.0116973,0.359464,-0.262561,0.0189635,0.0698113,-0.085677,0.440139,0.2048,-0.370103,-0.439398,-0.493435,-0.450715,-0.0821209,-0.255702,0.301553,-0.208711,0.0697949,-0.458406,0.285205,0.109494,-0.0596013,-0.21072,0.217549,-0.26667,-0.224995,0.124829,0.445225,0.490293,0.483743,0.468034,0.321369,-0.082269,0.177614,0.161255,-0.249793,-0.412399,0.344038,-0.0918062,0.0171815,-0.0452595,-0.282623,0.0193696,-0.077405,0.313603,-0.430144,0.168332,-0.0321809,-0.140188,0.282572,0.107682,0.286938,0.339641,-0.481891,-0.0762506,0.335651,0.296828,0.228806,-0.494439,-0.0180558,-0.300844,-0.442562,-0.267836,-0.266684,-0.164827,-0.424744,-0.493428,-0.00085502,-0.0331447,-0.422451,-0.075275,-0.403201,0.256319,-0.0769723,-0.140568,-0.353586,-0.182788,-0.483652,0.474138,0.108699,0.107073,0.17092,0.282594,-0.215901,-0.0399966,0.18637,-0.298055,0.0534722,0.191332,0.471671,0.206691,0.130851,-0.389391,0.0782992,-0.183572,0.325667,0.349444,-0.422827,0.0923316,-0.126185,-0.376422,-0.346869,0.0214905,0.286683,-0.104437,0.409684,0.498663,-0.104424,0.217828,-0.42286,0.292931,-0.227217,0.287719,-0.103987,-0.313904,-0.0731423,0.104356,0.161043,0.165691,0.415235,-0.254625,0.0569678,-0.22246,-0.0928357,-0.0401573,0.393594,0.109624,0.0479671,-0.119205,-0.251184,0.236562,-0.363795,0.317797,0.213383,-0.346682,-0.0731465,0.43078,-0.226001,-0.202931,0.408646,-0.482128,-0.0168487,-0.488748,-0.17922,0.366739,-0.180506,-0.0149036,-0.0313565,-0.0138282,-0.191454,-0.203537,0.30243,0.45135,0.243651,-0.143665,-0.263741,0.0323492,0.336419,-0.374374,0.382732,-0.195398,-0.215145,0.477043,-0.304043,-0.0970078,-0.326359,0.280467,0.438011,0.0906247,0.428505,0.00759347,-0.00475949,-0.12008,0.473296,-0.487535,0.0989768,0.437945,-0.25609,0.304935,0.178246,0.355568,-0.140024,-0.104773,-0.420189,0.20114,-0.191437,-0.403066,0.232864,0.188374,0.0663038,0.444644,-0.364529,-0.182372,0.183216,-0.458714,0.0172495,0.135433,-0.439911,0.0184497,-0.244751,0.106296,0.0434213,0.425534,-0.356835,0.283127,0.0889969,-0.0569334,-0.0140056,0.119188,0.11383,-0.300044,0.301712,-0.274733,-0.138106,-0.12658,-0.476045,0.491621,-0.413812,-0.409748,-0.364655,-0.132502,-0.297742,-0.488338,0.456455,-0.152692,0.397114,-0.235575,-0.203689,0.161382,0.314005,0.056331,0.202438,-0.211375,-0.33781,-0.437955,-0.296394,0.157503,0.478178,-0.0881611,-0.363876,-0.343786,-0.0201584,-0.423591,-0.102465,-0.314677,-0.218468,0.269039,0.34224,0.496845,-0.372031,-0.0459112,-0.149277,0.21265,-0.0792965,-0.030075,-0.35475,-0.235195,0.378612,-0.187909,0.342363,0.170526,0.0763499,-0.311749,-0.0457144,0.243966,-0.151702,-0.342051,-0.0777499,0.481957,-0.184758,0.404272,0.366677,-0.212751,0.354911,0.239156,0.468036,0.122872,0.208247,0.426333,0.280404,0.286574,0.336518,-0.0908854,0.456924,-0.421141,-0.426513,0.0917765,-0.104179,0.0652692,-0.301212,0.396828,0.011621,0.119137,0.462654,0.157939,-0.169688,-0.232163,-0.129465,0.0525987,-0.0775806,0.331697,-0.302359,0.354842,0.0481832,-0.272875,0.298095,-0.412173,0.38789,0.0418372,-0.393844,0.28789,0.294094,-0.182511,0.0985302,0.476523,-0.155478,-0.48234,0.0196208,0.24399,0.447393,0.277169,-0.296893,0.182294,0.034162,-0.0496698,-0.298163,-0.122025,0.475126,0.462249,-0.00938083,-0.185252,0.494938,-0.268756,0.10279,0.108063,-0.0581204,0.309387,-0.255462,0.349276,-0.499861,0.474239,-0.194073,0.219702,0.294701,-0.355434,0.382615,-0.126479,0.389727,-0.408331,0.0505856,-0.277037,0.0513521,0.305277,-0.324189,-0.203117,-0.0316791,-0.216434,0.228011,-0.358081,-0.336338,-0.381233,0.402809,0.471206,-0.250355,-0.0392163,0.255447,-0.251177,-0.229432,-0.135803,-0.334368,0.139403,-0.13,0.401624,-0.0639821,0.231712,-0.341691,0.144998,-0.336068,-0.194281,0.175377,0.191091,-0.448724,-0.323083,0.0719785,0.00195162,-0.359824,-0.389629,0.230763,0.18374,-0.347067,-0.0191709,0.41653,-0.209896,0.159277,0.00634546,-0.312082,-0.466244,-0.224405,-0.069194,-0.160217,0.369068,-0.106945,0.0486232,-0.080232,0.193043,0.285833,0.339438,-0.202493,0.202979,-0.234232,0.25468,0.0211067,0.0906183,-0.245089,-0.279203,0.331776,-0.295803,0.00219815,-0.203806,-0.119872,-0.203668,0.0884454,-0.432676,0.448243,-0.290253,0.0407295,-0.179604,0.276114,0.297579,0.215759,0.220207,-0.0546755,0.0388762,0.355532,0.29491,0.393962,-0.210492,0.142389,-0.123873,0.1729,-0.313986,-0.200627,0.0701448,-0.223305,-0.426645,-0.071412,-0.313429,-0.0207493,-0.353976,0.209269,-0.0128932,-0.238482,0.0373379,-0.343837,0.488408,0.326671,-0.292922,0.292375,0.0506981,-0.14126,-0.36284,-0.463711,0.32895,0.076716,-0.0810401,-0.0723138,0.202675,-0.0676807,-0.337848,-0.45421,-0.0562267,-0.154281,0.121843,-0.0819178,-0.207252,0.26239,-0.275815,0.0671796,-0.304622,-0.1314,0.275529,-0.258351,0.411818,-0.239981,0.373413,0.137831,0.0035634,-0.187543,0.0955305,0.152797,0.0568661,0.294435,-0.239582,0.000994026,0.255216,0.422893,0.366488,0.100401,0.191146,-0.15128,0.210185,0.36029,0.312534,0.296939,-0.426989,-0.43819,0.0481582,-0.167524,0.334794,0.0709858,-0.0416038,-0.479295,0.2524,-0.271167,0.399841,0.0510754,-0.366672,0.470603,-0.202214,-0.28216,0.196049,0.378599,-0.193631,0.335784,-0.0741575,-0.219727,0.041263,0.0735846,0.167377,-0.333285,-0.0148542,-0.116845,0.145002,0.0138819,0.141044,0.366804,-0.301833,-0.320541,-0.175709,-0.197683,0.224471,-0.448332,0.111847,0.0499071,0.146122,0.385288,-0.165199,0.213529,0.0860802,0.468516,0.0100236,-0.0878422,-0.16597,0.372362,0.067831,0.333158,-0.215269,-0.169674,-0.297819,-0.239989,0.409838,0.140135,0.383579,-0.390777,0.369178,0.0819873,0.109179,-0.283838,0.451223,-0.203385,0.153824,0.418279,0.390402,-0.0193439,-0.0333091,-0.395332,0.246693,-0.263788,-0.343911,-0.490105,-0.263155,-0.046293,-0.338635,0.313936,-0.3247,0.267732,-0.333318,0.108503,0.385894,0.286021,0.165741,0.362173,-0.170858,-0.229658,-0.105936,-0.20997,0.198406,0.291014,0.159986,0.455532,-0.473351,0.188581,0.459928,-0.117599,0.293907,-0.212019,-0.0991594,-0.000122273,-0.209823,-0.386898,-0.357421,-0.023214,0.379679,0.17374,0.309607,-0.000409409,-0.319847,0.4779,-0.340199,0.171318,0.394671,-0.453091,-0.211949,-0.387183,-0.00872051,0.0405279,-0.249997,-0.317492,-0.00778889,0.0869151,-0.0451118,0.243188,-0.210139,-0.496891,0.133558,-0.305473,-0.32269,-0.346761,-0.188435,0.2944,0.200839,0.407962,0.240338,-0.499968,-0.325688,-0.189117,0.468589,-0.394106,0.200165,0.285769,0.0591061,-0.390141,-0.0124845,0.317681,-0.358346,-0.166317,0.327751,0.0673948,0.151103,-0.094609,-0.322463,0.437961,-0.0213349,0.462039,-0.0152647,-0.035395,-0.0281271,0.379307,0.281391,0.132807,-0.124754,-0.02661,0.167619,-0.341335,-0.238567,-0.384424,-0.360929,0.091832,-0.10682,0.48596,-0.368748,0.0311339,0.10509,-0.374133,-0.383638,0.442417,0.317352,-0.401047,-0.497331,-0.00611655,-0.2857,-0.292366,0.499337,0.263837,-0.437787,0.365007,-0.348289,-0.147391,-0.0779763,-0.0487214,0.301642,0.0926699,-0.191699,-0.411039,-0.177901,-0.167517,-0.0785137,-0.325963,-0.232973,-0.416046,0.284633,-0.251562,0.00805321,-0.102488,0.204322,0.212479,0.229964,-0.294016,-0.0119146,0.291853,-0.351595,0.169505,0.169917,0.0532493,0.164502,0.201673,0.0372974,-0.108134,-0.242438,0.324659,-0.0537249,0.239076,-0.397037,0.0358022,-0.476811,0.0293515,0.247364,0.00239996,0.411778,0.444625,-0.306066,0.0545782,-0.352517,-0.266187,0.24163,-0.438046,0.176353,0.0656782,0.0694175,-0.346871,0.137513,-0.365844,-0.256527,0.220963,0.388878,-0.0189964,0.267346,0.12007,-0.0878852,-0.160936,0.10566,0.140088,-0.441881,0.0822179,0.147786,0.441573,-0.269865,0.0568951,0.440618,-0.0761038,0.15911,0.473362,-0.399757,-0.211464,-0.372514,-0.145606,0.350667,-0.376203,0.133422,0.48404,0.444008,-0.219453,0.246775,0.321563,0.423703,0.0331505,0.226691,-0.00984592,0.0353418,0.318175,0.33022,0.412121,-0.496113,-0.24887,0.0375859,-0.386056,0.0159814,0.368011,0.23392,0.30824,0.29311,-0.483259,0.391827,0.350094,0.300405,-0.0159718,-0.136516,-0.47746,-0.260154,-0.03129,-0.0544741,-0.268395,0.479706,-0.333124,0.144753,0.386033,-0.439341,0.227586,-0.0223103,-0.199014,-0.236846,-0.155067,-0.427186,0.211777,-0.186645,-0.206758,0.457297,-0.379485,0.377094,0.403909,-0.135777,-0.456239,0.328152,-0.494789,-0.0164718,-0.390266,-0.0568188,-0.0266225,-0.374749,0.111537,-0.449356,-0.314416,0.353456,0.38214,0.255521,0.409454,0.0571731,0.0497343,0.477472,-0.446743,0.0622573,0.212834,-0.446179,0.067644,-0.261615,-0.150753,0.225005,-0.307906,-0.20831,-0.409224,-0.0530756,-0.452573,0.0069652,0.0878028,0.379125,-0.267602,0.448485,0.168022,0.453619,-0.222976,0.17399,-0.39299,0.143779,-0.107552,-0.288328,-0.295865,-0.121459,-0.214512,-0.403851,-0.139458,-0.0850339,-0.369444,-0.269413,-0.32524,-0.45284,-0.00328176,0.262608,-0.480209,0.474422,0.486226,-0.460285,0.409939,-0.200945,0.152939,-0.479209,-0.368066,-0.0764649,0.352425,0.0383679,-0.282557,-0.230333,0.441064,0.442845,0.309692,0.280155,-0.2337,-0.0504094,0.229296,-0.0159752,-0.465629,0.0589424,0.49352,0.28313,-0.47276,0.214301,0.380712,-0.217892,0.22394,-0.00245797,-0.336682,0.0560584,0.069216,-0.299983,0.270834,0.0318168,0.233938,0.216953,0.313094,-0.379451,0.157653,-0.116145,0.118666,-0.386188,0.41282,-0.25051,-0.482083,0.360788,-0.0632027,-0.437537,-0.353774,0.170125,0.448436,0.264395,0.147413,-0.483748,-0.329859,0.275746,0.164164,0.0499313,0.0196918,-0.426896,-0.0403743,-0.436732,-0.416173,-0.435415,-0.239521,-0.339634,0.0231267,0.137402,0.463432,0.0714352,0.423784,0.395818,0.0769205,-0.21872,-0.468001,-0.161335,-0.212268,0.0877757,0.0924441,0.023875,0.146012,0.423692,0.482254,0.310265,0.458643,-0.0893445,-0.0863747,0.0241327,-0.295907,0.37429,-0.282496,-0.470179,0.130145,0.116585,0.209821,-0.00448025,-0.37757,-0.312854,-0.10538,-0.390492,0.083286,0.242103,-0.419106,0.0920198,-0.166637,0.162255,-0.388907,-0.135391,-0.150611,0.0147627,0.346068,0.243873,0.265664,0.0547845,-0.397494,-0.135392,-0.417561,0.0887237,-0.119955,0.337577,0.285003,-0.330242,0.254522,-0.0538512,-0.274919,0.082916,-0.430448,0.0681511,-0.0871887,0.409367,0.407781,0.0128089,-0.086901,0.414761,-0.442097,0.121969,-0.221304,-0.0171164,-0.224864,0.105729,-0.178155,0.45977,0.368959,-0.297735,-0.385244,0.36302,-0.364631,-0.49843,-0.361611,0.0637374,-0.18932,-0.154927,-0.386206,0.0267784,-0.188552,0.168166,-0.137251,0.0664564,-0.119745,0.170213,0.492387,0.0132221,-0.0187908,0.251639,-0.403457,-0.141816,0.430735,-0.0506269,0.014069,-0.11565,0.225101,-0.125062,0.132762,-0.400398,-0.496457,0.476357,-0.377245,0.350854,0.241049,0.166245,-0.465359,0.465861,-0.0420427,-0.399171,0.309824,-0.231439,-0.404414,0.012837,-0.407013,-0.27585,0.280131,0.432517,-0.0732109,0.32608,0.0553716,0.465236,-0.0149236,-0.205336,-0.290526,0.43895,-0.0474385,0.166566,0.09722,0.140843,0.207918,-0.218413,0.280403,-0.328297,-0.0659724,0.296207,-0.268296,0.293284,-0.0361705,0.0384357,0.26287,-0.108962,-0.122863,0.079658,0.431023,-0.452019,0.160439,-0.385183,0.451212,0.375118,-0.339371,0.397862,0.439217,0.364243,-0.15527,0.272354,0.126087,0.25167,0.319511,-0.027676,0.448743,-0.177355,0.309204,0.128447,-0.119608,-0.124338,0.471936,-0.347344,0.185067,-0.146416,0.466749,-0.386222,-0.0419256,0.189453,0.37272,0.115887,-0.181316,-0.277155,0.416574,-0.369797,-0.28496,-0.186304,-0.382302,0.467242,-0.0733454,-0.21409,-0.443407,-0.10417,-0.00639881,0.341119,0.132528,0.474824,0.278482,0.124395,0.219268,-0.152479,0.181421,-0.293,0.488714,0.000405293,-0.101042,0.428044,0.166188,-0.0736294,0.448182,-0.211839,0.316988,0.383277,-0.181116,0.494183,0.133959,-0.348378,0.0963727,0.185584,0.207144,0.197112,0.270037,0.363946,-0.00430597,0.40753,-0.114537,0.367783,-0.271053,0.294148,-0.339679,-0.337216,-0.305779,0.0412249,0.40063,-0.445931,0.340023,0.217641,-0.300414,-0.0333003,-0.101588,0.354573,-0.301558,-0.440104,-0.0997929,-0.100661,-0.118988,-0.306021,-0.226589,0.269374,-0.106637,-0.208166,-0.286462,0.192058,-0.0109398,0.362153,-0.0302563,0.317885,0.417743,0.483196,0.150873,-0.027956,-0.482721,0.324951,-0.186832,-0.267745,-0.402317,-0.273244,-0.305336,0.29522,0.478587,-0.23993,-0.0696481,-0.0775341,-0.396511,0.473983,-0.320369,0.0440795,-0.311323,-0.424105,0.129345,0.385247,-0.288105,0.460129,-0.0616463,0.112405,-0.461547,-0.300365,0.260731,-0.392928,0.243568,0.0625009,0.177971,0.19113,-0.29154,-0.0712237,-0.249999,0.350376,0.273152,-0.252016,-0.198149,-0.425826,0.00285283,-0.0748172,-0.338741,0.0731293,-0.412326,-0.317818,-0.281852,0.466577,0.261386,-0.360327,0.390829,-0.386875,-0.230416,-0.487942,-0.338027,-0.378455,0.482303,-0.177413,-0.00445045,0.147823,0.228263,0.469212,0.0862778,0.364914,0.190215,0.31046,0.41401,0.168872,0.335354,-0.430928,-0.0665346,0.364905,-0.284669,0.0660016,-0.33819,-0.178675,0.040141,0.0287326,-0.039576,0.160541,-0.0282622,-0.301449,-0.47578,0.388284,0.332576,0.315069,-0.384331,0.100522,-0.479282,-0.392277,0.179988,0.35845,0.19277,0.314353,0.273056,0.0430573,-0.165111,-0.196353,-0.473314,-0.205449,0.092327,0.27414,-0.314414,-0.0134723,-0.267447,0.462741,-0.263753,-0.112485,0.381334,0.242831,0.423664,-0.216778,0.338765,0.208764,0.0636803,0.225975,-0.465892,0.185624,-0.196542,-0.35666,-0.0546864,0.13649,0.371693,0.126113,-0.165309,-0.275661,-0.484956,0.268845,0.313677,0.145586,0.119717,0.282735,-0.100624,-0.142453,-0.130025,0.180239,0.117854,0.0233684,-0.110284,-0.340671,0.484413,-0.224425,0.0934318,0.0709061,-0.023411,-0.194734,-0.0764607,-0.246833,0.0119325,-0.253697,0.467531,0.175656,0.432274,-0.127169,0.41327,0.21827,-0.331887,-0.117865,-0.121351,-0.0943774,0.30955,-0.140935,0.0348931,0.221129,-0.465444,0.164369,0.372205,-0.110549,-0.0164522,0.0989488,-0.394773,-0.391343,0.110753,0.363599,-0.218894,-0.117953,0.414445,0.233787,0.332768,-0.0648259,-0.211072,-0.291999,0.286337,0.310641,0.106668,0.0202822,-0.144744,-0.132105,0.230637,-0.279899,0.154864,0.386406,0.0879439,-0.162731,-0.422255,0.441872,-0.485482,0.440052,-0.352921,0.247412,-0.243391,-0.253961,0.0324324,0.374896,-0.134363,-0.0297862,-0.234117,0.30069,-0.457139,-0.458863,-0.444602,0.323333,-0.299758,-0.172117,0.112015,0.380558,0.490732,-0.0536507,-0.496265,-0.00360607,0.44471,-0.272783,0.413733,0.472969,-0.19316,0.426244,0.135767,0.0132778,0.401929,0.213091,-0.117589,0.0559369,0.28618,0.118167,-0.23379,-0.429637,0.242762,0.083257,-0.37792,0.0635131,-0.00927918,-0.353404,0.344637,0.213619,-0.398014,0.32909,0.487048,-0.233634,0.167525,-0.438509,-0.442432,0.228257,0.388404,-0.0996843,0.0338863,0.136971,0.00728363,0.111273,0.354133,0.231496,-0.293444,0.106921,0.275419,0.469376,-0.103218,0.050059,0.391001,-0.0904331,-0.276551,0.182112,0.307675,0.0526508,0.251523,0.15868,0.181928,-0.227944,0.465143,-0.273238,-0.164971,0.157366,0.0050643,-0.243529,-0.148606,-0.42425,0.304962,-0.24796,0.472759,0.284233,-0.00997631,0.0776055,-0.146649,-0.217457,0.137586,-0.147012,-0.2284,-0.0967328,-0.0916369,-0.25543,-0.431471,0.414284,0.0989132,0.496274,-0.0566241,0.408463,0.421954,0.0777428,-0.372288,-0.388728,0.123391,0.168028,0.0231612,0.462679,-0.169814,-0.0778846,0.384103,0.391832,-0.199692,0.10858,-0.274559,0.414213,-0.248531,0.163924,-0.413156,-0.112818,0.241867,-0.114853,-0.0671638,-0.253268,0.349046,0.00152156,0.207825,0.498146,0.229653,0.36376,0.435205,0.466072,-0.310748,-0.0890716,-0.16551,-0.222551,-0.251513,-0.0247949,-0.236223,-0.206413,-0.209443,-0.116582,0.113124,0.22101,-0.4094,-0.437963,0.23187,-0.135981,0.209758,-0.358372,-0.31393,0.152126,-0.0964187,0.384608,-0.150727,-0.439622,0.435055,-0.054421,0.139695,-0.316865,-0.0672787,-0.219924,0.33782,0.000358625,0.0839379,-0.143379,-0.161016,0.289592,-0.0351505,0.105731,-0.237452,-0.17588,-0.0251,0.414578,-0.116635,0.330917,-0.414167,-0.399889,0.44744,0.344477,0.122728,-0.114657,-0.204015,-0.33593,0.377302,-0.415635,-0.00787276,0.248248,0.499855,-0.0376052,0.144245,-0.170256,0.377016,0.19726,-0.387672,0.0115614,-0.42056,-0.477849,0.331898,-0.0781398,-0.442306,-0.33515,0.0885857,-0.466717,0.0879593,-0.110261,-0.00633888,0.411174,-0.231423,-0.454985,-0.0462278,-0.00541563,0.207496,-0.392441,0.432821,-0.484789,0.38276,-0.249378,-0.31979,0.469299,0.417032,-0.141281,-0.228186,-0.0646253,0.0784156,-0.33758,-0.259314,-0.391426,0.193043,-0.170997,-0.158301,-0.242832,0.245414,-0.00964626,0.0525154,-0.318267,-0.0525182,-0.39611,-0.000770523,0.215321,0.354086,-0.292484,0.0281682,-0.445702,-0.419084,0.10276,0.0574461,0.217297,0.211587,-0.125397,-0.171375,0.247133,0.46887,-0.427672,0.159172,-0.0725911,0.406714,0.318629,-0.448968,0.493142,0.444482,0.338359,0.377426,0.464049,0.0190824,-0.265955,0.0921298,-0.382566,0.174952,0.204901,-0.237101,0.491282,-0.462833,-0.235799,0.14798,-0.322184,0.350808,-0.351656,0.02239,-0.345249,-0.236836,0.0968089,0.456779,-0.0624707,-0.424889,-0.309669,-0.178144,-0.35156,0.49456,-0.375092,-0.359066,-0.0136728,0.423931,0.021454,0.434145,-0.16525,0.0595558,-0.487023,0.0556335,0.00810254,0.144211,-0.139988,0.396073,-0.0525224,-0.311949,-0.0191316,-0.305612,0.29118,-0.141805,0.418039,-0.350218,0.117468,-0.105793,-0.302123,-0.00333821,-0.270221,0.0389268,-0.00473387,-0.174918,0.224837,-0.132423,0.343568,0.306129,0.249787,0.134751,0.196068,0.245732,0.202569,-0.0832124,-0.0621753,-0.250269,-0.22594,0.0829624,-0.0173874,-0.206775,0.356328,0.41974,-0.136866,0.3225,-0.161748,-0.123495,-0.188861,-0.353045,-0.480697,-0.144232,0.113455,0.278349,-0.000898385,-0.116536,0.388398,-0.238194,-0.190991,0.365193,0.0633422,0.203833,-0.0946375,-0.489127,-0.386221,0.49026,0.0598483,-0.243252,-0.397228,-0.261155,0.389746,-0.474818,0.297409,0.243555,-0.124329,-0.0678733,0.0907228,0.456857,-0.422428,-0.48471,0.0831397,-0.441507,0.483172,-0.427,0.487623,-0.313609,-0.181207,0.269886,-0.271052,0.162349,-0.492228,0.25327,-0.367133,0.219955,-0.0327396,0.185227,0.421415,0.403217,0.386474,-0.278297,-0.146644,-0.00721702,0.205889,-0.295541,0.252493,0.0158015,-0.0695934,0.349992,0.343874,-0.413712,0.321032,-0.205908,-0.194259,0.424292,0.231086,-0.471119,0.0407488,-0.0105529,-0.333616,-0.308677,-0.131719,-0.401527,0.0546162,0.189585,-0.399964,0.34279,0.169897,0.126263,0.13003,0.451766,0.0181479,0.138963,-0.477092,0.303075,0.099841,-0.03999,0.355404,0.114393,0.328993,0.0312521,0.247743,-0.118666,0.199426,0.0871991,0.0610251,-0.0166081,0.484048,-0.481656,-0.291516,-0.366073,0.498375,-0.287338,-0.449399,0.365958,-0.0836024,-0.101725,-0.0403671,-0.474454,0.247978,-0.398715,0.0265766,0.0849252,0.275087,0.479615,-0.139641,0.0465552,0.493812,0.126633,-0.327517,0.100794,-0.321344,0.0701317,-0.138854,0.312359,-0.0996824,0.0873662,-0.385481,-0.0411733,-0.214603,-0.381074,0.362476,-0.49676,0.303451,0.193313,-0.242662,-0.284806,0.212226,-0.499268,-0.0322352,-0.129857,-0.137391,0.202199,-0.104756,-0.135056,0.250391,-0.245186,-0.0279479,0.0753311,-0.489889,-0.0234145,-0.454396,-0.372315,-0.349697,0.158489,-0.0519664,-0.482993,0.490296,-0.336163,-0.134369,0.182001,0.00146961,0.49374,-0.430253,-0.0468142,-0.361303,0.262321,-0.381565,-0.319182,0.167166,-0.115596,0.0700005,-0.341997,-0.278529,0.171815,0.385862,-0.232237,-0.0887295,-0.243812,-0.421155,0.363433,0.287558,0.407179,0.257157,0.375219,-0.0681768,-0.435967,0.098146,-0.258909,-0.107407,0.0646485,0.0014203,-0.287972,0.107271,0.0155975,-0.409444,0.0510302,0.106747,-0.193079,0.296593,0.302433,0.314345,-0.0680723,0.240303,-0.479271,-0.473998,0.172221,0.443166,-0.427427,-0.15235,-0.0815925,0.165791,0.499477,-0.192238,0.0435353,-0.200047,0.324623,-0.0533359,-0.010407,-0.374927,0.443523,-0.282316,-0.397758,0.141886,-0.450301,-0.370219,-0.115641,-0.437547,0.432199,0.0744356,-0.113516,-0.287131,0.0464075,0.123643,0.234306,0.129349,0.0524944,-0.245095,-0.338415,-0.271261,0.0898695,-0.29563,-0.292743,-0.190825,-0.381064,-0.437638,-0.0315627,-0.281272,-0.0454092,0.0807366,0.332963,-0.0245251,0.0244169,-0.0064073,-0.0313771,-0.420561,0.170771,0.412685,0.200122,-0.020085,-0.00528444,-0.152164,0.103421,0.269311,-0.425467,-0.422303,0.218628,0.494803,0.426185,0.400843,0.154243,-0.297299,0.211866,-0.351457,0.416156,0.157607,0.216636,-0.00504282,-0.0981832,0.445599,0.362197,0.467813,0.17931,0.448056,-0.15342,-0.152138,-0.266234,-0.424952,0.286754,-0.271039,-0.134504,-0.0568983,-0.204037,-0.0275944,0.0869659,-0.266744,0.0410927,-0.0722952,0.278201,-0.226778,-0.491322,-0.464713,0.0950382,0.286046,-0.3305,-0.26799,0.420232,0.408308,0.151942,0.217497,0.289388,0.116227,0.136749,-0.489826,0.10374,-0.0731604,0.277444,0.344349,0.208107,0.311198,-0.148436,0.217079,-0.32034,-0.483499,0.381562,0.460377,-0.173702,0.415409,-0.185277,0.225303,-0.0966669,-0.0366336,0.169994,0.296486,0.017331,-0.148166,-0.168853,-0.0175379,-0.175345,-0.348687,-0.431872,-0.371824,-0.499207,-0.305235,0.359839,0.0990736,-0.0971767,0.184337,0.0230591,-0.138738,-0.473617,0.0189486,-0.126101,-0.48187,0.0967494,-0.264795,-0.0898095,-0.0448917,-0.115996,0.247505,-0.177712,0.248808,0.00263915,0.373808,-0.346666,-0.146256,0.0892265,-0.362416,0.334012,0.394176,0.428597,0.468437,-0.366692,0.485741,-0.216819,-0.407004,0.089397,0.201469,-0.310055,0.481579,-0.464951,-0.314217,-0.469771,-0.0361311,-0.277586,-0.0281595,-0.0693302,-0.358999,0.104312,-0.348334,-0.0764613,0.443471,0.451447,0.480208,0.15484,-0.413868,0.138716,-0.257165,-0.231088,-0.185173,0.0131114,-0.0546243,-0.151442,0.474118,0.430586,0.495285,0.0828193,-0.0468517,0.354676,0.225287,-0.0436118,-0.050275,-0.0819617,-0.376712,-0.390322,0.400132,-0.0484094,-0.0152608,-0.355739,-0.0013354,0.124066,-0.018134,0.280427,-0.496826,-0.26996,0.305991,0.0464133,0.448533,0.222374,-0.0867749,0.0345705,0.196529,0.0764515,-0.265493,0.393284,-0.121729,-0.480047,-0.220126,-0.137302,-0.00775724,-0.0297155,-0.35295,-0.0859576,-0.0202777,0.162587,0.0248664,0.0863053,0.386844,-0.00379255,0.396175,-0.386002,0.310451,0.222149,-0.160117,0.490749,-0.0214323,0.0211969,0.26195,-0.46033,-0.349856,-0.47728,0.188262,-0.151945,0.14881,-0.183314,-0.423485,-0.347901,-0.441279,-0.45567,-0.0343808,-0.18167,-0.474722,-0.484197,-0.269,-0.336168,-0.407646,-0.334382,-0.281258,0.0811162,-0.475904,-0.0847109,-0.106213,0.12351,-0.327319,-0.292864,-0.38599,-0.0654591,0.442698,-0.311099,0.105408,-0.33121,-0.293504,0.445676,0.162294,-0.42153,-0.213669,-0.497439,0.180966,-0.00323628,0.0313891,-0.128355,-0.318029,-0.420062,0.46356,0.0162886,0.219501,-0.124318,0.291956,0.124626,-0.295019,-0.486131,-0.064165,0.13184,-0.379547,-0.301572,0.226916,0.061072,-0.0371394,0.283681,0.319823,-0.411384,0.294072,0.0292796,0.0341087,0.443074,-0.203619,0.297726,0.0996929,-0.246571,-0.17577,0.167681,-0.304694,0.0780922,0.442446,0.333649,0.0433752,0.252602,-0.119749,-0.455184,0.178072,0.296289,-0.148829,0.0297508,0.198187,-0.189733,0.0278302,0.439185,-0.100234,-0.194365,-0.108263,0.415667,-0.260892,0.08171,0.234753,0.0398431,0.0123061,-0.232837,0.261984,0.370784,0.488365,-0.351987,0.359901,0.0435146,0.219255,0.401134,-0.342075,-0.471676,-0.265119,-0.0870425,0.321613,0.463292,-0.303987,-0.340478,0.487444,-0.418858,0.173858,0.372893,-0.0917045,-0.170588,0.280762,0.417235,0.117363,-0.0124878,0.0755403,-0.371288,-0.233977,-0.194928,-0.327975,0.485301,-0.426875,0.184498,0.152375,0.0780972,-0.0214985,-0.0708496,0.395899,-0.276739,0.144821,0.00470622,0.351245,0.126375,0.108641,0.297246,-0.306792,0.0596751,0.0238051,-0.199885,0.0389031,0.253694,0.459972,0.492604,-0.0705456,0.023068,-0.147463,-0.0927427,-0.227716,0.355024,-0.376862,0.0855486,-0.357913,0.109121,0.105689,-0.426165,0.278665,-0.471696,0.376429,0.492399,-0.249682,0.216175,-0.242262,0.239394,-0.28167,0.23868,-0.00277405,-0.0335407,-0.112465,-0.328953,-0.29754,0.233942,0.031547,-0.342355,-0.288728,0.139305,0.270548,-0.027507,0.155952,-0.291002,0.14266,-0.0643243,-0.455971,-0.242004,-0.0098196,0.0439918,0.22948,-0.212124,-0.24172,0.337307,-0.175415,-0.292215,0.00993022,0.0197721,-0.0227453,-0.293211,0.145229,-0.118777,0.242747,0.294308,-0.494007,-0.327769,-0.428318,0.102839,0.0850808,-0.049264,0.364109,-0.489366,0.479515,-0.173171,-0.0966453,-0.313577,-0.123653,0.104817,0.303206,-0.00251244,-0.0504654,-0.470082,-0.379863,0.152287,-0.0121951,-0.449604,0.448237,-0.0774142,-0.0438596,0.20232,0.392528,0.285749,-0.392947,0.303748,-0.483298,0.260991,-0.286673,0.120502,-0.0866745,-0.34987,0.39788,0.0380244,-0.245559,-0.324419,0.10192,0.127233,-0.421267,-0.252527,-0.0423661,0.48129,-0.342874,-0.371399,0.0402053,0.270358,0.0828732,-0.113447,-0.136314,0.472896,-0.330599,-0.333283,0.242973,-0.0106127,-0.397911,0.118762,0.168897,-0.483801,0.27578,0.26563,0.167183,0.02505,0.363344,-0.153386,-0.36014,-0.0235891,0.377235,-0.366146,-0.0880663,0.0649473,0.365736,0.471179,-0.376936,0.0315649,-0.220151,-0.0744986,-0.00123402,-0.183233,0.428823,-0.29688,-0.364924,-0.212388,-0.487845,-0.499812,-0.312331,0.302944,0.371308,0.0945058,-0.218322,-0.318056,0.0293188,0.459503,0.473884,-0.358901,-0.069881,0.176961,0.237998,0.094772,0.231132,0.426566,-0.260295,-0.490813,-0.0324016,-0.277384,0.191513,-0.160696,-0.186447,-0.417861,0.0235932,0.0162819,0.0416578,-0.225856,-0.333463,0.208773,-0.36726,-0.302326,-0.252251,0.306284,-0.255176,-0.128654,0.272634,-0.126105,0.261205,-0.436001,0.355306,-0.0148541,-0.482081,0.344301,-0.495819,-0.0197324,-0.281077,-0.236928,0.0763573,-0.21306,-0.391778,0.339331,0.104736,-0.343741,-0.0992043,-0.0739622,-0.0630252,0.460698,-0.486243,-0.463024,-0.406224,-0.0231345,-0.0755806,0.427846,0.154561,0.32023,0.0191538,0.170693,0.327565,0.263461,-0.141808,0.357657,-0.0862595,0.284408,-0.419977,-0.218935,-0.429555,-0.411441,0.00360749,0.468753,0.319963,-0.35776,-0.161305,0.476726,0.420135,0.0886085,-0.425648,-0.255954,-0.331799,0.0834417,0.0764922,0.456455,-0.16367,-0.316021,0.287638,0.415023,0.308266,-0.215959,-0.248224,-0.230941,0.406381,0.16277,-0.102575,0.364421,-0.361883,0.197878,-0.297463,-0.23779,0.352845,-0.393772,-0.222486,-0.369988,-0.170721,0.027091,0.200337,-0.343344,0.149126,-0.488081,-0.451502,0.475295,-0.0957531,-0.211944,-0.118887,0.192182,0.149407,0.173755,0.124789,-0.0632732,-0.255152,-0.367217,-0.490714,0.252275,-0.2966,0.45846,-0.148875,-0.279347,0.192366,0.166479,0.0390469,-0.181321,-0.0285816,-0.353391,0.127633,-0.335541,0.347942,-0.33903,-0.479945,-0.319566,0.362502,0.0273021,-0.352245,-0.170365,-0.450755,-0.216362,-0.117193,-0.395195,-0.405099,0.330334,0.133528,-0.00526001,-0.0473362,-0.0145944,-0.191315,0.150543,0.242758,-0.106175,0.310493,0.207111,-0.406876,0.347194,0.413542,-0.458007,0.381006,0.157331,-0.101454,-0.241701,0.471954,0.210277,0.0923864,0.160507,-0.133214,0.498306,-0.269824,0.342295,0.329317,0.2804,0.0527118,-0.421415,-0.390194,0.338624,0.222321,-0.461517,0.250834,-0.394394,-0.331691,-0.0645762,-0.21466,0.11632,0.110534,0.310677,-0.276191,0.452054,0.109591,0.488766,-0.251242,-0.202558,0.128608,-0.120424,-0.130674,0.497105,0.00823218,-0.343598,0.329724,-0.448954,0.0893468,-0.260545,0.292798,-0.315372,-0.0014949,0.00527068,0.100432,0.126764,0.482504,-0.333229,-0.253599,0.252947,0.0536527,-0.103392,-0.169602,0.164211,-0.416981,-0.0212859,-0.11429,-0.162828,0.277389,0.391625,-0.436279,0.173771,0.377015,0.267004,-0.331385,0.014498,-0.0953998,-0.259976,0.0591997,-0.402859,0.246551,-0.332311,-0.324668,0.378272,0.475966,0.450849,0.330177,-0.439338,-0.179881,-0.0400019,-0.31644,0.472225,0.417249,0.3621,-0.0219744,-0.218258,0.037952,-0.309194,0.00628236,-0.495578,0.0922545,0.270321,-0.320216,-0.102983,-0.0338415,0.214353,0.446119,-0.237225,0.299521,-0.180056,0.319583,-0.427647,0.132952,-0.332212,-0.412485,-0.163268,0.225437,-0.319794,-0.187276,0.210818,0.400967,-0.485724,-0.453437,0.319448,0.383112,-0.200012,0.206454,-0.477729,-0.192238,-0.0893651,-0.36616,-0.187654,-0.219792,0.0558551,0.397153,-0.210426,-0.089845,-0.100548,-0.34516,0.28733,-0.011271,-0.4286,-0.153822,-0.188643,0.34034,0.415163,0.440867,0.242694,-0.244209,0.203407,0.388142,0.142649,0.42123,-0.237513,-0.400215,0.499115,-0.166287,0.317431,0.0339791,-0.338118,-0.00600467,0.00702368,0.0170816,0.461571,0.307513,-0.475497,-0.418372,-0.439136,-0.0371614,0.193259,-0.41718,0.0331344,-0.445917,0.276048,-0.414557,0.390337,0.25083,-0.262937,0.0177257,0.168545,-0.366684,0.255722,0.220483,-0.488898,-0.0608684,0.370289,-0.189495,0.307219,0.188504,-0.357926,-0.094485,-0.302002,-0.0585648,-0.415914,0.367025,-0.157599,0.0527143,-0.0705954,0.304858,-0.26876,-0.148427,0.207834,-0.369229,-0.304041,0.00618425,-0.127138,0.355267,-0.433502,0.348865,-0.151748,0.169139,0.47752,0.022445,0.446054,0.456442,-0.411965,-0.346358,-0.0755968,-0.318819,0.463118,0.397262,-0.288655,-0.453333,-0.362488,-0.338638,0.391539,0.279706,-0.0838499,-0.336567,0.106209,-0.425356,-0.239146,-0.287255,-0.320467,-0.373595,-0.230906,0.0391267,-0.060308,-0.42617,-0.0842616,0.310602,-0.255861,0.454427,0.231456,-0.278825,0.0791495,0.317847,0.375617,0.194514,0.450313,-0.346306,0.252692,-0.451981,0.228098,-0.159059,-0.490342,0.146649,0.0437628,-0.334578,-0.397239,0.469074,0.325485,-0.294411,0.0583815,0.473636,0.34392,0.309321,0.417524,0.438983,-0.285765,0.204765,-0.0650826,-0.321222,-0.214263,-0.407726,0.309329,0.11306,-0.0831282,-0.191967,-0.100343,-0.277252,0.426621,0.262732,-0.212906,0.411375,0.47724,0.0864897,-0.498097,-0.448523,0.317336,0.324205,0.0900793,-0.0726506,-0.381503,0.381691,-0.0215949,0.0189329,0.0032729,-0.00267299,0.0531346,0.164708,0.0281363,-0.190439,0.417981,-0.176216,0.352253,-0.0447533,0.33655,-0.0589617,-0.404741,0.232531,0.338961,0.119012,-0.206324,-0.4333,-0.471527,0.100655,-0.409474,0.079691,0.0870482,-0.328208,-0.0967073,-0.278664,0.428826,-0.294703,-0.0063143,-0.336472,0.435826,-0.0948899,0.234917,0.0235963,0.085909,-0.00609331,-0.452976,0.495862,0.312698,-0.435072,0.372816,0.449445,-0.233837,-0.478562,-0.301672,0.169505,-0.492324,0.291694,0.431984,-0.144129,-0.250384,-0.474285,-0.463717,0.119385,0.23139,0.487708,0.470009,-0.213017,0.387259,-0.397155,-0.331412,-0.341346,-0.216539,-0.302339,0.229931,0.365835,-0.210329,0.328726,-0.0243175,-0.476153,-0.23029,0.103208,-0.0454532,-0.17979,0.30972,0.394825,0.0580873,0.156958,-0.294495,0.0530514,0.180035,-0.113413,0.0992833,0.115136,-0.439212,-0.199984,-0.315063,-0.00351635,0.178831,0.457033,0.289796,-0.32961,0.171334,0.452207,-0.175329,-0.058674,0.20931,-0.0230355,0.469692,-0.360343,-0.447911,0.285046,0.296523,-0.387071,-0.343709,-0.22688,0.44378,0.143106,0.319982,0.30607,0.134083,0.087383,-0.0668425,0.414809,-0.0351596,0.418607,0.0995476,-0.431146,-0.366304,0.464929,0.310245,0.217289,0.180259,0.0963283,0.126566,-0.274828,0.0704645,-0.0371599,-0.286341,-0.107395,0.168243,0.194038,-0.0914125,0.35841,-0.445529,0.0769096,-0.390683,0.431043,0.487163,-0.0903536,0.188661,-0.415609,-0.291254,-0.399839,0.0421752,-0.463267,-0.409471,0.340853,-0.188931,0.374163,0.429271,-0.399048,0.173297,0.10243,0.336685,0.353011,0.253524,-0.189499,-0.198139,0.17824,-0.453685,-0.271962,0.163478,-0.205089,0.414477,-0.312716,0.0455574,-0.26847,0.00429161,0.463801,0.32533,-0.176837,0.198457,-0.386737,0.153326,0.288603,-0.43581,-0.346168,0.344921,0.18654,-0.103516,-0.473432,0.259529,-0.392393,-0.29106,0.00114729,0.361053,0.226709,0.153937,-0.401631,0.0467929,0.445712,-0.102649,-0.465852,-0.0365615,0.318436,0.396878,0.273693,0.0900065,-0.431065,-0.352206,0.202729,0.12374,-0.106466,-0.0918565,0.228338,-0.325791,0.318012,-0.0602376,0.226879,0.147948,-0.424994,0.177328,0.0311093,0.479589,-0.386436,0.2899,0.43824,-0.0829576,0.0124219,-0.488351,0.303296,0.218045,-0.350847,0.44525,-0.22443,-0.49812,0.410004,-0.236645,-0.0538921,-0.452236,0.442993,0.180445,-0.32422,0.0574767,-0.485931,0.473844,-0.104272,-0.159209,0.346343,0.181879,0.234285,0.482599,-0.365421,0.488888,-0.439221,0.127235,0.451159,-0.396283,0.197826,0.206045,0.452444,0.181945,0.471924,0.339298,0.486973,-0.442884,-0.129302,0.167275,-0.106395,-0.400849,0.201023,-0.122538,0.4199,-0.211104,0.412705,0.358845,0.4771,-0.235446,0.38788,0.228964,0.228735,0.432375,0.0932485,0.47973,-0.252405,-0.428036,0.496591,-0.0435581,-0.336295,0.094182,-0.00739089,0.0752637,-0.135958,0.214631,0.349197,0.214719,0.476636,-0.014543,-0.432405,0.247602,0.24355,-0.052791,0.305922,0.168733,-0.341452,0.179508,0.124012,-0.100861,-0.0622186,0.0890922,0.00491081,-0.044239,-0.013511,-0.2598,0.169202,0.0715885,-0.24307,0.306719,0.35333,-0.0491287,-0.366417,0.243174,0.326064,0.102747,0.307514,0.257751,0.0798177,-0.317091,0.22408,0.396891,-0.187835,-0.278867,-0.364134,-0.2008,0.254668,0.416559,0.400665,-0.137511,0.283302,0.21576,0.136166,-0.247731,0.12431,0.02134,-0.0348961,-0.0990205,-0.192963,0.235393,0.486413,-0.312534,0.21149,-0.489479,-0.437917,-0.061026,0.0910774,-0.383981,-0.407248,0.454697,0.150338,0.375884,0.0164373,0.357524,0.283464,0.459265,-0.0560432,-0.18438,-0.485232,-0.131463,-0.0369743,0.205266,-0.363395,0.466798,0.270066,0.30083,-0.119324,0.342737,-0.206796,-0.00522174,-0.392481,-0.287056,0.150749,-0.225712,0.0345991,-0.316251,0.0273997,0.0649652,-0.35946,-0.219504,-0.141332,-0.290496,0.0967961,0.4985,-0.387067,-0.0732396,-0.411508,0.256846,-0.366152,0.324525,0.246181,-0.141147,-0.195232,0.32654,0.479667,0.355257,-0.469196,-0.320464,-0.438272,0.110273,-0.358987,-0.192221,-0.211535,-0.29332,0.367633,0.30234,0.341224,0.265518,-0.209616,-0.0817793,-0.345701,0.300226,0.344665,0.222678,-0.447793,-0.109744,-0.483494,0.273038,0.432322,-0.440236,0.451049,-0.11812,-0.00692727,0.178463,-0.297808,0.250224,-0.024213,-0.181965,-0.460857,0.271858,-0.26868,0.239075,-0.119624,-0.130702,0.291849,-0.398464,0.366343,-0.00265046,0.237004,-0.0286968,-0.451466,-0.254863,-0.42844,0.350792,0.359097,-0.0712325,-0.250307,-0.254865,-0.112391,-0.166215,0.117745,-0.373223,-0.0970192,-0.338495,0.153141,-0.230239,-0.0382071,-0.46796,0.00632067,0.289845,0.400057,0.103057,-0.0149745,-0.0760238,-0.447468,0.103536,0.156216,-0.176807,0.00439773,0.426168,-0.195365,0.102549,-0.136492,0.464014,0.488754,-0.274567,0.224406,0.156934,-0.154253,-0.363463,-0.253666,-0.499625,0.240568,-0.182119,-0.390469,-0.383291,0.299838,0.316515,0.306677,-0.0478659,0.324718,-0.239485,0.447003,0.0806584,-0.475714,0.261262,0.281371,0.0406075,0.211774,0.175861,0.322571,-0.117911,0.465892,0.484208,-0.471934,-0.476986,-0.149001,-0.154359,0.201852,0.413552,-0.444614,-0.116328,0.298917,0.201605,-0.0716526,0.311625,-0.0923036,-0.289215,0.443697,0.275478,0.102973,0.466867,-0.449312,-0.447207,0.0553179,-0.326368,-0.330991,-0.452539,0.175829,-0.449324,-0.064609,0.152289,0.32971,0.263944,-0.095732,0.486653,0.252854,-0.0802783,0.0509859,-0.189185,-0.22473,0.0182173,-0.299785,0.167386,-0.0445952,-0.489564,-0.495533,0.315191,0.00805815,0.212429,0.398346,0.449546,-0.3285,0.0586838,-0.162302,-0.363142,0.485027,0.405811,0.119012,-0.490045,0.154214,-0.260542,-0.454059,-0.246015,-0.287859,0.414812,-0.0575322,-0.470468,-0.476028,0.24461,0.417218,0.434116,0.0348302,-0.216741,0.0850827,0.213109,0.439688,0.0366769,0.475213,-0.0173872,0.0878158,0.34843,0.470637,-0.419941,0.234409,0.325505,-0.342444,-0.46643,0.208821,0.401521,0.118346,-0.395627,0.0876034,0.141534,-0.2206,0.290404,0.366858,0.454259,0.0439523,-0.111421,-0.151216,-0.264512,0.231039,-0.213424,0.442597,-0.0973958,0.467168,0.195164,0.193516,0.315412,-0.169851,-0.0201722,0.114132,0.0206051,0.149578,-0.0255967,0.126915,-0.0097949,-0.00547627,-0.137084,-0.457182,0.22018,-0.495617,-0.0310013,0.467095,-0.484321,-0.230012,0.466256,-0.197055,-0.0469165,0.318046,-0.00504876,0.220956,0.277353,0.23133,0.0203383,0.393325,0.00821801,0.200957,-0.304504,-0.408021,0.262714,0.133289,-0.169005,-0.0529862,0.237868,0.23184,-0.134477,-0.10882,0.337109,0.316772,-0.421029,0.384636,0.0443305,0.386249,0.323144,-0.0162491,-0.301572,-0.108589,-0.229339,-0.419712,-0.454086,-0.317457,-0.330353,0.330236,0.160377,0.0373899,0.204889,-0.266104,-0.477026,0.0767553,-0.148653,-0.329957,-0.421648,-0.102461,-0.254739,0.0817477,0.174821,0.0952809,0.0178844,0.407312,0.158598,0.253379,0.474068,-0.331869,-0.0901106,-0.183771,-0.1923,-0.104321,0.319748,0.479725,0.267457,-0.286019,0.270545,0.134813,0.291429,0.374027,-0.182522,-0.320081,0.228866,0.0713914,-0.447293,0.107406,-0.379107,-0.445097,-0.348418,0.485186,-0.434189,0.156966,-0.4719,-0.446686,0.259023,0.276186,0.490895,-0.239532,-0.469849,-0.495567,0.138679,0.41963,-0.455974,-0.389524,0.0882681,-0.247016,0.121203,0.487733,0.430259,-0.392719,0.169452,0.37324,-0.0130057,0.480202,-0.0994092,0.222053,-0.392871,-0.0667085,-0.363334,0.0593257,-0.207841,-0.373509,-0.400731,-0.102903,-0.206018,-0.0218317,0.339179,-0.1868,-0.363279,0.334561,-0.361104,0.488748,-0.49738,-0.106492,-0.00793823,0.441075,-0.314904,-0.0207668,-0.285116,-0.491738,0.217016,0.0102876,0.209041,0.368011,0.137416,-0.303917,0.0260184,-0.311709,-0.0005626,-0.103647,0.414551,-0.2685,-0.0336011,0.391069,0.139489,0.125547,-0.368499,0.0930755,-0.168115,-0.46044,0.275119,0.177577,0.134208,-0.174237,-0.225628,0.203525,-0.472378,0.442078,-0.309683,-0.456444,0.199466,0.394113,-0.194601,-0.340059,-0.0117244,0.209577,0.0636223,0.111266,0.345425,-0.0521054,-0.0404986,0.410108,0.237029,-0.365922,-0.415132,0.0160826,-0.0777801,-0.102356,-0.340149,-0.327249,0.0395969,0.385234,0.329134,-0.482493,0.118674,0.180028,0.1732,-0.472275,0.304785,0.0356816,-0.465811,-0.355704,-0.267891,0.391025,0.348172,-0.430914,0.474833,0.0591576,0.150001,-0.476474,-0.151936,0.345144,-0.0223138,0.282927,-0.329392,-0.0433266,0.254793,-0.346472,-0.011354,-0.33912,-0.424248,-0.234267,-0.208587,0.0193548,-0.383083,-0.41681,0.430897,-0.325291,-0.268817,-0.307785,-0.047099,0.426483,-0.369889,-0.364675,-0.423795,-0.203721,0.153513,0.23255,0.0530381,0.123641,-0.217288,-0.170608,0.0357883,-0.0944705,0.352431,0.397912,-0.27094,-0.400949,-0.275117,-0.0609197,-0.223074,-0.379288,-0.285032,-0.323451,0.342243,0.129015,0.442776,-0.437843,0.057718,0.24232,-0.208175,-0.446298,0.124408,0.368722,-0.179875,-0.00673499,-0.399883,0.418836,-0.241762,-0.255632,0.25347,0.287346,0.335429,0.130769,0.00338258,0.192776,-0.018166,-0.396542,-0.471685,0.263979,0.449973,-0.159844,0.113178,0.0885327,0.330165,-0.0937428,0.172821,-0.0719075,-0.426535,-0.308431,-0.398096,0.437811,0.210047,-0.0687904,0.120139,-0.205005,-0.367395,0.367314,0.167117,0.351582,0.350885,0.430718,0.2775,0.139766,-0.0563822,-0.308535,-0.166385,-0.00541075,-0.208248,-0.156267,0.40102,0.221267,0.463309,-0.387343,-0.339641,-0.190399,-0.461189,0.163531,-0.0206956,0.219308,-0.148481,-0.131739,-0.333653,-0.0827724,0.320282,-0.216648,0.304455,0.220337,-0.0427435,0.158697,0.0629367,-0.340371,0.246884,-0.137611,-0.331395,0.122388,0.40647,-0.412165,0.224493,-0.127265,-0.0898247,-0.406582,-0.424075,0.458296,-0.287611,0.195901,-0.0586421,0.34246,-0.370499,-0.287446,0.305663,-0.0990808,-0.276978,0.263314,0.257921,-0.0147757,0.0882046,0.0613795,-0.200924,0.355888,0.143181,0.27921,0.419807,0.220834,0.159527,0.0819429,-0.339816,0.0989128,-0.473082,-0.434604,-0.368799,0.389369,0.469715,-0.223167,-0.247207,-0.351312,0.400493,-0.023936,-0.459272,0.497918,0.12277,0.460729,0.39136,-0.407607,0.113653,0.0305157,0.434205,-0.184366,0.0749599,0.0825662,-0.335031,0.412935,-0.0150556,0.30882,0.138571,-0.140644,0.27658,-0.321384,0.206375,0.238741,-0.102145,0.000473151,0.343697,-0.263019,0.0164951,0.133407,-0.331417,-0.334509,-0.232622,-0.0152151,0.0293915,0.332643,-0.162256,0.21238,0.38956,-0.0874064,0.318351,-0.282478,-0.44368,0.0448588,-0.419342,0.457671,0.485139,-0.106013,0.426493,0.290894,-0.48975,-0.281992,-0.274473,-0.413323,-0.405962,-0.279405,-0.0494813,-0.441392,-0.302704,0.283854,0.0704551,-0.0906972,-0.0866934,-0.310975,0.0707957,0.372228,0.135007,0.0132075,0.330379,-0.268204,0.221943,0.406105,-0.318108,0.347555,-0.154368,0.100824,0.267077,-0.326642,-0.151929,-0.419717,-0.214713,-0.489526,-0.408813,0.466746,0.0198008,0.285151,-0.0195048,0.29558,0.363338,-0.224466,0.31066,-0.28232,0.145168,-0.1519,0.398688,-0.0664193,-0.255555,0.485238,-0.19266,0.121494,0.0282917,0.429202,-0.313113,0.0861031,-0.326709,0.14335,-0.398542,-0.168587,0.299156,0.491756,0.101413,-0.333713,-0.264862,-0.372,0.160378,-0.110541,-0.170391,0.43567,-0.277836,-0.0121668,-0.430918,-0.0725886,0.432987,0.185406,0.113911,0.348003,0.264022,0.243758,0.358107,-0.132149,0.0643461,0.0431661,0.171584,-0.0345432,-0.296622,0.0938071,0.255873,-0.367781,-0.293494,0.0542484,-0.0996936,-0.236753,-0.117823,-0.00933849,-0.320596,0.396862,-0.463556,-0.00755737,0.315338,0.244544,-0.169957,0.106605,0.214154,-0.0245251,-0.397031,0.244113,0.247788,-0.498476,0.304818,0.162556,0.00779869,-0.119083,-0.11362,0.147786,-0.252156,0.298222,-0.156151,0.0511197,0.407108,0.183907,0.320225,-0.450256,0.419498,-0.488752,-0.0623109,-0.147907,0.0290684,0.266811,0.230743,0.367353,-0.379508,0.388701,-0.0661233,0.484167,0.394008,-0.415892,-0.461966,0.027671,0.456938,-0.288692,0.382075,-0.359153,-0.287414,-0.0349198,0.162782,0.11757,-0.085026,0.413663,-0.481969,0.099715,0.44286,-0.417465,-0.0793981,-0.142538,0.340099,-0.24935,0.0818143,-0.311804,-0.347589,0.290946,0.39549,-0.430097,0.471501,0.272429,0.131678,-0.451664,-0.44268,-0.21761,0.242912,-0.0104417,0.424021,0.210693,-0.390518,-0.350808,0.447351,0.430383,0.18162,-0.160583,0.0306683,-0.303287,0.257265,-0.364601,0.326787,0.00216547,0.474638,-0.198935,0.335423,0.301694,0.396635,0.439014,-0.447834,0.387437,0.025169,0.224894,0.266258,-0.327363,-0.246156,-0.0507577,-0.0201617,0.239952,-0.281296,-0.449517,0.306095,-0.0486068,-0.141846,-0.234576,-0.326626,0.225417,-0.392684,0.473325,0.0609052,-0.36145,-0.249718,-0.2381,0.0551498,0.333301,-0.183434,-0.348811,-0.321325,-0.309522,0.101531,0.278371,-0.242543,-0.165836,0.233381,-0.269387,-0.0491845,0.346287,-0.173604,-0.266723,-0.296028,0.329034,-0.0298255,0.117161,-0.195928,0.166527,-0.406163,0.0823685,0.0404826,-0.0202193,-0.0673141,-0.265333,-0.104387,-0.241891,-0.315081,-0.134732,0.46644,-0.181006,-0.174182,-0.181985,-0.420632,-0.478181,-0.231645,0.325471,0.0144565,-0.190904,-0.0179429,0.412847,-0.454681,-0.325968,-0.149032,0.397681,-0.413727,0.156753,0.222767,0.25031,0.157158,-0.0378692,-0.069314,-0.481316,0.0178501,-0.181397,0.10603,-0.370448,-0.462068,-0.176821,-0.260899,0.263168,0.0879891,0.306437,-0.203994,-0.00971671,-0.498634,0.0141631,-0.106231,0.0332877,-0.05492,0.307021,0.294661,0.0344845,0.0958444,0.333782,-0.281059,-0.153554,0.204678,-0.494097,-0.329648,-0.159468,0.351847,0.266468,0.130118,0.211523,-0.218131,0.324,-0.0772441,-0.402041,0.172549,-0.411042,0.249422,0.0776266,0.137578,0.484173,-0.12697,0.497803,-0.17601,-0.492716,0.350226,0.138029,0.233939,0.225978,-0.391792,0.126814,-0.300523,-0.376066,-0.426628,0.466378,-0.0860095,-0.26395,0.488328,-0.351346,0.247766,-0.458815,0.250002,0.261484,0.172974,0.0321987,-0.387292,0.0175319,0.470958,0.0531734,-0.0249229,-0.0890639,0.143903,-0.423533,0.481339,-0.364772,-0.329497,0.431694,-0.476107,0.1719,0.23376,0.375161,0.276329,0.0378002,-0.436029,-0.236412,-0.471075,-0.127262,-0.303159,0.138947,0.0405626,-0.272296,0.451502,-0.186919,0.357875,0.0257835,0.346488,-0.000492297,0.468613,0.310533,-0.185684,-0.10701,-0.427623,-0.180731,0.355289,-0.296722,-0.0612674,0.0806544,0.426416,-0.212516,-0.117377,0.283195,-0.393548,0.464858,0.12187,-0.431085,-0.409381,0.0480806,-0.155235,0.245153,0.478474,-0.200089,0.414406,0.330232,0.462241,0.300455,-0.322079,0.132906,-0.086737,-0.241269,0.326398,0.13145,0.125977,0.338491,-0.390066,0.435549,-0.471272,0.31704,-0.100156,0.453548,-0.129712,-0.225005,-0.16766,-0.400994,-0.440535,-0.333023,0.0703337,0.340781,0.406507,0.0140811,-0.185054,-0.268277,0.370861,-0.458683,-0.224707,0.171312,0.306571,-0.149447,0.0334452,-0.36916,-0.3544,-0.480634,0.422077,-0.121567,-0.471084,0.428506,-0.0327919,-0.286186,-0.0393598,-0.488303,-0.199227,0.277079,0.388291,-0.152368,0.259065,0.405676,0.406817,0.124856,-0.299895,0.468041,0.492547,0.0107063,-0.196059,0.0792008,0.100302,-0.254915,-0.313847,-0.319754,0.487935,-0.0475371,0.165214,0.0386559,-0.151701,-0.25904,0.221383,-0.445078,0.152653,0.28627,0.121393,0.162159,-0.0889348,-0.390914,-0.226443,-0.226728,-0.246327,0.397363,0.291993,0.290438,-0.190644,-0.169936,0.357446,0.101553,0.0842165,-0.344939,0.142118,0.020931,0.160228,0.242837,-0.0797623,0.220795,0.19854,0.480629,-0.0499938,0.233879,-0.426468,-0.334945,0.0145743,-0.390804,0.217795,-0.398109,0.425464,-0.13408,0.329501,-0.0573355,-0.448891,-0.215775,0.301042,0.0818175,-0.18002,0.236475,-0.173334,0.431881,-0.484973,-0.216147,-0.286086,0.29591,0.152519,0.475753,-0.232086,0.017118,-0.134644,0.186762,-0.138755,-0.165618,0.0188279,0.467937,0.170636,-0.287654,0.179818,0.272011,0.378504,0.369798,0.287199,-0.00990458,-0.261572,-0.213105,-0.0387234,0.0540769,-0.445832,-0.171066,0.095936,0.218885,0.424101,-0.382701,-0.397122,-0.1369,0.113507,-0.371681,0.436372,-0.464254,0.462087,-0.208208,0.210096,-0.0412436,-0.410532,-0.179373,0.053325,0.276242,-0.339257,0.0300141,0.4436,0.303819,-0.0846519,-0.167002,0.0306655,-0.018828,-0.241367,-0.364699,0.235362,0.371793,0.374802,0.244181,0.387034,0.212553,0.105497,0.271022,0.181468,-0.161861,0.109421,0.102812,-0.030456,0.339998,-0.304244,0.132719,0.367812,0.228924,0.131283,0.142757,0.27582,0.0459855,-0.170556,-0.488392,0.491433,-0.13182,0.320368,0.439439,0.427772,-0.262635,-0.435222,0.471109,0.0325629,-0.422553,0.185871,0.00751164,-0.489375,-0.402207,-0.474485,0.329508,0.282185,0.401412,-0.486967,-0.471515,-0.383223,0.378209,0.0918861,-0.0316131,-0.166037,0.274971,0.469134,0.19789,-0.429102,-0.146086,-0.378147,-0.10558,0.423155,-0.414751,0.137972,0.202325,0.0626966,-0.320757,-0.27815,0.0237313,0.260762,0.404362,0.254401,0.368284,-0.037287,0.475252,0.391045,-0.349875,-0.430838,0.0973885,0.0919205,-0.375471,-0.164524,-0.333676,0.275321,-0.401753,-0.216416,0.461242,-0.309097,-0.156076,0.444693,-0.402181,-0.423885,-0.113118,0.294495,0.321717,-0.301045,0.109725,0.064328,-0.378059,-0.0296482,-0.464491,0.0159172,-0.455104,-0.136693,0.438824,0.202712,0.450594,-0.142276,-0.497873,-0.375122,-0.0501769,-0.0386741,-0.231768,0.0751965,0.155724,0.114569,-0.249235,0.272329,0.0675211,-0.208947,-0.179842,0.19799,0.0205229,-0.497753,-0.283903,0.00748984,-0.237387,-0.13891,0.33602,0.136354,0.374683,0.318165,-0.469567,-0.00174569,-0.144366,0.272547,-0.312611,0.480812,-0.275242,-0.153791,-0.472419,-0.443806,-0.307275,0.482787,0.384433,0.49015,-0.173137,-0.429894,-0.135703,0.125177,0.127973,0.312392,0.232,0.486351,-0.340439,0.432595,0.465618,-0.1464,-0.318291,-0.0277254,-0.136886,0.121038,-0.381232,-0.27359,-0.233322,0.0906784,-0.330999,-0.343677,0.440512,-0.386821,-0.478489,-0.0823882,-0.235255,0.398848,-0.296468,0.0116415,-0.0410377,0.444122,0.239118,-0.250772,-0.472453,0.401517,-0.20153,0.401765,-0.155646,-0.129592,-0.416003,0.16936,-0.407553,-0.0141865,0.302373,0.0352343,-0.265033,-0.467999,-0.00827897,0.18084,0.259546,0.481258,-0.251145,0.132378,-0.484905,0.00339085,-0.238287,0.416746,0.308543,-0.209909,0.285731,-0.244396,0.0484945,0.351035,-0.247257,-0.16692,0.408495,-0.40724,-0.414977,0.329514,0.00343257,-0.144325,0.163675,-0.239988,-0.374329,0.29577,-0.334001,-0.332613,-0.386221,-0.432924,0.326804,0.00486598,0.0899605,0.132794,0.0714533,0.327444,-0.0534194,0.495745,-0.464534,-0.314164,-0.088049,-0.440648,-0.173461,-0.0622211,-0.483776,0.0231023,0.450912,-0.10664,-0.0782533,-0.47665,-0.0440795,-0.109676,-0.0991676,0.369755,-0.219306,0.120483,0.392341,0.193309,-0.158509,0.0750634,-0.185399,-0.0202058,0.360396,0.283778,-0.259022,-0.319854,0.245001,-0.306222,-0.434096,0.0982174,0.371058,0.26716,-0.110618,-0.0351013,0.244003,0.288987,0.013808,-0.247048,0.0569399,-0.498054,-0.305269,-0.147816,-0.00905482,-0.0723908,-0.196977,0.0415923,-0.145353,0.0964627,-0.343248,0.0682129,-0.116335,-0.0789424,0.40791,-0.368437,0.287087,-0.266275,0.259528,0.136852,-0.0224426,0.182898,-0.24748,-0.481425,-0.230393,-0.370381,0.352485,-0.298176,-0.498996,0.284856,-0.243699,0.0687193,-0.279767,0.213255,0.0264289,0.442755,0.108584,0.164089,-0.347235,-0.253908,-0.155055,-0.295592,-0.0515445,-0.0651431,-0.202825,0.185493,-0.16466,-0.483519,-0.204293,-0.267447,0.119465,-0.425497,-0.0898255,-0.0988121,-0.222023,0.232804,0.0314365,0.306167,0.127854,-0.356356,0.448715,0.287363,0.0466309,-0.323868,0.0726415,0.30795,0.134804,-0.365151,-0.0123683,0.373387,0.255482,0.114889,0.237023,-0.117318,0.48482,-0.0975894,-0.439249,-0.427957,0.32033,-0.397163,-0.235898,-0.493797,-0.256058,-0.343571,0.479816,0.175475,-0.106663,0.166502,-0.31374,0.10779,-0.222824,-0.240038,-0.189724,0.36362,-0.494663,0.0262321,0.146245,-0.305567,0.36196,0.26656,0.346132,-0.11124,-0.0923745,-0.0901066,0.0782606,0.440197,0.269369,0.315301,-0.0377189,0.301631,-0.469109,-0.276618,0.185096,-0.00703305,0.00430548,0.32503,0.0558139,-0.497455,-0.174808,0.380456,-0.429956,0.494905,0.03197,-0.276769,0.298949,0.13597,-0.491918,0.0684902,0.15217,0.0964603,-0.167014,0.319629,-0.222887,0.195775,-0.364975,-0.473319,0.223838,0.0816515,0.221324,-0.0756417,-0.0895914,-0.134708,-0.475809,0.296037,-0.0620532,-0.186372,0.313656,0.234422,0.125391,0.294297,0.196105,0.38579,-0.193052,-0.229374,0.126607,0.287255,0.496698,-0.0377667,-0.250943,-0.158005,0.176475,0.224387,0.279171,0.346101,-0.35222,0.0773839,-0.088317,0.356827,0.0621966,0.0676017,-0.282045,-0.443164,0.43041,0.359596,-0.0481279,0.494529,0.201461,0.454533,-0.175276,-0.496758,-0.369063,0.267095,-0.172463,0.0920906,0.389342,-0.434823,0.460868,0.346528,0.203077,0.346927,-0.239481,0.299246,-0.34882,-0.472026,-0.442159,-0.369687,0.0201717,-0.0697423,0.216529,-0.382826,-0.247416,0.0873507,-0.0291886,0.342707,0.483312,0.401263,-0.356746,0.249046,0.472017,0.355913,-0.107529,-0.40974,-0.237482,-0.133229,0.290192,-0.3879,-0.402188,-0.233987,0.236615,0.456721,-0.181108,0.498567,-0.0715613,-0.358627,-0.187224,0.319604,0.0146062,0.237275,0.0625186,0.0863574,-0.30371,0.254981,-0.0824459,-0.235641,-0.31364,0.0605388,-0.0449476,-0.0309487,-0.00625641,0.474667,-0.224654,-0.180269,0.0569684,-0.00885965,0.414253,-0.142935,-0.176416,0.31576,-0.261001,0.364337,-0.0102961,0.373106,0.498812,-0.232568,-0.0719857,-0.146063,-0.465318,-0.205271,0.415195,-0.282398,0.420012,0.388727,-0.361514,-0.308139,-0.247279,0.379744,0.386117,-0.199208,-0.240611,0.281693,0.177385,0.189927,0.159582,0.29944,-0.168173,0.406952,-0.35018,-0.348384,0.491162,0.267409,0.0613302,-0.291095,0.0972284,0.41864,-0.0355092,-0.494184,-0.287729,-0.33451,0.142102,0.428099,0.0518407,-0.0403759,-0.240581,-0.108759,0.418166,-0.391811,0.0365522,0.199689,0.0741458,-0.408448,-0.20149,0.196407,-0.368622,0.0864011,0.142434,0.40691,-0.182365,-0.146153,0.251003,-0.123071,-0.0935834,-0.245567,0.0868632,0.0753104,0.0945371,0.00870942,0.0323945,-0.191435,0.111486,-0.152308,-0.142342,-0.44735,-0.265489,-0.418528,-0.416695,-0.486617,0.0657071,-0.135515,-0.269926,-0.347185,0.0502387,0.0457326,-0.267822,-0.344587,-0.179705,0.373323,0.348526,0.262473,0.451462,-0.483979,-0.11079,-0.322005,0.204205,0.478262,0.092301,0.0486444,0.299235,-0.21689,-0.0946338,0.100541,0.160939,-0.317223,-0.0666277,0.242331,-0.0567231,0.309671,-0.438527,0.183061,-0.235545,-0.437876,0.344413,-0.441868,0.429909,-0.304001,0.04759,-0.34751,-0.160463,-0.342524,-0.132757,0.42781,-0.235738,-0.238365,-0.0243369,-0.186508,-0.26869,0.0933323,-0.0363874,0.368763,-0.125575,0.383517,0.121215,-0.011239,-0.448057,0.0819155,0.0969358,-0.319279,0.0175176,0.00459155,0.0997127,0.135999,0.36411,0.471862,-0.172742,-0.239113,0.0171653,-0.129215,-0.29819,0.462812,-0.132116,-0.438537,-0.108705,-0.358396,0.497807,0.0744277,0.118574,-0.343661,0.117189,0.160483,0.215317,0.106542,0.216446,0.486583,0.299242,0.300144,-0.206632,-0.164832,0.423518,0.427994,0.0401031,-0.0392524,0.067548,-0.362306,0.110485,0.182126,-0.0284027,-0.234129,-0.193964,0.353409,0.0719057,-0.464551,-0.393915,0.033044,0.0260176,0.239667,0.363486,0.31083,0.123475,-0.287658,0.2399,0.40263,-0.0649875,0.136304,0.19203,0.463364,0.472945,0.0196881,0.0865921,-0.030727,0.0826458,0.00432846,0.476355,0.318203,0.412135,-0.2265,-0.436916,0.393897,0.444095,0.122492,-0.230523,-0.0934285,-0.117989,-0.46751,0.348131,0.20892,-0.0858865,-0.123046,-0.497082,0.291441,-0.221445,-0.273623,0.236224,0.255368,0.360602,-0.029636,-0.246191,0.0173023,-0.440729,0.127969,0.00933786,0.00863485,0.484307,-0.162522,0.0325462,-0.343875,0.307517,-0.235757,0.321054,-0.205624,0.449883,0.342634,0.142638,0.273336,0.123851,0.432777,0.14145,0.384016,-0.224721,0.440748,0.448747,0.116006,-0.247462,0.329349,0.354726,-0.485436,0.325048,-0.446488,-0.0382099,0.449061,0.0924557,0.390544,0.315782,0.334668,-0.138135,0.201499,-0.494413,-0.033654,0.3431,0.193173,-0.413653,-0.345907,0.0413779,-0.491664,-0.42573,0.316223,-0.342896,-0.0636719,-0.235165,0.462522,0.274017,0.0978041,-0.46416,0.488402,-0.115975,-0.260779,-0.0163579,-0.110813,-0.0549067,0.432845,-0.0553843,0.408195,0.313866,0.0718674,0.0209954,0.000300147,-0.13144,0.159818,-0.052214,-0.383883,0.104347,-0.398633,0.279785,-0.492861,0.226827,0.0177237,-0.42175,-0.468957,-0.487276,-0.0127007,-0.376441,0.0286963,0.196471,0.0616925,-0.300853,-0.351723,-0.229486,-0.497356,-0.381036,-0.0834092,0.221544,-0.0490468,0.210308,-0.337447,0.0180784,0.476778,-0.00812142,0.0601931,0.466469,-0.251023,-0.271685,0.02013,-0.363286,0.401046,-0.117349,-0.366867,0.407616,-0.209973,-0.223181,0.0209419,-0.205976,-0.294675,-0.182122,0.266977,-0.369506,0.380103,-0.0531543,0.309636,-0.301576,0.127679,0.0126898,-0.137179,0.312845,0.366613,0.292152,-0.174929,-0.349873,-0.463777,0.393623,0.45756,0.0559885,-0.0824673,0.0205218,-0.035749,-0.219312,0.35457,0.237961,0.110986,-0.14412,-0.48713,0.265827,0.361027,0.290085,0.44407,0.483184,0.467101,0.151449,0.412978,0.490184,-0.49784,-0.0767122,0.25629,-0.147627,-0.45719,-0.256424,0.316006,-0.224661,-0.473333,0.409801,-0.191045,-0.127784,0.0624256,-0.153745,-0.204821,0.0983466,0.285617,-0.45256,0.447688,-0.0505502,0.0453884,-0.108976,0.372544,-0.282567,-0.444268,0.23754,0.323564,0.0264596,0.302582,0.0346757,0.20957,0.499617,0.448872,-0.139443,0.378232,0.139581,0.216106,0.113097,0.0431653,0.0499706,-0.377303,-0.484868,0.420017,-0.0293833,0.496383,0.298462,-0.468677,-0.359404,0.356885,-0.346112,-0.231163,-0.15308,0.26312,-0.404019,0.242788,0.369508,0.488708,0.152291,0.417156,0.408338,-0.172778,-0.061444,-0.163996,0.303859,-0.280551,0.481534,-0.164499,-0.167413,0.440396,0.232394,0.305533,-0.121888,-0.339409,-0.0939746,0.0475454,-0.213718,0.0930411,-0.223037,-0.233401,-0.191868,0.208018,0.281424,-0.29645,-0.26442,0.0770191,0.407346,0.238529,-0.286732,-0.0626895,0.0201392,0.224282,-0.411775,-0.0340981,0.146659,-0.162041,0.105617,0.124832,-0.141614,0.22645,-0.208357,-0.337479,0.185222,0.395836,0.0545683,-0.420309,-0.408445,0.432472,0.0500316,0.310032,-0.302951,0.128172,0.304196,-0.336369,-0.165509,0.25733,-0.0345839,0.499999,0.160453,-0.221062,0.0309123,0.291611,0.202257,0.311516,-0.080928,-0.444932,0.14288,0.260314,0.0520129,0.335943,0.00112168,-0.432371,-0.264178,-0.421445,0.455656,0.259724,0.1802,0.074516,-0.116009,0.222777,-0.0460677,0.289119,0.0146576,0.410548,-0.0938729,-0.0554895,-0.427982,-0.0245178,-0.293874,0.35189,0.0101565,0.00726842,0.196496,-0.397482,0.45806,0.2058,0.0306355,0.375131,0.166316,0.471858,-0.0585965,0.458866,0.106703,-0.296878,-0.437141,-0.468721,-0.249041,0.390495,-0.105915,-0.199709,-0.151909,0.0848418,0.14704,0.24117,-0.440067,0.118734,0.126569,0.449958,-0.240395,0.160641,-0.487101,-0.0149907,0.0683076,0.229074,0.0801692,-0.354627,0.233189,0.0852663,-0.241061,-0.214515,-0.40474,-0.350689,0.0768791,-0.000529652,0.459762,-0.419664,0.343374,0.145862,0.199942,-0.175218,0.0815143,0.199809,-0.436942,0.275856,0.0539229,0.11714,-0.115636,0.28082,0.399996,0.00107193,-0.278873,-0.413732,-0.34198,0.429084,-0.178484,0.00438012,0.0524784,0.0395537,0.0120935,-0.038543,0.39792,-0.205597,-0.239309,0.291473,-0.317956,-0.154207,-0.0819734,0.456466,-0.220479,-0.224661,0.0221436,0.0354993,-0.110713,0.425323,0.0787408,0.310052,-0.250078,0.00105524,-0.161842,0.439555,-0.0299418,0.190518,0.121851,-0.304357,0.00608214,-0.0233643,-0.313883,0.220902,-0.0252995,0.351899,-0.434884,0.424196,-0.108823,-0.498385,0.151316,-0.0207514,-0.145633,-0.306865,0.215427,-0.209794,0.264798,0.150064,-0.342063,0.491896,-0.475903,0.465674,0.143866,0.397459,0.219869,-0.258351,-0.0658133,-0.0366061,0.486004,-0.361649,0.140099,0.0320078,0.37984,-0.305361,-0.328594,0.139009,-0.343248,-0.280946,-0.0900314,-0.272908,-0.200535,0.283526,-0.262005,-0.352937,-0.280461,0.185535,-0.268834,-0.255555,0.249431,0.290594,0.303202,-0.406391,0.295751,0.42403,0.307093,-0.219958,0.347899,0.473652,0.125999,0.149136,0.440249,-0.406304,-0.159231,-0.165419,0.358123,0.343667,0.343453,-0.0229165,-0.0195938,-0.343352,0.37505,0.101967,0.377652,-0.372969,-0.40276,0.279903,-0.0824439,0.264215,0.491128,0.324886,-0.0211628,0.136568,-0.0573135,-0.474224,0.344205,0.00264326,0.0986211,0.0336113,-0.0347606,-0.390984,-0.0908803,-0.265695,0.385831,0.295251,-0.147088,0.476848,-0.401177,-0.456431,0.19356,-0.409474,-0.00825896,0.359913,-0.0530959,0.485568,0.288681,0.193152,-0.466618,0.398797,-0.312176,-0.467658,0.37988,0.438106,0.438968,-0.41713,-0.0969606,0.153485,-0.157593,0.223215,-0.30207,0.391754,0.115034,-0.0158363,0.417573,0.153347,-0.113928,0.327219,-0.364429,-0.4151,0.113062,0.363932,-0.435429,-0.0640586,0.120775,-0.241374,-0.030749,-0.42796,-0.239753,-0.0693851,-0.205184,0.0890957,-0.207707,0.120486,-0.0264086,-0.386941,-0.113563,0.151578,-0.105307,-0.149625,0.412476,0.394746,0.418046,0.108171,-0.409953,0.16019,-0.471067,0.368689,0.49033,-0.21394,-0.0950832,-0.373953,-0.0156891,0.429299,0.0612729,0.154068,-0.363831,-0.147247,-0.458008,-0.485799,0.107386,-0.309477,0.0486159,0.295104,-0.248503,-0.333967,0.131241,0.482839,0.391064,0.244609,-0.0305181,-0.43675,0.0551344,-0.179796,-0.185056,0.0956308,0.307048,-0.38108,-0.233096,-0.283517,-0.0714302,0.232138,0.256448,0.113662,0.468512,-0.465876,-0.368622,-0.259175,-0.147371,-0.398774,0.168861,0.39904,-0.0516297,-0.116469,-0.129653,0.0937097,0.370612,0.006653,-0.18427,0.0755347,-0.164153,-0.129812,-0.0263869,0.145118,0.280568,0.3893,-0.422289,-0.156045,-0.172211,-0.158489,0.248298,-0.478739,0.0637604,-0.231205,-0.386501,0.335514,0.0139097,-0.455392,-0.0245217,-0.220785,-0.375603,0.450715,-0.252655,-0.229439,0.122651,0.225815,-0.321152,0.368307,0.0836416,0.350828,0.361638,0.181502,-0.0425406,-0.231458,0.184398,-0.321592,0.434798,-0.184107,-0.329776,0.385727,0.119659,-0.357797,0.0848845,0.0378529,-0.454659,0.169154,0.245933,-0.103177,0.455177,-0.150867,0.492257,-0.426374,-0.0897236,-0.184737,-0.169362,0.206176,0.496735,-0.198222,-0.229619,0.441431,-0.47536,-0.127371,0.215272,0.00806504,-0.434984,-0.00868242,0.319882,-0.256435,0.390192,-0.198922,0.343551,-0.0886541,0.392823,-0.319658,-0.37602,0.309351,-0.00948128,-0.468917,-0.0272758,-0.372705,-0.267272,0.211465,0.201042,0.278889,-0.0108454,0.488323,0.0772814,-0.480885,-0.390944,0.412807,0.236088,-0.32923,0.338462,0.0194622,0.458359,0.272603,0.0221748,0.0203651,0.444455,-0.189148,-0.0959673,-0.158136,0.112923,0.151107,0.0745099,-0.0916986,-0.00549971,0.0726121,0.358199,0.372178,0.157749,-0.144104,-0.0906908,-0.371236,-0.350852,0.465892,-0.135472,0.470241,0.384636,-0.173548,0.365014,0.195731,-0.443104,0.231873,0.460681,-0.225352,0.0329343,0.469554,0.377798,-0.0807999,-0.245613,0.446978,0.346841,-0.131134,0.295827,-0.354874,-0.169215,-0.307477,0.0495813,0.119533,0.402287,0.439901,-0.257739,-0.0929129,0.207212,-0.0289306,-0.358679,0.405304,-0.427233,-0.0423064,-0.323965,0.134207,0.430786,-0.141803,-0.202769,0.0747151,-0.410372,0.47248,-0.350348,-0.00442815,0.230766,-0.223504,0.103033,0.364598,0.0558537,0.0782441,0.397652,0.0683655,-0.330697,-0.210965,0.291003,-0.207173,0.390027,-0.113213,-0.486053,0.327293,0.162681,-0.0786447,-0.4099,0.320217,0.14434,0.484949,0.14924,0.0640169,0.377984,0.34459,0.268063,0.395599,0.404111,0.343387,0.0466658,-0.367537,0.346774,0.203252,0.433134,-0.434115,0.399052,0.360435,-0.290279,-0.339858,-0.363778,-0.418328,-0.184315,-0.0668802,-0.358481,-0.364035,-0.236863,-0.401042,-0.133648,0.0487032,0.259852,0.189854,0.203252,0.115058,-0.283749,-0.0494255,0.0793841,0.306063,0.163381,0.0259175,0.298803,-0.109981,-0.279279,0.029662,0.0500594,-0.291179,-0.135854,0.194021,-0.319515,0.0163335,0.444934,0.424209,0.13033,-0.329074,-0.0385524,-0.43575,0.0555022,-0.469694,0.230725,-0.0293584,-0.377691,-0.483921,-0.0418749,0.232196,0.496016,0.365767,-0.366377,-0.350506,-0.37773,-0.477204,0.415545,0.489934,0.411421,-0.377783,0.109373,-0.422659,0.283697,0.228618,-0.252139,0.0311071,-0.332356,0.2888,-0.464607,-0.108691,-0.147885,-0.0110896,-0.334668,0.311062,0.456205,-0.167873,0.336732,-0.210342,0.128376,-0.47686,-0.463287,0.330858,0.319788,0.199444,0.238271,-0.0175931,0.341449,0.439767,0.388496,0.264519,-0.414979,0.487248,-0.0111596,0.323024,-0.227083,0.339304,0.372907,-0.454006,0.302217,-0.0952925,0.445796,0.222058,-0.109005,0.296357,-0.000695479,-0.383004,-0.038492,-0.44705,-0.188425,0.173275,0.217548,0.462248,-0.0278916,-0.225458,-0.181104,-0.146204,0.362899,-0.154371,-0.334732,-0.299015,-0.320814,-0.0636721,-0.300155,-0.0443032,0.161593,0.039336,-0.0597756,0.246495,0.00479634,0.111444,0.450194,0.164647,-0.449617,0.399908,0.0436063,0.387925,0.396001,-0.0809483,-0.0826001,0.34771,-0.034993,-0.102574,0.0407471,-0.406353,0.106169,0.0747903,0.474326,-0.256933,-0.246182,0.482156,0.0463533,-0.0993864,0.199261,-0.273044,0.148057,0.265455,-0.305168,0.176745,-0.455547,0.34034,-0.17735,-0.0686582,0.405072,0.100303,0.308471,0.490894,-0.149902,-0.0605855,-0.218746,-0.0311802,-0.468228,0.195827,0.158887,-0.441562,-0.0523811,0.186549,0.280734,-0.146226,-0.343071,-0.138186,0.00982343,-0.393967,0.321402,-0.0167342,0.0300326,-0.446917,0.158745,-0.367739,0.10098,0.323403,-0.37398,-0.255951,0.452037,0.225856,-0.0674858,0.202517,0.426706,0.152052,-0.49583,0.33133,-0.487083,0.160889,-0.470217,-0.100166,0.0942227,-0.441277,-0.240557,-0.285591,-0.187939,0.0881248,-0.338826,-0.382355,0.427974,-0.496492,-0.41272,-0.313256,0.368309,0.236043,-0.175541,0.208867,0.321076,0.12956,-0.0311068,-0.172485,-0.0934245,-0.099083,-0.436975,-0.266238,-0.372142,0.0576915,-0.123586,-0.108063,0.404177,-0.417031,-0.0505328,-0.282648,0.288281,-0.0237835,-0.436301,-0.178831,0.387363,0.0435387,0.114365,0.0398168,-0.485515,-0.0366155,0.0295441,-0.300976,0.38819,-0.435897,0.00877725,0.0521277,0.272065,0.0258448,-0.0649664,-0.329635,-0.395005,-0.0916507,-0.398749,-0.0122372,-0.418548,0.345155,-0.462712,0.0693805,-0.0944596,-0.466249,-0.449172,0.1893,-0.116536,-0.146558,0.185431,-0.114324,-0.444347,0.42635,-0.353673,-0.286388,-0.0696996,-0.0784571,0.251719,-0.371925,-0.217513,0.33544,0.141257,-0.487796,-0.30279,-0.362768,-0.338164,0.203799,0.264801,-0.350885,0.484344,-0.390831,-0.408548,-0.166806,-0.48388,0.221275,0.448298,0.206057,-0.122235,-0.387956,-0.385135,-0.0379692,-0.386704,-0.107062,0.361127,-0.462806,0.0522689,-0.325654,-0.21464,-0.3337,-0.246178,-0.428206,0.12361,-0.40204,0.181472,0.169011,0.1473,-0.367944,-0.218822,0.429914,-0.442372,0.450036,-0.174821,-0.33215,0.356677,-0.302498,0.339268,-0.15546,-0.331074,0.0867694,-0.0468188,0.115062,0.0391343,-0.415851,-0.24522,0.336213,0.284481,0.128081,0.0455169,-0.305394,-0.176434,0.00688101,-0.313751,-0.100257,-0.422496,0.0235738,-0.273283,-0.286385,0.410213,0.432974,0.0229901,0.279482,0.383024,0.0649629,0.215273,-0.245161,0.350743,0.46801,-0.104877,-0.346754,-0.253424,-0.395771,-0.155983,0.134224,-0.39978,0.473719,-0.37506,0.344702,-0.365427,0.392436,-0.134257,-0.495392,-0.194802,-0.236225,0.195145,-0.240061,-0.377467,-0.176239,0.158975,-0.0536436,0.496394,-0.348695,0.074817,-0.0338307,0.0866484,-0.288125,-0.0695996,0.16556,0.040219,-0.449902,0.15555,-0.323014,-0.255599,-0.349146,0.239081,-0.0657967,-0.226744,0.401612,-0.198362,-0.17369,-0.386252,0.33991,0.214772,-0.402506,0.369324,-0.0761468,0.106199,0.33649,0.18394,-0.428512,0.398382,0.393581,0.0138228,0.150526,0.0297099,-0.328048,0.265472,-0.333809,0.423629,0.269758,-0.335031,0.249422,0.0269141,-0.19247,-0.021554,0.252235,0.112738,0.231135,0.35311,0.29261,0.387133,0.376389,0.105475,0.0242503,0.458989,-0.179712,-0.412864,-0.204751,0.118976,0.219974,0.21703,0.324873,0.319949,0.208655,-0.439871,-0.240938,-0.282793,-0.459312,-0.166245,-0.228126,0.1475,0.150036,0.356667,0.403154,-0.0829702,-0.112566,-0.242814,0.383145,-0.187162,0.0160062,0.3875,0.094188,-0.449653,0.238922,0.232606,-0.438369,0.251964,0.457432,0.217344,-0.405185,-0.183379,-0.143991,0.446956,-0.00130048,-0.366045,-0.214207,0.350683,-0.0782594,-0.272201,0.493136,0.0519422,-0.453985,0.387868,0.403935,0.140985,0.121505,-0.240513,-0.184363,-0.241108,-0.269387,-0.449278,0.105238,0.449143,0.100491,0.0943931,-0.392697,0.22042,-0.248955,0.321624,0.258469,0.258121,0.486812,0.0307825,0.184059,0.172813,-0.398452,0.055131,0.248347,0.478349,0.0410776,0.190992,-0.11987,0.361554,-0.112854,-0.296846,-0.380185,0.112336,-0.339844,0.42848,-0.457576,-0.343682,0.345023,0.224497,0.335399,0.200017,0.493911,0.174641,-0.113495,0.403703,0.378433,0.189693,-0.296896,0.497583,-0.0117955,-0.237008,-0.323503,0.478409,0.171593,-0.212554,0.200122,-0.416206,-0.0180024,0.389686,-0.000275382,-0.332534,-0.445084,0.322842,0.254425,0.335601,0.269647,0.41189,0.0737988,-0.065675,-0.382661,0.437431,0.499551,-0.0642212,0.346651,0.317872,-0.144099,-0.413753,0.394351,0.21397,0.0247596,-0.148624,-0.100152,0.493858,0.324439,0.224792,0.346699,-0.186187,0.135128,0.0342003,0.470616,0.331196,-0.061367,-0.474949,-0.376058,-0.421107,-0.056669,0.31385,0.0476972,0.0209746,-0.0105607,-0.488417,0.220364,0.235107,-0.153164,0.171779,0.024394,0.238796,-0.118439,-0.497917,0.421851,0.183011,-0.252814,-0.329224,0.467929,0.208762,0.411028,0.43041,0.410748,0.102884,0.0853496,0.476212,0.107161,-0.315608,-0.0561146,-0.237923,-0.395052,-0.310443,-0.0543805,0.363607,0.483474,-0.253332,-0.403538,0.200211,0.284735,-0.456005,0.140007,-0.0840588,0.252618,-0.0687178,0.488817,0.299616,0.418,0.0264185,0.341124,0.101808,0.280541,-0.464991,-0.369386,0.41473,0.195582,-0.409152,-0.432404,0.308456,-0.173509,-0.206868,-0.294693,-0.267742,0.0634896,0.0462625,-0.172146,0.26888,-0.265731,-0.406158,0.25027,-0.206847,-0.128593,-0.0224962,-0.151708,0.188555,0.17316,0.308287,-0.339418,-0.0909318,-0.11072,0.101462,0.428351,-0.326713,-0.348126,0.396409,0.489874,-0.251783,-0.251693,0.0439253,0.43401,-0.340358,0.412571,-0.216748,0.0325885,-0.00856215,-0.336691,0.211888,-0.487877,-0.0272786,0.248012,0.437304,-0.348864,-0.210177,0.172346,0.226473,0.0361112,-0.260046,-0.0633155,-0.0511407,0.446435,-0.0376772,0.20053,-0.3837,0.274845,0.468065,0.010854,-0.2534,0.279821,-0.0947528,0.0924899,-0.0484354,-0.173703,-0.345439,0.120316,0.489739,0.306878,0.391402,0.376123,-0.412633,0.238566,0.407413,0.132507,-0.493604,0.18921,-0.368922,0.155215,0.24564,0.379694,-0.207634,-0.39841,0.223399,0.00239482,0.146202,0.106166,-0.29094,-0.287234,-0.381778,0.312623,0.141148,-0.312583,-0.443257,-0.454121,-0.26639,0.10521,-0.228923,-0.378314,0.0480859,0.381729,0.0793254,0.291699,0.350085,0.00366754,0.250984,0.123741,0.242488,0.321309,0.377192,0.206455,-0.073549,-0.127973,0.183861,-0.425151,0.399957,-0.493725,-0.0209494,-0.444068,-0.430701,0.178633,0.266395,-0.0352008,-0.12035,0.0205921,0.0976616,0.176918,-0.175578,0.267656,-0.232121,-0.294883,-0.266071,0.199064,-0.341054,0.419667,-0.357033,0.163787,0.0240062,-0.343094,-0.10408,-0.218272,0.419248,0.314093,-0.245483,-0.171214,0.347266,0.426054,-0.153055,0.14236,-0.448613,-0.271741,-0.252504,-0.0962359,-0.344452,0.439489,0.391804,0.0242026,-0.167771,-0.116457,0.0359278,-0.246559,-0.148772,0.430842,-0.436808,0.37108,0.133031,0.314285,-0.106797,-0.0211265,0.335274,-0.247643,0.455018,-0.119948,-0.244752,0.0583469,0.284416,-0.0844762,-0.22089,0.443963,0.197241,-0.470831,0.281355,5.8093e-05,-0.0983879,-0.209914,0.254101,-0.445785,-0.114085,0.0810412,0.473269,0.0985203,0.244769,0.0987199,0.331216,-0.489175,0.467751,0.211016,-0.155451,-0.420992,0.373115,-0.287175,0.14968,-0.461992,0.423304,-0.474298,0.219584,0.291099,0.430181,-0.40658,0.185436,0.0599892,-0.486367,0.287661,0.458222,0.364135,0.0973817,-0.476428,0.0200569,0.040525,0.194597,-0.0176427,-0.304912,-0.332321,0.350539,-0.395464,-0.251722,-0.256227,-0.121968,-0.261661,-0.283865,-0.269328,0.312547,0.00303277,-0.379496,-0.323839,-0.396422,0.262418,0.389373,0.177147,-0.212259,-0.244957,0.0564182,0.27658,0.225171,0.252992,-0.258045,-0.266169,-0.026561,-0.15113,0.2609,-0.483311,-0.334589,0.29811,0.0181975,-0.412042,0.179715,0.307115,0.365481,-0.113682,0.314094,0.233023,0.241629,-0.204065,0.441198,0.145079,0.154844,-0.311803,-0.0956406,-0.330544,-0.282826,0.248645,0.069921,0.0496297,-0.0289516,-0.388893,-0.222331,-0.467133,0.273494,0.34511,-0.332584,-0.431455,0.46838,0.409457,-0.241171,-0.292936,0.400407,-0.420282,0.130633,-0.485104,-0.390181,-0.0490263,-0.303053,-0.0600944,0.151808,-0.192319,0.48366,0.275567,-0.498801,0.0310932,-0.263755,0.483497,-0.202818,-0.224364,-0.0444891,-0.0213879,0.121742,0.306485,0.149608,-0.32236,0.346115,-0.00363274,0.351858,-0.144328,-0.0473399,0.239458,-0.0211286,0.0310497,0.0513571,-0.0861466,0.286885,-0.311951,0.0943812,0.317787,-0.302983,0.453478,0.0957656,-0.353605,-0.159703,-0.474121,-0.417611,0.0141688,0.473504,0.0378264,-0.267466,-0.254368,0.276553,-0.329804,-0.383719,0.303962,0.0542323,0.0611688,0.379755,0.446698,0.343889,-0.112078,0.237127,-0.265238,-0.198472,0.0548874,0.152389,0.00183077,-0.422757,0.310419,-0.195222,-0.108924,0.414832,0.143749,0.288331,-0.262866,-0.20074,-0.396575,-0.443616,-0.386005,-0.248139,-0.164718,-0.33586,0.202078,0.0822325,-0.220292,-0.212786,0.489707,-0.345808,0.389994,0.30409,-0.47873,-0.441077,0.150122,-0.0636054,0.496255,0.125113,0.171455,0.128875,-0.169817,-0.364086,-0.408063,-0.498111,0.375747,-0.0748896,-0.463675,-0.156867,-0.00930962,-0.391524,0.437036,-0.122779,-0.0300106,-0.218706,0.202918,-0.183477,0.346766,-0.278525,-0.125867,0.231038,-0.173493,-0.120057,0.210596,0.085446,0.174713,0.227158,-0.111518,0.317839,-0.439728,0.380847,-0.19597,0.164803,0.143688,-0.385286,0.0586597,-0.310345,0.00328931,-0.480476,-0.116188,0.212391,-0.125421,0.384061,-0.451245,0.00163442,0.394675,0.141659,-0.480541,0.260226,-0.175994,0.199621,0.282747,-0.0944291,-0.0166516,0.285953,0.249463,-0.301883,-0.168,-0.118599,0.381116,0.343545,-0.458134,-0.0899928,0.446918,-0.0800857,-0.256894,0.164705,0.130673,-0.100142,0.0582531,-0.279712,0.285267,0.445535,-0.496222,0.29826,-0.328351,-0.44917,-0.0577006,-0.11238,-0.050384,-0.0810424,-0.442504,0.345613,0.40315,0.378279,0.0849567,0.034998,0.149331,0.00440243,0.336785,0.21478,0.117317,-0.4991,-0.347471,-0.106669,-0.455905,0.467055,0.471905,0.23359,0.474469,-0.452738,0.416668,-0.33718,-0.0400357,-0.10062,-0.446315,0.248776,0.383109,0.277456,-0.109652,-0.387384,0.0188751,0.340607,-0.109398,0.438101,0.15256,0.497391,-0.297657,-0.499577,0.0578753,-0.0942735,-0.389435,0.0733619,0.124872,0.0187032,0.095188,-0.313483,-0.312405,-0.0199816,0.234025,-0.199291,0.0581076,-0.482193,0.146192,-0.430963,-0.0709486,0.140111,0.294456,0.311125,0.131558,0.214061,-0.266267,-0.15146,0.345587,-0.295086,-0.258859,-0.352195,-0.25224,-0.138581,-0.119103,0.260049,-0.203376,-0.49462,0.188393,-0.239105,-0.0354561,0.458961,-0.389511,-0.472771,-0.172456,0.246774,0.0675363,-0.353172,0.0675236,0.0383627,0.249884,0.473694,-0.0426605,-0.22448,0.0352214,-0.248017,-0.271093,0.000758196,0.0202461,-0.265221,0.405215,0.132511,-0.308845,0.0146603,0.153565,0.357999,-0.0335687,0.153364,0.493129,-0.230633,-0.168681,-0.480225,-0.0164679,-0.463707,-0.439975,-0.0282133,0.347492,-0.0480719,-0.273522,0.100969,-0.377941,0.427627,0.215327,-0.434532,-0.394618,-0.324029,0.243448,-0.0264011,0.053817,0.120767,0.442457,0.334107,0.292447,-0.161264,-0.210236,-0.213756,-0.166583,0.116969,0.223413,-0.335467,0.102347,-0.0686821,0.488682,-0.164373,-0.290214,-0.0467501,0.339786,0.429012,0.302834,0.243704,0.239691,0.0493028,0.172835,0.358587,-0.325393,-0.0876281,0.152167,0.0464301,0.442109,0.403061,-0.2313,-0.255152,-0.203073,0.0645295,0.247828,-0.227386,-0.269751,0.357384,0.0147044,0.103327,-0.442111,-0.487186,0.299803,-0.33835,0.0078779,-0.322536,-0.105792,-0.0803749,0.217095,-0.406026,-0.0239388,0.180087,-0.217314,0.325738,-0.354237,0.246129,0.166898,-0.0330222,-0.462411,0.1329,0.0627023,-0.272149,-0.0775289,0.0526676,0.0466099,0.0790212,0.416854,-0.178911,-0.130329,0.0237279,-0.240573,-0.000780079,0.0553243,-0.26974,0.0361818,-0.380534,0.252906,-0.16205,-0.154372,-0.422595,-0.0770173,-0.416309,0.447392,0.185593,0.104187,0.488656,-0.188936,0.100246,-0.102049,0.417643,0.379314,-0.26952,-0.158826,-0.107814,-0.372246,-0.12694,-0.355424,-0.0196511,0.28442,-0.184506,0.142025,-0.438887,0.167698,0.362555,-0.183398,0.111215,0.0713374,0.21138,-0.186545,0.271567,0.0813569,0.47156,0.316335,0.0334783,-0.270345,-0.435246,0.188942,-0.399037,0.0204706,0.161774,-0.0572189,-0.279381,-0.299431,0.0612127,0.039807,0.242711,-0.324221,0.0243934,0.105066,0.0654188,0.295846,-0.200467,-0.0433878,0.489677,-0.24382,-0.118379,0.378559,0.221799,0.472713,0.458021,-0.319301,0.337521,0.184155,0.329033,-0.232726,0.261701,-0.40527,-0.0789327,0.406874,-0.314791,0.0651465,-0.0394089,0.475582,0.393463,-0.3117,0.172763,0.436968,-0.381657,0.399155,-0.112764,0.354946,0.190791,0.0044448,-0.146539,0.455934,0.0046299,0.413505,0.0496592,0.175393,-0.174182,-0.154194,-0.161886,0.477306,-0.259259,-0.027889,-0.365203,-0.353857,0.479527,-0.0388166,0.0718249,0.389604,-0.200028,0.109128,-0.149987,0.038186,-0.0124664,-0.161652,-0.449668,-0.117012,0.465564,0.177147,-0.116785,0.290086,0.198345,0.273136,0.122634,0.408238,0.467699,0.174928,-0.199479,-0.242244,0.463749,0.374504,-0.42659,-0.138674,-0.0673344,-0.32749,0.154803,-0.227678,0.442541,-0.0775853,-0.36577,0.043563,0.121551,-0.175333,-0.189597,-0.295332,0.366459,-0.40293,0.0578737,0.129184,-0.178687,-0.069946,-0.312031,0.334926,0.225958,-0.200575,0.472952,0.00208279,0.0649588,-0.412392,-0.224227,-0.343075,0.31689,0.175434,0.0132177,-0.250146,-0.0868332,-0.39377,0.165683,0.37573,-0.361084,0.0834692,-0.456336,-0.37852,0.392582,0.111011,-0.292288,0.45834,-0.191156,0.435888,0.123665,-0.403344,