-0.206716,0.440413,-0.30149,0.157366,-0.239314,0.358167,0.439372,0.0803568,0.000194295,-0.279877,-0.1079,-0.1138,-0.269888,-0.261034,-0.467339,0.405815,0.0997472,-0.46857,0.467477,-0.317743,0.0635963,0.123607,0.205226,0.183462,-0.31479,0.0324375,-0.329296,-0.064702,0.228969,-0.464583,0.104393,0.36332,-0.148799,0.328049,0.0681736,-0.24936,0.120215,0.188905,-0.336565,-0.202741,0.144784,-0.143236,-0.0215357,-0.0327405,0.131002,-0.305274,-0.0327043,0.317335,-0.0591642,0.379535,0.305345,-0.00717236,0.500162,-0.428515,-0.115373,-0.107933,0.0690508,-0.380145,-0.281087,-0.309333,-0.435366,0.439966,0.100519,-0.109596,0.311127,-0.0528084,0.191821,-0.231305,-0.169758,0.0302826,-0.253902,0.0979037,-0.243191,-0.255993,0.0649352,0.292436,-0.0205508,0.475665,0.342072,0.197154,0.387615,0.422722,0.289248,0.281885,-0.07301,0.248394,0.246596,0.146557,-0.107794,0.31497,-0.0049583,0.129235,0.0148156,0.26604,-0.570079,-0.528168,0.0111807,-0.17703,0.0829572,0.045385,-0.416736,0.0129806,0.357095,-0.374922,0.296831,0.105701,-0.288186,0.359139,0.364136,-0.453675,-0.418837,-0.365018,0.321444,0.150798,0.143683,0.302763,-0.427385,0.253472,-0.228215,0.0375461,0.0221849,0.101856,-0.191921,0.250687,-0.410878,0.0569647,-0.144145,-0.337419,-0.339131,0.356796,0.309153,0.266169,-0.234692,-0.00708151,-0.308528,0.0181473,-0.11259,-0.146716,0.10971,-0.334495,-0.260294,-0.487811,0.345331,0.0186995,-0.34968,-0.187266,-0.312635,-0.313547,-0.234899,0.401121,0.452921,-0.512694,-0.49504,0.2898,0.127244,-0.186564,-0.136533,0.366858,0.113957,0.0325595,-0.330541,0.286182,-0.145254,-0.0847907,0.270776,-0.157825,-0.481334,0.256849,0.180449,0.165461,-0.473824,0.0282525,-0.212407,0.166009,0.105127,0.00510144,0.107924,-0.29374,0.290213,-0.178136,-0.426768,-0.424209,-0.0860017,0.403278,-0.470333,-0.29545,-0.051563,-0.127621,0.206083,-0.098365,-0.0156692,0.389973,0.20424,0.452666,-0.0738153,0.0584314,0.12685,-0.421124,0.249701,-0.0177234,-0.0452228,0.223623,-0.103764,0.0101698,0.238351,0.08241,0.192032,0.180348,0.348783,-0.487159,0.27354,0.254413,-0.394124,0.222568,-0.307013,0.0045857,0.297388,-0.0167075,-0.0269046,0.247606,-0.423581,0.503372,0.055917,0.0173706,-0.139693,0.481359,-0.0549525,-0.253112,0.212732,-0.157433,0.024336,-0.279371,-0.46699,0.0847444,-0.110155,0.294351,-0.123083,-0.186653,-0.363982,0.154179,0.206659,-0.589318,0.286876,-0.285317,-0.415926,-0.212154,0.191163,0.181353,0.0654044,-0.0450123,0.119633,0.150457,-0.0609305,-0.373609,-0.24786,-0.223707,-0.435561,0.339489,0.335483,0.211917,0.212829,-0.401518,0.115219,0.0846463,0.189974,-0.294337,-0.197705,0.00301133,0.0372344,0.0241621,0.00632092,-0.185289,-0.12316,0.186444,0.418825,-0.350311,-0.079225,0.0881489,-0.0579748,0.0681658,0.152219,0.146624,-0.0740068,-0.105684,-0.459478,0.353504,-0.232457,0.225034,0.188672,0.299301,-0.0339016,-0.32753,0.362675,0.424952,0.123,-0.416965,-0.338209,-0.299324,0.336467,0.204115,-0.151015,-0.133307,-0.541966,0.257972,-0.319743,-0.151979,-0.21797,-0.362482,-0.144471,-0.448935,-0.385225,0.220181,0.225701,-0.259168,-0.580369,0.399521,-0.376111,-0.370884,-0.320362,0.584273,0.0380673,-0.184035,0.0680811,-0.14668,-0.43875,-0.147007,-0.425483,-0.650077,0.201411,0.0473357,-0.026192,-0.148541,-0.28301,-0.365349,-0.143477,0.286442,-0.43444,-0.31375,0.0026879,0.27498,0.170442,0.054549,-0.424917,0.137725,0.290075,0.169256,-0.267169,-0.428438,-0.0290206,-0.0398919,0.144871,-0.0927734,0.160548,-0.218447,-0.572774,0.423467,-0.0785774,-0.223043,0.331109,0.251162,-0.302186,0.323508,-0.170242,-0.287741,0.461501,0.168448,0.410471,-0.118385,-0.142352,0.383168,0.301018,0.121311,-0.260027,-0.421911,-0.434635,-0.48522,-0.760282,-0.276703,-0.302559,-0.128898,-0.492285,0.437299,0.438888,0.0290731,-0.189254,-0.251549,0.126019,-0.0791393,-0.538125,-0.136858,-0.419679,0.478695,-0.000106677,0.182432,0.17239,0.184232,0.50331,0.078605,0.507008,-0.445998,-0.598055,-0.498508,-0.329293,-0.41595,-0.232172,0.0254481,0.238302,0.0164042,0.187175,-0.324442,-0.230993,0.592857,-0.187361,0.37792,0.307561,-0.303335,0.0735855,0.410838,-0.340618,0.100589,-0.376818,0.401169,0.130298,0.00683144,0.575145,0.393742,0.622572,0.407115,0.384524,0.0510601,-0.775403,0.0288532,-0.00270619,-0.0492297,0.392702,0.19197,0.309116,0.369778,0.379082,0.408787,-0.347426,-0.290128,-0.205084,0.0529227,-0.28433,-0.28414,0.109354,-0.204488,0.491756,0.0706902,0.429966,0.272334,0.567573,0.469503,0.79344,0.47761,0.0500634,-0.237494,0.0209032,0.38665,0.131246,0.0252296,-0.162759,0.502964,0.360486,0.264088,-0.0889665,0.235225,0.1704,0.126009,-0.0230603,-0.415355,-0.336494,0.326408,0.0131152,-0.0208292,-0.449693,-0.257317,0.142346,0.259289,0.322247,0.18408,0.178633,0.857576,0.618736,-0.138927,0.675457,0.161787,0.0169582,0.742958,0.585037,-0.275517,0.164307,-0.505595,0.046709,-0.395458,0.0546693,-0.553521,-0.0108683,0.0282407,0.239086,-0.11124,-0.0234541,-0.0207276,-0.170495,-0.208732,-0.13457,0.511981,0.854164,0.621205,0.803881,0.819522,0.794027,0.293036,0.406094,0.627013,0.146917,0.664147,-0.188157,0.439444,0.417248,-0.0909987,-0.266425,-0.457186,-0.303414,0.112789,-0.274209,-0.191595,0.332649,-0.114905,0.179246,-0.185415,-0.039517,-0.0280627,0.41909,0.185536,-0.0174251,0.783637,0.721922,0.197951,0.225137,0.324717,-0.0528717,0.64615,0.477996,0.5337,0.168741,-0.191705,-0.402814,-0.311703,-0.365425,-0.131854,-0.107697,0.206843,0.119592,-0.367984,0.349064,0.132107,-0.351915,0.379789,-0.229141,-0.0700468,0.372411,0.653193,0.199062,0.811674,0.578079,0.195183,0.676691,0.158721,0.422847,0.314545,-0.080788,0.25444,-0.100728,0.243376,-0.15232,-0.22927,-0.259763,-0.276038,-0.242715,0.241865,-0.390526,-0.291457,-0.155872,0.232569,-0.47333,-0.0194341,-0.308078,0.287259,-0.210436,0.152654,0.264047,0.757563,0.73038,0.782212,0.69574,0.314708,0.323301,-0.101443,0.0585856,0.526741,0.0578649,-0.228081,0.191717,-0.248491,0.381755,0.12636,0.117982,0.0979793,0.384945,-0.305333,0.265035,-0.422832,-0.235401,-0.11437,0.0273691,-0.358727,0.334029,0.642436,-0.039394,0.659969,0.686431,-0.211211,0.0701522,0.145583,0.288286,-0.0269194,-0.312984,0.252553,0.172454,-0.223938,0.143134,0.191138,0.0696282,0.388381,-0.0706987,-0.16216,-0.00909097,0.215898,0.363517,-0.410128,0.467736,-0.403924,0.203582,-0.185815,-0.404725,-0.333971,0.37293,0.107157,0.516401,-0.244936,0.496401,-0.075888,-0.0239204,0.564973,0.301528,0.567908,0.112921,0.280298,0.425842,0.063026,-0.106531,-0.248953,-0.111127,-0.480571,-0.301553,-0.196922,0.320382,-0.333438,-0.0708621,-0.17661,-0.380584,-0.262308,0.164886,-0.120453,-0.0949666,0.608051,0.234372,0.382144,0.00505966,-0.110596,0.138581,0.0274823,-0.436428,0.478805,0.195361,-0.439933,0.0424968,0.180336,-0.0962186,-0.164325,0.452323,-0.325107,-0.297167,0.242465,-0.0493343,-0.369371,-0.195123,-0.283274,-0.333054,-0.257845,-0.0335384,-0.184158,0.270214,-0.381091,0.518853,0.0198177,0.0172154,-0.354055,-0.394561,-0.0774439,-0.0693237,0.193156,-0.0279166,0.0714148,-0.331605,-0.232216,0.14074,-0.240258,0.465395,0.0691477,-0.401336,-0.268327,0.148871,-0.135002,0.426578,-0.128655,0.185174,-0.42775,0.437029,0.209874,0.0218115,0.385718,0.282195,0.0197376,-0.375091,0.441448,-0.258055,-0.078905,-0.466164,-0.438979,0.0635278,-0.0439596,-0.296587,-0.174973,0.163909,-0.128964,0.240395,0.169905,0.4723,0.0854689,0.477077,-0.269307,-0.317359,-0.242291,0.211948,-0.331907,-0.0261103,0.0762049,-0.04848,0.17791,0.14746,-0.231676,0.0385848,-0.296762,-0.220307,-0.471927,-0.153592,0.417978,-0.433821,-0.358183,-0.144409,-0.0825105,-0.013758,0.489022,0.0700011,0.00668773,-0.238995,0.429081,-0.0638754,-0.331288,-0.495367,0.333999,-0.00158207,0.476179,0.0915769,0.115359,0.186741,-0.39812,-0.00107648,-0.437967,0.154634,0.487842,-0.143938,-0.274724,0.21986,-0.200124,0.354121,0.238034,0.307426,0.165638,-0.484139,-0.233593,0.313116,0.301392,0.411163,0.00397125,-0.184046,-0.39507,0.367748,0.258945,0.340757,-0.163245,0.444409,0.0390552,0.287084,0.347187,0.357714,-0.371662,-0.115034,0.0804689,-0.451499,0.443608,-0.15199,-0.132828,0.196227,-0.150527,-0.34082,-0.0977517,0.0270274,0.235981,-0.397162,0.00977704,0.335407,0.132533,0.0633113,-0.28076,0.0184952,0.339286,-0.157731,-0.412285,-0.340325,-0.357641,0.108385,-0.417469,0.0476565,0.414226,0.446222,-0.511706,-0.12113,-0.333787,-0.0588306,-0.114008,0.0907753,-0.159032,-0.329791,-0.341998,-0.529386,0.0838475,-0.268921,-0.570081,0.2464,0.412572,0.477209,-0.347222,0.276406,-0.44446,0.0296063,0.0853092,0.384332,-0.267857,0.145382,-0.338334,0.469702,-0.252999,-0.439228,0.166874,0.330399,0.188131,-0.442772,0.162626,-0.285825,0.300627,0.263469,-0.30135,-0.242484,0.499002,-0.521253,0.103973,-0.277361,0.341057,0.0948362,-0.074843,-0.461076,-0.236521,-0.428603,0.45663,-0.176232,0.3459,0.470551,0.454169,-0.142198,-0.0731514,-0.288522,0.33823,-0.234163,0.230875,0.341601,0.00587759,0.133747,-0.275656,-0.252438,0.515793,-0.345045,0.24162,0.330383,0.0245276,0.0811451,-0.485097,-0.486564,0.102119,0.0974007,0.0239472,-0.0502806,0.365511,-0.252129,-0.393256,-0.288565,0.0110932,0.16628,-0.39431,-0.207795,-0.225994,0.0348089,-0.0442434,0.0596179,-0.355931,-0.20059,0.364016,0.370371,0.453081,0.0845331,0.213,0.207683,-0.039196,0.528634,0.231946,-0.218456,0.23607,-0.499891,0.195136,0.0953915,0.344783,0.359437,0.0231575,-0.03966,-0.303333,0.00962129,0.283355,0.451839,-0.118551,0.182988,0.509027,-0.0265546,-0.268727,-0.246725,0.417016,0.261692,0.060638,0.389465,0.219838,-0.19809,-0.316244,-0.36342,-0.338239,0.408012,0.116697,-0.10988,0.0497703,-0.230099,-0.147134,-0.225379,0.231991,-0.355069,-0.184363,-0.169444,0.275782,0.4552,0.0178515,-0.151132,-0.497075,0.0797657,0.0123501,0.136252,0.450192,-0.0447434,-0.42721,0.277782,-0.314378,0.23928,-0.343021,-0.222471,-0.613083,-0.0277,0.168676,-0.267605,0.242211,-0.396003,-0.271726,-0.291425,0.366865,0.153238,0.434035,-0.436166,-0.151598,0.48352,0.424253,-0.00994169,-0.468235,-0.412001,-0.283034,-0.0477522,0.346422,-0.389278,-0.127433,-0.149925,-0.206298,-0.200993,0.0149269,0.183703,-0.113583,-0.366515,-0.25709,0.0211299,-0.208402,-0.440034,-0.184313,-0.213295,0.497222,0.348255,0.413639,-0.238023,0.379992,-0.157838,0.0763683,0.392162,-0.186158,-0.0493137,-0.267504,0.338989,-0.281469,0.389264,0.096375,-0.0384782,-0.680331,-0.684939,-0.591246,-0.281318,-0.364294,-0.610973,-0.0317764,0.107047,-0.100859,-0.218774,-0.131025,-0.259107,0.378787,0.412868,-0.085465,0.448653,-0.146997,0.616031,0.420721,0.0190389,0.121597,-0.200058,-0.016893,0.197686,0.0938579,-0.352544,0.248918,-0.139797,-0.0490077,-0.409896,-0.396077,0.0960224,-0.102408,-0.496857,-0.0544225,-0.255618,0.134045,-0.28342,0.192697,0.0849968,0.119132,-0.236562,0.0888495,0.253076,0.0780498,0.315794,-0.124561,0.270571,-0.317629,-0.00193232,-0.398458,-0.41044,-0.0501856,0.0726003,-0.548354,0.231199,-0.561594,-0.449852,-0.509433,0.0998602,-0.743069,-0.0543299,-0.182042,-0.072395,-0.377844,-0.104729,0.0360876,0.289704,0.0513618,0.3594,-0.0920524,0.623199,-0.0994383,0.463663,-0.0219308,0.443307,0.0199015,-0.0428978,-0.183482,-0.0593046,-0.268061,0.0374551,0.212599,-0.108532,-0.300143,-0.0644232,-0.143047,-0.416303,-0.560795,0.00967649,-0.215595,0.364249,-0.196532,0.0458029,-0.0697938,-0.116461,0.0686115,0.55409,-0.237746,0.509908,0.534977,0.457251,-0.367506,0.137696,-0.343756,-0.468282,0.268235,0.058454,-0.339196,-0.302683,0.172578,-0.233162,0.467422,0.174276,-0.108674,0.497076,-0.00558402,-0.438345,0.537089,0.0682837,0.0106678,0.116631,0.0361315,-0.0597375,-0.051637,0.437038,-0.357554,0.0203382,0.492236,-0.036472,0.258264,0.146187,0.0946717,0.0806489,0.427231,0.155317,0.151486,-0.316829,0.213805,0.208557,-0.402816,0.302427,-0.201446,-0.20423,0.109081,0.0245389,0.0830741,-0.272373,-0.375831,-0.29455,-0.401548,-0.0724543,-0.0236594,0.0770171,0.0593333,0.357433,-0.126882,-0.204937,0.243907,-0.289846,0.306776,-0.354342,0.0241684,-0.326099,-0.0542878,-0.405656,0.0171412,0.406578,-0.185474,0.532437,0.516639,0.628907,0.0379224,0.459754,0.214125,-0.0465365,0.0827898,-0.0237037,-0.506774,-0.29725,-0.480204,-0.277415,0.322776,-0.426347,-0.197688,0.270911,-0.420383,-0.019368,-0.00935332,-0.4986,0.123806,-0.0378237,0.0112282,0.183209,0.451635,0.367921,-0.489421,0.451288,-0.233409,-0.137097,0.376306,0.0878188,0.289036,-0.33769,0.103271,-0.0139693,0.34125,-0.359132,-0.60736,0.137099,-0.398326,-0.492097,-0.535213,-0.386598,-0.174543,-0.565318,-0.471758,-0.346122,-0.228124,-0.0100342,0.156252,0.0592801,0.0218913,0.0907266,0.113531,0.278402,0.344453,0.300866,-0.313548,0.267609,-0.031973,0.0383765,-0.0456103,-0.146838,-0.506555,0.0396568,0.104201,-0.288917,-0.518092,-0.544944,-0.179337,0.242096,-0.384214,0.134472,-0.437525,-0.190223,-0.290236,-0.108024,-0.31941,-0.166289,0.427641,-0.304337,-0.471101,-0.531306,0.0825857,-0.117926,-0.309067,-0.369992,0.172416,0.310077,-0.166502,0.408637,0.169997,-0.155453,-0.0102163,-0.438913,0.119957,-0.150444,-0.0941967,0.0981986,-0.16482,0.322238,-0.223294,-0.0150254,-0.361337,0.181447,0.135471,0.371351,-0.463337,0.298026,-0.242833,-0.0675461,-0.203303,-0.0712643,0.190662,-0.399284,-0.464371,-0.31319,-0.472136,0.384103,0.396426,-0.373756,-0.343531,0.290684,0.183973,0.451504,-0.281684,0.0941338,0.321012,0.298227,-0.289568,0.290301,-0.119952,-0.395588,0.262426,-0.387547,-0.13492,-0.0502598,0.244398,-0.641046,-0.629816,0.0845511,0.111583,0.128029,-0.384001,-0.404829,0.0277209,-0.0733228,0.399562,-0.215546,-0.27936,0.429818,0.0640725,0.00566443,-0.0255374,0.379344,-0.0347722,-0.201691,0.28131,0.158129,-0.0366006,0.0447307,-0.415065,0.0322671,-0.514814,-0.52936,-0.359143,0.0749634,-0.405822,0.217623,-0.166081,-0.250443,-0.479844,-0.0294401,-0.440279,0.27394,-0.403336,0.0261337,0.200939,0.341073,-0.437617,-0.166063,0.222578,0.168332,-0.0889644,-0.0646414,0.454681,-0.213788,-0.267395,-0.250434,0.115964,0.13306,-0.183997,-0.170439,-0.539447,0.122081,0.184316,-0.190192,-0.503128,-0.215177,0.287749,0.14545,0.301459,-0.148043,0.388103,0.14256,0.180789,-0.164649,-0.116514,0.36343,-0.251906,0.0685538,0.390411,0.485912,-0.306585,0.323056,-0.168307,0.254179,-0.186318,-0.573481,0.120977,-0.422399,0.122797,-0.663869,0.268958,0.102155,-0.324874,-0.470868,-0.134437,0.413806,-0.439595,-0.367125,-0.0941411,-0.0560784,0.141988,-0.135169,0.445731,-0.0157555,-0.393343,0.430774,0.45972,-0.0138374,-0.328451,0.291171,-0.498032,0.184451,-0.0722904,-0.0678343,-0.127767,-0.270241,-0.0190941,-0.312805,-0.394224,-0.49439,-0.354333,0.263849,-0.298538,-0.147804,-0.257947,-0.317091,0.347041,0.10796,-0.00421116,-0.508966,-0.492575,0.235166,0.405609,-0.0821168,-0.218247,-0.21812,0.0996567,-0.493313,-0.20624,-0.489195,0.219751,-0.0533817,0.167658,-0.484512,0.0435032,-0.509111,0.16829,0.346517,0.243331,-0.104974,-0.464056,-0.216652,-0.0580049,0.19179,-0.162704,0.0567476,0.349578,-0.477145,-0.464017,0.14066,-0.48832,-0.398941,-0.421319,-0.231853,0.470589,-0.00788351,0.257247,-0.379517,0.178848,-0.385173,-0.247697,-0.142514,0.265046,0.142486,0.0111849,-0.371888,-0.0843996,-0.36483,-0.178841,-0.221384,-0.03597,-0.1149,-0.145685,-0.448395,-0.340512,-0.390717,-0.304908,0.132021,0.322583,0.459089,-0.188761,0.096235,-0.0432328,0.12524,-0.326211,-0.0373706,-0.141281,0.2891,0.00104873,-0.258853,-0.27902,0.0556605,-0.316486,0.241924,-0.405079,0.472525,0.385083,-0.120284,-0.138296,0.430994,-0.0479412,-0.386601,-0.15825,-0.204149,-0.0754431,-0.113057,-0.257013,-0.0810575,-0.344457,0.22305,-0.437422,0.228231,0.193235,0.199147,0.0751858,-0.232262,-0.11418,0.246899,0.116486,-0.436614,0.157119,-0.121981,0.48568,0.0695139,0.29458,-0.0980105,-0.488502,0.486048,0.160747,0.197839,0.375829,0.262864,-0.340594,-0.504554,0.284854,-0.0523117,-0.331142,-0.229598,-0.10857,0.242421,0.0959781,-0.304493,-0.367017,0.257657,-0.169985,0.150794,0.271922,0.126016,-0.303546,-0.0461526,0.0416,0.291989,0.355347,-0.482717,0.252261,-0.378902,0.463505,-0.319021,0.254521,0.0645115,-0.353653,0.156781,0.344828,-0.476217,0.221172,-0.498021,0.342818,-0.30062,0.00532533,-0.0522514,-0.576136,-0.158825,0.174774,0.0991513,-0.0471784,-0.42642,0.158995,0.144696,0.487408,-0.351089,0.0489751,-0.299742,0.36362,-0.451044,-0.00156399,0.0964007,0.387344,0.215802,-0.241309,-0.303306,-0.256605,-0.574669,-0.315671,0.117465,0.34265,-0.36244,-0.338823,-0.326034,-0.295998,-0.0894924,-0.463997,-0.315598,-0.332624,0.00213648,-0.140194,0.289074,0.48863,-0.118366,0.117471,-0.254483,-0.209697,-0.220135,-0.0687222,-0.213089,-0.0515118,0.198056,-0.591562,-0.542731,-0.518134,-0.236966,-0.179208,0.340406,-0.250937,-0.114762,-0.023515,-0.832698,0.0254999,-0.6865,-0.0845247,-0.583215,0.355167,0.0771259,-0.396366,-0.188022,-0.15882,0.458924,0.0938794,0.265716,0.0188595,-0.292125,-0.011127,-0.448434,-0.165469,-0.267258,-0.120286,-0.486523,0.18172,-0.311337,0.384329,-0.19795,0.234176,0.0914472,-0.0719827,-0.149709,-0.526614,-0.134229,-0.748927,-0.294372,-0.470262,-0.495063,-0.26122,-0.158903,0.303429,0.451257,0.0187609,-0.350257,0.130111,0.342494,0.130795,-0.112467,0.33708,-0.726821,0.111398,-0.162516,-0.278315,0.1073,-0.354019,0.575853,0.757888,0.122088,-0.101369,-0.208841,-0.601168,-0.617414,-0.641132,0.121261,0.0245701,0.141593,-0.169775,0.417102,0.237396,-0.170936,-0.194768,0.137181,-0.287987,-0.179887,-0.057524,-0.337509,0.181795,-0.0858677,0.130434,-0.410224,-0.113222,-0.051019,-0.0454335,0.515395,0.35092,-0.17871,0.0281785,-0.381069,0.053207,-0.0546209,-0.714202,-0.222442,-0.30847,-0.245314,0.364528,0.100365,-0.0964768,0.295394,0.284682,0.000750579,0.26968,0.435203,0.434077,0.00359037,-0.477302,-0.0192654,0.117434,-0.275239,0.220359,-0.0998683,-0.442407,0.45015,0.497099,0.127345,0.271428,-0.533594,0.202068,-0.71947,-0.292008,-0.393951,0.0276787,0.0521058,0.387416,-0.0201252,0.147443,0.633853,0.390115,-0.0289846,-0.17046,-0.0516676,-0.0288534,-0.441387,-0.23073,-0.399753,0.00279098,-0.471694,-0.0927074,-0.45274,0.0308075,-0.173737,0.517833,0.467849,0.0580032,-0.235593,-0.0460537,-0.0379618,0.0728803,0.000277382,-0.294311,-0.176737,0.147774,0.1953,0.248379,-0.00341996,0.418896,0.239333,-0.169441,0.168057,-0.127569,-0.359913,-0.368419,0.19094,-0.643705,0.0316229,0.261281,0.000887939,0.208355,0.415546,-0.447075,0.117356,-0.120667,-0.323561,-0.0559714,-0.367842,-0.510056,0.0276097,0.116108,0.0546003,-0.0587504,0.354331,0.141626,0.273946,0.421436,-0.415718,-0.0851861,-0.419868,-0.410718,-0.0852048,-0.582558,0.121637,0.049815,-0.762608,-0.526179,-0.266894,0.146619,-0.208686,0.302036,0.00186763,0.254541,0.0440369,-0.410081,0.2766,0.120183,-0.38448,-0.144792,0.124599,0.0475842,0.103961,0.457783,-0.255743,-0.179152,-0.36247,-0.308596,-0.407274,0.0597361,-0.114534,0.213394,-0.0208892,-0.530485,0.320298,-0.0681211,-0.147121,-0.378703,0.319475,-0.189811,-0.0761561,-0.193827,0.462577,0.323105,0.573273,-0.0567733,-0.0689766,-0.103984,-0.0380611,0.667758,-0.0529033,0.261452,0.290978,0.011372,0.182791,0.25245,0.284644,-0.300866,0.190813,-0.247938,-0.0371881,0.0847698,-0.107027,-0.400834,0.264276,-0.0180211,0.0719895,0.499625,0.41499,-0.281668,0.217356,-0.195386,0.230848,0.356697,0.244554,-0.0936489,-0.242651,0.113935,0.492343,0.121425,0.208823,0.137518,-0.214968,0.435704,0.182494,-0.462301,-0.552861,0.320998,-0.214407,-0.452908,0.370972,-0.537666,0.0558688,0.171212,0.202666,0.324878,-0.483131,0.277077,0.356437,0.17718,-0.18232,0.0824816,0.497685,-0.266083,0.273897,-0.56533,-0.00833583,-0.110874,0.0692181,-0.153223,-0.060781,0.123598,0.412931,-0.220451,-0.656099,-0.215886,-0.347944,-0.0413822,-0.447982,-0.291177,0.0365519,0.333673,0.39735,-0.295102,-0.111153,0.0475554,-0.416439,0.528991,0.0167944,-0.118994,0.579117,0.0782403,-0.266266,-0.566692,-0.11065,0.410251,-0.146011,0.553307,-0.383802,-0.480653,-0.294379,-0.269801,-0.566441,-0.568156,-0.0691331,-0.107507,-0.227652,0.321591,0.185623,0.538897,0.462425,0.327941,-0.00649862,0.163004,-0.384966,0.137215,-0.0776679,0.359577,-0.177185,0.424436,0.000886058,0.325003,0.0741797,0.195139,0.387399,0.327824,-0.170508,-0.157141,0.262531,-0.212465,0.163021,0.143446,-0.221633,0.198046,-0.409686,-0.257779,0.170475,0.346374,0.262219,0.0687862,-0.480677,-0.18944,-0.276614,0.587992,0.61426,0.139193,-0.196662,-0.0548658,0.0862708,-0.00113575,0.0566346,0.17913,0.380016,0.489709,-0.00269324,-0.108154,-0.1031,0.281383,0.0194729,0.343221,0.198759,0.403891,-0.00454262,-0.321177,-0.00402182,-0.102347,0.486868,-0.31354,-0.466583,-0.462387,0.10306,0.479051,0.698485,0.011333,-0.0578946,-0.0210726,-0.110433,-0.501911,-0.253143,0.134736,0.510943,0.0528655,-0.218299,-0.496019,0.0939636,-0.183498,-0.219145,-0.076022,-0.0745616,-0.343383,-0.249611,-0.260864,-0.0832643,0.567776,0.207177,-0.475128,-0.117707,-0.391655,0.226316,-0.123388,0.242994,0.539022,-0.379549,-0.0249708,0.452064,0.0418985,0.457051,0.382119,0.469416,-0.303482,-0.174452,-0.203461,0.0570564,0.163811,-0.416595,-0.11602,0.00833023,0.131415,0.202474,-0.235747,-0.178813,-0.0132819,0.309987,-0.15845,0.123724,-0.705784,0.0953254,0.0285712,0.305702,0.251164,0.312655,-0.143651,0.16793,0.402331,-0.382259,0.0147721,0.165106,-0.120014,-0.140302,-0.369924,0.40082,-0.0797584,0.474626,0.0130145,0.344737,0.110289,0.0960991,-0.371381,0.477477,0.288437,-0.603784,-0.231009,-0.399581,-0.219426,-0.0427906,0.401436,0.373137,0.18098,0.119276,-0.29345,0.00885432,-0.13707,-0.0768606,-0.330023,0.553121,0.164201,0.288395,-0.164651,-0.256722,0.232319,-0.391745,0.0349824,-0.330929,0.330327,0.27819,0.211175,0.384168,0.328674,-0.433304,-0.366989,-0.506243,-0.410664,0.338609,0.299247,0.308206,0.290689,0.105216,-0.125523,0.18563,0.129468,0.108955,-0.214117,0.345074,-0.0698196,0.392599,-0.116235,-0.0646825,-0.435981,0.206316,-0.303988,-0.550617,-0.295518,0.0426758,0.508639,-0.181957,0.520008,-0.551917,-0.353763,-0.719061,-0.640357,-0.142679,-0.00400223,0.454657,0.054575,-0.318266,-0.180686,-0.121977,0.407281,-0.13092,0.455199,-0.120598,0.11422,0.121553,-0.259642,0.0936602,-0.485227,0.410533,0.348538,-0.29258,-0.297012,0.303984,-0.209815,0.324872,-0.498101,-0.419468,0.0611742,-0.278497,0.161761,-0.594376,-0.399684,-0.528067,-0.335865,-0.117565,0.296032,0.0957002,-0.466902,-0.377871,0.372127,-0.0471304,-0.0373491,-0.367407,0.00765758,0.417205,0.419648,0.0490005,0.178282,-0.419504,-0.104609,0.12838,0.0593192,-0.48414,0.0398837,-0.683119,0.138281,-0.168016,-0.0259427,0.414202,-0.0657278,0.140549,-0.405392,-0.54798,0.339858,-0.0869726,-0.0646233,-0.216879,0.336502,-0.186903,-0.401782,0.437004,-0.435513,0.132133,0.034984,-0.423657,-0.348649,-0.136533,-0.0540689,-0.222003,0.259705,-0.226414,0.334095,0.205326,0.464124,-0.174707,0.229962,0.0329284,0.37347,0.387819,0.131578,-0.380145,-0.264681,-0.493403,-0.493249,0.456864,0.492577,0.214095,-0.0870295,-0.279613,-0.278485,-0.334856,-0.391084,0.168121,0.269146,-0.0688463,-0.24615,0.138196,-0.339648,0.277719,-0.0774859,0.11505,0.240866,-0.221425,0.123455,-0.131657,0.0463559,-0.368717,-0.321041,-0.268365,-0.384875,-0.482238,0.10373,0.0991333,-0.439125,0.205255,0.0203885,-0.118152,-0.0728028,0.181813,0.283583,-0.392641,-0.309958,0.150833,-0.220123,0.0776925,0.455797,0.141278,-0.470087,-0.157137,-0.244041,-0.214343,-0.0165188,0.122994,0.301745,0.174791,-0.148937,0.313746,-0.13117,-0.246226,-0.198323,-0.11036,-0.23018,0.171404,0.144695,-0.0239629,-0.0785741,-0.460638,0.317539,0.178428,0.337776,-0.247636,-0.0909721,0.322242,0.40582,-0.337151,0.22784,0.0252067,0.330471,0.367148,-0.156684,-0.0256195,0.235896,-0.105529,-0.105439,0.012496,0.311369,-0.170196,-0.308791,-0.355581,-0.180036,-0.472617,0.0758807,0.239169,-0.472554,-0.423435,0.167421,-0.18586,-0.511958,-0.423505,-0.180736,0.197801,-0.036133,0.334463,0.141676,0.105823,0.157645,-0.102914,0.0375147,0.0290731,-0.0412814,-0.0852134,-0.330138,-0.493155,0.169003,-0.100092,-0.107884,-0.0132614,-0.00786438,-0.320142,-0.216393,-0.0867961,0.0294552,-0.428416,0.193994,-0.210613,0.39232,-0.46862,-0.163707,0.377717,-0.283656,-0.0375257,-0.125133,-0.107558,-0.201759,-0.30412,-0.280374,0.291152,-0.131738,0.13292,-0.440696,-0.126306,0.163373,0.0584068,-0.0600288,0.251823,0.482395,0.275384,-0.111409,-0.00856015,-0.00627018,-0.0462101,-0.493827,-0.12416,0.257663,-0.429374,0.0424834,0.129279,0.0897231,0.106097,0.277571,0.103504,0.420803,-0.109001,-0.386055,0.0204555,0.434222,0.103622,-0.0822164,0.0440609,0.370481,0.230868,-0.137047,0.399089,0.0660754,0.0820225,-0.425372,-0.219981,-0.0150444,0.379451,-0.020632,0.350643,-0.309252,0.263648,0.327667,0.471652,0.320893,-0.00699692,-0.143995,0.0586959,-0.181698,-0.0399832,0.182089,-0.154006,0.292143,0.326271,-0.255447,-0.168306,0.106941,0.234698,0.159245,0.163431,0.0852904,-0.438734,0.064668,-0.490097,0.399614,-0.497741,-0.352212,0.386235,0.190546,-0.185712,0.0192992,0.399386,0.246171,-0.234419,-0.30056,-0.232442,0.139747,-0.407735,0.212167,-0.155173,0.582514,0.315287,-0.294694,-0.277496,-0.416549,-0.115151,0.146469,-0.0478786,-0.24322,-0.0402464,0.213006,0.117861,0.101442,-0.263293,0.316116,0.46958,0.0681497,-0.109729,0.1044,-0.115781,0.193625,0.415112,0.290866,0.289315,-0.0312564,0.0126257,0.20345,-0.202066,0.395101,-0.08893,0.383241,-0.156134,0.162155,-0.47633,-0.273261,0.125574,-0.333235,-0.318535,0.177905,-0.420785,-0.18994,0.391052,0.0146027,0.202409,0.0577473,0.201446,0.203352,-0.0690616,0.503288,-0.368487,-0.201223,0.399273,-0.440013,0.304794,0.269458,0.161457,0.274857,0.118543,-0.453734,-0.68353,0.177592,-0.425076,0.287104,-0.241672,-0.108168,-0.603089,-0.221763,-0.117139,0.391054,-0.407794,-0.38509,0.439944,0.262011,0.0421267,-0.285403,-0.460252,-0.372942,-0.116854,0.431527,0.329619,0.287346,-0.237682,0.175936,0.386934,-0.543727,-0.644124,-0.653917,0.206688,-0.507875,-0.148987,-0.425668,-0.419142,-0.394914,-0.0434376,0.0667994,-0.0438671,0.0155521,0.237942,-0.0813932,0.214553,0.186491,-0.380015,-0.246618,0.478013,-0.14455,-0.430241,0.290696,0.372798,0.00292434,-0.116727,0.01707,-0.11336,-0.197568,-0.0822332,0.166955,-0.605597,-0.383289,-0.415218,-0.0715425,-0.143009,0.215213,0.192633,0.222548,-0.277232,-0.219035,0.302964,0.327199,-0.115423,-0.274907,0.332145,0.0388413,-0.196307,-0.152757,0.164918,0.225799,0.329,-0.0234749,-0.32206,-0.153043,-0.198861,0.194929,0.0819445,-0.654841,-0.203628,0.0111189,-0.110634,-0.140564,0.033852,-0.291517,0.0290889,0.01584,0.132196,0.0758997,-0.184868,0.468399,-0.483508,-0.102244,0.0190202,0.109333,0.3706,0.0813093,-0.378534,-0.133957,-0.140684,-0.655079,0.0256021,0.234595,-0.344621,-0.17904,-0.13229,0.187733,0.224092,0.325784,0.078885,-0.403751,-0.389651,-0.00938679,-0.659546,-0.209575,-0.184499,0.0443583,0.460262,0.170538,-0.211841,0.0868954,-0.226276,-0.295674,0.173698,0.03288,0.367012,-0.177838,0.189099,0.242496,0.0141963,0.171206,-0.453024,-0.463226,-0.134152,-0.0555537,-0.219715,0.0359322,-0.147949,0.18097,0.279805,-0.114786,-0.636607,-0.476296,-0.387301,-0.04359,-0.143863,-0.480353,-0.232908,0.263972,-0.405518,0.365427,-0.476817,-0.251223,-0.256423,0.403219,-0.541185,0.072412,0.100278,-0.167992,0.275655,-0.396267,-0.344282,0.0148618,0.272623,0.390346,-0.23043,-0.0245474,0.193365,-0.519039,0.137433,0.369069,0.460613,-0.204429,-0.214795,-0.434983,0.0588607,-0.0813935,-0.25032,-0.133394,-0.0570764,-0.280147,-0.0521299,0.039077,-0.546176,-0.297778,-0.379597,-0.522928,-0.471354,-0.078051,-0.240293,0.0724667,-0.609543,-0.522225,0.145184,-0.476644,-0.221416,-0.0348778,-0.323757,-0.231503,0.379811,-0.232492,0.327687,0.264008,-0.36996,0.197752,-0.32436,0.0451128,-0.00402544,-0.42148,-0.258196,0.225904,-0.351744,-0.46318,0.390605,-0.512541,-0.349238,0.126315,-0.375959,-0.124944,-0.692816,-0.580899,-0.423177,0.456151,-0.374148,-0.0554325,-0.421868,-0.342232,0.455153,0.315119,0.106831,0.426073,-0.0615691,-0.226183,0.144465,0.312599,-0.348101,-0.427512,0.217778,-0.540925,-0.346629,0.364802,0.111147,-0.0867014,-0.444108,0.291742,0.11537,0.0509613,-0.243619,0.268715,-0.599018,-0.109892,-0.0702476,-0.0334764,-0.366231,-0.392963,0.0137026,0.287013,0.448583,0.093074,0.286879,-0.35525,0.41685,-0.295308,-0.294022,0.274202,-0.144087,-0.29462,0.183337,0.427641,0.183511,0.0258242,0.337607,-0.252477,-0.313309,-0.575068,-0.121024,-0.569515,-0.324378,-0.102291,0.0471042,-0.46446,-0.30587,0.170966,0.208792,0.122226,-0.116453,0.3098,-0.144677,0.136741,0.290521,-0.0168363,0.0334851,-0.0290636,-0.42373,-0.057844,0.39264,0.227671,-0.00943725,0.538969,-0.16186,0.129729,0.288474,-0.22099,-0.618907,0.0134228,0.433802,-0.197644,-0.64964,-0.0951618,0.263478,0.0704691,-0.291715,-0.363243,-0.146201,-0.0610748,0.153864,-0.526526,0.466672,0.222464,0.124129,0.263305,0.168221,0.286644,0.235724,0.536483,0.279303,0.668819,0.645989,0.414869,-0.128063,0.00700267,0.491262,-0.357043,-0.250737,0.0422597,-0.194105,0.178279,0.0906165,0.248016,-0.408556,0.360731,-0.323901,0.121888,-0.409693,0.203872,0.00416578,0.113796,0.447318,0.0205997,0.701792,-0.0278906,0.484037,-0.205719,0.110128,0.38203,0.604631,0.134172,0.0670426,-0.194474,-0.0928208,0.271286,0.0108555,-0.509805,0.29281,-0.182119,0.141757,-0.389859,0.162473,0.331608,0.476376,-0.173327,-0.225414,0.11734,-0.334918,0.444562,0.417006,0.289158,0.199256,-0.284945,0.586287,0.153058,0.00335027,0.576223,0.109191,0.561608,0.31727,-0.13741,0.0428014,0.412006,0.0554886,-0.45832,0.396178,0.188602,-0.402331,-0.0254199,-0.223883,-0.327195,-0.155263,0.222763,0.431029,0.452158,0.00336282,0.359678,-0.175444,0.119468,-0.135997,0.525558,0.166373,0.546917,0.458743,0.248262,0.341,0.560393,0.2965,-0.211955,-0.095547,0.434241,-0.2733,0.392724,0.270317,0.199629,0.0404352,-0.321365,0.312555,0.370338,0.442441,0.42339,-0.358863,-0.417193,-0.0585919,0.0985514,0.133195,0.176634,0.736395,-0.175042,-0.270436,0.298357,-0.247423,-0.277423,0.564547,0.349843,0.179641,0.277509,0.214449,-0.0547081,0.411983,0.0495951,-0.0431328,0.413583,-0.451425,-0.31416,-0.177071,-0.491537,-0.161891,0.329249,0.0430525,0.345649,-0.154234,-0.155143,-0.252239,-0.149259,-0.0347112,0.177036,0.221996,0.240533,-0.405005,0.190053,0.384834,0.456295,-0.436326,-0.435156,0.244542,0.556786,0.421616,-0.035166,-0.327731,0.315453,-0.053304,0.386015,0.157605,-0.147105,0.315766,0.455221,0.352104,0.19777,0.307057,0.0294913,-0.440687,0.310325,-0.0112802,0.378146,0.278319,0.0472286,0.439334,0.363675,0.237782,0.338605,-0.0809702,-0.00178036,-0.0294226,-0.00834444,-0.475161,-0.340262,0.435766,0.116741,-0.0396246,0.420066,0.20199,-0.342614,-0.450088,-0.393172,-0.205759,-0.0231263,-0.470344,-0.122106,-0.281997,-0.103259,0.0371401,0.410497,-0.0401876,-0.345467,-0.0330754,-0.240207,0.385291,0.210316,0.178806,-0.153569,-0.456751,-0.184655,-0.475357,-0.0229263,0.158538,-0.488609,0.455885,0.445389,0.0669527,0.174571,-0.14981,-0.497389,-0.227062,-0.319884,-0.0319668,0.387921,0.437129,-0.391163,-0.45853,0.075177,0.340852,-0.0879251,-0.159294,-0.0132036,-0.161862,-0.457583,-0.265566,0.272334,0.346122,-0.212199,-0.0829869,-0.397145,0.276555,-0.254983,-0.186063,-0.249391,-0.348007,-0.39934,0.255629,0.0213119,-0.0757072,-0.280183,-0.239978,-0.373515,-0.0619648,-0.0207713,0.158144,-0.0589015,0.349122,0.393976,-0.419312,0.43033,0.016394,-0.325509,-0.31367,0.461087,-0.399431,-0.116997,0.357205,0.394361,-0.447965,0.235815,-0.0850467,0.47825,-0.117869,-0.452439,0.385202,-0.145945,-0.177536,0.110253,-0.422365,-0.0359032,-0.0898482,0.0487089,-0.479823,-0.464084,-0.159524,0.180151,0.292997,0.433917,0.429549,0.386702,-0.354053,0.0266554,-0.3511,-0.534949,-0.570519,-0.180795,-0.391303,-0.392025,0.217574,-0.0569879,0.14863,0.269546,0.229376,0.0133773,0.135544,0.177624,0.400468,-0.0558124,-0.158143,0.439928,-0.156336,0.188163,0.0792271,-0.205225,0.586596,0.435816,-0.0710313,-0.451914,0.207527,0.161062,-0.318572,-0.592717,-0.0348753,-0.402499,-0.185485,0.308265,-0.291034,0.343675,0.154023,0.212298,0.476851,-0.365274,-0.346725,0.299716,-0.215274,-0.31069,-0.203875,-0.0620627,0.163532,0.182189,0.157206,-0.348833,0.353225,0.0389785,0.150866,0.275732,-0.057359,0.170031,-0.535961,-0.18889,0.0862218,-0.523071,-0.258762,0.141682,-0.268954,0.280798,-0.101357,-0.440222,0.400486,-0.234327,3.39344e-05,0.391874,0.00794735,0.158128,-0.288142,0.355435,-0.14254,0.0428715,-0.369016,-0.424481,0.0567461,0.560814,0.0199408,-0.427022,0.088231,0.184523,-0.393699,-0.189514,-0.0304377,-0.355385,0.0409558,-0.136859,0.332503,0.273188,-0.304866,0.315305,0.0119592,-0.0440613,0.355139,0.508991,0.358111,0.142109,0.601712,-0.218681,0.412614,-0.177005,-0.248773,0.0325536,0.0706471,-0.337745,0.0354331,0.507061,-0.30055,0.012228,0.0831283,-0.42192,-0.0943048,-0.59336,-0.162654,-0.134793,-0.640657,0.295148,0.133122,-0.107931,0.242533,0.465008,0.0820038,-0.329342,-0.0841637,-0.100274,-0.0399598,-0.107586,-0.334866,0.00901051,-0.233415,0.293859,-0.311146,0.0641706,-0.246655,-0.153396,-0.0853454,0.135833,-0.209128,-0.0566026,-0.152898,-0.692503,-0.0634411,-0.606216,0.141159,-0.578306,0.157868,0.260291,-0.317651,0.142863,-0.468775,0.352983,0.169034,0.609748,0.423217,-0.240919,0.12335,-0.346832,0.315033,-0.530079,0.368563,0.0485997,0.24041,0.649216,0.540755,0.174299,0.501295,-0.458104,0.234393,-0.135744,0.0315884,-0.611743,-0.514836,0.207632,-0.0600056,0.0756009,0.368031,-0.313289,0.488423,-0.129442,-0.0462683,-0.15778,-0.0786867,0.121505,0.256542,-0.25188,0.429126,0.543896,0.0995632,0.200554,0.30615,-0.295426,0.429973,0.311616,-0.189944,0.173787,-0.274014,-0.639582,-0.839092,-0.355016,-0.148702,-0.390848,-0.354533,0.0792302,-0.204639,0.26284,0.228058,0.0388433,0.48202,0.271673,-0.434065,0.336279,-0.113374,0.169925,-0.28339,0.36579,0.473459,0.156175,-0.111659,-0.0977058,-0.0865694,0.500943,0.0947072,-0.384676,0.159814,-0.528792,0.00400818,-0.356512,-0.5229,0.347953,0.371396,-0.102988,-0.389704,0.00665102,0.534758,-0.150646,-0.0172924,-0.0478781,0.105167,-0.372197,0.0353872,-0.446902,0.186235,0.223392,0.116825,-0.203752,-0.0236229,-0.108273,-0.0351927,0.579256,0.256404,-0.272438,0.0142538,-0.47382,-0.674109,-0.460393,0.0284394,0.139549,0.459136,0.417688,0.351163,0.366678,0.170972,0.216598,0.376106,0.362947,0.462161,0.08433,-0.303803,0.0047012,-0.0923956,0.110171,-0.0591779,-0.405664,0.415699,0.113865,0.429676,-0.042749,0.203005,-0.286317,-0.383797,-0.422847,-0.795465,-0.288366,-0.670669,-0.539259,0.234101,-0.460014,0.218352,0.244315,0.127953,-0.00160196,-0.29897,-0.363172,0.528452,-0.23615,-0.177169,0.0920345,0.181183,0.290083,-0.301281,0.227493,-0.0388616,0.321053,0.243726,0.519408,0.0993514,0.572689,-0.309507,-0.316636,-0.636698,-0.520632,-0.309941,-0.244428,-0.100478,-0.186496,-0.113279,-0.102622,0.432344,0.494601,-0.35826,-0.017409,-0.271168,-0.101783,-0.18756,-0.124257,0.470443,-0.281675,0.0566631,0.0454446,-0.293978,0.148929,-0.215813,0.443378,0.386337,0.467272,-0.447443,-0.43139,0.0747585,-0.523467,-0.620741,0.252388,-0.374127,-0.287865,-0.0317321,0.210201,-0.0975374,0.265109,0.45042,0.210493,-0.0468923,-0.093017,-0.149146,-0.316263,-0.454041,-0.164291,-0.0623843,-0.0714308,-0.202838,0.50959,-0.278875,0.447902,0.0301676,0.195453,-0.550045,-0.0971035,0.0423056,-0.402853,-0.20215,-0.40803,-0.294252,-0.00334096,-0.182854,0.465679,-0.0920643,0.287122,0.196048,-0.00886421,-0.117596,0.321164,-0.415417,-0.553847,0.163322,0.0827431,0.27162,-0.0355641,-0.496764,-0.23266,-0.0894912,-0.42728,0.325339,0.110405,0.217884,-0.2586,-0.622926,-0.325253,0.2935,0.376721,-0.493345,0.106531,0.371274,-0.295296,0.0661115,0.435585,0.496545,-0.203319,0.509957,0.0366933,0.323228,0.361597,0.0530214,0.161366,-0.546899,0.230209,-0.414188,-0.480937,-0.0899783,-0.477762,0.352561,0.238653,-0.457585,-0.349189,-0.564146,-0.37732,0.283569,-0.146864,-0.27253,0.421848,-0.310379,0.148158,0.288118,0.129369,-0.163144,0.390588,0.0726756,0.394256,0.326924,0.153512,0.0302434,0.229369,0.184517,0.391949,-0.0542912,-0.145586,-0.422551,-0.176362,-0.424898,0.238792,0.0558209,0.28612,-0.173553,-0.420428,-0.476868,0.309331,0.463515,-0.378663,-0.113447,0.319313,0.3023,0.624177,0.0869622,0.278935,0.366743,0.253694,0.511477,-0.184826,0.229237,-0.199658,0.264106,0.0137464,-0.311658,-0.431542,0.256927,-0.0892689,-0.0584615,-0.407647,0.0239626,-0.345754,0.215147,-0.677606,-0.343389,-0.154912,0.0109094,-0.240994,0.477006,-0.16487,0.671763,0.272804,-0.0305659,0.375619,-0.168279,0.0949261,-0.148714,-0.442463,0.177705,-0.13221,-0.119574,-0.413443,0.485862,-0.226083,0.26267,-0.526567,-0.259404,-0.245536,0.226193,-0.439767,0.181129,-0.598729,-0.424324,0.251564,0.0298966,-0.18402,0.0722849,-0.362297,-0.239404,0.132296,-0.0762813,0.320677,0.176992,-0.316894,0.439678,0.371287,0.247175,-0.150261,0.304231,0.238458,-0.0508315,-0.0255234,0.247965,-0.500245,-0.120692,-0.263415,-0.0612215,-0.544736,0.0169189,-0.488853,0.271917,-0.126145,-0.398005,0.282808,0.388943,-0.23524,0.379736,-0.372608,0.502789,0.311747,-0.0826328,0.436196,-0.401432,0.0928941,-0.245462,0.375696,0.328694,0.283737,0.297237,0.153111,0.0638634,0.264155,-0.640579,-0.568823,-0.0627168,0.0520675,-0.0127483,-0.168002,0.0722199,0.364323,0.106335,-0.187898,0.0665377,0.437526,-0.04454,-0.178083,0.0989925,0.368201,0.202023,-0.161124,0.23988,-0.0182249,0.331957,0.501301,-0.237833,0.107725,-0.348641,0.418814,-0.337529,-0.303867,-0.210071,-0.296723,0.121731,0.0527603,0.296348,-0.50347,0.518499,-0.204554,-0.186917,0.0354107,-0.367028,-0.19901,0.268654,-0.253551,0.251354,-0.397318,-0.0842801,0.139835,-0.0311415,0.0225928,0.0262139,0.351562,0.0363549,0.168569,-0.136551,-0.320931,-0.107137,-0.598056,-0.421631,-0.579314,-0.533089,0.427141,-0.0912003,0.356842,0.196222,0.208619,-0.241332,0.477238,-0.144653,0.0655766,0.187357,0.136379,0.0881454,0.527176,0.513545,0.450779,-0.411342,0.431251,-0.164374,0.363752,0.115262,-0.232803,-0.40748,-0.31104,0.442904,0.0871613,-0.415596,0.196295,-0.436187,-0.274387,-0.39874,0.385793,-0.438144,-0.296832,0.462751,-0.313342,-0.477006,-0.169695,-0.478048,0.306646,-0.31558,-0.436139,-0.116068,0.374999,0.288892,0.334988,-0.196995,-0.048774,-0.383829,-0.390031,0.213932,-0.417463,-0.334908,0.307633,0.00035296,0.199415,-0.391697,-0.339047,0.0865144,-0.0933333,0.387301,-0.45098,0.182991,-0.497401,0.390019,0.333315,0.422535,-0.241272,0.471318,0.027828,-0.30404,-0.191407,-0.472734,-0.250642,-0.229181,0.376452,0.192794,0.461335,0.206721,0.138804,0.425484,0.11688,-0.0515055,-0.360541,-0.261946,-0.436359,-0.239542,-0.153288,0.332552,-0.411442,0.0814531,-0.304334,0.366688,0.303324,-0.342482,-0.155296,0.237145,-0.141185,-0.103416,-0.303016,-0.319604,0.0703796,-0.0176708,-0.245309,0.394013,-0.341567,0.390649,0.357968,-0.167647,0.361661,0.173285,-0.21582,0.389046,0.429153,-0.271574,-0.0841911,0.245521,-0.434172,0.0232603,-0.0155977,-0.0793058,-0.158846,-0.101263,-0.386297,0.483889,0.29625,0.00508463,-0.0349482,0.00387954,-0.0245908,-0.46327,-0.206472,0.370315,-0.391263,-0.225731,-0.0995336,0.239921,-0.325463,-0.128475,-0.221851,-0.222353,0.396476,-0.198844,0.293255,0.355905,0.308972,0.368813,0.0391713,0.241429,0.296588,-0.319183,0.480909,0.0417123,0.128425,-0.0204213,-0.290125,0.0568642,-0.168096,0.542502,0.399911,0.275831,0.37277,-0.321592,-0.378336,0.301248,-0.141649,-0.396942,0.0483305,0.0490552,-0.157136,0.174803,0.42834,0.16439,-0.166897,0.237586,0.0914601,-0.191877,0.393306,-0.129732,-0.125561,0.270403,-0.0313628,0.0387453,0.0791872,0.352529,0.543577,0.641382,-0.204555,0.23092,-0.41669,-0.154424,0.23774,-0.3439,-0.274793,0.275288,-0.126398,0.224253,-0.0837944,0.579945,-0.194361,-0.112441,0.174293,0.361424,0.192178,-0.470355,0.0178957,0.152116,0.0596759,0.446582,0.333393,0.167905,0.574408,0.523476,0.223921,-0.269493,0.478227,0.153968,-0.26029,0.345356,-0.338423,-0.467874,0.133614,-0.263421,-0.372782,0.0905985,0.0947916,0.640369,-0.135055,-0.134941,0.197865,0.449549,0.35668,0.224376,-0.196362,-0.289046,0.406456,0.12267,0.199408,-0.0404338,-0.0140849,-0.062912,-0.0403454,0.6143,0.187549,-0.075395,-0.111622,0.328816,0.281574,-0.611064,0.205518,-0.349802,-0.111713,0.163077,0.254712,0.109234,0.467005,0.548712,-0.100122,-0.155902,0.0520764,0.365515,0.492267,-0.39639,0.389562,0.0148246,-0.474216,-0.409188,0.193715,-0.342259,0.461496,-0.0479191,0.115071,0.338096,-0.343557,0.0779173,-0.225795,0.219918,-0.557004,0.208119,-0.127862,0.0028516,-0.0865632,-0.0189724,0.274418,0.209949,-0.0891461,-0.212026,-0.460982,-0.429356,0.140388,0.355031,-0.312084,-0.104718,-0.737489,-0.71296,-0.54421,0.262132,0.252194,0.334056,-0.220871,0.452022,-0.217124,-0.554303,0.0623194,-0.317771,-0.343029,0.277871,-0.038741,0.0635726,0.149128,0.309022,0.155528,-0.153402,0.222027,0.259483,0.0399822,-0.0382314,-0.0279434,0.149668,-0.31852,-0.544298,-0.882747,-0.481951,-0.737903,-0.451812,-0.169081,0.289691,-0.311185,0.203066,0.232417,0.150187,0.129194,0.246606,0.115884,-0.20825,-0.0402943,0.263061,-0.369831,-0.130045,-0.231712,0.453286,-0.0291228,-0.0631108,0.297599,0.219891,-0.288399,-0.429157,0.0243878,-0.690632,-0.385682,-0.135956,-0.59294,-0.300598,-0.375169,-0.416819,-0.266907,0.33547,-0.286304,-0.360779,0.301936,0.0451946,-0.252275,-0.20114,0.244209,-0.266923,0.462848,0.244986,0.488607,0.150842,0.377385,-0.155099,0.0494183,0.0937586,0.121227,-0.200127,0.205646,-0.150843,-0.661697,-0.416641,-0.240308,-0.79956,-0.189166,0.0275897,0.084063,0.448478,0.207439,0.505726,-0.113421,0.254683,0.30785,-0.171167,0.11331,0.366095,-0.0500813,0.183393,0.337021,0.421231,0.30112,-0.210292,-0.0586401,0.332414,-0.0810276,-0.0972802,0.21825,-0.678366,-0.205852,-0.399404,0.00551892,-0.317642,0.021656,0.423095,0.467498,0.212468,0.073705,0.0885848,-0.293395,0.348283,-0.0594777,0.60284,0.0365516,0.504353,0.1755,0.169054,0.336174,-0.260758,0.127652,-0.40648,0.0410881,0.0160704,-0.223436,0.0623272,0.0191215,-0.286625,-0.233211,-0.23361,-0.238147,-0.608828,-0.438086,-0.193763,-0.151429,-0.32888,0.048338,0.0787432,-0.277198,0.630119,-0.152767,-0.294065,-0.12591,0.182869,0.362452,0.431144,0.638655,-0.0675351,0.551107,-0.0250161,0.199575,0.479747,0.336027,0.326689,-0.556104,0.00907133,-0.674169,-0.170868,-0.257,0.0856621,-0.468212,0.00674373,0.250077,0.0840523,-0.0632199,-0.0466752,0.280473,-0.163913,0.411381,-0.260118,0.34695,-0.268882,-0.197183,0.123082,-0.147801,0.377373,0.437954,0.101685,0.347601,0.461265,-0.196602,0.190353,0.116772,-0.161782,-0.107719,-0.0807393,-0.63393,-0.463699,-0.214621,0.156856,0.326837,0.0849181,-0.155128,-0.127413,-0.183283,0.436469,0.245124,-0.0505198,0.148979,-0.253225,-0.31081,0.380107,0.126845,0.144225,0.476398,-0.4661,-0.0364715,-0.0376821,0.071802,0.131629,-0.542676,-0.374945,-0.425702,0.0728403,-0.0355267,-0.413295,0.264494,0.205274,0.491596,-0.11821,0.449589,-0.0208592,0.370183,0.248933,-0.260124,0.301823,-0.10887,-0.158969,-0.0241261,0.345386,-0.132884,0.0898793,0.333964,0.0678341,0.301923,0.154396,0.285756,-0.260263,0.15389,-0.264438,-0.253652,-0.251596,-0.785665,-0.672832,-0.300182,-0.0849624,0.529933,0.346379,-0.00247069,0.483852,-0.402152,0.44774,0.268814,0.044025,-0.463905,-0.0734859,0.169434,-0.139775,0.0173224,0.613692,-0.0123127,-0.224155,0.200195,0.0100075,-0.328205,-0.395616,-0.404819,-0.795092,-0.192084,-0.457726,-0.634243,-0.615296,0.384976,0.481581,0.101734,0.145141,0.38291,-0.0131772,0.460662,-0.187798,-0.0648618,-0.236347,0.246188,0.268125,0.449008,0.0552724,0.0335473,0.112947,0.497827,-0.1894,0.285678,0.395836,0.20993,-0.145932,0.119431,-0.113,-0.665785,-0.227642,-0.428997,-0.482719,-0.450208,0.480372,-0.115873,0.383967,-0.193682,0.12155,0.229763,0.443276,-0.0565728,-0.240306,-0.389211,-0.169658,0.0150343,0.0949799,0.229018,-0.253684,-0.0810802,-0.0779342,0.0376353,-0.238649,0.304756,-0.466869,-0.683629,-0.664135,-0.0997087,-0.527061,-0.611705,-0.671603,0.496007,0.303733,0.312794,-0.0542644,0.417522,-0.0316437,0.406344,-0.355501,-0.253949,-0.0530894,-0.0086126,-0.0846571,0.189913,0.0964165,0.258423,0.619638,0.24611,0.397077,0.18817,-0.0594667,0.0938849,-0.086348,-0.502375,-0.293431,-0.144001,-0.756728,-0.44826,-0.505972,0.633034,0.0613694,-0.140054,0.465223,0.0224266,0.47962,-0.134352,0.150423,-0.0253612,-0.138891,0.0178091,0.322325,0.0624496,-0.412848,-0.266214,-0.336425,0.341534,0.0772306,0.103702,0.428487,0.158302,-0.426235,-0.340207,-0.729113,-0.783849,-0.845253,-0.438616,0.546761,0.534091,0.48542,0.0289788,0.194191,-0.191636,0.443425,0.503989,-0.186005,-0.272585,0.209508,-0.636749,-0.195619,-0.293157,-0.298871,0.206798,0.0411581,0.178059,0.314346,-0.400343,0.498667,0.0126789,-0.155419,-0.550813,-0.699525,-0.516151,0.240623,-0.465122,0.0258911,0.186527,0.289556,-0.234761,0.465611,-0.0911474,0.607911,-0.253954,0.551368,0.26445,0.263271,0.0322155,0.31695,0.354849,-0.495109,0.120388,0.360982,-0.358079,-0.415204,0.0460638,-0.0354344,0.148404,0.355864,-0.00112954,-0.485501,-0.412138,-0.249697,-0.169224,0.265792,0.359699,0.0525759,-0.134647,0.346952,-0.353161,-0.352847,0.248414,0.445751,-0.513112,0.356732,-0.416324,-0.0499931,0.145559,-0.41311,0.230942,0.152778,0.000959331,-0.311884,-0.383361,0.222954,-0.300496,-0.454865,-0.0289109,-0.197567,-0.32115,0.410265,0.323323,0.274176,-0.0908905,0.554259,0.244689,0.0286695,0.423807,-0.26441,-0.340998,0.270524,0.467624,-0.221685,0.451897,-0.276374,-0.138565,0.0867107,0.369765,0.0720515,0.0137986,0.393596,0.0642304,-0.330512,0.0799473,0.312497,0.084818,-0.34225,-0.432034,0.572649,-0.229204,0.395792,-0.201825,0.369946,0.109319,-0.0887697,-0.146419,0.197901,0.443625,0.126989,-0.268741,0.286232,-0.00757824,0.500204,-0.0225863,0.406641,-0.217364,0.275365,-0.366988,-0.278843,0.426545,-0.141626,-0.0242227,-0.339822,-0.392478,-0.113922,0.285227,-0.194231,0.114211,0.393009,0.41855,0.482512,0.234534,-0.0797967,-0.0887381,0.252512,-0.450553,0.00507204,0.301196,-0.294503,0.330428,0.355923,0.426142,-0.461913,0.218914,-0.469335,-0.0569351,0.228547,-0.0898844,0.0652165,-0.101242,0.341503,-0.462674,0.363098,-0.292534,-0.186176,-0.242149,-0.0944056,-0.227658,-0.246605,-0.255393,0.444329,0.426606,0.348938,0.375688,-0.438606,0.406173,0.00906783,0.467091,-0.452761,0.0979907,0.305316,0.0684455,-0.0598408,0.123096,0.302139,-0.165632,-0.0753987,0.264338,0.0163745,-0.491229,-0.0237737,0.244962,-0.420742,0.404754,0.0739218,0.458954,-0.25362,0.300336,-0.498085,0.113611,0.206629,0.398914,-0.0550522,-0.0297278,0.368721,-0.00390144,0.327625,-0.184555,0.081722,-0.23024,0.0249496,-0.352014,0.407465,-0.359353,0.0972259,0.196636,0.0905766,-0.107939,0.415505,0.15239,0.397262,0.00264262,0.0387141,-0.390585,-0.468201,0.432052,0.40127,-0.469828,0.124324,-0.0262694,0.426384,-0.332892,0.449111,0.106263,0.18601,0.307505,-0.0392492,-0.161063,0.34103,-0.269674,0.190844,0.425964,0.495692,0.414379,0.166322,-0.0969554,-0.143198,-0.0459719,0.346274,0.41783,-0.0808658,-0.220678,-0.0927788,-0.479995,-0.159308,-0.0617296,-0.414196,-0.43788,0.39661,-0.191917,0.186561,0.457231,-0.342791,-0.249385,0.0906183,0.43058,-0.469369,0.279145,0.304859,0.0813512,0.166239,0.470136,0.226204,-0.431249,0.379353,0.464938,-0.219398,0.285295,-0.375552,0.0709926,0.0668125,0.0134434,-0.00314649,0.118833,0.219436,0.354926,0.256035,-0.157783,0.217803,-0.399217,0.177584,0.363099,-0.178315,0.356054,0.0989181,0.325319,-0.0840909,-0.481694,-0.414203,0.452892,-0.178432,0.0659597,0.473254,-0.215244,-0.215148,0.0651934,-0.441523,0.0246197,0.0946473,-0.349571,0.379107,-0.0106811,0.235513,-0.150307,0.455219,-0.384814,0.124767,-0.40076,-0.526772,0.385428,-0.131749,0.1702,-0.417334,0.286915,0.47522,0.349792,0.212584,-0.0903878,-0.507946,0.292895,-0.364852,0.0709132,-0.474681,-0.257645,0.117148,0.104829,0.347125,-0.0137611,0.208224,0.209218,0.0750647,-0.423747,-0.36432,-0.255298,-0.240526,0.0266401,0.30786,-0.092143,0.169805,-0.230205,0.42713,-0.162887,0.347158,-0.466443,-0.279405,0.359307,-0.485982,0.152552,-0.0871245,0.436653,0.353869,0.282032,-0.10944,-0.0514393,-0.234553,0.474829,0.194206,-0.353306,0.361569,0.424528,-0.348701,0.000349682,-0.142317,-0.329366,-0.166804,0.267714,-0.446171,-0.323764,0.000326176,0.457319,0.45572,-0.0135598,0.232873,-0.0252293,0.441942,0.0764654,-0.0982263,0.143816,0.0676254,-0.194068,-0.225214,0.0690031,-0.0332199,-0.243933,0.254867,-0.119853,-0.179476,-0.0389502,0.216606,0.347637,0.20087,0.0310873,0.00915326,0.484557,-0.470884,-0.429389,0.126329,0.197813,0.300831,-0.149252,-0.232752,0.264767,0.349658,-0.237179,0.00552633,-0.422459,-0.113824,0.309328,0.40899,-0.121531,0.0439047,0.0188089,-0.333283,-0.228004,-0.0909147,-0.169909,0.288174,0.362368,-0.366091,-0.281774,0.451619,-0.448709,-0.214112,-0.169424,-0.246517,-0.31026,0.455326,-0.0903909,-0.261149,-0.180009,0.273752,0.136002,0.339521,-0.312421,0.460645,-0.0579381,0.0299745,0.141122,-0.351167,0.2888,-0.290924,-0.352747,-0.421955,0.253051,-0.426609,0.128786,-0.176467,-0.39905,-0.176387,0.322669,-0.296188,-0.186783,-0.0488147,0.338614,0.393601,-0.279323,0.0631115,0.188112,0.154259,0.386805,-0.0180488,0.571767,-0.224743,0.109183,0.350485,0.223364,-0.0565697,0.444343,-0.391735,0.333363,0.480591,0.23717,0.226001,-0.0708041,0.448856,-0.505571,-0.200932,-0.21148,-0.0827981,-0.0842454,0.0275607,0.351846,-0.257273,0.245499,0.0595071,0.211078,0.268442,0.35121,-0.0233799,-0.230837,-0.262335,-0.345641,0.259043,0.456847,0.421218,0.268776,0.102067,0.177444,0.110748,-0.203017,0.0758055,0.0116105,-0.319824,-0.465873,-0.310516,-0.547735,-0.387549,-0.31947,-0.361461,0.366068,0.0357891,-0.472833,-0.395183,-0.411973,-0.234254,-0.15336,0.203196,0.527035,-0.147626,-0.316394,-0.37098,-0.223742,-0.0853998,0.104345,-0.0630366,0.35416,-0.0981055,-0.405905,0.130404,-0.400426,-0.0373138,-0.0908287,-0.075497,-0.282536,0.379363,0.385061,-0.373798,-0.165927,0.444637,0.362922,0.0248895,0.206101,0.477332,-0.0373013,-0.420351,0.446231,0.274673,-0.251732,-0.413103,-0.056737,0.271089,0.438506,-0.0650844,0.472776,0.157301,-0.168864,0.304085,-0.0946833,0.101008,-0.445448,-0.0509777,0.255092,-0.28535,-0.342858,-0.012336,-0.314372,0.44055,0.307991,0.0659953,0.265397,-0.104305,-0.200857,0.148636,-0.111422,-0.295378,-0.49485,-0.106214,-0.324878,-0.265275,0.114053,-0.266854,0.529319,-0.268185,0.338321,-0.275266,0.337816,0.489769,-0.0631429,0.117582,-0.475693,0.399591,-0.256111,-0.362289,-0.460749,-0.00757656,-0.457983,0.395888,-0.266261,-0.278101,0.51351,-0.0203819,0.148637,0.17498,-0.329781,-0.509573,-0.354112,-0.456683,-0.138566,-0.170079,0.181656,0.0592801,0.293899,-0.0250378,0.471436,-0.384304,0.308653,-0.310711,0.170029,0.268034,-0.435227,-0.390134,-0.295535,-0.4649,-0.411672,0.168465,-0.0379553,-0.0127864,-0.417231,0.103114,-0.187796,-0.398696,-0.29126,-0.525583,-0.0229823,-0.255444,-0.0163147,-0.0652045,-0.248337,-0.297736,0.247615,0.106447,-0.0158547,-0.364883,0.217316,0.271169,0.0423296,0.255367,0.416591,-0.357563,-0.203222,0.345688,-0.498169,-0.405001,-0.145877,0.350537,0.537318,-0.302629,0.0917594,-0.599051,0.348251,0.301295,-0.390605,0.0851617,0.0899677,-0.234453,-0.164256,-0.00809384,0.258997,-0.277758,0.281011,-0.31446,0.25568,-0.0542924,0.194425,0.415608,-0.0773753,0.198948,-0.0719651,-0.02549,0.19321,0.167405,-0.177274,-0.0752634,0.42632,-0.489529,-0.336796,-0.607767,0.298244,-0.554844,-0.615237,-0.377728,-0.637912,-0.0534909,-0.653777,0.261159,0.189654,0.308547,-0.312074,0.185717,0.144542,-0.201072,0.303005,-0.120348,-0.397748,0.091932,-0.0586521,-0.192938,-0.181197,0.242831,0.493608,0.329999,-0.129489,-0.367861,0.0500874,-0.195541,-0.428798,-0.423632,0.093345,-0.431864,-0.148033,-0.655697,0.115822,0.170344,-0.377537,-0.422096,-0.156221,-0.1308,0.404815,-0.0966904,0.12021,0.0825568,0.0505065,0.448085,-0.529954,-0.244041,0.0573185,-0.464247,-0.355525,0.329514,0.239908,0.152856,-0.22302,0.169101,-0.137871,-0.482454,0.00506848,-0.399158,-0.0483449,-0.497789,0.32286,-0.515714,-0.0330986,0.401253,-0.271096,-0.309644,-0.207774,-0.460604,-0.0886144,-0.422115,-0.292932,0.153293,0.103549,0.189374,0.420518,-0.00964376,0.287904,-0.230825,0.465079,-0.385345,-0.500712,-0.45323,-0.178064,0.380454,0.0518208,-0.15789,0.329179,-0.513985,-0.39794,-0.364371,0.276625,0.30525,-0.18023,-0.161977,-0.0933662,0.400858,0.0959855,-0.221932,-0.432376,-0.200433,-0.21358,-0.0293839,0.495704,0.223275,-0.112046,0.487527,0.0542958,0.172215,0.0224631,-0.305635,-0.427872,-0.0521668,-0.363704,-0.149268,-0.470217,-0.235746,-0.439834,0.171923,-0.434924,0.263631,-0.138036,-0.375001,0.325406,-0.0420697,0.168065,0.060885,0.0308671,0.160602,-0.022422,0.211169,0.47235,-0.00505996,0.343537,0.369639,-0.484106,-0.0709296,-0.536864,0.258219,-0.249189,0.391072,-0.422255,-0.319541,-0.347574,-0.0199864,0.159345,0.245768,0.264767,-0.222657,-0.0518222,-0.144133,0.443514,0.184965,0.281828,-0.0905876,-0.113936,0.279565,-0.0356189,-0.373383,0.0129792,0.0585559,0.0859895,0.326946,0.11336,-0.416553,0.390197,0.0661678,-0.0790187,0.163507,-0.304099,0.121133,0.0624466,-0.309286,0.235963,0.157901,-0.17937,0.35028,-0.382378,-0.0324254,-0.15234,0.111125,-0.072583,-0.0235218,-0.286886,-0.460881,0.0488313,0.391449,0.317918,0.0922199,-0.0937862,0.254009,-0.133216,0.0634204,-0.0084018,0.202779,0.264896,-0.0657359,-0.415072,-0.512127,-0.314468,-0.428407,-0.12587,0.086938,-0.112344,0.170121,0.140775,-0.29781,0.0757729,-0.482931,-0.486787,-0.351679,0.0656498,-0.0409347,-0.201646,0.00963327,-0.35147,-0.250392,0.306716,-0.209364,-0.115999,-0.34955,-0.362356,0.146514,-0.172843,0.382826,-0.00287457,-0.161429,0.429264,0.482925,0.193329,-0.402084,-0.220092,-0.430932,-0.288872,-0.219402,-0.307726,-0.434958,-0.266399,0.35762,-0.115626,0.213532,0.246167,-0.020383,0.287368,-0.260703,0.445653,-0.330482,-0.120893,0.231589,-0.191883,-0.188418,0.487042,0.386289,0.0221896,0.350085,-0.184995,-0.475248,0.466171,-0.321289,-0.436813,-0.105939,-0.408825,0.479349,-0.189235,0.0064291,0.372905,0.0485945,0.0123391,0.127076,0.495915,0.254271,-0.0455279,0.283831,0.371937,-0.0862629,0.321773,0.182779,-0.222779,-0.0995753,0.274096,-0.338404,-0.0869774,-0.353339,-0.183893,0.162344,-0.341617,0.334642,-0.322087,-0.238427,0.357361,0.126821,-0.17171,0.114962,-0.0828731,0.264457,-0.0728365,-0.136398,-0.198869,-0.0861182,0.126048,-0.192584,-0.423193,0.142815,0.206143,-0.0984986,0.423041,-0.407208,0.421413,0.229657,-0.470287,0.272355,-0.417522,0.0981349,0.480327,-0.157232,-0.0104318,0.10438,-0.252067,0.0599243,0.0452745,0.169751,0.0247435,0.131165,-0.449407,0.379475,0.220166,-0.457958,0.20885,-0.126854,-0.0321417,0.0303239,0.130117,-0.36834,-0.363322,0.0509247,-0.0668377,0.136098,0.47253,-0.157653,0.409908,0.380788,0.332482,0.213215,-0.195907,-0.0417065,-0.46805,0.256661,0.307972,0.0115217,0.00401026,0.453119,-0.329047,0.355765,0.40289,-0.188517,-0.0568994,-0.364172,-0.246937,0.32337,-0.00504565,0.229169,0.139724,-0.41217,0.0249468,-0.101632,-0.154986,0.211128,-0.350977,-0.474734,0.0640694,0.0561073,0.320552,0.195511,0.293753,0.137316,0.0547189,-0.203064,0.207315,-0.0660698,-0.0338601,-0.21666,-0.420332,0.0834862,0.131447,-0.442215,0.366303,0.449183,0.376264,-0.240097,-0.295353,-0.4312,-0.415083,-0.402369,0.162338,0.0838659,-0.0935038,-0.0957203,0.0753123,0.552433,0.571838,0.143858,0.0611825,0.14393,0.447571,0.267329,0.316493,-0.158802,-0.478,0.344207,0.0404028,-0.0242931,-0.309724,-0.455678,0.103584,0.103834,-0.533318,0.102454,0.07762,0.0592036,-0.0695587,0.281194,-0.0933334,0.0273947,0.389739,-0.0278928,0.0739469,-0.0332916,0.388951,0.450122,0.176199,-0.134033,-0.193279,0.132327,0.0857932,-0.428962,0.0582596,-0.0567882,-0.069341,-0.194802,-0.088142,0.453985,-0.255895,0.0017334,-0.0187893,-0.173649,-0.390487,-0.0475859,0.139224,-0.611262,-0.294981,-0.106938,-0.333671,-0.226565,0.212995,0.576435,0.0845401,-0.281341,0.620056,0.313025,0.267143,0.465772,0.708233,0.0980951,-0.117591,0.323275,0.328387,-0.180987,-0.237874,-0.17158,-0.188989,0.113852,0.35011,-0.492608,-0.397878,-0.0209511,0.0670743,0.338541,-0.228304,0.142254,0.061355,0.376169,-0.144941,0.0807334,0.269107,-0.0859058,-0.264641,0.516652,-0.341061,0.246706,-0.053438,-0.0793932,0.305329,0.153857,0.148388,-0.315125,0.187774,0.356607,-0.455971,0.382718,0.343636,-0.6568,0.205717,-0.451526,-0.544878,-0.481185,0.237674,0.198517,-0.212909,-0.146148,0.335868,0.367569,0.0420981,-0.448746,0.255571,0.0263271,-0.0976836,-0.148237,-0.194764,-0.108306,-0.485907,0.107156,-0.0320923,0.290322,0.0762654,0.474706,-0.468771,0.026456,-0.478162,-0.458578,-0.604698,-0.248057,-0.357869,-0.358154,0.117445,0.334604,0.0169268,0.406443,0.320382,0.168673,0.0982706,-0.586221,0.0263696,-0.174985,0.249333,-0.16362,0.207174,0.284738,0.118077,-0.130016,-0.409549,0.242067,0.238827,0.480059,-0.400665,-0.0205518,-0.00357915,-0.0485968,-0.0996841,-0.161353,-0.465346,0.214481,-0.636923,-0.0194552,0.202628,0.376533,-0.281141,0.17247,0.0741186,-0.456435,0.364762,0.214626,-0.527643,-0.438326,-0.335164,-0.428972,-0.377949,-0.3449,-0.181041,-0.415656,-0.458158,0.207464,-0.454408,-0.451902,-0.362595,0.22737,-0.307248,-0.392954,-0.414527,-0.00203092,0.0633151,-0.438805,0.409379,-0.143402,0.387234,0.191513,-0.245136,-0.558499,-0.179545,-0.542432,0.312404,-0.248587,-0.282868,-0.286217,0.296118,-0.517878,0.327442,-0.219615,0.381333,-0.269669,0.37892,-0.293898,-0.400254,-0.061953,-0.405775,-0.249848,-0.425415,-0.425872,-0.145168,0.110143,0.136099,0.410756,0.175757,0.0244823,0.0741546,-0.108604,-0.31852,-0.153331,-0.0219273,0.334243,-0.184333,-0.552529,-0.396467,-0.281488,-0.117225,-0.396401,0.302446,0.109809,0.339549,-0.124543,0.0371203,-0.0390997,0.290845,-0.358646,0.214917,-0.475357,0.315136,-0.24224,-0.389416,0.349417,-0.246228,-0.0693004,0.278225,0.249369,0.490396,-0.0177053,0.0657591,0.238149,0.367679,-0.345235,0.0679928,0.181215,-0.367625,-0.446555,-0.382091,-0.444069,-0.144956,0.477394,-0.428444,0.273186,-0.309004,0.356315,0.0573634,0.228625,0.37147,0.00239543,0.215946,0.290563,-0.0368827,0.192066,-0.3247,-0.258226,-0.0203558,-0.0135389,0.00751602,0.0237158,-0.439195,0.0190404,-0.209926,-0.343464,-0.308881,0.212429,0.390515,0.495328,-0.209343,0.0199512,0.363509,-0.235285,-0.308473,0.122498,0.302927,0.379227,0.250446,0.527101,-0.243917,0.119894,0.174304,-0.248332,0.466276,0.0747777,0.165691,0.134644,0.335048,-0.221216,0.035601,-0.585311,0.25472,0.0918735,0.192907,-0.0148653,-0.48702,-0.282456,-0.139991,0.203143,-0.143491,-0.164695,0.159813,-0.624686,0.364735,0.417332,0.574768,-0.204873,0.307914,-0.13881,-0.260941,0.467411,0.244032,0.132701,0.378921,-0.293839,0.539695,0.0686347,-0.476193,0.00753332,-0.376562,0.122448,-0.538871,-0.109146,-0.498299,-0.242993,0.422083,0.186136,-0.107588,-0.435015,-0.327935,0.322828,0.421294,0.155044,0.356725,0.140379,-0.253842,0.260908,-0.246688,-0.196878,-0.367444,0.252813,0.19135,-0.312151,0.234127,0.235508,-0.089371,0.296426,-0.530454,-0.261383,-0.414131,-0.208614,-0.208953,0.0702805,0.294227,0.244803,-0.0554977,0.189957,-0.476738,-0.470523,-0.0394178,0.0559464,0.246518,-0.0309117,0.092166,-0.216407,-0.392261,-0.136592,0.487413,0.135399,0.410025,0.308379,-0.459021,0.385978,0.350699,-0.275329,-0.00466164,0.344576,-0.389226,-0.450887,0.0731708,0.117874,-0.391175,-0.229521,-0.321879,-0.531729,0.104855,-0.363146,-0.220512,0.509986,0.324627,-0.359586,0.109429,-0.393595,0.0358588,0.00271327,0.273377,-0.00376039,-0.333929,-0.0919228,-0.341714,0.418644,0.318151,-0.0862791,-0.466808,-0.0213552,-0.200437,-0.0972936,0.305706,-0.128836,-0.497291,-0.331007,-0.421318,-0.282984,-0.037288,-0.170702,0.0771716,0.387732,-0.0540816,0.211845,-0.241228,0.177202,0.00391181,-0.382489,0.290474,-0.211011,0.126472,-0.218261,0.212065,-0.114288,0.00559885,0.439887,0.309205,-0.392448,-0.347047,-0.296664,0.392396,0.382727,-0.377094,-0.564247,-0.540815,-0.517289,0.042989,0.158834,0.273332,0.63313,-0.0332498,-0.101618,0.231142,0.177651,0.0724433,-0.445707,-0.0218024,0.222935,-0.607036,-0.513421,0.30444,-0.0792302,0.0934426,-0.239956,-0.124895,-0.484084,-0.00313736,0.246071,-0.0709638,-0.405785,0.431875,-0.0734412,-0.077793,-0.180686,-0.127779,-0.326202,0.461332,0.234532,0.347753,0.494054,-0.216392,-0.245035,-0.147518,-0.0491745,-0.146321,-0.527009,0.325393,-0.363427,-0.260324,0.314094,0.31417,0.0622362,0.0815911,0.169467,-0.30649,0.229682,-0.243997,0.164906,-0.48006,0.00141297,0.239892,-0.406945,0.262733,-0.328698,0.395916,0.590283,0.176717,0.732806,-0.162161,-0.0967001,0.145221,-0.155979,0.208898,-0.457487,-0.148365,-0.211182,0.153318,0.200429,0.354675,-0.467337,0.409178,0.380278,-0.235538,-0.492566,-0.100213,-0.0170648,0.347177,-0.003217,0.423625,0.278198,0.0718017,0.378749,-0.110227,0.670803,0.00383002,0.201153,0.600837,0.573974,-0.332559,-0.305788,-0.44561,0.340474,-0.145667,-0.126402,-0.225873,0.0432987,-0.0255103,-0.408724,0.194522,0.046528,0.156041,0.118521,0.151091,-0.101377,-0.0975705,-0.170582,-0.431749,0.43296,0.284734,-0.377304,0.343969,-0.132275,0.248894,0.453879,0.478585,0.461865,0.0438013,0.381144,0.121981,-0.110912,0.336173,0.476612,0.168538,0.0342699,-0.398814,-0.426783,0.388637,0.317541,0.0716716,0.0827601,0.0550405,0.478717,-0.326154,-0.228836,0.256723,0.487504,-0.0983573,-0.0907411,0.374128,0.134683,0.0276524,-0.37602,-0.43344,0.0974457,-0.0491113,-0.0402486,0.423792,-0.0958914,0.0802101,-0.133423,0.258737,-0.490708,-0.426991,0.185087,0.110763,-0.0757377,-0.208551,-0.492152,-0.206775,0.438699,-0.496107,-0.148631,0.0866044,-0.2119,0.195356,-0.0530378,0.176326,-0.147554,0.379759,0.132348,-0.452465,0.412566,-0.0312574,-0.189008,0.0692195,-0.452959,0.327554,0.443668,0.259042,-0.347652,0.484223,-0.228118,0.0923512,-0.210813,0.430718,0.481966,0.0413574,0.0172742,-0.492333,0.287632,0.0448968,0.257459,0.11284,-0.228757,0.132217,0.204755,-0.13971,-0.117779,-0.104026,-0.0118716,-0.362622,0.329704,-0.208807,-0.326535,-0.0884368,0.336596,0.0227004,0.131464,-0.0133002,0.380093,0.0250271,-0.259611,0.474828,0.345494,0.130876,-0.0425676,-0.405188,0.212845,0.380143,0.305926,0.356018,-0.491134,0.246719,-0.0888847,-0.114636,0.347869,0.226247,-0.289515,-0.142285,-0.213623,-0.311025,-0.166468,-0.19805,0.354624,-0.329572,-0.166458,0.483122,0.0618932,-0.111916,-0.475814,-0.156279,-0.211691,-0.296902,0.171208,-0.0811169,0.398175,-0.120071,-0.116934,0.421117,-0.0106813,0.348787,-0.343881,-0.202694,0.172959,-0.278197,0.287556,0.194069,0.21514,0.454953,-0.374616,0.222888,-0.0370902,-0.205669,0.269985,0.557719,-0.277936,-0.0225497,0.120174,0.463134,0.437128,-0.17872,-0.388618,0.292912,-0.326834,-0.121334,0.223449,0.179969,-0.512863,0.432227,0.0566863,0.197763,-0.28952,-0.0751635,0.135416,0.277496,0.0509555,0.139891,0.464661,0.104588,0.100593,-0.00888358,0.187768,-0.142242,-0.23515,-0.134903,-0.453999,0.316014,-0.0252268,-0.169457,0.108997,0.238398,-0.491801,-0.353152,-0.176771,0.123264,0.209243,-0.0570801,0.420534,-0.342997,0.26376,-0.0396857,-0.00837818,-0.0742945,0.259447,-0.230254,0.00626392,0.337695,0.24339,0.466877,0.0642914,0.173997,0.243243,0.548203,-0.119201,0.533618,-0.395564,0.349197,0.117367,-0.16847,0.152945,-0.092234,-0.35551,0.277322,-0.402543,0.528598,0.023266,0.416599,0.731903,0.346569,0.264953,-0.0405743,0.720188,0.378793,-0.15686,0.519146,0.117861,0.205732,0.591007,0.539786,0.50211,0.014574,0.446691,0.452832,0.153563,0.397713,0.319918,0.130185,0.152166,0.326567,-0.311139,-0.410816,0.558685,0.139831,-0.0490191,0.0508614,0.031416,0.765387,-0.0723993,0.686386,0.367556,0.588033,0.616287,0.61656,0.739667,0.735079,0.113097,0.521859,0.182586,0.60558,-0.021593,0.415291,-0.217742,0.223792,0.385803,0.111488,-0.195488,-0.18786,0.0359805,0.0569407,0.23003,-0.217536,0.374276,0.00791807,0.0986775,0.624983,0.766815,0.354654,-0.140146,0.134094,-0.469037,0.181313,0.0997954,0.495737,0.167592,0.403535,0.156907,0.138832,0.296623,0.0949793,-0.295506,-0.123576,-0.342654,0.481944,0.451481,-0.304121,0.0793481,0.0146529,0.181955,-0.152039,0.606404,-0.0203553,0.38218,0.39753,0.45348,-0.383523,-0.542238,-0.628185,0.13279,-0.568784,0.322469,0.463772,0.337387,0.672986,0.59851,0.620455,0.677081,0.528736,0.0273555,-0.346361,0.48108,-0.0613379,0.0163936,0.0462896,0.0380995,0.275524,0.29326,0.580948,0.392457,0.199867,0.163561,-0.0371901,-0.0994105,-0.149349,-0.222563,-0.502246,-0.18423,-0.674307,-0.22204,0.0379743,-0.25991,0.420699,0.578189,0.204676,-0.15657,0.612235,-0.100908,0.207061,-0.113556,-0.118843,0.223535,0.275432,0.397961,0.00547796,-0.250311,0.53839,0.0897473,0.192944,-0.142675,-0.283935,-0.468766,-0.528723,-0.670573,-0.509451,0.217747,-0.532985,-0.417743,-0.195782,0.0505378,0.388464,-0.169949,0.282634,0.23883,-0.337756,0.335527,0.0364954,-0.455168,0.0918314,0.0288429,0.0221158,0.0928212,-0.215945,0.325255,-0.134275,-0.0738574,-0.287263,0.378355,-0.321973,0.128495,-0.10599,-0.443396,-0.481018,-0.138456,-0.0828734,-0.290177,0.0383596,-0.103859,-0.382576,0.139588,0.00216208,0.668046,0.360473,-0.09801,0.108245,-0.358381,0.335276,-0.38917,-0.274742,0.131971,0.0357005,-0.377231,0.307245,-0.0422496,-0.160362,-0.572153,-0.00881801,-0.02296,-0.416255,-0.0456002,0.120305,-0.522405,-0.474026,0.297021,-0.148532,-0.305583,-0.30883,-0.208659,-0.101786,0.277261,0.24475,-0.145999,0.371038,0.0443931,-0.335544,0.143994,-0.026402,-0.600171,-0.00393822,0.00388842,-0.202689,-0.339433,0.411078,-0.113091,0.313671,-0.460347,0.123899,-0.301612,-0.0567716,0.123398,-0.427618,0.188515,-0.0861673,0.0349007,-0.0961077,-0.40457,0.427387,0.397396,0.394932,-0.393529,-0.252661,-0.341516,-0.434574,0.193362,0.16305,-0.136624,0.223331,0.194346,-0.0412312,-0.00177302,0.00264706,-0.0983922,-0.261819,0.143361,-0.218918,-0.368222,-0.15345,0.205755,0.319273,-0.144557,-0.466664,-0.365052,0.0804215,0.359854,-0.404771,0.143215,0.44046,0.105569,0.289711,0.330249,0.415027,0.018089,-0.0252977,-0.117054,-0.187889,-0.246784,0.545205,0.0676271,0.0371055,0.110362,-0.313547,0.450146,-0.146601,0.2063,0.30182,0.213302,-0.0625168,-0.526943,0.309633,0.242897,-0.0988698,-0.0550233,-0.302468,0.378973,-0.236096,0.240705,0.450937,0.114125,-0.0364576,0.312591,0.338394,0.071113,-0.146869,0.263933,0.394995,-0.0246318,-0.249419,0.0843185,0.197929,0.337603,-0.381997,0.554894,0.0594437,0.366064,-0.43883,-0.1651,-0.412977,0.16666,0.187426,0.301899,0.225514,-0.0483636,-0.0732274,-0.14923,-0.43733,-0.221735,0.313036,0.209145,-0.267149,0.41371,-0.0900306,0.478198,0.0385461,0.401833,0.266736,-0.412748,-0.448741,0.397525,0.47858,0.0782774,0.0601599,-0.307981,0.258798,0.260465,-0.0641282,-0.248587,0.279176,0.139071,-0.146714,-0.257418,-0.4302,-0.295077,0.480146,-0.0748997,0.239796,0.206336,0.0954352,-0.244992,0.0139615,0.526293,-0.302819,0.360777,-0.122526,0.048985,0.149919,0.163389,-0.555752,0.159622,-0.247919,-0.194805,-0.167571,0.413191,0.221571,-0.0442135,0.450759,-0.390495,0.432251,-0.284935,0.110133,0.309431,-0.250967,-0.197466,-0.286616,0.4563,0.242303,-0.073044,-0.268985,0.27252,-0.234781,-0.0579038,-0.254858,-0.328947,0.0837732,-0.0257506,-0.548925,0.267974,-0.274569,0.324382,-0.299031,0.116644,0.039796,-0.0654445,0.258283,0.397774,0.515515,-0.25043,-0.419334,0.00584994,-0.119329,-0.150385,-0.37094,0.58838,0.325465,-0.315137,0.153962,0.4121,-0.302547,0.189108,0.0687366,-0.179136,-0.454172,0.259382,-0.177318,0.127511,-0.283462,-0.423437,0.380898,0.199029,0.13982,0.445137,0.0789896,0.265973,-0.286509,-0.401345,0.489262,0.308587,0.281072,-0.30409,0.134582,0.300204,0.286383,0.432051,0.119965,-0.106601,-0.106615,-0.439691,0.10037,-0.473027,0.165692,-0.0395885,-0.478927,-0.39439,0.2758,-0.503316,-0.254654,-0.16281,0.341343,0.217573,0.47945,0.253387,-0.358891,0.0451891,0.0549049,-0.126174,-0.371555,0.158918,-0.214653,0.325995,-0.103583,-0.185224,0.341308,-0.276007,0.352151,0.0308492,-0.16117,-0.481643,-0.507395,-0.23102,-0.393345,-0.455905,-0.48995,0.432693,0.536711,0.185538,0.0813588,-0.16891,0.19104,-0.233067,0.398378,0.297824,0.0531843,0.133354,-0.0892866,0.185732,-0.247008,-0.218653,0.224478,0.0883516,0.288655,0.212105,0.236254,0.00898582,-0.08777,0.402689,0.2437,-0.520585,0.3182,-0.0976142,0.293106,0.3171,0.579973,-0.267417,0.278817,0.499921,-0.0751441,0.156809,-0.310717,-0.390016,0.155121,0.228878,-0.407809,0.269855,-0.195305,0.362048,-0.218183,-0.0345532,-0.189274,0.0104781,0.135108,0.284434,-0.0779549,0.447298,-0.0083334,-0.294746,0.45395,0.322652,0.258555,0.408563,0.226032,0.306918,0.394499,-0.236285,0.49034,-0.273533,0.0208857,-0.400538,-0.00865475,0.400179,0.2088,0.19793,0.0298651,-0.292057,-0.0745589,0.480134,-0.224333,-0.237069,0.212067,-0.0170124,0.198071,-0.375485,0.269992,-0.218334,0.350491,-0.0410393,0.424408,0.538521,0.32921,-0.270596,-0.391409,-0.061634,0.233666,0.0264633,0.481136,-0.300409,0.381286,0.0729205,-0.498236,0.09311,-0.208314,0.417634,-0.186875,-0.1988,-0.0859473,0.244735,-0.217387,-0.124618,-0.44578,0.150789,-0.429229,0.483364,0.340665,-0.46247,0.195451,0.38535,-0.00164358,-0.485254,0.154233,0.272241,-0.0396098,0.254226,0.113521,0.392979,0.26887,0.0836907,0.390473,0.0559508,0.210752,-0.159339,0.15502,-0.159831,-0.349768,0.0688469,-0.403312,0.117975,0.337247,0.350394,0.197464,-0.246543,0.366913,0.130119,0.418676,0.437061,-0.421359,-0.345222,0.25469,-0.186315,-0.135995,-0.455487,-0.201177,0.112104,0.359409,-0.295549,0.196779,0.290077,-0.192972,-0.326127,0.12415,-0.115028,0.411306,-0.192683,-0.158461,0.342608,-0.28616,-0.0575848,-0.401698,0.265331,0.442749,-0.15537,0.358861,-0.27306,-0.476336,-0.164723,0.457396,-0.232846,-0.315894,0.495648,-0.185591,0.0101787,-0.431736,0.400379,0.21999,-0.15921,-0.361479,-0.0335756,0.310341,-0.303904,0.196174,-0.0757907,-0.0666947,-0.338486,-0.059914,-0.14161,-0.226845,-0.0856697,0.312038,0.216049,-0.407183,-0.28414,-0.355274,0.303879,0.100811,0.303294,-0.123707,0.362093,0.0542299,0.365075,0.0675643,-0.0200372,0.362276,0.125832,-0.451803,-0.373148,-0.235078,-0.236799,-0.550925,0.246581,0.426713,-0.42167,-0.38533,0.363991,0.225646,-0.111167,-0.335523,-0.428811,0.141043,0.0445913,-0.135196,-0.481561,0.0680396,0.184004,0.439713,-0.540181,0.0745344,0.384313,0.0197799,0.202984,0.0368835,-0.330617,0.283046,0.137561,-0.238029,-0.382729,-0.168213,-0.063721,-0.0233135,0.124817,-0.303557,0.315452,0.290659,-0.352252,-0.29427,-0.255283,-0.393949,-0.446502,-0.264788,-0.0901971,0.0236764,0.133535,-0.0421623,0.0507734,-0.0152735,-0.295477,-0.216357,0.0582131,-0.375061,-0.416787,0.219102,-0.0523694,-0.262612,-0.239344,-0.182591,-0.142111,-0.609207,-0.487228,0.294865,0.0317133,0.123979,0.508056,0.0103169,-0.258224,0.345698,-0.149371,-0.517702,0.219243,0.385232,0.431328,-0.197928,0.0786603,0.154788,-0.0543366,-0.0276952,0.117032,0.11234,-0.0844795,-0.498225,-0.0767603,-0.433529,-0.585833,-0.428604,-0.546815,-0.13797,-0.464723,-0.0790448,0.526908,0.423793,-0.215532,0.126249,0.170317,0.0202261,-0.0774933,0.148272,0.212977,0.0291817,0.276733,0.0458064,-0.00193374,-0.071755,0.518215,-0.0932312,-0.133352,0.0612485,0.230098,-0.13431,-0.349409,0.0283317,-0.565628,-0.283783,-0.0538159,0.219994,0.0113393,0.0193455,0.11199,-0.208819,0.056154,-0.26644,-0.352767,-0.60388,-0.416889,-0.215928,0.316585,0.484063,-0.117398,0.239398,-0.280841,-0.00273513,0.0647009,0.143684,0.0501261,-0.387697,0.0768018,-0.427231,0.124626,-0.228659,0.209091,-0.665641,-0.15835,-0.497327,0.0889315,0.360917,-0.0890487,0.291433,0.276953,-0.235185,0.10436,-0.471536,-0.0702369,-0.3449,0.470241,-0.128479,0.216844,0.166274,0.493712,0.407863,0.337033,-0.352524,0.270689,-0.0343249,-0.310712,0.452799,-0.302519,0.231117,-0.37819,0.143974,-0.0955359,0.124786,0.233814,0.430334,-0.243436,0.0217764,0.129079,-0.0852652,-0.0713674,-0.0811332,-0.278288,-0.529085,0.377513,0.585136,-0.163351,0.181127,0.582418,0.190777,0.331821,-0.47224,-0.257941,-0.10044,0.0250211,0.0574045,-0.0646257,-0.137619,-0.525707,0.0524714,-0.441925,-0.253418,0.0530388,0.300766,0.396087,-0.195607,-0.325092,-0.309595,0.343923,-0.317065,-0.594993,-0.0339834,-0.0881189,-0.109319,0.311676,0.548665,0.0939977,0.455103,-0.173874,0.108122,0.330662,-0.332808,-0.171144,-0.374249,-0.0136258,-0.622313,0.252785,-0.26184,-0.226789,-0.145471,-0.150012,0.570428,0.108356,-0.286541,0.344489,-0.10995,-0.212128,-0.289392,-0.253534,-0.321784,0.0616261,0.0035591,0.0151424,0.527982,-0.28942,0.610058,0.217279,-0.02427,0.430856,0.285672,-0.181193,0.409185,-0.354039,-0.244885,0.131198,-0.265917,-0.544772,0.346013,0.159837,0.18093,0.431342,0.121575,-0.208113,-0.238207,-0.220927,0.131626,0.318202,-0.426275,0.326881,-0.20223,0.335746,-0.124598,0.242552,0.26906,0.466151,-0.259616,-0.133445,0.0416117,0.48861,-0.478249,-0.435087,-0.231404,0.0927061,-0.517326,-0.524488,0.214441,0.517364,0.126492,0.0597655,0.291209,-0.255356,-0.416106,-0.226565,0.340226,-0.366462,0.0965182,0.142838,-0.264887,-0.0930927,-0.337275,0.036212,0.378029,0.0112369,-0.00567645,-0.186213,0.197795,-0.459871,-0.0978915,-0.101156,-0.381387,-0.258018,-0.134634,-0.289932,0.0742532,-0.07559,-0.00288744,0.47951,-0.0519194,-0.429411,0.0769809,-0.245769,0.136934,-0.215667,-0.000169986,-0.0912811,0.136362,-0.288117,0.175678,0.118906,0.48223,0.657333,-0.395129,-0.249198,0.255259,0.348158,0.11225,-0.351361,-0.505605,-0.221625,-0.238282,-0.0970003,-0.516137,-0.323132,0.0293476,-0.012404,-0.0760645,0.323408,0.249042,0.111508,0.129758,-0.0881315,0.321844,0.623865,-0.0863826,0.224397,-0.0313898,0.291087,0.301007,0.362746,0.2175,0.375964,-0.0432158,-0.364202,0.0962944,-0.264897,-0.580835,-0.345614,-0.446604,-0.184551,-0.619106,-0.1981,-0.376621,0.499129,0.11009,0.297009,-0.0458488,0.449579,0.188577,0.243216,0.446032,0.15552,0.222373,-0.245474,-0.0826959,0.287038,-0.326191,-0.0373,0.375102,0.0959141,-0.384877,0.183035,0.287227,0.0630362,-0.750382,-0.164694,-0.345853,-0.49923,0.183206,0.218242,-0.443726,0.231276,0.343055,0.0528229,0.401357,0.549771,0.302713,0.145281,0.0241345,0.419182,-0.307168,0.372596,0.210727,-0.202965,-0.574097,-0.0244911,0.0282034,-0.310586,0.289684,0.257431,0.282795,0.0810239,-0.288313,0.214074,0.101824,-0.528007,0.153571,-0.19076,-0.489488,0.0344478,0.0678674,-0.185178,-0.200788,0.493549,-0.25916,0.557257,0.518938,-0.242472,0.454173,0.0161035,-0.464769,0.339007,-0.0862741,0.114714,-0.580165,-0.0121043,0.497414,-0.264617,-0.38891,-0.653341,-0.077139,-0.133807,-0.447481,-0.205925,-0.308467,0.412879,-0.50088,0.14283,0.184633,0.256025,0.132598,0.277127,-0.403162,0.425363,-0.133618,-0.447849,-0.0236553,0.00617628,-0.410078,-0.502899,-0.471214,0.00244491,-0.00191818,0.404894,0.075671,-0.16224,0.385744,-0.207063,-0.567554,-0.528311,0.290048,-0.198375,-0.151076,0.0232996,0.349731,-0.579422,0.0953925,0.0667015,0.21771,-0.146948,-0.00172625,0.292102,-0.447633,0.106214,-0.10035,-0.415721,-0.250542,0.0258347,0.152768,-0.397871,-0.368671,0.192209,0.421222,0.206912,0.158182,-0.181039,-0.249494,0.275911,-0.298571,-0.0714171,-0.376524,-0.423186,0.424824,-0.232443,-0.409024,-0.473408,-0.172208,0.251905,-0.466755,0.14949,-0.25542,0.361648,-0.222842,0.16825,-0.6233,0.223212,-0.58716,-0.687767,-0.497013,-0.1027,0.166607,-0.36529,0.426051,0.193966,-0.140201,0.218324,-0.114713,-0.125692,0.307724,-0.192195,0.496427,-0.0837538,0.0119283,-0.54969,-0.0925498,0.371831,-0.230078,-0.112905,-0.349762,-0.192668,0.0104339,-0.145101,0.121535,-0.310819,-0.520038,-0.718242,0.204698,0.320852,0.398096,-0.415164,-0.0792944,0.215071,0.229847,0.284664,-0.379413,0.21007,-0.173744,0.0245624,-0.249974,-0.134771,-0.0472342,0.290637,-0.0456246,0.295889,-0.124876,0.69335,0.14185,0.324521,0.228237,-0.0628919,0.22474,0.0578795,-0.494849,-0.154277,-0.582814,0.0230684,0.463603,0.216829,0.157821,0.213031,-0.290737,-0.524727,-0.414648,-0.313398,-0.0474917,-0.228403,0.355305,-0.4526,0.25408,0.181074,0.132584,-0.435308,0.156022,0.52659,0.441595,-0.0220472,-0.320429,0.483267,0.0476376,-0.318212,-0.425575,-0.36661,-0.181147,0.119339,-0.219887,0.258719,-0.452465,-0.209264,-0.0873798,-0.471624,-0.00682872,0.0269754,-0.432519,-0.0355536,-0.0311268,-0.506263,0.220463,0.0446471,0.177335,0.0426125,0.395293,0.577473,0.558543,-0.100146,0.567859,-0.335685,-0.314012,-0.449192,-0.24569,-0.223038,-0.166587,0.333183,-0.236744,-0.0770431,0.38166,0.177383,-0.164388,0.249189,-0.355347,-0.227928,-0.0293092,-0.282762,-0.0666028,-0.335303,0.359045,-0.53764,-0.22182,-0.104842,-0.0350322,0.107804,0.400138,-0.200434,0.032503,-0.0814465,0.126496,0.0489443,-0.0819053,-0.176395,0.149757,0.304902,-0.0953204,-0.258479,-0.163537,-0.225194,0.116818,-0.121237,0.407085,-0.174998,-0.228638,-0.214904,0.389554,-0.487484,0.372286,0.29482,-0.291865,-0.405894,-0.443133,-0.0966236,0.117812,0.130239,-0.431146,0.0647822,-0.0253024,0.0999096,-0.160858,0.231517,-0.142738,-0.41508,-0.397831,-0.221325,0.223276,0.492358,-0.277729,-0.394487,-0.498605,0.374142,0.030797,0.334735,0.272198,0.177363,-0.215832,-0.224435,-0.224471,-0.460046,-0.49195,-0.129496,-0.189981,-0.0722013,-0.115078,0.055013,-0.0618839,0.424021,-0.0362825,0.0054329,0.397971,-0.0921432,-0.355799,0.404742,0.306184,0.452034,-0.0165185,0.25961,-0.0818005,-0.228289,0.343955,-0.274331,0.276693,0.165916,0.189281,0.171838,-0.17158,0.201006,-0.265028,-0.0825785,-0.40138,0.209276,0.139595,-0.253431,-0.300323,-0.099341,0.214794,0.0147791,-0.061804,0.4431,0.0338604,-0.212976,-0.233297,-0.330609,0.115155,0.207375,-0.0198886,0.31186,0.492491,-0.257578,-0.297402,0.440612,-0.232596,0.333747,-0.481432,-0.224515,-0.45356,-0.164363,-0.146024,0.0461537,0.3025,-0.460928,0.332633,0.246335,-0.203904,-0.0434468,0.200897,0.236725,-0.474469,0.0269322,-0.0938903,-0.189846,-0.0324423,-0.355051,-0.144421,0.175282,0.288018,0.401475,0.435889,0.261165,0.462104,-0.357931,0.21877,0.52886,0.151239,0.208648,-0.176191,0.0904576,-0.12076,0.0298617,-0.382275,0.495532,0.278417,0.203535,0.389653,0.144481,-0.461571,0.169057,-0.209924,0.0802008,0.472539,-0.290548,0.00126068,-0.159957,-0.186465,0.126612,-0.0386697,0.340909,0.398084,-0.477233,0.0980463,-0.0444106,0.388875,0.242289,-0.303678,-0.420247,0.284084,0.496661,0.08105,-0.428452,0.14602,0.0214065,-0.338606,0.125073,-0.0241967,-0.206526,-0.162779,-0.413398,-0.30666,-0.230358,-0.325934,-0.463673,-0.366658,0.0318564,0.295846,-0.312807,0.036978,0.143239,-0.129551,0.0187864,0.000691409,-0.24753,-0.356884,0.223166,0.292978,0.0101631,0.164668,-0.401829,-0.644944,0.0310799,-0.336005,-0.159434,0.194217,-0.471544,-0.257741,0.312244,0.0483503,-0.256318,-0.400021,0.306393,0.434632,0.50459,0.093425,-0.0404747,-0.372944,-0.557999,0.298825,0.39491,-0.272822,-0.0695218,-0.310098,-0.352194,0.161748,-0.0284398,0.0234707,0.490554,-0.0841888,-0.169654,0.0840249,-0.258377,-0.359988,-0.182442,0.437179,-0.175366,0.0327008,-0.0358442,-0.0971687,-0.122274,-0.12673,-0.135855,0.183336,-0.372848,0.053866,0.0337035,-0.592153,0.00878458,0.326102,-0.119062,0.51822,-0.247561,0.290733,-0.125764,-0.143648,-0.245697,-0.0785622,-0.008908,0.104034,0.0823115,-0.164187,-0.0175044,0.453085,0.358776,0.210199,-0.258856,0.396108,-0.426826,-0.134344,-0.173972,0.175942,-0.327299,-0.339674,-0.66911,-0.271973,-0.0700034,0.0481989,0.330537,-0.219944,-0.17411,0.00158925,0.4397,0.488152,0.316026,0.43206,0.563589,0.142745,0.211512,0.282166,-0.217009,-0.306259,-0.408273,-0.417381,0.097954,-0.545932,-0.156181,-0.36439,0.16915,-0.368333,-0.402759,-0.608083,-0.637392,-0.454561,-0.562965,0.113185,-0.109763,0.70448,-0.0384656,-0.0424405,-0.15919,-0.302303,-0.181363,0.158316,-0.377057,-0.166204,-0.13514,0.291341,-0.133824,-0.152927,-0.54738,-0.0277284,-0.641659,0.262272,-0.0916732,0.227598,0.0628254,0.326127,-0.245644,-0.251068,-0.335818,0.136079,-0.199515,-0.087759,0.207801,0.119391,0.43917,0.26483,0.231891,-0.285389,0.234054,-0.168171,0.377783,0.209878,0.400535,-0.421866,0.174809,0.108063,-0.173783,0.112127,-0.42913,-0.414861,-0.0698584,-0.539342,-0.552829,-0.137856,-0.0050237,-0.674407,-0.591134,-0.588565,0.39065,-0.359121,0.470161,0.128821,0.128027,-0.140886,0.592785,0.18993,0.0058238,0.508444,0.174844,-0.211028,0.0166446,0.0197033,0.357531,0.475671,0.158319,-0.459924,-0.146756,-0.0197482,-0.394278,-0.00474619,0.369514,-0.40158,0.162079,-0.750915,-0.12088,0.0665859,0.145638,-0.136496,0.00114301,0.466684,0.440063,0.121021,0.482264,0.0919362,0.513267,0.199318,0.327029,0.492519,0.502891,0.270439,-0.0251547,-0.0975234,0.183944,-0.0445469,0.362007,-0.0414873,0.0409664,0.172105,0.227843,0.425777,-0.576295,-0.224582,0.00452977,-0.655434,-0.680294,-0.523807,-0.226086,0.234121,0.415878,0.397766,0.561504,-0.184893,0.691289,0.438162,0.393412,-0.318757,-0.241548,0.398715,-0.174667,0.236715,0.196049,0.553761,0.107282,-0.0958349,-0.118101,0.0175259,-0.0897433,0.313411,-0.0591085,-0.717817,-0.275164,-0.0585046,-0.222608,0.0112985,-0.727973,-0.275415,0.504104,0.424083,0.0153605,0.256179,0.514381,-0.0984638,0.318849,0.429767,0.0417646,0.0491135,0.325909,-0.485496,-0.029323,0.487595,0.405743,0.152722,0.323551,-0.0731585,-0.31415,-0.120242,-0.607868,-0.428678,-0.623978,-0.16894,0.195928,0.0685611,-0.340694,-0.302875,-0.248153,0.50228,0.347393,0.510501,-0.184845,0.259106,0.498266,-0.280831,0.151351,-0.241953,-0.46854,-0.414903,0.396106,-0.19757,-0.0453553,-0.266228,-0.012566,0.521138,0.423705,-0.409683,-0.314131,-0.0280037,-0.737682,-0.641268,-0.402001,-0.537894,-0.326527,0.318857,0.557494,-0.0053858,0.487111,-0.414651,0.283494,0.0757516,0.455479,0.287278,0.446254,-0.0548828,-0.449427,-0.00634628,0.130907,-0.317767,0.571712,-0.103243,0.060724,0.358746,0.0775543,0.219083,-0.17088,-0.320367,-0.245509,0.0227103,-0.0924536,0.451871,0.0954111,0.512098,0.27465,0.120146,0.41658,-0.403291,0.219153,-0.44349,-0.0579462,0.228293,-0.209175,-0.476457,-0.121935,0.204549,-0.154931,0.427768,-0.148229,0.237029,0.0562136,0.30176,0.33791,-0.520483,-0.0940073,-0.506169,-0.526824,0.372376,-0.28042,0.112117,0.6275,0.609568,0.226568,0.25596,0.321927,0.279215,0.292765,-0.332229,0.332661,0.486313,0.04918,0.132231,-0.491597,0.41656,-0.166559,0.407602,-0.457659,-0.430934,-0.0185155,-0.203854,0.353911,0.0619903,-0.0936383,0.0385331,0.168393,-0.431061,0.333804,-0.146524,0.0100109,0.208947,0.0953559,-0.13285,-0.358567,0.204814,0.188448,0.157406,-0.126026,0.333721,0.260161,0.104565,0.353093,-0.43953,-0.313209,0.449912,-0.361616,0.383879,0.0623117,0.0343597,0.512153,-0.38339,-0.489158,-0.347874,0.323719,0.295225,0.465463,0.560072,0.462031,0.595646,0.139298,0.112823,-0.41761,0.0583629,0.0771519,0.0448276,-0.0991018,0.22674,-0.185159,-0.0264252,0.218355,-0.258429,-0.319826,0.339598,-0.394364,-0.480482,0.0404329,0.0837841,-0.22822,-0.194424,-0.430305,0.3892,0.399405,-0.0139996,-0.111059,0.605796,0.510165,0.274672,0.127553,0.320397,0.549401,-0.308391,-0.0396935,-0.0349428,-0.33484,-0.0384832,-0.217914,0.195154,0.285224,-0.438735,-0.49272,0.301073,0.0316367,-0.156078,0.14044,-0.318987,0.369673,0.269355,0.237625,-0.267706,0.168805,0.624235,0.285941,-0.230165,0.0780684,-0.288338,-0.0599154,0.503198,-0.259734,0.485667,0.450387,0.492656,-0.0439789,0.291783,0.151792,0.0941307,-0.121206,0.352884,-0.225181,-0.264435,0.363825,-0.0123895,0.146119,0.28106,-0.440455,0.256648,0.512008,0.0840298,0.235867,0.0987547,0.173094,0.0844479,-0.104015,0.280964,0.534983,-0.0495543,-0.261839,-0.286143,-0.323076,-0.496184,-0.0636031,0.252183,-0.156712,-0.36774,-0.416942,0.0433336,-0.192503,-0.149111,-0.524396,0.302173,0.255752,0.183387,0.224851,0.255863,0.0444764,0.325519,0.105109,0.638056,0.341335,0.477805,-0.447416,0.233407,-0.491943,0.152992,-0.000552017,-0.480581,-0.249039,0.197868,0.334745,0.00190434,0.417698,0.465297,-0.127476,0.35924,0.286672,0.21528,0.138924,0.434372,0.0900794,0.225089,0.18706,0.0666365,-0.0152925,0.467085,0.571481,0.355061,0.324806,-0.536522,0.209503,0.342259,-0.560886,-0.314598,-0.485456,0.411212,0.279583,-0.149782,0.199042,-0.418183,-0.347305,0.325896,-0.339917,0.481522,0.477877,-0.13556,-0.243009,0.18103,0.352388,-0.232537,0.118625,0.0591441,0.45949,-0.0857213,0.424813,-0.254411,0.340347,-0.357771,-0.54291,-0.101873,0.19863,-0.0122061,-0.365784,-0.279504,0.00425575,0.440649,-0.250061,-0.213125,0.144992,0.237962,0.434369,0.316707,-0.361233,0.220294,-0.42631,-0.176309,0.330202,0.272023,-0.288312,0.313654,-0.204714,-0.1893,0.20975,0.13192,-0.107004,0.220243,-0.16015,0.00146025,0.13843,-0.0226465,-0.350951,0.24142,0.100565,-0.347709,0.0927428,0.156803,-0.291323,0.389223,0.348891,-0.397139,-0.376643,0.18513,-0.433113,-0.397779,0.402526,0.428435,0.140601,0.450305,0.313975,0.201009,0.473236,-0.240834,-0.0428981,0.298562,-0.382751,0.495475,-0.327188,0.131864,-0.224621,-0.346482,0.0214828,-0.130198,-0.226232,0.199526,0.211144,-0.392474,0.293689,0.243122,-0.44941,-0.285804,0.342629,-0.0856043,0.356327,0.0694898,0.398421,-0.0963747,0.357713,0.481363,0.293603,-0.145004,-0.158235,-0.235588,-0.372778,-0.100356,0.17506,-0.0898143,-0.200528,0.0272963,0.237105,-0.248377,-0.0780456,0.197713,-0.484643,0.0898203,-0.150075,-0.234375,0.362227,-0.0928328,0.492605,-0.378524,-0.480494,-0.256957,0.0985148,0.254997,-0.444571,-0.347631,0.392063,0.411834,-0.229726,0.187712,-0.0467904,-0.477251,0.458817,-0.431498,-0.189693,-0.0143615,0.281631,-0.132644,-0.135464,-0.335596,0.00417988,-0.40202,0.249112,-0.229269,0.230408,0.308939,0.186055,-0.0586693,-0.473681,-0.401564,-0.166713,0.0633231,-0.460257,-0.335899,-0.303502,0.431484,0.374779,-0.238614,-0.0645796,-0.302824,-0.113182,-0.124852,-0.138592,-0.411774,0.292599,0.453643,-0.15508,-0.07862,0.153332,0.416291,0.494961,-0.00432233,0.015183,-0.0735637,0.413016,-0.356812,-0.503778,-0.267039,-0.450338,-0.451782,-0.372715,-0.207617,-0.144909,0.58751,0.0959235,0.0882573,-0.315644,-0.0203407,-0.328933,0.197248,0.013134,-0.208182,-0.383972,-0.169645,0.0743591,-0.189719,-0.0723231,0.407434,0.177336,0.202674,-0.289447,-0.213688,0.443747,0.313214,-0.351976,0.0967429,0.29066,0.264139,0.444775,-0.142671,0.608845,0.0763117,0.199602,-0.000988978,0.603217,0.0651488,0.302519,-0.224894,0.120674,-0.165049,0.239136,-0.129071,-0.137464,0.0507122,-0.451817,-0.311829,0.261822,0.340205,-0.447971,0.304948,-0.524405,0.0340473,-0.506858,-0.197703,-0.453527,-0.22389,0.0866026,-0.0428493,-0.108999,0.113263,0.462648,-0.190778,0.0779486,0.249766,0.428113,0.38616,-0.283166,0.390219,-0.144916,-0.290993,0.307844,0.152835,-0.166467,-0.20435,-0.13152,0.417612,-0.136189,0.363323,-0.0916048,-0.0182732,-0.0717756,-0.266365,0.160269,0.428553,0.0590302,0.225605,0.268902,0.298396,-0.433439,-0.329495,0.156841,-0.324939,-0.284931,-0.219875,0.159866,-0.491876,-0.488654,-0.369623,0.143769,-0.364171,0.310903,-0.066769,0.409596,-0.276354,-0.36563,0.468048,0.422427,-0.273397,-0.455471,-0.0582786,-0.327496,0.476714,0.176324,0.16815,0.212563,0.386088,0.214444,-0.241144,0.0418466,-0.0651874,-0.146446,-0.115622,-0.0395577,-0.0504945,-0.156867,0.199866,-0.179381,-0.560651,0.182951,0.455064,-0.135274,-0.0936233,0.288079,0.138056,-0.396686,-0.34639,-0.3019,0.256496,0.0735979,0.241133,0.542228,0.397708,-0.150579,0.473801,0.0755737,0.0630813,-0.367813,-0.174506,-0.0754315,-0.048745,0.0660771,0.142577,-0.52521,-0.293353,-0.298997,0.15877,0.225261,0.369351,0.21971,0.0431929,-0.0189079,-0.151436,0.373226,0.0907638,0.312807,0.384834,0.0996138,0.244957,0.250065,0.496716,0.306648,-0.195286,0.264159,0.030893,-0.526809,0.138081,-0.364838,0.16031,-0.484936,-0.121451,-0.029565,-0.452851,-0.410946,-0.197253,-0.0684852,-0.495769,-0.132373,0.464606,0.116274,0.043368,-0.362555,0.320925,-0.287566,0.123569,0.466507,0.292521,-0.0108378,0.539609,0.241729,0.105179,0.573594,-0.448006,0.183078,-0.430756,0.056224,-0.514648,-0.500448,-0.509673,-0.237705,-0.140617,-0.064879,-0.401204,0.26688,-0.258565,0.146295,0.443924,0.341896,0.27831,0.137029,0.187467,0.109727,-0.287587,-0.136036,0.949626,0.0675677,0.21522,0.420489,0.0905237,-0.226921,-0.297713,-0.119761,-0.302306,0.178676,-0.0609012,0.254406,-0.576539,0.168467,-0.434916,-0.126612,-0.00486151,0.185122,0.165231,0.0869681,-0.0188101,0.342349,0.370855,0.0396891,0.180423,0.166026,-0.0473714,0.568903,0.578147,-0.0460352,-0.210976,0.0628502,-0.00308876,-0.0480052,-0.200687,0.245971,-0.542994,-0.292378,-0.45491,-0.0677578,0.292657,-0.294623,-0.363948,-0.148081,0.199435,0.0100631,0.224146,-0.10997,-0.205474,-0.379326,0.315286,-0.390847,-0.134281,0.389291,-0.0740301,0.519632,0.737506,0.413591,0.21719,-0.228886,0.183363,-0.101387,-0.322829,-0.467079,-0.636358,-0.319013,-0.538241,-0.18244,-0.498547,-0.341349,0.173917,-0.0582867,-0.1648,0.473195,-0.282907,-0.391431,0.388775,-0.0377244,-0.318308,0.485952,-0.144851,0.429044,0.541465,-0.0279212,0.282858,-0.341761,-0.220102,-0.449652,-0.566724,-0.0372255,-0.206634,-0.0420526,-0.651545,0.00116166,-0.400682,-0.201729,0.00872179,-0.285431,-0.230793,-0.0593921,-0.52828,0.304519,-0.333801,0.0437039,0.346508,0.0654008,0.196238,0.490103,0.338326,0.595834,0.4639,0.23522,-0.0709823,0.291649,0.0300506,-0.122047,0.308153,-0.393462,0.00650116,-0.897038,-0.132828,-0.582394,-0.502688,0.0295158,-0.36978,0.457076,0.0744712,0.162492,0.0568199,-0.381808,-0.00993911,0.382997,-0.267583,-0.0751321,0.456191,0.408799,-0.0326289,0.245597,0.471054,0.49369,-0.203883,0.125598,-0.142319,0.116927,0.528209,0.328244,-0.208353,0.0588617,-0.743801,-0.531646,0.116782,0.247132,-0.681619,-0.424922,0.275648,-0.504339,0.291908,-0.255091,0.290679,0.268382,0.0711919,0.229314,0.0151846,0.00558421,0.611752,0.327223,0.439139,-0.187353,0.26286,0.316442,0.299365,0.0994758,0.625843,-0.0895126,0.321317,-0.274237,-0.641419,0.00681418,-0.416561,0.141799,0.0324973,-0.256861,-0.190926,-0.0520001,-0.0908103,-0.40202,-0.0828057,-0.356443,-0.350283,0.662793,0.508581,0.507517,0.566137,0.134622,0.0512565,-0.0612474,-0.133837,-0.240808,0.457909,0.108943,0.439526,0.452889,-0.0380172,-0.547241,-0.244372,-0.340124,0.0441259,-0.0858842,0.0338038,-0.339403,-0.280966,0.10997,-0.0968753,0.0594288,-0.438018,0.279412,-0.433769,0.0330251,0.177027,0.591793,-0.188162,-0.0294869,-0.20401,-0.223818,-0.231796,0.336737,-0.0859842,0.460994,-0.254939,0.609043,0.20836,-0.376643,0.0926859,-0.174152,-0.463154,-0.165714,-0.361055,-0.156085,-0.0102875,0.16107,-0.244309,-0.149756,-0.436559,0.139574,0.448764,-0.116694,0.287188,-0.0153803,0.349169,0.516546,0.0187784,-0.247266,-0.502494,-0.505497,-0.548697,0.372505,0.270179,0.512101,0.555274,-0.358204,-0.286893,0.310725,-0.106546,-0.573576,0.202452,-0.262822,0.294378,-0.1828,-0.0208905,-0.0180385,0.00584118,0.167503,0.048933,0.426225,0.34807,0.270829,0.039646,0.00361871,0.201675,-0.537369,-0.0997667,-0.409684,-0.176176,0.0601661,0.326669,-0.0897021,0.100683,-0.0779231,0.127993,0.299168,-0.386577,0.409536,0.121046,0.00291826,-0.482527,0.219811,0.0148995,-0.340136,-0.386991,0.0657657,-0.266056,-0.283779,0.15747,0.163545,-0.152848,-0.278886,-0.472431,-0.455461,-0.476953,0.11876,0.0345034,0.257043,0.360928,0.446819,-0.0304709,0.512155,0.396836,0.342389,-0.412123,0.469508,0.535223,0.264102,-0.348006,0.0116659,0.344497,-0.354971,0.44452,-0.298906,-0.48806,-0.189139,-0.31435,-0.256048,0.0384087,0.135209,-0.112079,-0.33665,-0.542699,-0.360171,-0.326719,-0.419813,0.00931933,0.181619,-0.0655935,-0.0139778,0.309218,-0.152735,0.238158,0.199694,-0.116989,0.247453,-0.277323,0.33454,0.202307,0.138945,-0.47002,0.0901817,-0.362538,-0.385283,0.188596,0.170944,0.27486,0.211919,-0.583549,-0.128216,-0.462078,0.157257,-0.267678,-0.0899199,0.28244,-0.042451,-0.192489,-0.0446338,0.380811,0.496473,0.0442292,0.10554,0.0267819,-0.344006,0.125347,-0.307382,0.0991115,-0.441442,0.446903,-0.412613,-0.236213,0.0929524,-0.0778424,0.342558,-0.516365,-0.0409751,-0.428258,-0.249129,-0.165187,-0.47589,0.361729,0.35621,-0.0673953,-0.143855,0.27855,0.517115,0.336857,0.482942,-0.044551,0.203487,-0.17982,-0.413203,-0.439418,-0.443463,-0.140276,0.088155,-0.492026,0.0542588,-0.442813,0.230646,0.391139,-0.424387,-0.40947,-0.474583,0.229701,0.166699,0.0600317,-0.135975,0.248049,-0.203304,-0.135664,-0.451582,0.0389166,-0.394981,0.162556,-0.12415,0.174242,0.0298944,0.331377,-0.361902,0.0581575,-0.215156,0.247117,0.0743863,0.280506,-0.407712,0.369395,-0.159228,0.313906,0.0782293,0.0155216,-0.443374,-0.087096,0.426764,0.324591,0.34718,-0.482598,-0.258015,-0.130648,0.0755533,0.380692,-0.378193,-0.266783,-0.223598,0.289888,-0.169431,0.329968,0.276817,0.399814,-0.480379,-0.261814,-0.0968424,-0.34764,0.28744,0.201946,0.345127,0.0849982,-0.0577391,-0.495227,0.420047,0.252744,-0.168723,-0.358108,0.0485709,-0.298114,-0.0304154,-0.489338,-0.0912159,-0.14455,-0.00554766,0.342956,-0.333677,0.241043,-0.0783216,-0.32228,0.111705,0.338818,-0.462541,0.145513,0.29799,0.46036,-0.0817536,-0.354004,0.486457,-0.340429,0.189141,-0.35847,0.2163,-0.444039,0.240067,0.382226,-0.352246,-0.312557,-0.0865178,0.429541,0.173351,0.125989,-0.124163,0.444401,0.388689,0.402217,0.116899,-0.053713,0.0253523,-0.133006,0.0231779,-0.463945,0.286752,0.419051,0.446887,0.426482,-0.314894,0.107459,-0.48192,0.161218,0.202509,0.483176,-0.302441,-0.208639,-0.348063,0.170241,0.294822,-0.146235,0.595713,-0.339101,-0.184603,-0.390709,0.262873,0.490782,-0.113417,-0.0703971,0.364858,-0.0815354,-0.115859,0.107708,0.400506,0.0558781,-0.0227062,-0.10134,0.0500794,0.388787,0.30476,-0.102643,-0.0211178,0.0586748,0.360074,-0.0921014,-0.111664,-0.081597,0.61694,-0.159165,0.479948,-0.101199,0.287272,-0.480146,0.0159696,0.374264,-0.0624874,0.340618,-0.13117,0.326386,0.33133,-0.31774,0.153898,-0.363709,-0.489174,-0.330237,0.0353237,0.390802,-0.132203,-0.379317,-0.49119,0.267116,0.302476,-0.134728,0.118056,0.464095,0.392313,-0.393232,0.194496,-0.0163395,0.103797,0.301601,0.0225222,-0.355747,0.148586,0.406594,-0.0529993,0.0273291,0.100632,0.494699,-0.223251,0.184245,-0.00437282,-0.496523,-0.150131,0.311635,0.00660686,-0.364824,-0.454817,0.152949,0.236071,-0.478905,0.100836,-0.431594,0.122269,-0.466204,0.0804613,-0.219977,0.109243,0.40268,-0.201524,0.196036,0.327256,0.169932,0.180307,0.454979,0.353967,-0.379088,-0.367,0.394019,-0.435499,-0.427104,0.0482624,-0.517799,-0.472603,-0.457907,-0.170391,0.26226,0.140371,0.43261,0.307029,-0.0688383,0.371615,0.127874,0.428533,0.432871,0.0814742,-0.0790999,-0.41032,-0.390384,-0.175794,0.281585,0.0532814,-0.235715,0.229893,0.173164,0.117819,-0.150693,-0.285122,0.0602248,-0.0582674,0.16471,-0.43866,-0.366979,-0.162554,-0.232665,0.193979,-0.343595,-0.564321,-0.294428,-0.28091,0.0512957,0.361818,-0.316179,-0.192196,-0.409366,0.320761,-0.0674548,0.522925,-0.0394037,-0.287114,0.363289,-0.0910036,0.388576,0.209934,0.22729,-0.142454,-0.25794,0.0108466,-0.0298229,-0.011667,0.327367,0.231536,0.227407,-0.125464,-0.693145,-0.220203,0.443604,0.183712,0.700078,0.361291,-0.3537,-0.365815,0.0302718,-0.181592,-0.266819,-0.194738,0.40545,0.127567,0.432098,-0.110296,0.389465,0.464556,0.122317,0.251318,0.0424254,0.194366,-0.233902,-0.0245073,-0.377254,-0.00738894,-0.0664598,0.0545325,-0.646663,-0.121816,-0.00277528,0.577966,0.759582,0.258449,-0.467151,0.39348,-0.335782,-0.147469,0.475786,-0.492152,-0.0873332,0.112043,-0.555791,-0.227195,0.478359,-0.0439465,0.409226,0.1437,-0.235979,0.445532,-0.195719,-0.464139,0.177419,-0.191114,-0.538974,-0.175682,-0.292068,-0.142591,0.149789,0.578746,-0.209488,0.299505,0.0813989,0.164465,-0.536741,0.308734,0.451481,-0.261768,-0.234621,-0.0551543,-0.299753,-0.116667,-0.245337,0.175815,-0.267787,0.0190883,0.216407,0.339334,0.172359,0.0577716,0.286566,-0.127749,-0.26726,-0.358788,0.0360809,-0.120944,0.463372,-0.101261,0.0831425,-0.413584,-0.0683985,0.1918,0.216337,0.398636,-0.308679,0.451158,-0.284355,0.151857,0.232787,0.17432,0.222344,-0.163681,0.368768,-0.222045,0.369968,0.262118,0.0858637,-0.0335797,0.0453344,-0.601753,-0.43065,-0.372138,0.150567,0.00698136,0.181474,0.419666,0.631716,0.13214,0.184899,0.153234,-0.0574151,-0.401977,0.322336,0.476542,0.495764,-0.41807,-0.286691,0.59221,0.549361,0.0965877,-0.406559,-0.413061,0.337141,-0.225026,-0.39804,-0.189408,-0.567862,0.245729,-0.549443,-0.622711,-0.470733,0.18104,0.447995,0.555034,0.321782,-0.0557598,0.408699,-0.209103,-0.379485,-0.361255,0.213434,-0.0505303,0.36301,0.00209749,0.633798,0.508075,0.375249,-0.220445,0.104697,-0.385615,0.0595088,0.157273,-0.058942,0.281061,-0.0149656,-0.599929,0.00422296,-0.328457,0.0381251,0.459309,-0.353438,0.167697,0.387784,-0.429088,0.0457622,0.350082,0.497612,0.310952,0.410147,0.632459,0.255496,0.618216,0.801904,0.75526,0.659044,0.462206,0.336283,0.184503,0.125064,0.333742,0.413106,-0.184023,-0.622386,-0.146341,-0.48699,-0.323737,-0.347891,0.49048,0.107674,0.161122,-0.453634,0.422269,-0.0762024,-0.469244,0.111315,0.336999,-0.182826,0.532055,0.156303,0.713541,0.139248,0.758894,0.48225,-0.398962,0.0702277,-0.292399,0.451039,0.286254,0.0676759,-0.41616,-0.487397,-0.267046,0.157321,-0.199079,-0.113944,0.462475,0.193455,-0.551576,0.129939,0.0182986,0.0392099,-0.546044,-0.475088,-0.219794,0.529746,0.416125,0.593645,0.42644,-0.329796,0.177012,0.00619607,-0.0637778,0.130995,-0.396814,0.0250412,-0.29026,0.0842003,-0.237099,0.466353,-0.445862,-0.477382,0.307707,0.198805,0.558213,0.456241,0.460903,-0.313828,-0.352347,0.0920858,0.124712,0.155905,0.375875,-0.146488,-0.385621,-0.311589,-0.383694,0.512782,0.418355,-0.17325,0.505429,-0.162408,-0.0885759,0.337315,0.200416,0.157494,0.0104748,0.397878,-0.3442,0.398021,0.233978,-0.181042,0.0666888,0.128421,0.136083,-0.210226,0.489953,-0.435224,-0.689166,-0.397554,-0.391732,-0.347808,-0.104398,0.264839,0.255578,0.0270587,0.107932,0.093642,-0.0918557,-0.23829,0.408313,0.339564,-0.308239,-0.57401,0.338249,-0.146833,-0.238308,-0.177051,-0.250023,0.53219,-0.048163,0.486546,0.241068,0.225526,-0.0329808,0.0398666,-0.371834,-0.0381366,-0.469698,0.103873,-0.0238594,-0.353399,0.019967,-0.241558,-0.0697691,-0.10736,0.428281,0.351371,0.235925,0.0370542,0.330581,0.205205,0.140141,-0.276533,0.0437757,-0.125518,-0.208507,0.470093,0.518729,0.073799,0.444397,0.167517,0.123874,-0.483862,-0.731051,0.0338413,-0.209223,0.03493,-0.210228,0.144825,0.274059,-0.0495011,0.508316,-0.175392,0.311588,0.45069,0.352401,0.264696,-0.308028,-0.115182,-0.293038,0.229222,-0.314807,0.0668216,0.242286,0.567838,0.0352194,0.681873,0.461462,0.344979,-0.11451,0.102968,-0.0146145,-0.0608503,0.0901753,0.0570153,-0.543141,-0.13457,0.121888,0.09375,-0.000133342,0.5028,-0.376526,-0.303286,0.448465,-0.445337,-0.0858172,-0.108435,0.475421,0.144029,-0.260163,-0.293658,0.314569,-0.148747,0.257532,0.649305,-0.0140928,0.0348954,0.29515,-0.41372,-0.0124992,-0.490341,-0.44888,-0.0298871,-0.534693,0.0968368,-0.0251291,-0.113849,-0.0687498,-0.246757,0.0312179,-0.209521,0.0447728,0.483346,0.445745,0.286565,-0.516134,-0.175414,0.440475,-0.45825,0.145777,0.144231,0.616479,-0.289678,0.459745,0.329112,0.0577646,-0.18939,-0.259192,-0.395422,-0.0956263,0.291244,0.336607,0.256616,-0.368466,-0.174531,0.219009,0.280627,-0.147035,0.0387688,0.0863993,0.135183,-0.214811,0.382043,-0.324512,-0.259301,0.26902,-0.348485,-0.346699,0.0846366,-0.0610306,0.197805,-0.411162,0.210389,0.452209,-0.195505,-0.376394,0.0634715,0.186592,0.149725,0.000261085,0.157938,0.176908,-0.130376,0.120336,0.0502455,-0.411836,0.125126,-0.496255,0.256717,-0.226709,0.300976,0.395666,-0.4593,0.107429,-0.12224,-0.436519,0.373468,0.480337,0.410378,-0.227672,-0.444204,-0.0426066,-0.425258,0.243678,-0.170371,0.440777,-0.295098,-0.0613028,0.118609,-0.0451889,0.356513,-0.385584,-0.262092,-0.101041,0.160286,0.443071,0.377636,0.300681,-0.397621,-0.122972,-0.287106,-0.26433,0.143577,-0.140812,-0.125762,-0.122973,0.341222,0.133017,-0.373775,-0.387551,0.109181,-0.0933348,0.331469,-0.218476,0.422774,-0.0461132,-0.424386,-0.18518,-0.235543,-0.316721,-0.393089,0.244571,0.117918,-0.11407,0.126875,-0.118007,0.087295,0.346166,0.228773,-0.197043,0.336042,0.450253,-0.233222,-0.124221,-0.356126,-0.208877,-0.0249371,0.373819,0.342091,-0.0936789,-0.192831,-0.339507,-0.113604,0.264103,0.214577,-0.0685223,0.28054,7.62872e-05,0.0635081,0.0122244,0.378155,0.494767,-0.223752,-0.0628734,-0.130822,0.00618953,-0.351291,-0.274899,-0.482664,0.332504,-0.0344499,-0.143174,-0.167702,0.12537,0.0119438,0.0246814,-0.0937003,-0.481578,-0.435848,0.162672,0.0783725,0.373454,0.467757,0.469156,0.478422,-0.293661,-0.0268923,-0.48444,-0.39318,-0.0461026,-0.0268204,0.043302,-0.245049,0.310771,0.449528,0.341527,-0.323321,0.100852,0.309527,-0.151323,0.118739,0.451031,0.381712,-0.212686,0.0721167,0.418864,0.063555,-0.0109393,0.418694,-0.318953,-0.0732688,0.380665,0.346694,0.259002,0.0868976,-0.0476763,-0.362499,-0.473345,0.0960812,0.337172,-0.0949456,-0.0767171,-0.128216,-0.378619,-0.45589,0.340023,-0.223155,-0.550261,0.312029,0.11185,-0.287656,-0.129801,0.174915,-0.169283,-0.555021,0.128419,-0.438873,-0.526723,0.438879,-0.248484,-0.199271,-0.157517,-0.427363,-0.4191,0.170384,-0.281187,-0.477339,-0.363991,-0.232872,0.0188515,0.176525,0.542812,-0.189789,-0.533762,0.232229,0.298222,-0.00901789,-0.431772,0.266472,0.659964,-0.177039,-0.423243,-0.030909,-0.348294,-0.0358387,-0.359891,-0.35984,0.267156,0.106687,0.0232089,0.447547,-0.251604,-0.32081,-0.21528,0.161006,0.0406972,-0.382297,0.403095,-0.14488,-0.295749,-0.459479,-0.332179,-0.136011,-0.35426,0.39692,0.56244,-0.0932816,-0.012003,-0.147902,0.346763,-0.0689234,-0.793914,-0.766891,-0.321223,-0.0786132,0.318921,0.168112,0.123895,0.212606,0.470769,0.177584,0.314359,0.275896,-0.0291675,0.356363,0.170977,-0.0902025,-0.279753,0.153172,-0.266105,0.166175,-0.555474,0.110685,0.299772,0.710633,0.459597,-0.416221,0.0894575,-0.503009,0.0308214,-0.0992635,0.0179536,-0.126279,-0.215073,-0.5037,0.251027,0.187542,-0.0168452,-0.220513,-0.255877,-0.267889,0.222528,-0.213639,-0.103819,-0.205037,0.190151,0.345945,0.305036,0.104058,-0.216942,0.0733752,0.248243,-0.189625,-0.0523358,0.272651,0.0753601,-0.743217,-0.244914,-0.700305,0.210521,0.0910396,0.176673,-0.0708974,0.111613,-0.36276,0.341667,-0.349729,-0.376848,0.352572,0.497501,0.312364,-0.323222,0.472733,-0.130692,-0.31756,-0.531504,0.108351,-0.318893,-0.175075,0.418854,-0.122928,-0.0689933,-0.00879134,-0.56101,-0.301923,